1000 64
31 -0.5586787 0.22930443 0.10721894 -0.62194073 -2.2676508 0.47183365 0.48797637 -1.8114966 -0.05987529 0.050273195 0.30595934 0.49087662 0.038495395 -0.13207921 0.61605245 1.038438 1.0870129 -1.2640581 0.29911596 -0.38124073 -0.105262816 -0.562381 -1.1322068 -0.39218485 -0.4600761 -0.12503858 0.42439124 1.8371581 2.2867348 0.79755634 -1.8374916 -0.83838266 -0.09628088 -0.3898495 -0.6251502 -0.54236233 -0.9105054 -1.8070403 -0.07172561 0.36677468 0.46333498 0.4048384 0.2614989 -1.496373 0.25429636 -1.0755352 -1.138177 1.7431511 0.43715185 1.1349015 -2.1665123 -1.3272976 0.3101311 -1.8836254 1.1899037 -0.3484947 -1.7466463 0.061555628 1.381894 -1.3248518 0.74399227 0.86937743 0.1307788 -0.12368032
26 -0.1741507 0.6222403 -0.77485275 -0.95075786 0.59014237 -0.22366852 -1.2420881 -1.4091753 -1.6113268 -0.094400495 0.91607547 1.2740959 -0.8781948 0.6515559 -0.71614677 -0.023919607 -0.6301479 -0.39676562 -2.2604218 -1.1884601 -1.3546305 -0.8902641 0.69356084 1.0086634 -1.1581178 -0.28950942 -0.21778108 -0.039231326 0.34041938 -0.03354715 -0.13338982 -1.0187782 0.847266 -2.0054646 -0.8998052 2.6381657 0.26699737 2.268072 -0.2368922 1.916843 -1.7745064 0.50384134 -0.016238675 0.74827313 0.932069 1.6226698 -0.7328812 2.3196988 -0.45417374 -0.35813853 -0.47583112 -1.4470251 0.96522605 1.3485644 1.5117618 0.5956243 1.8700377 -0.60113084 1.6623768 -0.7851607 0.6407432 1.7940757 -0.3074477 -0.25074542
28 1.2269387 -0.44337866 -0.8345365 1.8148286 -0.13218197 -0.28374222 -0.23285477 0.12406198 -0.77635133 -0.7283364 -1.0027924 0.19657335 0.34142646 0.5866404 -0.21664447 -1.1374695 0.8934107 -1.5831472 0.032051466 2.2227151 0.7896588 0.4267856 1.2204456 -0.048406146 -0.69650954 0.82390076 -0.9527796 -0.83318853 -1.209166 0.29990956 -0.66981554 0.33139434 1.2762551 -0.38995302 -1.1113452 -1.410631 0.06013932 -0.81241226 0.53580606 0.1446015 -0.042928796 -0.10014625 -0.0794565 0.7156813 0.68585587 1.3471088 -1.4123484 0.2950564 0.9508823 0.7473672 -0.7567958 0.7562727 0.4348367 2.2484634 0.9367469 -0.9842112 -0.7249402 -1.7329122 1.5526196 -1.2979819 1.3193638 -1.3632479 0.6973056 -1.3644438
29 -0.5764613 1.1655136 2.536467 -1.500379 -0.105503485 0.75405407 -1.3242966 -1.8345727 -2.1400597 0.39655387 -1.9957871 -1.0919279 1.7154206 1.4863073 -1.3307923 -0.06209089 0.5988947 -1.4067448 0.21057458 -0.2662456 0.9811019 -1.3915099 0.7335864 -1.4380271 1.7404016 -0.49719357 1.2204388 1.5190226 -0.41788486 1.5390307 -0.90607893 -0.941512 1.2890307 -0.67883897 2.0511754 -0.021335319 0.73444825 -0.27439398 -1.2759689 1.1615807 -0.5531618 2.7336743 0.82857937 -0.5274103 0.17605999 -0.9851771 -0.22798546 -0.48734415 1.420171 -0.8610396 -1.4571642 -2.3564591 0.19650152 -0.8922288 -1.4025508 -0.48866287 1.4970824 0.2061922 -0.63315284 2.014745 -0.9983084 0.0034099834 -2.2231038 -1.0693064
37 -0.32149938 -1.001288 0.4268375 -0.6976605 -0.96282285 2.2768743 -1.5762621 -0.6604327 -0.029769193 -0.9800212 2.1944652 -0.23047543 -1.1084214 0.8400426 -1.8311834 -2.8370624 0.42482227 2.6239216 -0.7011833 -0.9444674 -0.75878394 1.5095661 -0.06426776 -1.2952483 -1.3757496 -0.24192832 -0.3515239 -0.6528812 -1.2557013 -0.60784674 -0.14502148 -0.056188717 0.73408544 -1.6460235 -0.03539133 -1.2186613 -1.2627113 0.047943555 0.74923056 -2.7993746 -1.654627 0.3572676 -1.5415304 -0.4725616 1.2027799 0.7941607 -0.48588362 0.6282222 -0.13488236 -0.033828795 2.2200496 0.2390367 -0.91525877 0.8166702 -1.4844015 0.011771717 1.3276261 0.4319673 -1.527963 -0.93060434 -0.3657826 -1.0582811 -0.59347594 0.3797286
27 -0.074714676 0.21469332 0.59282815 1.013898 -1.5051869 0.38707575 1.5403174 -1.927381 -1.0331656 -0.12882836 -2.0221179 0.385737 0.093267694 1.3514299 0.80846596 -0.412176 0.23784494 -0.7924363 -0.34168187 1.8987349 -0.78518885 -2.344053 0.74750006 -0.06913306 0.7519514 1.5327979 0.3798691 0.5620271 0.5244355 2.32506 0.4278818 -1.3543984 -1.2092255 -0.8334151 -0.81223327 -0.8131652 -1.7540627 -1.4142805 1.8949625 -1.3166869 -2.2584958 0.37860858 0.6676243 0.577568 -1.2028002 0.3889992 -0.88503206 0.28443918 0.8490812 0.2283495 -0.88223195 0.722458 -0.21768077 -1.4601859 0.11458476 -1.3198013 0.688707 0.25497073 1.1389486 1.2848325 -0.08889757 -1.2589211 -0.6780643 0.44260627
39 1.5013927 -0.10594127 1.6566033 1.0616784 1.0998131 -1.872282 -0.8445782 0.5049818 0.31727424 1.6175756 -0.051961083 0.17586093 0.24905202 -0.12174402 -0.3957445 1.691909 0.8039929 1.1961744 -0.5500508 0.7909942 -1.2856903 0.55974656 -1.0572217 1.5474788 0.26698294 0.7003425 2.2232432 1.8394347 0.3231572 -0.32398394 -2.25532 1.4563677 -1.2814684 -2.1895664 -0.12455396 -1.1702622 0.83801883 3.005785 0.6705235 0.01722858 -0.23427752 -1.160379 -0.8793142 -0.7402186 -0.25274807 -1.1275965 -1.2726632 1.5312821 -1.0855441 0.03988067 0.8943485 -0.33352688 -0.33982062 0.76328367 0.7718118 2.9849706 1.0348673 2.5730948 -0.07717546 0.007170265 -1.1879306 1.515899 -0.050726023 -0.2471328
35 0.61334884 -1.2594947 -0.38465652 0.4106497 1.9700406 -0.8855019 -0.96111524 1.5844357 -0.60358673 -0.22005649 -0.8551114 -1.0439786 2.1228805 0.94511056 -0.6253595 -0.02770499 0.6536316 1.3302784 0.4939824 -1.3157729 0.20284274 0.58628356 2.7433589 0.47416893 -0.52452284 -1.0327296 2.378494 1.0242683 1.753851 1.0263017 1.016546 -0.66982263 0.871879 -0.9352695 1.3664317 2.1698105 -1.5542676 -0.4013555 -0.84124726 -0.5224084 -2.7191463 0.3676453 -0.6659186 -0.44420502 0.78488624 -1.2073838 -1.5391484 0.66682774 -0.26340607 0.34349188 -0.49265197 -0.73916763 0.43401873 -1.9502175 -0.9991348 0.8800313 -0.672116 -0.09359233 -0.35757867 0.33372408 -0.10180894 -0.28488186 -0.81010944 1.5686054
43 -0.23115759 -2.2137172 -0.9146737 1.1615981 0.25297895 -0.88048583 -0.4157914 3.4212327 0.41291985 0.53269714 -0.9593791 0.9303402 1.3454534 -1.0115846 2.092086 -1.8151972 1.2794775 -1.2550185 0.24767412 -1.0023093 1.8697649 -2.249042 -1.4978373 3.836662 1.0567288 0.14907546 -2.767509 1.4667238 -1.2664827 -0.6217181 -0.65660495 0.6572571 -1.183135 1.1194109 -0.3018379 0.92073935 -0.8165979 -1.963297 -0.84298944 -1.492249 0.60537314 -1.3384529 1.0150049 1.5280836 -0.1477315 2.3647459 -2.297077 0.56959206 0.8575198 1.3434384 0.48387766 0.09052636 1.5403793 1.7480078 1.4528462 0.5104835 -0.49689224 -1.2909062 0.42699227 -1.9114832 1.0181003 1.1433687 -0.64244217 -0.7795072
38 -3.8128977 1.664082 -0.66590893 1.1742344 1.5903451 0.23852763 -1.9563762 -0.23866883 -0.1936401 0.49099737 -0.19535635 -0.060590923 0.27836213 0.97259164 -3.2830217 1.2313087 1.5192938 -0.34741953 -1.7394396 -1.2689732 -1.0998039 0.5533871 -1.227583 0.3669502 -2.0611477 0.11450828 1.1591136 2.691253 -2.0291195 1.4206829 0.30810007 0.51737565 -0.11026006 1.0866175 1.0414478 -1.1701505 -0.6263878 -0.97129685 -2.6491656 -0.16766784 1.3199854 -1.3784174 -1.0895693 -1.5510458 -1.28777 0.8263341 0.7099358 -1.7755531 0.31185713 0.773247 0.7786801 -1.1770648 2.117151 0.88019276 0.9501606 1.7480932 -0.8013866 3.200359 0.6191173 1.1107911 1.2591214 -0.7962257 -0.81969666 0.81495523
34 2.3289196 -1.3997091 0.13035049 -1.8087386 0.88018674 0.75362176 1.0521187 -0.86853945 -0.29872853 -0.2794239 -0.85440034 1.9679166 -0.7946261 -2.362699 0.22156227 -1.3268422 -0.073582985 -0.35390037 0.49752474 1.600841 -0.42305884 1.0053548 -1.5246633 0.5790498 0.29212818 1.7524102 -1.2091138 -1.85563 -0.4485937 -0.571931 0.9614975 2.3036513 3.5896285 -0.8197123 -2.3259199 0.20280008 -1.8659782 0.3214476 2.3389652 0.71791947 -2.2021096 0.7378982 -0.2643503 -1.6977452 -2.3169847 0.1301509 -0.5505105 -1.4384462 0.8784312 0.27402288 0.15167142 0.1267361 0.054443803 0.20366944 1.3215458 -1.7733635 0.31828922 -0.026181541 -0.8859035 -1.634146 1.2053674 -0.5794472 -1.0976065 1.4450662
33 -3.5415032 0.64458346 -0.8012356 -0.6882443 -1.0085183 2.848335 0.8518313 -0.44560882 -0.67365134 0.2869168 -0.9603073 -3.3999884 2.601664 -0.061097007 -1.4850284 0.09579618 0.53098154 -0.5809911 1.0879704 -1.3539307 3.1304882 0.209427 0.6594143 3.406821 -1.6239346 1.5449924 -0.06512815 0.13013712 -0.10350906 0.7354573 0.0261668 -0.40097317 -1.3359146 1.684769 1.1423833 0.22250393 0.81814766 1.9758148 -0.6602022 1.1594303 -0.044024847 -0.6260628 -1.5181373 -0.8755805 0.8473873 0.55503863 -0.3761956 -0.2729299 0.026024567 1.2605534 -0.08050465 -2.0052075 -1.5602664 1.4503962 3.0853498 -1.0519664 -1.9144676 -1.0975012 0.80011463 -1.0699475 -1.7286357 -0.07751142 -1.1088452 -0.9389786
41 -1.0396866 1.1480654 -2.3336859 -0.6348815 0.36114404 1.3986198 -0.96674913 -1.1219025 -1.2946947 0.72771686 0.03845115 -2.1061685 0.66402173 -0.9221007 -1.1072553 0.8065669 -1.5710343 -0.10359733 0.84443134 -1.6051037 -0.15726165 -0.22629918 -2.1429353 0.975699 0.11594992 0.26109076 0.49806526 1.4975756 -1.3005989 -0.09651941 0.20255356 -1.9928122 -1.8084458 1.7570162 -2.0315044 1.1099771 1.2155896 2.6693077 2.243788 1.047991 0.13132864 3.2374692 -0.24042326 1.5228871 0.21610482 -0.622426 -1.630193 -0.66146094 -1.3445747 -0.4272507 -1.3377417 -0.8730206 -0.9619058 0.21027511 -0.68753713 1.8243629 3.1685364 -0.033552997 0.5996105 -0.04271858 -1.6464024 -1.8965987 1.0945201 1.2890686
32 -0.44997624 0.21560706 -1.3859266 0.94746435 -0.13106565 -1.2613581 -1.566267 -0.78087586 0.763723 0.70788157 -0.7321174 0.021951001 -0.35325727 -1.0517534 0.33727437 -1.6391408 -2.3210819 -1.4470016 -1.3568504 0.08087766 2.176872 -1.8036071 0.9173413 -1.6589783 -3.065226 1.6147786 1.7595488 0.36284804 -0.33386272 -1.0126147 1.7248492 1.2909368 -3.3381846 0.19573496 -1.7258561 -0.96162224 -0.6656094 1.7242984 0.245778 0.002289909 0.41611776 -0.92340785 -0.35338253 0.70734715 -0.77135766 0.40831035 -0.8763405 2.7576342 0.32725936 2.4953315 2.1527445 -0.62388146 0.14661555 -0.4418005 2.2857823 0.2796675 -2.5897715 -0.39135417 1.5893869 -2.5577466 0.20107456 -0.024663424 0.3605841 -0.07164355
58 -1.5531447 1.1631927 0.35467786 2.0759165 -1.7814224 0.8660414 -0.57868046 -1.7223464 -0.10868918 1.9926047 -1.2989249 1.3648174 -3.0306292 0.085234374 1.3836797 -1.3427696 -0.37378547 -0.12142263 1.3589004 0.88615245 0.7630687 -1.3126701 0.2005007 -0.30876136 -0.59404653 0.64388853 -1.0935378 1.4019868 -0.50490016 1.4846467 -3.0217576 -1.8147779 -0.6342487 -1.5157331 0.5811213 -1.88495 0.31321612 2.2053943 0.9910139 -2.443595 -0.33047476 0.93411547 0.84432733 -1.1614349 -1.2099864 0.76597154 0.2978822 -0.87562644 2.3064876 -2.1963348 -2.4089315 0.47851714 1.1302842 -0.7808572 -1.9575533 -0.24650043 3.2392673 1.64676 -2.0955772 -0.5598415 -1.5197815 -0.46271265 -0.17514762 0.83902764
40 2.2367482 0.9735719 -1.4658134 2.1245124 2.5081823 -0.710208 1.7201431 1.7353437 -0.36568794 1.3775284 -0.9424355 0.49180382 -2.203874 -0.6852682 -2.192745 -1.4373915 -0.31671062 -1.4188023 -1.7799295 -0.9233444 0.028528908 0.9002126 0.23919311 0.79780865 -0.5473108 0.5445328 1.5073329 0.10206181 0.14104095 0.44471017 0.57713014 0.93227726 -0.32817268 1.9452754 -0.17804714 -1.0495892 -0.15967602 1.0694169 2.7861362 0.1971959 -2.864122 -1.5190518 -1.213754 -2.3156798 -1.4170821 -1.0292021 1.3148656 1.2933898 -0.31293485 -0.9463505 0.86798096 0.27403483 -0.6380566 1.7565804 -0.70198965 2.9400692 -2.235022 -0.14979939 -0.108590454 0.05665056 0.31593692 1.7063845 0.6922978 -0.7104348
30 1.325537 0.06316266 -0.5891403 2.179522 -0.07878663 0.39969942 -0.9936324 -1.3882537 1.5454764 -0.3230763 -1.7579833 2.4621165 1.0266612 0.35538483 0.74264556 2.3144736 1.5410619 -0.6125006 -1.0105356 -1.7282203 1.4786882 0.036621492 -1.207998 0.5697103 0.11101639 -0.042024218 -2.3577504 1.355234 -1.3917093 0.14073028 -1.3777028 1.1453981 -0.72925436 -1.7253705 -2.1081655 1.7825202 -1.1537671 1.0861313 -0.76751983 1.1230093 -0.33609456 0.53598976 0.9149506 -0.46837965 -1.9522728 -0.6482887 -0.7975386 2.3487916 0.5913528 0.07079395 -0.13768178 -2.4753969 -0.73322695 -1.136109 -2.4263513 0.72273874 -1.251304 0.95774907 1.2270976 1.7405585 0.8718761 0.11938328 -2.2536812 1.4481808
48 -0.1981025 0.2110409 -0.6156996 -2.5417583 -0.07527513 -0.10460342 -2.231922 0.21152464 -0.2049569 -0.72059625 -0.05213255 -0.58440715 -0.92874324 1.4850115 0.1334159 -0.282589 -1.2528024 4.8033676 0.39237747 -0.30694637 -1.7128993 2.0648646 1.8542743 -0.28315547 -3.1966255 -0.91083556 -0.7710024 1.5088749 0.054758377 0.69198215 0.0031370553 2.0860133 2.7592008 -0.9125988 -0.057960954 -1.6206721 3.1422527 -0.25922477 -0.7858961 2.3500328 0.26648644 2.0793393 1.0786701 -0.33864933 -0.4410949 -0.12331766 3.5233026 -1.4829196 -1.4451861 0.38540447 0.93488824 -2.521728 -0.09193134 0.69770914 3.499133 -3.3592072 -1.0548662 -1.0490222 -1.2439859 2.0808759 -0.21718256 -1.175458 1.1449454 1.412791
50 -1.3657624 2.0548768 0.18825707 0.385431 -1.7557797 0.11413435 2.3707905 -0.35613734 0.53005713 0.61196935 -0.7429417 -0.020748427 2.709282 -1.8485218 -0.2638703 1.1666465 2.0058405 1.8630896 3.5760736 0.6048285 5.8653564 -0.30975872 -0.69834226 1.2092513 -2.4559655 -1.0073104 0.29689014 1.0848379 0.029546292 -0.23492679 -0.51556265 0.9235886 0.5717524 0.30794692 0.52953565 1.4858813 -0.68518025 -1.1070268 -2.6205113 2.9609928 1.4253297 1.0120553 0.2823643 -0.51901007 4.105142 -1.066838 -0.6845226 0.39150214 -0.5443802 1.2263049 0.03433854 1.6126913 1.0442474 -2.8345604 0.11702612 -0.5499254 1.3025955 2.7974403 -0.13543713 -0.36342794 -3.7287261 -0.97875285 1.2039287 0.677527
45 -1.1103753 -0.3242619 -1.005421 -0.4371574 1.644006 -0.778664 -0.70672965 -0.90126216 -0.87662804 -0.069413766 -0.4293176 2.1743128 1.5462979 1.9870212 -2.1783047 -0.45714548 -0.71604234 0.84532714 3.0099924 1.3059967 -0.097364664 0.38468206 -1.5980161 -1.8223726 1.6265457 1.5304272 0.60360056 3.183084 -2.3774705 -0.39104816 -0.13180438 -3.685061 3.743923 1.6371939 -0.1732956 0.9080336 1.5200611 2.2105777 1.1052017 -2.1234674 -0.72242916 -0.1522965 1.2559632 -1.1077414 2.5709054 0.17571318 -1.6406313 1.2678313 -1.5861092 1.1709113 0.15711106 0.8593514 0.27437356 2.198836 -0.8833561 -1.236277 -0.40363893 0.19453858 0.14224161 -0.2727019 0.16602166 1.3612903 1.1626784 0.35539383
44 -1.0278486 -2.34592 0.14977211 0.050702583 -1.4388521 -0.22592276 -0.59484607 -0.9380313 0.4493186 -1.751605 0.046461444 -1.3475369 0.24226195 3.1444871 1.5655398 -1.9120034 0.6564 -3.5157986 -2.7805502 0.6734918 -1.4934977 -0.7175841 1.2350082 0.81504023 -0.24752969 0.5944604 -0.9281647 0.53229874 -0.12205616 -0.04746916 -3.6212335 -0.5141678 0.7643501 -1.83516 1.1812484 1.3699014 -2.8106458 0.4241517 0.45781463 0.8718185 1.0223172 1.8831048 0.102904305 2.8795555 -1.2736509 -0.021412244 -0.51553255 -2.827052 -0.16102031 -1.0585297 -2.867218 1.8474189 -4.874045 0.3329584 1.0870327 1.3294653 -1.0937861 0.5558691 -1.6223309 1.2442641 -0.57115906 -1.3517878 0.11858716 -0.014930415
46 -2.1568892 1.0054698 0.28389788 1.5069973 -2.072815 -0.16946332 0.030674815 4.1073666 -1.6938174 1.1044323 1.1196451 -0.526721 -4.0330667 -0.08470203 -2.5049489 -1.6049002 -0.24131091 0.25492176 0.077215895 -2.8965049 2.0192194 1.870176 -0.10047402 1.3381418 0.04991873 -2.9389493 2.5822375 -1.4776384 2.0649426 0.38380146 -0.18081601 0.5195088 0.73412484 1.593358 0.25941202 -0.8126399 -0.7230347 -0.029526703 1.1307513 2.517603 2.4426513 0.95413154 -0.29413253 -0.28561276 0.7391419 -0.06974209 0.94081753 2.4633284 -3.1173418 -0.5996273 -0.26919907 -0.5149781 1.7544199 -0.8541246 -0.64912766 -4.583357 -0.99397767 2.2466137 0.822437 0.48430398 1.6594222 -0.43951622 -0.26378822 0.5705076
36 0.55411285 -1.4803095 -1.3588138 1.8481454 -1.9146565 -1.6408442 -3.1741273 1.533012 -0.70920736 -0.072018944 -0.3251703 -1.6469275 -0.6567207 0.8173062 -1.0210757 -1.3758668 -2.6306593 -0.3909512 1.1321032 -2.41598 -0.47066268 0.2896938 -3.0844812 -1.1305853 -1.119124 0.36933744 -0.33965483 0.7510995 0.43271896 -1.5367346 1.779118 -2.076518 -2.1203682 -2.8401945 -0.5366975 0.7602709 1.5447695 2.0213768 0.030202309 -0.5545232 0.17324737 0.31819797 1.1853496 -2.3908765 -0.702152 3.4350908 -1.2962168 -0.00639493 -1.2824895 1.8185492 1.6924119 -0.9918843 -0.3904298 2.1256733 -0.56796926 0.4325337 1.637437 -1.064457 0.09999099 0.2721285 0.72269166 -0.018810425 0.011024199 -3.2169704
56 -2.9388819 0.013931769 -2.2455943 0.5021271 -0.86771005 -0.01948627 -0.7329827 0.52796113 0.8465547 1.2507391 2.3686378 -2.7008367 3.2870102 -2.2089446 0.26572248 0.028689409 3.2561278 1.0186803 0.22828478 -1.4557923 -0.3939747 0.5151995 -2.441752 1.6100148 0.49023575 -0.27318373 -0.5884852 1.5049024 0.8128243 -0.5570847 0.8320054 1.5763482 -2.548724 0.79841745 0.36525548 0.6654691 -2.1343634 -1.2445252 1.8906596 0.37069282 -1.4314175 -0.7949915 0.7694075 2.1965272 -1.8994579 -0.0929106 -1.8966781 -0.2768968 -2.5597305 -0.09566935 0.8137332 0.91026574 2.072708 1.8267598 -1.9884315 2.1079226 -0.9830259 0.5048766 -0.41021946 0.36170274 -1.6612246 1.011955 0.36598167 4.6224494
42 -4.1986203 0.74042255 1.4338744 1.3490294 -0.17488559 -0.397603 2.0920768 1.0092263 1.1416743 1.6394072 -0.5297628 -0.7638635 -2.3348489 1.9316034 -0.2891158 1.9595759 -0.71948665 -1.8248303 -1.6090107 0.20420027 0.528274 -0.07701532 0.080998786 0.95845264 -0.79950154 0.56598234 -0.24117081 -2.4506397 2.0034072 2.32834 2.5090716 -0.14091805 -1.3588364 3.398422 1.072539 -1.3326641 1.7990824 -1.1020516 -0.22418573 2.1152155 0.15730922 -2.8055773 0.4002024 -1.8088105 -0.9010512 -2.2765038 0.9650772 -2.0923903 -0.84535575 -2.8471808 1.6960497 -0.57437795 -1.4158857 -2.6054268 2.830022 0.2868838 2.829999 -3.2515357 1.0234463 -0.5424087 0.9996683 0.14730261 1.2638364 -0.79180294
55 0.27898785 -0.30454212 0.5223827 1.1879072 -1.9334011 0.5434194 3.302194 1.0598185 -3.1292968 -0.41846052 2.230355 0.47776031 -1.5347023 -2.7515578 -1.3408723 0.27059788 -1.5713977 0.8172924 1.950277 3.257759 0.5904918 1.3554066 1.4520273 0.25732675 2.884692 -1.373819 2.211417 -1.5105312 -2.5815127 0.4899963 1.1468183 -3.5375795 -1.2229099 0.24946146 -1.9474187 1.2740912 1.1584814 0.87490815 1.8286436 0.7862298 1.0634176 -0.35689813 -0.35468957 -0.075966366 -0.19696507 -1.9198571 -2.6289177 0.48582345 -0.34252885 -1.9485363 -2.4233785 1.1779666 -1.615467 0.9091644 2.0961199 -0.3244535 -1.8262988 -2.9338229 0.018009009 0.52572757 -2.534933 1.2037963 -0.6573143 -0.5206361
67 -2.328214 2.4191878 -0.7063798 1.6895512 -0.5343454 1.8128283 2.0637457 1.6543541 -1.3122323 4.607689 -0.8909136 1.7762185 -1.6134386 0.57508475 -4.1052146 -1.0457858 -0.931537 -1.3115437 3.5282125 -0.8902614 0.8510435 1.4125397 2.0133781 2.6535904 -2.1439133 0.2750801 0.506594 -0.32464945 2.3819354 -3.3822846 -1.0985287 -0.9817251 -1.4850903 1.3897082 1.7153084 -1.8411263 3.372658 0.2581559 -1.5035182 -0.121914126 -2.2081149 3.2271929 -0.24813378 1.8333195 -0.0607083 -0.7765773 1.8721092 0.5237526 -1.8057098 4.048823 -1.067632 0.588247 -1.6889986 -2.0570607 1.7699239 1.1142151 -1.4577929 0.31166962 -0.8927313 0.15408835 -0.8260961 -0.5674397 0.25252804 2.4312272
49 -0.36371765 1.8410879 -0.569837 -0.96458375 -0.6062335 1.429824 -0.72330034 -0.14390701 -1.2845821 1.0724171 2.9207277 0.7258552 1.4441282 -1.6440579 -0.4319851 -0.9381554 1.747715 -1.655376 0.02351376 -1.2316601 1.6866319 -0.8657449 -0.7200352 0.3462304 0.34073597 -0.80002016 -0.21577746 -0.45425072 -1.0408348 0.64158094 -2.8480318 0.23631153 1.194192 0.34794986 0.59641874 -0.96205276 1.5249408 2.0661738 -3.2517843 1.4389296 1.0789832 -0.14221689 -0.41123712 2.1358147 2.2495377 3.653674 -1.9547364 0.52294713 -0.9469653 0.93371475 -1.8072461 0.5154974 0.0045745024 -0.025416298 -2.9415188 -0.5043976 -2.588689 -0.54214776 1.8228105 -0.17823367 4.692216 -0.90105015 -0.0047563026 0.049627602
47 3.2249885 0.7113602 -3.3593693 2.6437182 -0.45402208 -1.6976465 -0.098373726 0.2554992 0.31291223 -0.46155754 1.6132022 0.90374124 2.4457715 -2.0993407 1.932711 0.9733812 -0.08010694 -4.4641557 -1.9733096 -0.080222614 2.8324294 -0.13888176 -1.388299 -0.10232322 0.20667748 -2.610424 0.46865362 -0.6626009 3.578964 2.3939455 -3.5756478 -0.97853965 1.2236311 0.778674 -1.1337669 1.3395287 0.24583675 -0.19319397 2.1977441 -0.10366942 -0.26714134 -1.0009292 0.91353804 -0.34363276 0.63688624 -1.9815274 -1.040361 0.13251372 1.8744812 0.24590667 1.0270278 -2.4367032 0.39891493 1.4723462 0.7384223 0.30907726 2.6629474 -1.2725955 0.32817954 1.2974397 3.4935627 -1.2136407 2.1233401 0.25302783
65 2.5087028 -0.45769688 -0.10883005 2.9738095 0.51048 2.8812943 -0.86800987 -2.3975222 0.69796544 -0.18285544 -0.50061244 -0.96338946 -0.32912993 -1.4801424 -2.0235748 0.68364364 1.4262946 0.8415265 0.36300752 -0.42959693 0.33957958 -0.3871993 1.5974512 -2.405993 -1.2203485 -0.70783997 0.8571851 -0.79163307 2.0462463 -1.1614966 1.1672862 -1.6301966 -0.8489478 -1.0853379 0.3690087 0.36734378 -1.4442133 0.18260103 -1.1963688 -1.6535257 -0.47191218 -2.6515265 -3.266598 5.503639 1.3968409 0.32352236 2.2600763 0.41206312 -2.326904 2.6763556 1.850769 2.1329684 -1.1587414 -0.073436745 -2.482857 -1.3874053 0.24969618 -0.036984976 -2.8873024 -0.3815816 -1.0068839 0.2026746 0.31898516 0.761007
57 0.41673133 1.8360933 2.4490476 1.5574409 1.6191535 -0.10223514 -0.068249054 1.7066636 -1.3918952 1.6804745 -2.2257025 -2.3543556 -1.5340451 -0.5511811 3.262133 0.3454865 -1.7700849 -2.4769387 1.3200648 0.3676015 -1.9943011 -2.0118783 1.3700638 -1.3014743 0.15019384 -0.5968581 -1.8517247 0.47981 -1.4455127 2.5889437 1.4548978 2.3704863 -2.4765472 -0.011046461 -0.02550033 -0.8350406 1.1973774 -0.19831447 0.039986253 -1.6485367 0.20729925 -1.5500327 -2.2885854 -1.7495825 4.069413 0.8700597 1.2702055 0.15633301 -2.236418 0.4722859 0.015832363 1.3552024 -2.3488872 -1.9241242 -4.9290357 1.3090891 1.3402827 -1.1700243 0.521011 1.8296288 0.6195673 1.3370284 1.0871269 1.447169
9 -0.21994868 -0.9306153 0.9139609 -1.3649638 -1.3511523 -2.1696198 1.5899839 1.7471143 -0.37300158 -0.46455023 1.6708429 0.91160816 0.11823699 -1.0588702 -0.0010866862 -1.5626044 -2.0398834 0.5914924 1.8634421 -0.5101994 -0.15820713 2.0902295 0.17416875 -4.4288697 1.1848172 1.4450976 -2.6948493 2.8230803 0.5241923 -3.699986 -1.7488701 2.4926574 -0.47355297 -1.1427428 1.3398031 -0.4284848 -1.9767785 -2.425648 0.4412496 -0.599395 1.6526772 1.4805541 1.2832458 2.5269384 3.28888 -3.0555377 0.19042371 -1.1970767 0.91783345 -1.5532387 0.69249773 1.3123604 -0.2599038 0.07642586 -1.4390143 -1.4469788 4.1789556 0.5249869 -2.008655 -1.6588218 0.17805535 1.0991699 -3.8946283 3.630625
59 -1.4549814 0.8663927 -0.45485938 -3.8371582 -1.3885312 2.5985987 -3.1730123 -1.9037433 1.5371022 -1.3904729 -0.62684584 -1.9715695 1.5640196 2.6926205 0.29175726 1.9028409 2.335158 -1.356535 2.5401216 2.502333 -1.2743891 1.507635 3.5599394 0.9680793 -2.2851825 1.685895 1.1997827 -1.2842315 -1.2556409 -1.1947716 0.09917922 -0.48334345 1.7455621 -1.6541348 -0.28839618 0.3174414 0.18119471 -0.71345127 -0.4034763 0.41765666 -2.6408727 0.9894967 3.0845115 -3.6580708 0.02435477 2.9580262 3.508998 -3.2953935 -0.15398486 -1.8850358 3.267214 1.0546417 -2.609718 1.7089415 0.28074262 -1.4498566 -1.2328658 0.755476 -1.0120088 1.8347818 1.079294 1.0922079 -0.047226343 -1.1655045
51 2.8597474 -1.3131678 2.4353678 0.36892784 -1.5404408 -0.069754176 -2.57599 0.22056831 0.58381784 -1.1463065 0.1083097 -0.9042721 2.3338876 -3.3387945 1.0414282 0.4055181 -1.3000168 -0.862079 -2.9064534 1.3804104 1.8628654 -3.0651364 1.0981125 0.14208245 -0.28821683 -1.7866166 4.3116217 -0.5416564 3.5104218 -1.606856 1.6456612 -1.3691454 -1.22419 2.5523646 1.1150527 -1.9746608 1.4881235 -2.3819532 2.2594097 -1.2813705 0.44862458 -2.3261664 -2.9104884 0.8218532 -2.146358 -0.8596917 2.906266 -1.3143294 -0.2690944 -0.2774745 2.9348218 0.87207025 -1.4407198 -0.6196247 -0.42320624 0.059305247 0.8552102 1.4454684 1.0629228 -0.7631669 0.7317208 -0.4612817 -4.1220555 -2.9298208
52 -0.043427113 0.64473933 0.44380772 -1.1014291 -1.9866171 -0.40678996 -3.3633773 0.8198866 -0.9215505 -3.5019565 -1.7320744 1.1417782 0.8456469 1.4155828 1.093882 -1.2745047 -0.9152122 -2.2993538 -0.3598617 -1.5645696 0.19374907 1.0206997 1.4270787 -0.7503298 1.7684399 2.2878501 1.8042239 -2.203025 -0.84312904 -1.2990824 0.29631996 0.3655377 -0.22883385 -2.3595667 4.098462 0.42558074 -1.5865662 -1.2732109 0.4911232 -3.0738533 -0.26044637 0.031086637 0.5504488 2.817149 3.1910033 0.93758446 -2.4036267 1.5197695 2.995672 0.262737 0.89147276 0.8607831 1.9318477 -4.281039 -2.158577 -1.819142 -0.68142647 1.3291473 1.6818196 -0.8538419 0.50073874 -4.7556796 0.1420739 -2.235158
54 1.1136177 1.794978 1.9165883 0.27057943 -0.31272155 0.7441365 -4.8180904 1.0188545 3.3587272 -2.6892102 0.011454775 -0.88665426 2.3308144 -1.2681572 -0.43956938 -0.035809085 -0.8552697 0.44574112 0.81912667 -1.2933584 2.0758598 2.7586474 -0.7140253 -1.3451058 0.20764403 -0.04359345 -2.426149 0.5685765 -0.35705614 -0.11907604 1.7294441 2.0564184 0.28714174 -0.75745344 -1.5137537 -0.4028212 -1.600831 -1.4596783 0.14137748 2.0513146 -0.47865736 -0.4672593 -4.456308 -0.8944041 -0.20653449 1.552419 -3.4350727 1.9979241 -2.6826336 0.114610024 -0.78026956 1.1908267 3.8984475 -2.7288816 -3.3437545 1.9758778 0.32505998 -3.3073304 0.07429953 0.82688814 1.0032786 -2.5600078 -0.4541616 -2.4673061
60 0.80220777 0.1730294 1.909618 -0.35928297 2.7794213 -1.4026808 -0.3575442 -0.42529902 -1.5477653 -0.20640248 -1.7090753 3.450127 -1.3196907 1.0388696 2.7632337 -1.7010201 -0.9726648 -1.0260592 -1.5231178 -0.9688481 0.27889553 -2.5140665 1.5179935 -0.74795604 1.1308535 2.230885 0.7735856 0.024235824 0.40014234 -0.018148318 -3.670356 -2.454514 0.20765048 1.7180593 1.9966199 -0.40928516 0.22045094 0.8769921 -0.32029322 -2.93976 1.1762576 0.3685554 -3.5315337 -0.9686272 -3.3263896 -1.2263539 1.7994093 3.6102545 -0.98791814 0.50812757 -0.58633953 -0.35501534 -0.14161125 -0.6917995 4.5348177 2.9649916 -0.13825138 1.7180318 -1.3041888 -2.199479 -0.8503344 -0.72592056 -1.7997584 0.10858666
53 1.0863432 -1.5495057 4.4495487 1.5075661 -0.12128533 3.5174851 -0.5343884 0.1544631 -0.57258564 -0.056573857 -0.80926853 -0.83334094 3.7635875 -0.31182462 -0.81281793 1.807222 -1.8313138 0.7726235 0.3439937 -1.1303451 -3.0793345 -2.0167491 -2.6382275 -0.36856982 -0.13756882 1.3346123 1.60183 2.051076 0.66097975 3.1582732 -3.4646022 -2.0976844 3.3807414 -0.5118455 2.7108517 2.2042897 2.1501966 -0.6704313 0.075848676 -0.20172472 0.54452777 -0.386092 0.045820195 -3.8975582 0.043140437 0.4727842 -0.9632161 3.232466 -3.6293423 -0.95985276 0.30642 0.012377587 1.943195 0.63140154 -1.3121877 2.1033762 -0.07210502 0.117554896 -1.2812607 1.3274928 -1.1422493 1.6492772 0.34833142 3.446609
24 -0.9034019 -0.16797079 3.070578 -2.3612516 0.36736885 -0.24778044 2.636505 0.37328288 -0.05566578 4.756014 -0.26713225 3.7883081 -0.18082057 -0.9228808 0.30274308 1.184367 -2.8440745 -0.08055183 -0.6309698 4.635486 -0.91076624 2.633085 2.7610333 -0.619845 3.4256148 0.8754269 -0.39237666 -0.38661808 1.4106175 0.6918707 1.4372764 2.323495 1.409225 -2.432832 -1.2742207 1.4842296 1.3304077 1.5453136 -1.3120357 -2.1178656 0.49357533 -1.050139 0.53749114 -1.7939941 -3.040595 -0.61555505 -0.62762594 1.046644 -1.275297 -1.6166195 -0.06827686 4.115183 -1.7969638 2.9290233 3.3161433 2.6978433 2.7138295 -0.43337548 -3.595032 -0.8688656 -1.0051575 0.04922021 -3.6309688 -0.837854
6 0.88445294 0.5860571 0.6624313 -3.2060115 2.890859 0.9040576 1.189504 1.0710427 4.3287635 3.2152252 2.0203416 0.8223575 2.5674593 3.871277 2.6444561 -1.5961323 -1.773323 0.16523454 4.563549 0.36103538 -2.4450078 1.030354 -3.36891 0.44535282 2.9845936 3.0315902 -0.6558681 3.9142697 -0.374262 1.9763101 1.4600149 3.198808 1.5867738 -3.8152668 1.7155342 -0.8084534 1.8120344 -0.8516365 2.2810066 1.7107402 -3.3742583 -0.2574348 2.655819 2.0430148 0.5196675 0.26218274 -0.695191 1.8787715 0.79439545 -0.60422283 1.0059413 0.6376143 0.016906999 0.6863611 2.6526108 1.6842494 -1.6438932 0.57007015 -1.1973425 -0.8930038 0.5174193 0.5946674 -3.5898216 -0.64675856
62 1.1944042 -2.1892111 -1.6895787 -1.4535756 -3.500849 -2.2857552 -1.5692233 -2.0620909 1.5319754 4.6758547 0.94673276 3.4847002 -5.093446 0.09747943 -1.150604 -1.618942 0.42055118 -2.8200734 0.65854347 -0.28002384 2.433503 1.9867276 0.23981965 2.4436028 -0.2674444 -0.32251188 -0.20876518 1.2653574 -0.62599367 0.79841566 1.8988066 1.5037521 -1.0334641 -0.2124255 1.7890499 3.2915277 -1.3963237 -1.8912488 -1.9406502 -2.3110995 0.38515776 -0.9635893 1.0102963 -4.2902355 1.9973692 1.0517087 0.6938593 -1.0358766 -1.614686 1.1834072 1.0777302 1.3449087 1.3400602 0.4355585 0.9917816 -0.9098793 -3.4298885 -0.3612905 1.5486261 1.6819382 -0.047567233 0.8486403 -0.56643033 0.15579307
71 -1.556875 0.5903968 1.0541347 2.4806604 1.3397005 -1.2816695 -3.279705 -1.5863931 -1.3236622 0.8027398 2.9056354 1.4294395 -0.038851302 -2.8352218 -1.0827028 -0.14010102 0.14041758 -0.2907703 1.6655072 -0.2446331 0.7172487 -2.2628415 -0.647543 -2.8099089 0.065833144 1.5674057 -2.4361293 0.84971833 2.3561711 0.89716214 1.4985152 0.3303547 -0.6320725 3.3616693 2.542197 0.9082885 -0.08899882 1.3090907 0.35032296 0.39250502 -0.2289723 -3.7704744 -0.87508947 -1.2041181 4.1697054 -1.0298294 1.3309147 -2.6154304 0.65740883 3.1759686 -1.3759062 4.8129873 -0.31266463 -1.435784 4.233501 1.4593141 1.6352085 -2.4964433 1.5322692 1.1761957 4.3790607 -1.3142468 0.8647809 -1.052243
64 -2.0352883 -1.1583569 -1.2827079 0.83096886 -1.1357337 -1.8026512 2.2792606 -1.5689878 -0.3693221 -1.3380975 -1.8651257 0.59630287 -4.0568023 -1.715068 0.68236953 -2.4987788 -2.5923626 0.4590918 -0.026760645 0.17495908 -1.3588067 0.40204757 -0.83994687 -1.4365377 0.9189424 -3.1294925 2.3835201 0.7833262 1.1028365 -0.8799141 0.087150946 -2.7910116 -0.06410456 2.4746225 2.5452464 -1.2134327 -5.410197 2.4093363 -1.0290041 -1.870723 -2.2935722 0.25138757 0.5908081 -0.26731482 2.3957725 1.8368514 0.58230436 0.5745458 1.8705485 -1.0795968 -3.0170135 -0.5344914 -0.5099478 -0.8329504 1.3184845 3.1532576 1.2705842 3.4085555 -3.3773425 -4.147959 0.39424154 1.1196425 -0.387365 -1.3949332
72 -2.7305033 -1.5384742 1.3359504 0.29649132 3.5671344 -4.430411 1.2664331 -0.10619422 4.0328803 -1.2153441 0.86863655 3.1739357 2.5797074 -1.2989159 1.3080835 -1.4164861 -1.3080108 -1.8389262 0.16178863 0.6374341 -1.0245501 2.5729644 -2.6130378 1.4991181 0.09891243 2.2885306 -5.555685 3.1645749 -0.23262033 -2.941917 -1.3209771 1.7863377 0.36169997 -2.9309783 -2.2510145 0.24577922 0.7313616 1.9754766 -1.3601018 0.0028183733 -0.48906437 -0.077938624 1.9439433 -2.8045952 -0.5543356 -2.0275626 -0.3434131 -0.010462846 0.08236574 -0.92499137 0.17878684 -1.6270264 4.132097 1.0785077 0.9212031 2.6640317 1.0462683 2.466906 0.80010915 0.527649 4.161342 2.0148888 -1.0371993 0.5434014
17 1.9287363 0.6321323 -0.42957845 1.0083936 0.85235167 0.011622488 -0.04346422 0.614034 3.3984745 -1.7700716 -1.0972836 1.1632615 -2.238701 1.9405541 1.3447845 0.6115424 4.822237 0.6672712 -2.6851642 5.2068086 -1.0248817 1.7182857 0.4447261 -0.8400181 0.21442619 -2.1612935 -1.2227092 0.5859507 2.0914836 -2.1374223 3.4787893 0.026014958 -1.8910019 -1.8389713 3.680001 -0.9527095 0.6884644 1.3585163 -0.51130295 -4.5166154 -2.518671 0.9143527 3.584474 -0.68903047 -0.3674682 -3.33564 -2.9445264 -1.7490714 -2.3668597 -0.25829303 -2.2009397 -2.7380779 -0.39067587 0.2248959 -2.3868866 1.9975524 0.97296697 2.1401787 -3.4307687 -1.7457328 -0.57760876 -2.8955371 -0.3123411 -0.5455682
63 0.43996325 0.18964858 1.675337 -2.1675236 4.0118713 0.6489592 -0.642482 2.9609277 1.098547 0.86633825 1.3867804 -0.4613749 -2.967024 -0.3662229 0.61160946 -1.9804739 1.0610931 -1.4532851 -2.546549 2.4149172 -0.8023236 2.780727 0.74702334 3.2620723 -0.15120699 -0.4599677 -0.832605 -1.1025664 1.0755053 -2.658356 -0.6186741 -0.41783047 -0.54605657 -0.3398327 -0.10360743 0.12284105 0.7041844 1.0215635 -0.120232224 2.4339101 -1.7045457 -2.7762582 -3.2626073 -0.815855 0.6778075 0.24473995 0.22759616 -3.810036 1.2149689 1.2080035 -1.5992687 -1.6939261 -0.14393693 1.2756965 -1.988316 -1.5990123 -0.29391715 -0.1275835 -0.68378186 -0.31419778 -0.83701 -1.5704975 0.6156883 -4.246126
22 0.1965026 2.2709405 -1.6778466 0.6835355 2.305852 0.49509004 -0.46185568 2.7868025 0.007859279 0.8641603 2.5200305 0.21238199 -2.6690066 -1.8282757 -0.937619 -0.15816694 0.09880556 3.3124745 -3.1122556 1.1902497 -4.009386 -1.4249709 -1.5319934 1.8599756 -4.744165 -2.8048446 -1.8319243 1.9310884 0.6963235 -1.2699027 2.1919613 -1.2100629 -0.60168123 0.90196764 0.48958546 -0.47938672 -0.60080093 2.8790221 1.6248714 3.83296 1.3599478 1.7843958 -3.0929244 1.6593783 -4.099108 -0.9756428 -1.492156 -1.8932414 -2.730735 -2.387116 -2.695343 0.61488104 3.107448 0.93681484 -4.4735584 -0.9966982 -1.7284021 -0.2804025 -0.24507587 0.77026695 -1.5486735 1.9616723 -2.7735288 2.339156
91 -0.12098722 -1.7880718 0.4222424 1.1782452 0.5842873 1.1837538 -0.67860794 -1.9616411 -2.9988616 3.823561 2.6820455 1.2390771 -2.520397 1.3546023 -0.8401892 -1.5900245 -2.2159111 1.7267042 -0.45625156 0.7573063 0.36968622 -2.064785 4.1064396 -0.04393993 -1.0890306 0.65954024 2.0308998 -3.1469927 1.2700179 -0.90647054 3.0618427 -2.5153003 -1.4841669 -3.1576219 3.2543445 0.1832207 -1.320299 1.9497089 0.12049282 -5.2045484 -0.6889695 -0.23154373 -0.44880182 -1.2046052 -3.104631 -1.2280258 3.6096733 -0.32972157 3.0063403 -2.3976567 -0.35107452 -0.49576625 -1.6388602 0.68232507 -3.60485 1.9803399 -0.5506957 -1.5616736 1.5217407 2.1847987 -0.011364751 0.52822083 4.5185614 -0.10849465
85 -3.4539888 0.66215074 0.314433 -0.6263995 2.8535588 4.882203 1.9357166 1.4454665 -0.40145016 -2.0120451 0.2652062 1.9668605 -1.4943458 0.08383928 0.08713299 0.3819622 1.3202022 0.5695748 0.89025676 -0.19548558 0.8757248 -0.25296298 -4.7984915 2.1823843 -0.8827282 1.8374475 1.9038249 1.5530376 4.3674283 1.4996687 -0.70890653 0.7496781 1.2714764 -2.1813993 -3.319074 0.31507316 -3.1428785 -2.6443436 -1.29605 -2.14115 0.13213833 -1.662902 -0.53270274 -0.9772081 0.7532217 1.1687238 1.0394567 2.6781101 3.3513188 -0.18720317 -1.7699355 -3.6484 -2.718837 0.136218 -1.693434 -2.5931845 0.35159263 -0.42811427 -4.0521975 -1.6813588 0.5256633 3.1384826 5.763685 0.7425738
11 0.18346412 0.5725399 0.89469534 -0.45932648 -2.5256026 1.0681044 2.1563582 -0.3492742 1.2858652 -2.6744697 2.5239305 1.7160821 -0.9054422 0.25486615 -1.1896908 -1.8786342 0.27377993 1.3963239 -0.13039425 -0.17186718 -4.504722 1.2825935 2.7939343 -0.43191123 -0.8324763 2.462125 2.7075903 1.9884306 -2.7253222 -2.055716 3.552966 -0.18741728 -2.9040303 1.635746 1.4132268 -0.40655166 0.94433635 1.054279 -2.3204298 1.7235291 -1.9591376 0.12806039 -3.5210047 -1.0140092 -0.40232855 0.20005418 1.1062824 -2.6095634 0.18250415 -2.3225226 -3.02693 2.2466176 -2.8855526 2.0345647 3.7996624 3.3191617 -0.74991804 -0.06087802 -1.6046685 -0.4384508 -0.77320164 -1.4561114 -0.15494259 0.03245056
86 -1.3532399 -1.2881469 -2.8733537 2.4174223 3.4481766 0.867342 -1.7003233 -0.46500137 -1.671072 -0.46113166 -0.60284215 1.6978298 -2.3891988 1.808154 1.9635563 -2.0382478 2.6706443 -4.5448413 -2.871325 -0.5679669 1.2266681 3.5022533 -1.5869532 -2.495443 0.30275336 1.5539881 0.45468688 0.788202 1.7628921 0.31774694 1.333162 0.0047692456 0.52470136 0.5609577 -0.7570212 -1.5423326 -0.96728826 2.7391694 -1.099483 -1.1129973 -0.7397318 2.1570451 -2.4383395 3.2446494 -1.1382025 -0.85367614 0.5004061 -1.526235 -0.9023463 2.001954 -2.1173723 -2.4097009 4.0895615 -3.8523514 1.734799 -2.4025044 -0.19165592 4.115694 0.17067853 3.7801414 -2.918397 -0.82777375 1.761908 0.5876097
25 -2.1303582 -1.0300533 0.16524512 -1.9679422 1.7069511 1.8926399 -2.9198742 -1.2933946 0.4775007 0.7565444 -1.0927397 0.40355512 -0.74307233 0.47479728 -1.2556542 -3.593107 -3.4502144 0.8213828 0.52460605 0.3804216 -0.44572 1.6089467 1.4440721 -2.733093 2.7958994 -1.2714615 -1.1271124 -0.4726098 1.0440817 -4.9131527 2.4857302 -1.5088528 -2.7390728 2.4707904 -0.67510784 -1.9358257 2.9561017 3.1494467 -3.5322893 0.07587205 1.8525338 1.338666 2.2395093 0.18625082 2.0711918 -2.4012184 2.6533105 -3.4570382 0.53279394 3.5754876 -2.0377924 -1.2199267 -4.636404 -2.391232 1.0643189 -1.435006 0.7099983 -1.4552656 -0.59811425 -0.040387213 -1.6733633 0.81280756 -1.6593425 -0.32844085
15 -0.2815093 -0.073093854 1.8677475 -1.7826294 1.7503556 -0.6033423 5.445431 -1.2142783 -0.8940277 -0.55331755 -1.382498 1.5920906 -1.7109767 -5.4263396 -1.4382718 -0.57806015 0.937969 1.7611972 -1.1143336 -0.48423648 0.6194054 2.8701663 -1.6838329 -0.7342135 1.2637978 -0.96948266 -0.5395526 4.5734406 2.5641603 -3.9078627 -2.8565814 1.7284524 1.027593 0.033602957 0.60084563 0.8770107 0.2794407 4.149277 -1.0912055 -0.7643151 -1.3759245 -0.98582345 -1.5220784 -1.3843296 1.3608714 0.37987214 0.17254728 -2.8738189 -2.549516 0.106754415 3.773268 -0.07212589 -0.16708657 -1.2704887 -0.8326163 -1.4271324 -1.0232006 0.10737149 -0.6697934 0.77995205 -0.6126649 -0.41746834 1.7467017 -1.6526098
80 3.167635 0.5581121 1.315169 -0.28183886 -2.3940635 -0.14348489 1.2134166 1.309061 0.68098795 2.7064774 1.5907223 0.49469313 -0.29475075 1.6721016 1.2177297 1.5615777 1.8220094 4.1690307 1.0126466 -0.7244347 2.8298426 0.94968426 0.26504827 -3.6121812 -0.13150929 1.5066898 1.08166 2.3086011 -2.134134 2.0853558 -2.399733 -1.6533073 1.4483199 1.6386203 1.7048118 -0.9450952 1.808516 1.2178551 0.6006617 1.4892689 0.6640706 -2.1222503 -1.0711023 -1.103856 2.5818796 -1.1332929 -3.6217637 2.441329 0.5661608 0.3475316 0.95876026 2.5814703 -1.6040312 1.4739337 2.6665988 4.3255553 4.066894 -0.577508 -2.349344 -0.25896788 -0.42148513 1.5051035 -1.640504 -1.1508574
79 2.26925 0.4544302 1.3689753 3.1953084 -3.5039294 -0.41704798 -0.798499 -0.04092637 -1.5021766 -1.9430887 1.9075899 -0.31874168 -0.18594924 3.0523725 -0.7904945 -0.71167904 1.1733902 -0.41667944 -0.13395074 2.0715134 2.5611691 -2.9610572 0.6179846 1.786168 -0.51614547 0.1293611 -0.81448644 -2.4480824 -1.6134834 -1.0850534 3.2252817 2.0896678 -0.57900685 1.9153495 1.0242004 -1.637351 -2.4445624 -0.2566016 -1.4248884 -2.6035717 0.8930473 0.76010275 -1.3461239 -1.0072249 -0.4042754 -3.4786344 1.8161974 4.2101364 1.2477479 -0.51891536 2.5047448 1.2307649 4.503537 -3.9817996 1.5756233 0.91691417 3.7587242 2.779104 -0.96806353 -1.000509 0.014700954 -2.4523673 -0.38817593 2.0146735
68 -4.235013 0.469917 5.9764247 -1.0304601 -0.047210027 2.4572794 0.8793617 -2.0003505 -1.3783482 0.55600965 -2.707582 -2.2372882 -0.84347713 1.4156384 2.7640362 -1.0233569 -0.09655107 -2.1823075 1.102063 -0.6272766 2.7476597 -3.325684 -1.731548 3.3850539 -0.1431367 -3.9897854 0.7592077 -2.290321 1.1167974 2.0607626 -2.5108435 0.9920749 1.7618622 2.509763 -1.9282767 1.7303692 -0.50375104 -2.8698816 1.0909117 -0.3656524 2.0698755 -2.0547616 -2.5656257 -0.42130876 0.29481864 -0.9472566 1.907185 -0.59825927 2.8559775 1.5548024 -2.558479 -0.6223882 -3.500413 -1.0457431 1.4034274 0.48186657 1.1196041 -2.0682712 1.0540004 0.4393403 0.9335562 -0.16018899 -0.7332138 -0.20338215
73 1.6898222 -0.9854099 -4.5756235 0.28827807 -0.25255433 1.2568165 -0.27399716 1.5383462 -2.1593175 -4.247861 -1.9621325 -1.5888298 -1.0462804 -1.818265 -1.325653 0.1812764 -0.83043563 0.5010473 -2.9789996 -2.504924 -1.0738752 0.25558075 2.0666685 2.7091842 0.1817116 1.1430522 -2.1984696 -0.58664906 -2.7354512 -0.3558684 3.3378139 -1.4952605 -0.27200463 -0.30642006 3.242902 -1.8522661 5.942984 -1.3859591 -0.743321 -3.2087913 0.09963229 -1.9982327 0.110612005 0.3731352 -0.9427032 -0.028346796 0.8015318 -0.92842543 -1.8856521 0.74313736 1.3474053 1.1580111 -4.1031327 1.4658793 0.8569891 1.933682 -2.1853852 -3.439309 -1.6337893 0.30979878 2.7818487 0.6830081 -0.9735316 1.2591828
92 3.8781435 -3.1459658 -1.8733296 -2.2510843 0.90671176 -1.7838943 -3.6773283 -1.2068455 -0.5756769 -0.15387288 -0.44724616 -3.8158014 0.9748873 0.9315147 0.65770864 0.3541711 -0.6859193 -2.8050404 -2.9114754 -1.3572115 -2.6240344 3.3088572 1.2753835 -0.06467304 0.9820109 -0.47393876 0.5403456 0.42207775 -2.1791697 -0.8739548 0.7079402 1.1451334 -2.9174497 -1.4083487 -0.15322433 2.716134 1.7751362 -3.0437138 0.25406837 -2.1126664 0.69286925 -2.253412 2.2091436 -3.161106 -0.65916705 1.0586126 2.632258 2.8282573 -1.8430722 1.7529999 -1.4044679 -1.0578865 -0.98722863 1.5584141 0.53286654 -4.91828 -5.9227786 2.4512339 1.453191 -0.3685718 0.28452888 0.93703556 -4.2956986 -1.6455545
10 -1.1539847 -1.7928635 -0.0076070447 -0.104163095 0.15974349 1.4534099 2.8028882 -1.6491174 3.707847 -1.6214274 -1.2497548 1.0070461 2.2774327 2.8945801 4.373292 -2.7903605 -0.7159964 -1.0795605 2.1130302 1.4637073 -2.7560415 -1.43647 -3.3533702 -2.162122 0.73699534 0.75001955 1.6251761 0.08567069 -0.6651796 -1.6760373 3.8511627 0.68928486 -1.4195054 3.0647397 2.1442416 -1.2508583 -0.95632595 0.04067117 -2.3817399 -0.27782083 -3.8491285 -0.49619314 -1.7016522 2.4637465 1.4414109 -0.90527743 1.0332595 0.32508978 -3.0747986 0.9124118 1.0858474 2.6852996 1.6261498 -2.0921323 -1.851903 -3.0568104 1.1605176 -0.7239312 -3.960076 -0.11506238 1.8149965 -1.3803711 1.0746809 0.21584664
83 -2.6046014 0.8494901 0.47648638 3.5511644 -1.0763079 1.7273206 3.6923149 3.2471983 -2.094485 2.2181907 -2.4504158 -0.6674726 -3.8305721 -0.16985302 2.975741 1.8135867 -0.8081967 2.2817354 -2.890735 0.06750624 -3.0902584 0.5883389 -0.08237116 2.4686995 -1.3084662 3.4872658 -1.6536385 -3.6372938 -0.25225553 -0.6793886 -0.7443304 -0.8404049 -1.8537673 0.948135 1.3162867 -0.72338045 -3.2823267 1.2087905 -1.097175 1.2405206 0.060627006 -6.9408107 -1.0034406 -1.5257065 -1.2902538 -2.2873073 0.90251637 0.48584133 1.2330629 -3.6333194 0.7264103 2.0365891 -2.3893638 0.5553851 -0.58930606 -1.8898088 0.87666 -0.102052666 -1.2829309 0.17116925 -0.5769093 -2.4318893 -0.11973868 -1.673885
70 -0.48371497 0.83985925 -0.7604317 -2.7581382 1.3370788 2.056094 -0.36539507 0.6876119 -4.3004704 -0.6039089 4.1910896 -3.4370527 -1.2737159 0.17522784 -2.295855 1.7118288 2.0935829 -1.1856755 -2.5728242 4.0535398 3.3873675 0.23612721 3.192101 -0.9508056 1.2976809 -3.3196173 -3.6439142 2.1760476 1.2409753 2.385857 0.06467178 0.9361503 0.31221536 1.5101583 -1.3258044 -1.3539618 -1.6069299 -0.7662124 -0.13443561 -2.0984178 -3.763833 -2.010044 0.12223621 -0.33048713 -3.586289 -1.6057956 1.6000822 -1.2092756 0.32974166 -0.87662286 -1.7983521 -0.63313967 3.5996246 -2.461265 0.7274832 1.6249627 2.0126197 -3.2802002 -1.4823927 2.2033906 -0.66046774 -1.5751256 1.6698271 0.7045993
117 0.049804006 -1.0915478 -3.6504066 1.294711 -2.071585 -0.8466136 -1.3435365 -0.5382812 3.2489624 1.0149235 2.3701832 0.36895674 -2.5440662 -3.3462803 -2.569423 -0.27864286 6.230366 2.2476826 -0.51570183 -3.0063353 1.0483904 1.1964687 3.8272743 -0.80402076 -5.079907 -2.050154 2.085697 1.1440511 -0.9029075 -0.9471068 0.061891586 -1.3923405 -1.4343507 0.32764927 0.06656824 -4.048222 -3.207439 1.0620118 0.59858096 -1.7756537 -2.0120218 3.2382753 -0.5301701 1.3159848 0.21310851 4.3488836 -1.3425145 1.2256949 0.49555132 1.4491425 1.0279621 3.116684 3.3006442 1.2367426 1.3471884 -1.0553209 -4.912134 -0.94103 -4.552482 -1.5055658 -3.3723812 -2.1666536 1.1988466 -2.0937612
61 0.5671399 4.4817166 0.41227177 -2.140664 -1.6152799 4.667382 -1.8462774 -0.94945186 -3.6792173 -2.12761 0.023871249 0.29708913 2.1185324 4.474482 3.382153 -0.60097516 -2.1837485 2.4156146 -1.4131405 1.4370407 -0.65359324 3.272917 -0.35115615 -0.68568134 -1.2918319 4.6468406 1.3455852 1.3910884 0.40073723 0.6872303 -1.2747288 1.5010188 2.1608555 2.3890533 1.7725801 0.97346705 0.5053704 -4.0291348 -0.8181934 -1.4103526 0.99383557 -2.6790752 2.1393642 -1.7359966 1.4422966 0.90557677 -1.2646723 2.0000005 0.05190367 0.80756575 3.2891533 -0.20222634 0.56380665 1.1968998 -2.3175392 1.2773825 -1.7521279 -0.8603679 -0.14246026 2.191506 -0.69491285 -1.2740338 -2.077438 2.256651
76 0.8203519 -1.6901622 -0.08206823 0.1256776 2.9483342 0.92729515 -0.8970781 -1.5570731 -0.26575366 0.2908196 -1.650137 1.2085245 0.40907902 2.1692739 -0.4940335 -1.0493978 -0.82411504 -1.4246327 0.18061088 2.7756872 0.74392223 -0.2863422 0.0901017 -1.0718275 -0.7009269 4.086218 0.4029635 -0.469142 1.6030761 -0.51863027 2.88521 -0.51025265 0.7972093 0.4983158 -2.2817008 0.7361547 -2.9241939 -3.6762784 -1.19893 1.7970726 -1.5707597 0.17338058 0.5632421 -2.437844 0.44049534 0.78938633 -5.1587954 0.09473015 1.6137745 3.188927 3.1296036 -0.26571327 -1.5048572 3.9876883 -1.3640562 -0.60549766 -2.4536011 3.1344445 -0.8511168 -1.2009256 3.6268117 -0.5953656 -0.7422174 -1.9098731
82 1.8949397 0.5938213 1.3162403 1.611719 -0.7685715 0.9942421 0.24064255 -2.1379745 5.02391 -2.455268 0.9796702 2.8336291 3.13248 1.4253713 -5.498454 -0.51913005 -0.19545694 -0.18469657 1.9070238 0.35344875 2.7000065 0.88304716 0.36482438 1.5037436 -4.0123897 2.1351783 0.27759603 -2.8071682 -2.2249253 -1.162211 2.2132487 1.2575754 0.1013361 0.47874528 -0.97804576 -0.052299857 1.0190219 -4.3837023 1.1781974 0.56713617 -0.8052199 0.9558269 -0.26752344 1.7171526 1.3306675 -1.974837 0.7743635 -0.5352984 -0.43935582 1.9656024 3.236686 3.0618224 1.9609318 -2.1200001 -3.1008348 1.8876927 -2.3915126 -2.892154 -2.3962524 2.8124566 2.450992 -0.75950074 -1.3117483 1.6826248
1 0.84063375 1.3449305 0.7433084 2.5575507 -0.13842447 3.2705545 -2.5365176 0.87691236 4.378446 -2.442773 -0.21410458 2.6204414 1.3559986 0.33273235 2.5178702 -1.4144887 -4.567661 2.1667051 -1.1250107 1.5802187 -1.8714501 0.51647633 1.8623486 1.3406829 -0.21976714 -2.6179821 -1.0963732 0.55016285 0.1430226 -2.5016887 -1.5838342 0.32356375 -3.9183633 0.3997 -2.1515434 -2.75398 -1.0777202 -4.054088 0.2384483 0.8102363 0.7737387 -0.5491222 4.589645 -2.521563 0.14020152 1.4155318 4.3277874 -0.29946837 -0.9092119 -1.6396948 3.9194603 -2.409764 0.32196686 -0.050859038 -4.810398 1.2311233 1.2370049 1.3828505 -2.6600251 -0.36870813 -2.275573 -1.1367866 0.4272096 -2.5819912
20 -1.16277 -3.2399578 -0.68146497 -3.7030246 0.9635141 -1.2473458 -0.06025993 3.0047019 -5.984045 -3.4187322 3.8817098 2.0783567 -1.5214021 0.17825195 -1.1634452 -1.3608055 0.37144107 -0.44220123 -0.7849136 -2.16314 -6.107283 -1.6194712 1.0633302 -0.57963204 1.3094513 -0.5136393 1.1647036 -0.6361083 0.027164454 2.632864 0.97666496 -3.1835423 -0.55120295 0.5729955 0.09348032 0.623772 0.7643359 -1.8377123 -4.6765213 -0.12603052 0.08124441 1.3614305 1.4624939 3.1472354 -1.0593436 -3.551325 0.9420308 -1.5341619 -0.9527525 0.78838795 1.4102949 2.182028 -2.1237993 -1.5887226 -2.8818052 -1.5549735 0.8809774 0.4206065 -1.1802232 -3.71006 0.5839612 0.5412161 1.6607281 0.097227745
90 1.7984507 -2.6251225 0.036411453 -0.015565134 0.17526804 0.3766873 -1.6246029 3.8182874 0.59052306 0.29844144 1.2349223 -0.5142041 3.1626132 -1.1574749 1.2179297 0.29856613 0.5123564 -3.5173807 1.0334879 -1.7935885 -0.16245493 -4.696555 0.03976162 1.1466117 2.5190423 -0.8439206 -0.7679798 -1.6751747 0.077877566 1.3659835 1.1430233 -2.8920875 0.56111526 0.51388454 0.10425322 -2.4048738 1.3343416 0.5690792 3.2486682 2.1636593 1.5212995 1.4040226 -2.505112 4.3164935 -0.103422515 -3.9398963 -2.9350493 4.10838 4.0560546 0.7559531 0.02084868 -0.38040015 1.016407 -0.4186209 -2.0940583 1.3514031 -4.1871285 -1.7091007 3.5154772 2.1894643 -0.60469466 4.05127 1.0610334 3.45506
140 4.3138638 2.7022803 2.6313114 0.97526664 -3.2814443 0.90021354 2.0043309 -2.5162072 2.6997316 -0.03961674 -3.100618 2.3761928 1.0617502 -1.0099096 1.2196288 -1.7229639 2.2504084 2.174745 -1.8474557 -1.9816985 -2.0052629 -2.826798 0.6502899 -0.73678875 -1.6014495 1.2704555 -0.15216729 -0.5065506 0.68958217 -2.9685802 -0.4578908 2.9650936 -0.9994212 -1.0834247 -2.2076793 1.2126203 -2.4200602 -3.180734 3.7080944 0.46158588 -2.7832236 0.678246 -2.1446722 2.3116844 -1.7317021 0.80823493 0.99984217 1.7741386 0.27376547 -0.78392726 0.11190374 1.6396157 1.2669901 4.15754 0.34292734 1.7349932 -1.0831313 3.4900525 5.4864125 0.27874783 4.027661 2.6517818 -0.66528106 -3.3043976
14 1.243891 -0.05578355 0.47955117 -0.019150656 -1.5667454 -4.488683 0.5610202 3.1317194 0.21937479 -3.7298834 1.204261 0.78915477 -1.920604 -0.96766573 0.005034654 -0.14625712 0.6589241 -0.9143079 -3.4407113 -0.018608311 0.45248884 2.117105 0.15602478 -2.9705126 -0.36282012 -1.687222 -1.7409642 -2.111366 -0.6547195 -1.8142208 -0.14188658 -2.104391 -2.674406 1.3065867 0.077668436 0.59973645 1.682821 -1.4309341 -1.6227676 -2.5199995 -0.35969824 -2.0718522 -0.8751198 0.037448402 -3.4746697 0.7291259 0.25016332 -2.8831344 -1.4128264 -2.785704 0.34625077 -0.9148464 -1.760229 -1.4069102 1.3340832 1.325046 0.083160706 -1.840986 -1.3667958 1.3389033 -0.7240512 1.1901596 0.44360486 -1.8221796
88 -0.952068 -0.36415106 2.0034199 0.023845935 2.4656408 0.20924212 0.58791375 -2.9640098 -2.591973 -0.39929208 -0.8959153 -1.0560524 -0.99253684 3.9768054 -0.4729985 0.1187729 1.7729509 -0.15036413 -1.9415078 -2.7289505 -3.1963546 1.3414066 -2.4900873 3.581509 0.71557075 0.16428007 -1.1693312 -2.693818 0.84313524 1.0383698 -0.0024141483 1.7020352 2.6345234 2.4199994 -1.2070357 3.546459 -2.0097268 0.45372927 2.15352 4.757291 -3.656494 -1.895604 2.3142834 1.0078359 0.4067591 -0.67407167 1.3037331 1.707638 1.2092681 3.9896576 1.002265 -0.54805887 0.55049175 -0.62698597 0.98206115 3.5141594 0.39957395 2.0039957 -2.0681963 3.1045043 1.9764323 5.6183233 -1.8395029 2.7618933
16 -3.2901287 -2.3328245 1.7374285 1.4907559 -1.1553216 3.51288 1.9943184 0.5471502 -2.4644647 1.7231827 4.162594 -6.1883903 0.76094633 1.2828102 1.3218462 1.1774082 -4.1056743 -0.14924137 0.6438696 -3.273563 -1.6538042 -1.8531116 0.83891577 -1.3065803 0.9439602 -1.2609475 -1.4665283 1.5569276 -0.44560063 -3.2560894 -1.827458 0.13401724 3.0963695 -0.31787512 1.4939833 3.405814 2.996609 1.5953292 -0.759032 1.4242458 0.5356275 3.6101964 -0.5638809 -2.0743537 1.3698666 -1.4096783 -3.1447268 -1.241195 0.8584576 -2.9919407 -0.35731128 2.4012158 0.9719111 -3.974462 -0.8600973 0.95760816 -0.67202324 0.10322556 2.3624773 -4.2842264 -2.2764006 1.140286 -0.14041467 2.6757596
21 -2.9389796 -0.73825634 5.879384 -3.760656 0.5755515 2.2151399 0.29448578 1.8254172 6.7941437 -0.18236946 -1.3783028 4.7881546 0.118818454 -4.4234676 -0.083152324 0.22462736 2.725801 -1.7146696 -0.02929717 3.1642442 0.30246344 1.7783322 -2.9176574 0.52628803 0.61602974 0.8362237 -0.8484349 -0.7697212 -1.5071893 1.265227 0.4326155 -1.083292 -1.2054527 -1.1385134 1.70933 1.7222686 -0.7547072 0.88542295 0.8413883 -1.5501828 -2.0416775 0.7936191 2.1975312 -0.58068395 0.2244495 0.5203038 -0.13552491 2.178235 -0.6670124 -0.6215217 -0.38684425 -0.97016346 -0.7430316 1.9981515 0.361081 0.88400316 2.2317083 0.49493957 -3.6384737 1.1843841 -3.0147958 0.05003267 -0.1266517 -0.03920525
0 -3.0527797 1.5981843 -1.2049589 -1.5331743 -1.4008572 -0.71994615 -0.38154042 0.15994304 -1.3157542 -2.991542 0.8205726 -0.57313967 1.302479 0.4440447 1.4703199 -2.544897 -1.218793 -3.4907548 -2.0669856 -0.85928315 -2.7431269 -1.7886959 -3.043811 0.03945076 0.35041955 -2.0770142 -0.5687582 0.984266 4.626152 -2.6297994 -3.063977 -0.58981794 2.429351 0.5740899 0.87289363 -1.6695259 -0.91301084 2.0572634 -0.16745298 -1.2379558 -0.20491795 0.29386142 -1.3200879 -0.27393255 -0.8597824 -1.5003887 2.840848 0.6759426 1.645438 1.7786746 -2.144086 2.327006 0.70143664 -2.6078207 -3.1243982 -3.8711183 1.0258112 2.1095164 -3.3977659 -1.2264286 0.271479 1.9521168 -1.2631925 0.9914742
93 3.790262 -1.6774508 0.09020482 -0.8562039 2.0716324 -0.2466587 -0.36684573 -1.3910512 -2.1263185 -2.2395127 -1.2768589 -1.4886779 0.35117233 1.8340285 -0.5399461 0.6810333 0.43033564 -3.8347478 -1.3216802 0.5941118 0.7572786 -4.919844 -0.63669527 1.0205047 3.3746665 0.8991033 -4.0996847 -0.48991862 2.3297627 1.2334229 -0.61470467 -3.5156121 -0.897744 -1.6179262 -0.8558932 -1.0081204 2.8354058 -2.8107421 -0.43195128 1.5786794 2.9784667 -3.682464 1.6445478 -0.38957 1.2810754 4.1310205 -1.1478938 0.42367822 -1.6712394 -2.0112722 0.05575991 -1.1729953 3.3249764 1.727831 -0.13241544 2.945904 1.485168 2.7336714 0.69661397 0.16180605 -1.139535 -1.0549781 0.6566274 0.55822086
89 -2.2788484 0.6230108 -2.6190293 0.7329365 2.882438 2.763854 -2.9289687 3.5314999 0.14924972 0.63879263 0.9668875 -1.4542167 0.16626737 -0.946413 -1.805068 3.4994454 -0.69767207 0.43064952 -2.9544928 1.5406098 -0.95781446 -1.1028982 -1.1315712 0.88326824 2.4095838 -0.6182773 -1.3869436 -0.2817342 0.82668424 -2.737921 -1.2912266 -0.7218856 3.146783 -2.491511 -1.4425405 -2.2646978 -1.5072554 -1.778872 -1.0697368 -0.048934616 1.0304899 1.2579007 -0.4998403 3.50236 -0.23163399 1.6273961 1.900271 -4.190167 0.028716331 -2.7720652 -0.56786716 2.024649 4.544098 -0.3169155 0.8567896 -4.220525 2.511326 1.0923648 2.426353 2.4266453 -5.641003 -0.13135536 3.9828024 -1.826869
84 2.8028538 1.144219 -4.8729606 0.83321494 0.4359758 2.0157907 -3.0689733 -1.056475 1.7281941 1.4306186 -3.667261 0.64259964 2.9883618 -0.27109346 0.9402873 0.5710823 2.4664857 5.00825 -2.2293541 -0.90398395 -1.5352256 0.67079556 -0.26177633 -0.74315476 1.5791174 -1.2509286 2.4382677 -0.17249173 0.37757716 -0.50548637 -0.8555606 0.4666231 2.2882524 -0.36873457 0.3717242 1.482335 -0.041202188 -1.1550561 1.3600668 -1.4296113 0.008008016 1.512548 -2.5308146 -1.0855665 4.792082 1.8075124 0.9318314 -0.7175369 -0.5291904 2.522839 4.8953776 1.1826252 -0.3738369 -2.3155723 1.909769 -0.38160434 -0.02688965 -1.5314482 -1.0590384 3.4509683 0.5217376 -0.051951416 -1.0934625 0.13193165
99 0.06559447 1.4659649 -1.5083547 1.8229967 5.788998 3.4267313 -0.62573594 -1.4673662 -1.7047912 -1.7361137 1.217233 -1.0548409 4.051436 1.6156845 1.7338231 3.7926416 -0.99899226 -2.1504242 -1.1925995 -0.18690895 -0.45961517 -1.5314933 -3.9284372 -1.6874394 -3.3961046 1.194314 1.2388095 -1.412639 1.5592837 1.6390336 0.90374285 1.1623247 2.5310943 -0.748378 1.8836424 1.0616074 2.9428835 2.1518843 -1.757503 -1.6023448 0.51607597 -1.7577125 1.7532741 0.23134457 -1.0061347 -0.8762002 2.610832 -1.083716 -2.08987 3.1649272 -1.1695551 -3.3918576 2.404868 -3.3298986 2.439105 0.6030414 -1.410782 2.2189176 -3.4831014 -1.0825045 -1.8634598 0.48919544 -2.862763 3.0852602
110 -3.835684 -0.72930795 1.3514451 -4.413756 -2.4287 -3.901292 0.7570659 -0.31067634 -0.655126 -1.8441463 0.661196 -3.2441618 -1.3409165 2.546184 1.8887119 1.8614253 3.5734293 -0.6562651 0.5932429 2.6978502 1.0337304 0.33302233 -3.0687988 2.5598023 -1.6143949 -0.4460993 -1.8765265 2.2308552 1.5339127 0.5992874 -0.26937944 -3.533836 -1.3268483 0.2706951 -1.851267 2.6356535 0.6347772 0.085192986 1.5283492 -0.7452065 3.5923424 -1.9777002 -0.018362818 -2.058255 -2.6433706 -0.035304632 0.48790425 2.6371539 -1.7281418 -0.43419316 -2.499144 -2.9804246 1.2134963 3.515053 3.891788 -0.6720869 -1.021518 -0.4479895 -1.3500222 1.1662623 3.1722293 -1.5101801 1.257318 -2.7216036
69 1.651636 1.1794456 0.9739725 1.5739118 2.5305722 1.4133718 -3.219116 -0.04148366 0.6967032 -0.29276937 1.9600946 2.4025466 0.1644685 -1.1246958 -1.0758703 1.3366086 1.3249592 -0.67889005 0.76561695 -0.45582083 -1.6548897 0.15760353 1.0802594 -4.1123567 -0.5362852 -4.8412967 0.9357853 -2.847565 -4.4453974 2.382781 0.45408216 -0.08225186 -1.229484 1.3330796 -3.040763 1.364062 -0.56719804 -1.5209666 0.7040356 -2.0968378 -1.714745 0.12600257 -0.11314986 0.25668675 -3.4194717 1.3653158 -2.1979673 0.44897255 3.8576229 -1.3020024 -0.2839361 -1.2706248 -2.4772182 2.006162 -1.3240516 0.10985401 -1.5700365 0.6933668 -1.3862073 0.4579832 1.0153277 -0.71616834 1.9976237 0.8018308
165 0.10879564 2.4957528 -1.9787998 -3.2887356 -0.70349234 -1.5593996 3.3493545 1.9693456 -0.6433786 1.2354903 1.6231848 1.1126642 -0.104184054 2.1917622 -0.022105094 -2.848927 -2.1597335 5.075416 -1.5260943 1.4828011 -2.3614786 -3.7405713 -1.2023128 -3.6315868 1.4616418 -1.2186581 -1.2063216 0.8050605 0.47180665 -0.6313281 0.77949435 -0.6434568 -1.0468335 -2.5706987 -3.410172 1.1655295 -1.6256274 0.17998542 2.6824956 -1.3286859 0.406707 2.2226517 -4.0031595 0.33661222 -0.8002969 3.3446622 -2.4021895 -3.4635124 5.8459206 3.0613086 3.1695642 -1.2981783 -1.9112961 1.1578233 -0.3807932 4.7587433 -3.144952 -1.3750978 -3.1634831 1.3627346 0.48161247 -3.8469262 1.5523255 -2.985639
2 1.1801716 -0.14941432 -1.4968091 4.2173758 0.26154515 -2.4471612 -0.30979517 1.606533 1.4828994 -1.8035135 -1.3089688 -0.22661035 -1.5076141 -3.361992 -1.443956 0.50715715 1.1606191 -1.5860382 -1.3794563 0.22010845 -2.4592447 0.64883554 -2.902993 -0.30782658 -1.6228119 -1.4776622 -0.75182176 3.4540992 -0.94461364 -2.1968224 3.1348045 3.2988737 -1.525611 -3.6920557 4.273727 1.8732185 -1.3963165 -0.47088405 1.8009353 -1.8221649 -0.08515496 -2.4881945 -0.19846183 0.108518355 -0.4091359 -2.3828492 0.7258036 -1.3160119 0.64651394 -2.2074134 -0.29261303 3.6837885 1.2261227 -0.43794665 -3.6546743 -1.0619932 -0.34720042 -1.5885859 -5.0568256 0.9453288 -0.0016548431 -2.7400825 -0.41865772 -0.18320234
87 0.10496873 4.5337605 -3.590174 3.949993 5.2032576 -0.8935491 0.63132924 0.7601087 2.5162535 1.1866494 1.721365 -1.4302496 2.6708612 -0.78795975 1.5533026 2.0903943 1.1733751 0.1742597 0.03187498 -2.422651 -0.7643792 2.0081668 1.6933224 0.5257344 3.1912398 -2.5363955 2.806624 -0.6358264 -3.741834 0.66107726 1.6938145 -0.16610743 1.1225199 1.5296942 -3.1786332 -1.3862729 2.9166322 -3.619832 1.0563499 1.0578555 1.287159 0.4016303 -0.6873039 -1.6521014 -4.170152 -2.6025553 1.9129798 0.46989545 1.3570538 1.9719611 -2.395044 1.7037413 1.3802583 3.7541037 -3.3118834 2.1434588 -1.2263314 -2.2557771 0.43905348 -0.19956471 1.1823232 2.6367583 3.0029447 0.93930393
101 -4.1151404 0.4232382 -1.6743639 1.5984322 -1.4301451 -0.48702025 -0.34901512 -0.73691744 -2.659414 0.2977636 -2.736815 0.14960733 -0.75584126 -0.18372089 4.459629 -0.73146576 -3.647694 -0.9380551 0.09424401 0.3766968 -1.3332173 2.391956 0.6862059 2.1186433 -4.2963395 1.1684421 0.833577 -1.1100926 1.7874328 -2.9563863 -0.50629777 -0.9591214 2.9050875 -0.8480545 -0.021569628 -4.3213997 -1.5606135 3.061809 -3.6968586 -1.6928155 -1.5231377 -0.29614598 3.9443176 -1.7703276 1.2302041 2.4132593 2.960084 2.9797306 -1.3106236 -2.556459 -1.709106 2.2463064 -1.3999319 0.68864703 -0.85746837 -1.2721616 0.8517024 0.10241668 2.5072432 -1.3102956 -1.3633593 0.33916035 1.7450758 -3.73329
95 -0.28943288 -1.7310711 -0.49277446 1.4760848 1.6339574 -2.987569 -0.4210071 -1.8098302 1.2513449 -0.13568567 1.1995624 -1.5202554 -1.1302437 -0.13514157 2.355249 2.9221928 1.4700164 -4.206786 5.006539 -0.9302376 -2.0499716 2.4601388 -1.5554701 3.031738 0.70971364 1.1007383 -0.9508852 1.6710806 -2.868637 2.5640728 0.99405724 -0.7180053 0.0055486644 0.6972585 3.3184228 2.2558014 -0.23098065 -0.07688266 -0.9433621 2.6997836 0.15807527 2.7029488 -2.73597 1.0249437 -0.8364275 1.7635891 1.152037 -2.8367884 -0.8858986 -2.8789835 -4.052116 -0.07534465 4.758417 -0.14685275 -1.3429677 -5.5568333 0.7337545 0.5623664 -1.6628257 3.117418 0.6959549 -0.91752136 2.3881161 3.495614
123 -1.349999 1.075878 -0.81628484 3.042298 2.2419164 1.7098798 0.8679807 0.06616759 -1.2146108 -0.3200916 -2.887015 -1.0433964 1.4419363 0.41497126 5.276254 -0.9901209 2.1381226 -0.20942616 0.3554315 -4.521971 -0.15043232 -1.2382914 0.47692087 4.566716 1.09176 -2.0847895 3.8271844 -3.2589025 -3.6059823 -2.861881 2.251546 2.5569372 0.051650118 -2.1068802 -1.2266043 1.7680238 1.3189077 0.72270674 2.0589387 1.7772533 -0.14153664 0.56981075 -0.9710043 -0.6293646 -0.9662638 -0.36062416 -3.0318334 0.40150633 -2.0427403 2.6808856 2.1786435 -3.1623034 2.3238833 3.2595134 -2.3852324 2.2311378 1.7197983 -0.72031116 -3.043103 -1.0109861 -0.44628856 3.8356564 0.8179733 1.3729687
94 -0.61534107 3.2554114 -0.14513884 3.3511536 3.6262279 0.88188624 1.4922763 -0.5314609 -1.5853112 -0.3750052 2.3267071 -0.30625576 -0.79537594 -2.7610745 -1.444222 -0.66791654 -0.6621367 0.53062356 4.1811 -2.8549333 -3.1476383 -1.4431852 -3.3356018 1.189698 -0.16152565 -4.8959584 0.1899464 0.22827064 0.9004485 -0.31730795 -1.1411339 1.7126341 -0.90207183 3.0228405 -0.21417023 -3.7199962 -1.6706825 2.9633338 -0.055965304 0.78345466 1.7852573 -0.734977 1.2788048 0.6513812 -0.49491665 0.7899801 0.43008292 -0.96870106 1.5424633 2.942299 3.6454766 0.08441607 -3.1404812 0.14747295 -0.5152125 -1.2276344 -1.0848422 0.23147461 2.0283656 -4.8874645 0.060371354 0.013983037 2.2084112 2.2071595
77 1.0250108 -1.4122832 0.4256789 2.2269025 -2.800363 2.0710802 -2.0482013 0.08035897 -2.0955825 0.31331897 1.0766853 5.113721 2.1982143 -3.1507812 2.6094642 1.8259141 -2.2941704 3.7926178 0.36683893 1.5949538 2.473339 -2.3566163 0.9810156 2.8213654 -0.48589277 -0.9605114 1.3590697 -1.9199237 -0.31667763 -1.6892065 -0.08952089 1.7763307 1.2900776 1.180972 -1.212119 1.4237068 1.1059568 -1.2422823 -2.1257472 5.299032 -2.411871 -0.94211674 2.0161138 1.3785632 0.95217824 -0.20581205 2.3295426 2.414253 1.3616706 -0.2539479 -0.11826082 -1.260438 1.9468279 -1.3524878 -0.3121097 2.600449 1.9443774 1.9150798 -1.3408494 -2.0070527 -1.6264137 1.9959874 -0.63097703 1.6789412
96 -1.167049 -2.852168 -1.13194 -3.1793952 -0.16349548 1.0628335 -1.9094048 -1.3804595 0.38125908 -1.3902676 -2.6695619 0.27124393 -1.2547003 0.9448572 0.49276298 -1.9405011 -1.9400854 -1.7613333 0.8575985 -0.44250685 1.4160948 0.2990725 4.029582 0.55615216 -0.8942565 -2.287671 0.30755055 -0.90294915 -0.56897134 -1.9821857 -1.775585 -0.48535183 -1.5857618 -6.708281 -0.35208818 -3.5511289 3.6473305 -3.088147 1.5684922 1.609627 0.76646304 0.19997966 4.950093 1.3340529 2.560167 -4.5212593 -5.638186 -1.8937306 1.0518953 -1.769356 2.9248617 2.1289797 -1.0895414 2.852741 -3.732387 0.45726344 -1.3337828 -1.5454936 1.1619772 4.119802 -1.152547 1.3378499 0.36847514 -0.16932394
3 -1.7204143 2.2366753 1.7963954 1.7924305 1.3581736 1.6630532 0.54182434 1.3129736 -1.0874343 -2.0747495 -1.2517314 0.72456235 -3.0393398 -4.3174176 1.382295 -0.88152575 2.8958302 -1.1196554 1.9423628 1.5542198 0.5486866 3.458875 -1.3287811 -1.491458 0.53793615 0.8937927 -1.3022704 0.7858638 -1.9378424 -2.087431 2.7618055 -0.08271904 -2.30107 0.3553746 1.0884486 2.5564523 -1.6608 1.0048851 1.1495903 -0.25786832 0.85651845 2.3581495 2.11301 -0.15338483 2.237157 1.0832535 -0.51100576 -3.0604928 3.239571 0.13105193 0.6439958 2.4109068 -3.7942762 -4.699819 -0.3411609 1.9097027 4.633645 -4.9464483 -0.8135396 -1.0994114 -1.7137504 1.1914021 -0.72196525 -1.572427
12 -2.0614018 -0.5119288 2.282658 2.2950747 1.1863073 -0.21226244 4.8266935 -0.67179406 -1.9211329 2.1046798 -1.3009784 -2.315793 0.12351016 -0.9468568 0.22295775 -0.5048424 -1.6203171 -0.09216163 1.54545 -3.301824 -3.2295282 2.631663 -2.2501717 -2.6842775 0.81306744 -0.837318 -4.2022567 -0.07245298 0.84964985 0.4931525 -2.568358 -1.5448893 0.60033315 -0.0208659 -1.9853517 1.3573943 1.7882378 -2.1658018 0.12288172 1.0858123 0.6225563 -0.74054533 2.5892692 2.062112 0.9947079 0.2930642 -0.95967776 -1.5386804 2.4759917 0.39025855 1.118165 0.6072509 1.1333824 0.007749922 -2.1715086 -1.6720988 0.9420599 -3.1745071 -2.8043232 -0.20559992 -1.2776358 1.9421068 2.8706784 -3.9926777
119 -2.125465 -5.4561653 -0.4844367 2.023796 1.8530846 1.304039 -0.9803946 -2.1667137 1.8885571 3.2310047 -1.3878154 0.14936899 -3.4681199 1.8737279 0.48716077 -0.6850885 1.0372488 -1.7746766 -0.16885495 0.6256402 -1.1704265 1.1362507 -1.6804352 1.3098295 0.40795407 0.7735538 -1.377585 0.9847518 0.7922067 1.7362272 -2.8698537 -0.91404057 1.1600808 -0.39258093 -1.8615949 -2.602525 -3.2099144 1.8926452 1.7743489 -0.96008754 0.6422153 0.688732 -1.1054691 -2.591061 -3.489994 -3.3233674 -2.9929712 -4.501368 -0.8061766 -1.5601786 -4.4162083 -2.754028 0.8227005 2.6418679 -3.2132776 7.1768494 -3.058333 0.38709447 1.164728 -2.0039742 -0.8762204 -0.64973164 4.041087 -0.04347651
104 2.03866 1.5190336 -0.47598627 2.2007766 1.0768405 1.6402076 -0.583351 -5.065226 2.4040055 -2.22888 0.30943045 1.4634851 -0.3979508 -1.7293589 -2.2693505 2.2803814 -0.87136006 3.1384552 0.93037313 -3.9442592 -0.45845506 0.10877693 -0.9342051 0.7251857 -0.43796527 -2.5864546 1.4078805 -3.9117084 2.3952467 2.3962724 0.41704696 -3.3561087 1.670221 -1.0531517 0.42514098 -0.5036858 -0.60533255 1.3433278 -1.9835223 2.9419467 1.3071705 0.580452 0.3618269 -1.7144022 -0.96032643 -2.4373195 -2.2711196 0.054344498 -1.1174852 1.8806438 -0.38072994 -2.1841662 -1.4017915 -1.6520156 3.962696 1.140089 2.861848 -0.93466854 0.5188882 -0.48325986 -1.2766378 2.6060941 4.2576632 2.7137437
100 -2.248157 0.19044545 1.2621592 -1.5671204 1.8183923 1.1495858 -2.1507676 -3.342757 1.2867421 0.75158846 5.768107 3.5896823 -1.2619889 1.13643 1.2590965 3.1956432 -0.1871518 -0.54140925 -0.30956826 -1.2157352 -0.9425856 -3.3053634 -0.59593475 3.5262568 1.4347389 0.023240268 -0.6579431 3.4011967 -1.4291635 1.7598988 -2.6795926 0.78043914 -2.7489972 -1.382953 2.67281 -3.4146476 -2.188789 -0.79837215 -4.857592 -1.7840914 -0.34179565 -1.2460603 1.6167622 2.6265824 2.1756449 -3.353421 -0.3956964 -0.36636755 -0.121265754 0.44736198 -2.6222146 -1.006438 -1.487346 1.0082518 -3.6960397 -1.3246257 0.10939123 -0.33712086 -0.46720457 -1.3711314 -0.4501117 0.20397101 -1.9873775 -1.0397856
128 3.0181777 3.7976828 0.2983619 -0.9159671 0.51381034 1.1066096 -2.1646569 -0.64983827 -1.0945686 -0.024919167 -0.41564023 4.1152854 -0.8785769 -2.9728754 -1.5291768 -2.1023111 0.8291609 2.2250137 -0.7697381 -0.24802543 1.4873961 2.5688653 -1.9921744 0.5635011 -4.843543 -1.9142902 -0.08132738 1.2233881 1.865358 2.5102537 0.11982752 1.7526344 4.3051577 3.2694092 -0.6742047 2.1676466 1.5787604 1.2364644 -2.1022737 1.5458428 2.928075 -2.940229 3.2360804 0.06948083 1.1636087 -0.706746 -0.8207205 -3.5834222 -1.398638 -0.5555239 -0.85042626 -2.0537274 2.376072 -4.331046 0.80362856 -2.972877 -2.5586262 2.5137436 -0.31021065 0.626629 -1.2785689 2.0391374 3.7326179 -1.7638658
97 2.6695101 -1.8613482 1.5928283 3.8379831 0.2618495 -2.3871624 -4.403811 -1.2447144 -0.54559183 0.6031096 -1.4429051 2.9310892 -0.3131768 -1.0937195 -0.2684087 -1.4427388 -1.8156931 -1.8311108 -0.25111058 4.9151497 1.1131841 0.6573562 -0.5328477 2.9139636 -0.6325166 -2.4991274 -1.0131034 1.8067044 -0.8441526 0.7344183 1.5774052 2.178474 3.0785456 0.041088793 2.127403 1.2349844 0.9709917 1.585712 1.0301539 -1.6269983 -0.66686016 -1.174877 -2.5874429 -0.23564844 0.017955199 4.226154 -3.166956 -0.48065448 -2.8744693 1.3352822 0.8383437 -2.3876376 1.2780583 -1.5068914 -1.1948005 2.3127537 -5.3991156 -4.60949 -1.2232134 -0.11206883 2.9137788 -0.66862065 -2.060948 -2.365787
108 -1.42718 3.0462666 -2.628921 0.090732574 -2.9290721 2.1610532 1.7118508 2.1146502 -4.555109 2.7979097 -1.6544913 -0.5903045 1.6467471 -3.5787275 0.49056602 -0.8771765 -4.014804 0.33754492 0.042300176 1.7534565 3.6726916 1.2783865 1.3615273 -0.8214717 1.3030103 -2.827388 -0.14584999 0.72121596 -2.6177158 1.6392384 -0.15589759 1.7524827 1.7170547 0.49320757 0.90424246 0.6740423 3.9730227 -2.0094125 3.3671572 1.8889483 -0.57090276 -0.6070258 -1.6661863 -3.7208595 -1.3810214 0.36642805 -1.4120296 -1.857346 -0.9018629 6.0102 -1.7903998 0.76980174 -2.2538466 -3.3475628 1.0230131 -3.236303 0.3902153 2.0280316 4.4339194 -1.837575 0.52638406 1.9269108 0.9047729 -1.0261157
111 -0.14603263 2.1896656 -1.699331 0.78513664 -1.024062 1.9225028 -0.60698295 1.9229009 -0.2803131 4.344429 0.12349694 -0.28029144 0.90132993 1.0615758 -0.9353068 -4.5989833 -0.054249365 1.2391398 -0.03530337 0.66988534 -3.5546248 -1.102074 -2.6476946 -0.61858153 2.4526727 0.7244961 4.6683164 0.5722742 -4.135112 -0.78933275 -5.4978685 2.0715933 -0.3835188 -4.398725 2.9982522 -0.28510687 -1.2856214 0.16776799 2.72277 0.18733026 -1.4608737 3.6257906 0.061553013 0.5623312 -2.7077146 3.2674284 -2.7007096 0.90943146 -1.2996454 -5.357656 -2.9437501 2.0219226 0.28049982 -1.6320109 -1.1098077 0.9927025 2.3417265 -0.11873162 -0.6815769 -2.80295 0.9366567 0.97974473 2.3225012 1.9609724
105 -3.9848533 3.7697785 -1.4389845 0.84855556 0.66032714 -0.06663053 0.6664184 -3.0348198 2.5914433 0.53550977 -0.677978 1.8085005 -2.0666647 -3.6637347 -1.9982219 0.53605354 4.061105 -0.8772504 1.2731113 -4.5376897 -0.023208981 0.22715558 -0.29374465 -0.7032897 -0.7119747 0.7309377 -2.4477694 -3.0625648 -3.195914 -0.4892549 -0.081208944 2.7329032 -0.7515882 -3.7870147 -2.847466 -2.702627 -3.7127528 1.5367193 0.25924972 0.1829513 -0.40959907 1.6445115 -2.1585858 3.8867404 -0.78749007 0.22914168 -2.1937852 -2.0629158 -1.9123758 -0.973251 2.1432595 0.6967118 -1.7283497 -1.6608444 -0.99763775 -0.42991558 -5.1338396 -1.335246 2.7204108 -1.3645495 -1.5045401 0.50030166 0.8754452 -0.106278844
4 -2.4677737 -0.42504767 -0.16043413 -2.1950774 -2.1712544 -0.92344064 1.9911164 -1.2536646 3.3911688 -1.5236537 -0.729722 1.9388807 2.6133316 -2.613782 0.09659704 -3.1121683 0.98505735 4.977467 0.8328534 -0.78681237 2.7802982 -0.5371812 -0.48970774 0.31609032 -2.6468036 -1.1632485 -1.1280813 6.574994 -0.16919939 1.7723442 0.76442903 -0.17773424 -0.25380293 -4.658607 0.7379423 0.94560647 1.928866 0.13008529 0.2952186 -1.7515941 0.3770052 -0.23682383 1.1622323 -1.0438099 -0.3546502 0.2055834 3.962736 0.49104875 2.4257827 -2.8941035 1.2372303 1.4024991 -1.0404607 1.6453745 -0.77398205 1.9142169 -0.7293456 2.547097 0.10323454 0.54803944 -1.1771775 -1.2920064 -0.4590343 -2.4994705
127 -1.6543705 2.0765975 -4.305291 -3.5376124 3.4431133 4.9738736 1.1928757 -0.1568783 2.1623774 -3.5052266 -0.84949833 0.86611193 -2.5119674 0.7435198 1.6927528 -0.14026237 3.472431 0.505182 2.6861775 -1.8663762 -1.5324546 4.648155 -0.37805244 0.50035113 0.7172633 -0.8538047 -1.093226 -1.9525559 1.6330051 0.7002554 1.987248 0.80211794 0.6203342 0.008703348 0.36381286 -1.6724201 -4.4733534 0.8907759 -0.91892517 1.002345 0.72366107 1.6523668 -2.2271996 0.86325234 -1.2985947 2.543597 0.6387651 -5.789452 2.4148865 -0.44587746 3.2610435 -0.5506897 0.22049762 2.2079287 -1.6389253 0.8012983 -3.6442044 -1.5665216 1.7856905 -0.33239865 2.185784 0.88410383 0.2789687 -2.4015856
18 2.6728005 1.6002064 0.62757355 -0.46530634 0.80021733 -0.2680655 -0.6670818 0.18801081 -1.4953188 -0.8444237 -2.37557 -2.1791816 -1.0518279 -1.4109641 0.60973006 2.7868254 0.2949083 0.5011701 1.0724841 1.300549 -6.601357 2.78798 5.633722 -1.3640821 1.9565202 1.9462903 -0.8995322 0.45635054 -1.9498204 0.91201985 1.8168426 -1.6036855 3.873824 0.49114534 0.6505368 -2.030155 0.05533431 -0.56506944 -1.1457978 0.21617168 0.3609587 5.563822 1.2674773 1.8451936 -2.454981 -4.751922 1.7089151 -2.059119 -1.9026254 2.674559 0.43879154 -0.4169362 -1.564399 -2.2945023 0.83065087 -0.1079585 -0.09206526 0.89826703 -3.1689494 -1.1337687 0.14444855 -1.9266019 0.48863977 2.49906
78 2.7519488 1.6913693 0.53478986 0.6501842 -0.24407479 1.5657989 1.1484174 0.38385805 -2.6045787 0.5348836 -0.56973225 -0.700157 0.31204423 4.596012 0.029263895 0.16632822 2.914006 -0.5693589 -2.2888246 2.2192452 0.27626157 -1.7118232 -0.43911755 -5.9565825 -3.4647806 -0.9646083 -0.80677783 -0.09030843 -1.0126238 0.96416146 0.25218588 2.914885 2.8862493 -1.4337127 0.057108786 -2.0622199 -1.3553703 3.0902452 -4.6694765 -0.17795093 0.9115578 1.5594022 1.4501314 1.9827051 -0.023543037 -2.178145 -1.5649545 1.6492499 1.6942273 1.1255195 0.007219066 -1.0757251 -2.7038538 1.1336588 1.0950297 -1.1176414 2.3636553 -1.6932005 -3.989668 2.5744107 -3.714519 0.43882424 1.3517148 2.399341
19 0.92223954 1.5216959 0.95321196 0.81985396 1.6937181 -2.1284387 -0.10452928 2.3755207 1.6119685 -3.203887 0.5810195 1.4238199 -3.3418167 0.5539788 0.841831 -2.8249063 -2.0155811 1.288484 0.50274533 1.8341848 -4.198988 4.2858825 1.1935079 -1.9936491 0.31240034 0.51870424 1.7131339 1.466442 -0.06558656 1.0660846 1.4340333 2.8596377 1.2606226 -2.6595733 2.2664974 0.133314 2.5859642 2.234024 -0.76697576 -0.5525458 -1.2842824 -1.0510361 1.944612 0.10649095 3.4204361 -0.4828098 2.0781057 -3.0935318 0.007933138 2.307505 1.8889477 -2.130247 1.910474 -0.74520886 1.3404956 -4.5931334 -0.7238762 1.191194 -3.0046089 -2.555447 -3.6156862 -0.6730554 -0.5331286 2.742721
121 -1.4597437 0.15084702 -1.0061336 1.7556906 -0.24491958 -0.81682295 0.8192427 1.6565924 1.9697415 -1.6230395 0.051032264 -0.7356248 3.9260218 3.1992927 1.8196132 -4.874767 -0.85949826 2.4969082 1.5478828 -5.0346274 -0.08922673 2.6810045 -3.1168058 0.49534175 -1.0883416 1.2793123 2.1373432 0.13092378 5.116937 -4.050967 -0.4866128 2.0508776 0.9831622 2.5948522 -1.7698377 -1.0408005 -0.4511981 -0.41290027 -1.8312694 -1.5317063 -0.14890803 -0.745456 1.6367179 2.4557726 1.4473519 -3.4218428 0.7020547 -0.6706006 -0.27373275 -0.8919407 -3.0413942 4.052467 0.20701973 -0.40639812 -1.8503679 0.96433574 -0.33697975 2.1658883 -0.16959593 -1.001188 1.4345037 2.185023 -3.0631523 0.10927417
106 -0.5003562 4.421984 -0.22898771 0.6572001 -3.1941895 -1.8534153 -1.9468683 1.5703033 1.1203791 1.9140667 2.3217442 2.0196383 -1.2118076 0.8575559 -1.2033287 4.4115677 2.2229855 -2.5265548 1.6080039 -2.2942214 -1.3644389 2.2248828 0.9264292 -2.8905923 1.1062187 -0.6840505 0.33458203 0.036635187 1.1674967 -4.9655843 0.009754119 -2.4550202 0.90549624 3.4467583 -0.2816155 -2.5262396 2.3429248 1.8453201 -3.3263834 0.816865 1.6045933 0.7824996 -4.2346973 -0.33308312 2.0992198 -0.27184722 3.2863677 0.1329998 0.6610255 1.0885258 -0.7769983 -0.96005523 2.909817 -1.3757609 -0.7281011 -0.92279184 -1.150376 -1.2992289 -0.2943177 -0.0596319 -1.696699 -2.6886199 -2.315305 -1.0004709
120 -1.3795499 -1.0985328 0.46436843 -0.26224503 -2.6762817 -0.42251307 0.18588904 1.9195371 2.7116964 2.3991454 -2.6928308 1.5097598 0.90436566 -0.42191583 6.9886274 0.96936303 -1.2307194 -4.1145964 0.5157397 0.5080808 -0.9406403 0.75361866 0.41980356 -2.98638 2.779511 5.008429 -2.9533439 0.16396646 5.6111693 -2.8616507 -0.031429913 -3.3589606 -0.53548396 0.11484201 -1.346394 -2.1386945 -0.85588247 -0.030147023 1.5515481 -1.6828122 0.13408025 -2.736358 -0.34363654 -2.1283112 2.690652 1.3998487 0.33593065 -1.8204743 2.9432125 0.25054154 1.8946414 -1.6934379 -1.5245616 -0.5682208 0.21491733 -2.5859005 -0.9231674 1.2281184 -0.72690517 3.3293934 -2.0145137 -2.6118653 -0.3335379 -1.6853416
7 -3.3040223 2.3838577 -1.214706 -0.06305078 0.92114186 -2.7651901 1.8598661 3.3294504 3.57583 0.5109788 4.0000043 -1.4538071 3.8372116 4.0022063 0.14125495 1.7536123 -0.55162716 2.615389 -2.1447644 2.9077628 -0.31759208 0.94106036 -0.06740677 1.8791171 2.9824595 1.7247906 -2.907581 2.8726397 -0.00059622474 -1.0110601 -2.6482418 1.4004273 -0.36650926 0.71444607 1.2793407 0.4379003 -1.6785318 1.865336 0.67740935 -0.3225057 0.124854594 -0.62222457 0.0056391284 0.60373205 -0.80154014 -0.20113961 -3.5728786 -3.7220511 0.10810099 -0.9807214 -1.818602 0.15346858 -0.14351007 -2.9432006 -2.8865516 -3.0198934 1.1273745 -1.5872531 0.2783972 0.09114958 4.1386743 -1.4992564 0.8067323 2.0597038
98 0.8579671 -0.4168086 -1.302645 1.3052567 -4.6989946 1.6619782 -2.5783527 0.11708468 0.2577702 1.1993612 2.1424417 0.4862504 -1.6586055 -0.774103 -1.0872152 5.6009917 -0.9946959 -2.5610495 -2.004544 -4.5297666 0.33357823 1.4999132 -0.40156445 -2.7542267 3.0644965 -3.7065692 -1.1531736 3.5659044 -2.5185943 -2.3873796 -0.22797796 0.5414928 -0.024089746 -0.63328546 -0.9882664 -0.67181003 -0.11439599 -1.0762774 -0.23932138 0.85095376 -1.3825103 -1.0728555 -0.42186692 2.2921548 1.2969055 0.47680035 -2.5360768 -1.1414284 0.9857316 0.19095622 0.933857 -3.5479577 -0.6422436 0.4156371 -0.10886659 -2.6460357 1.6426123 -3.8968854 0.5371104 2.170718 -2.1239235 0.14265995 -0.53272176 -3.163859
75 -1.6677653 -2.3068557 3.3284297 0.5190249 -3.8232644 -1.6196538 0.19462821 -1.6574749 0.48693034 3.5966349 0.16405302 1.3229994 -2.1532996 -1.3788722 -2.6452918 1.862227 1.2774152 -0.8527664 -2.8854036 3.3216898 0.06322407 1.0435925 -1.6170751 1.6577959 0.12542161 -2.9116013 1.7417808 2.6308715 -0.7271384 -1.3405163 0.91924894 2.1724172 1.0739088 1.453882 1.1128842 0.4916558 3.103283 -0.21632244 5.2813463 -2.3019826 -0.9947983 2.1562614 -0.109999865 -0.9801428 4.028375 1.7589381 -2.8153894 2.8778722 -0.60274357 1.9057335 -0.677969 2.773467 -1.1048998 -2.1257029 -4.2107134 4.8058715 -0.32127425 0.25949368 0.0967539 -2.2945673 -0.94126093 1.5928363 -0.7187719 0.6426081
133 -2.4403825 -2.0732539 2.1469958 -0.20601606 1.8291801 -0.81969607 3.3191094 -0.05596222 1.1177231 -2.272778 3.1671207 -0.2588242 -2.087326 0.28607842 2.226952 -3.9506536 3.3259008 -2.341411 -2.1215236 0.01915051 -1.6805662 -0.12905379 2.9533968 0.52575743 -0.61565447 5.913125 -2.3924975 3.8724174 -0.31285197 -1.3128257 1.6483096 0.3338891 -1.4144106 -0.786711 -1.7036076 0.66226614 -2.5985763 5.609827 0.8758788 1.7065109 1.9549749 0.39193746 0.9710877 1.4440258 -3.9994557 -0.34536216 -0.753524 -4.7023683 -3.562609 0.82862055 0.99996525 3.2856205 -0.23265572 1.134612 -0.8386761 -3.6954324 -2.759805 1.637422 -0.21588318 -0.09658285 2.1469445 -1.493616 -1.0484567 0.9445863
166 5.2960343 2.0128045 -2.4399402 3.96506 -1.5306567 1.1808183 1.6935692 2.1605558 1.5562874 -4.257365 2.3762074 1.0038413 -0.4455838 1.8611438 -3.5075223 1.7396469 -2.1648984 -4.108794 -0.70835847 3.8008232 -0.24696669 2.5695674 -2.1017847 2.2250035 -3.6450806 -1.0440427 2.7496943 -2.7244458 1.0840914 1.3706484 1.9010004 -1.2383184 2.2693334 1.1983352 -3.3553126 -2.2970743 -1.513366 0.54933244 2.2961118 4.1719418 0.20602973 0.64713573 -0.52922463 -1.2352425 -1.1176442 5.648283 3.3951771 0.5821862 -2.647807 -0.47149977 4.312074 -1.255638 2.458197 -3.1965404 -1.7372924 0.6392711 -2.7279427 1.9457973 2.8094354 -0.44127798 -1.0959574 -2.2526903 0.061437044 0.03755681
130 0.30504298 -2.6671464 -0.49742928 -0.73628414 0.3360304 -2.9210334 -4.5597453 1.7962012 0.22727169 -2.9184766 2.1588788 1.4616908 -1.2382784 3.1512394 2.7934773 4.002692 -1.0298479 0.29278034 1.1951118 -0.30240488 3.7659097 0.028997784 -0.5700658 -1.9964464 3.3765287 5.444411 -1.7712764 3.066186 0.7052068 1.7424752 2.4319892 2.950177 0.71212244 0.9090763 0.5170014 0.23583283 1.670701 -3.3593676 2.655989 1.9588789 2.2307825 0.3954144 1.5300705 0.9597947 -2.9589248 -2.8517148 3.348408 -1.7980441 -1.0701458 -1.9412296 3.360786 -0.38446817 0.08115153 -1.2191945 0.067747146 -0.1626963 -0.599716 2.0317109 1.3745265 1.2501589 -1.5369668 0.26504862 1.2038445 2.6962397
141 -0.4825223 -2.3335824 2.4263933 4.2368555 2.9452813 0.9769769 5.1205187 0.21478388 1.1629518 3.7340493 1.605176 0.94161284 -5.681196 4.231375 -1.9071944 -2.324034 2.466062 -0.40092772 -0.25317138 -0.16667545 -1.0711497 1.7511607 -1.092108 -0.056438893 -5.0500546 1.7493515 -0.84563786 -3.2674356 2.3482084 0.38923565 0.46913585 -1.5106999 0.12871927 -3.025688 -2.8506515 -2.436968 -2.8710988 2.023557 0.760864 -0.6724164 -0.64564776 0.61060584 -0.18118696 -1.2757537 1.4348543 3.0423048 0.21840662 3.78354 -3.308456 0.12959349 -3.0043008 -0.13244402 2.2179265 -0.19230473 1.9904128 4.6101723 -0.02072747 1.5012565 1.0039532 -1.232204 0.15375182 -1.2518299 2.548767 -1.0038413
135 -1.8274328 1.859187 -4.292118 -2.3549747 -0.8677685 1.7697743 -0.48994198 1.4051268 -2.003338 -0.77998465 -3.9587946 0.7373333 -0.8236713 -2.6050632 -1.2797592 1.9486742 1.1865684 -4.055222 1.4741808 -6.691667 0.93421 -1.563511 2.1926768 1.1137351 1.470316 -1.2061489 2.695025 1.1172551 2.0814795 -2.4782617 -0.7625705 -2.0676255 1.2778566 0.91102266 0.5698629 -0.9522762 0.13514175 3.4835553 0.6440159 -0.5139167 -0.4231055 -4.2269926 0.1649791 -0.80825114 -1.1428994 -0.36167625 -2.4361076 -0.47591394 -1.2756709 -2.925916 -2.586584 0.5520809 3.0212302 0.03038265 3.5972636 -1.7997942 0.66632485 1.2041762 -1.0811524 -0.98965394 3.992786 -2.8669145 -0.24974667 0.07878342
113 -0.025889117 1.2400832 -3.034269 -2.8814886 0.28317854 2.9609616 2.6544964 2.5633159 -0.95251995 -3.3680341 0.65298694 0.050165348 1.4331805 -0.63677496 -0.12650883 -2.4925573 -1.6502417 0.6621627 3.0734093 -0.25348273 0.6808557 -0.26122734 -4.0167975 -0.2674485 2.624455 0.8793532 -1.5347795 -0.8188935 -3.674015 0.27229446 2.9533453 -0.73931307 1.0182867 2.9864738 -4.279474 -0.025389578 1.5994195 -2.1031137 1.7926576 0.7342278 1.9087627 -1.3142995 0.15834336 -1.4833924 -0.947974 -2.1270235 2.2906172 -2.4739435 -3.0231671 -1.9618971 2.000282 3.9530022 -0.020323347 1.1369975 0.44732597 -3.2948184 4.422606 0.31104833 1.4758226 -1.1812019 2.1425612 -0.8135705 3.6421955 -3.0833566
112 0.3330777 0.64885455 -1.1658009 0.20557639 0.117973104 -1.3314471 0.14716002 -5.7937355 -0.07213982 -0.7010434 -1.8826549 -4.107981 3.8458538 -3.2666945 0.2534606 -1.4704006 -3.7302554 2.442319 -0.19301154 -1.6000687 0.37455216 0.9616264 -1.4606067 3.1937332 -1.0669374 -0.02206021 2.6856089 -1.1902255 -1.1223533 -2.2778559 -1.7235582 -3.7044985 1.3260823 -1.0532223 0.66222686 -1.2568861 -0.077601306 -2.0540152 -0.6986969 0.7678507 2.1816237 2.7935808 1.2683575 -2.8404374 -3.2087939 -1.5455455 -2.7647066 1.8046638 1.0915202 -4.318279 0.835299 0.04696627 1.2159573 -1.267177 1.0632552 0.805855 0.6748663 -0.7097183 -1.1956615 0.7367741 -2.6168559 3.666706 -1.7079427 2.6269042
139 2.6632047 1.7661244 5.2692943 -1.7379436 -0.061556116 -2.8196988 -3.2822278 -0.7259381 -0.8283019 1.8828441 1.1095828 -2.73135 1.918994 0.34832817 -3.6487534 0.35253358 -0.52644354 -3.4509072 -1.9749206 1.4459097 0.24633329 2.1735554 2.3144548 -0.44574386 -2.4704123 0.41573676 -2.8155222 0.35595042 1.9550278 -0.27573773 -1.7325535 3.2160614 1.5291718 -1.4824685 1.5751833 -0.9034694 0.1338132 -3.0334036 -1.0049837 2.4479995 1.7007885 -2.0326796 -0.04856853 -0.48667285 3.2033901 0.9023184 -2.0395966 2.4227014 -2.686912 -2.908876 -1.348403 -3.0306296 1.400026 7.2910485 0.8705231 3.1591308 -1.0120274 0.6428751 0.63764006 3.723167 0.04779873 -2.3631558 0.36796778 -0.5636424
66 1.6961737 -1.9552135 -2.6016831 -2.3822272 3.0274212 -1.7805293 3.4495573 -0.72046417 -1.0106103 -0.06639216 -1.6895851 1.9563043 3.2427368 2.1629148 -0.83494914 -1.7972121 -0.330216 -1.7912079 2.8627815 2.240226 0.35191908 0.031099044 -0.49909505 0.80057544 1.5322517 4.3295517 1.8166448 2.8476675 -3.5068967 1.1783018 -2.6265278 -1.6809602 -1.905205 -0.7398494 0.6129239 -0.63113123 -3.133768 -2.3661053 2.5937564 -0.5822585 1.2340889 1.9173611 -1.5450863 4.462858 -1.6047338 1.0758082 -0.7535724 0.7492717 1.5084234 -2.0553677 1.8430569 -1.2589588 -1.3215282 0.8217399 2.9001436 0.8820069 1.1454881 -2.0594165 2.2388995 -2.304584 0.6516198 -0.1653749 0.530167 0.5263852
74 -1.112167 0.16512656 -0.5637265 -0.54370373 0.9809988 -1.1058403 -0.45078415 1.638882 -0.83601964 -2.4306984 0.8152407 -1.9976532 -1.9575539 -0.19439042 1.2083484 2.451671 -0.48642835 -3.006126 -3.2269 -1.0486748 3.19056 -0.27795386 -1.9267989 0.078498684 1.806358 1.3010894 3.9062986 -1.001223 2.2219303 3.4036007 -2.1959171 -1.2207817 -0.09208373 -0.117700525 -5.4388576 -0.6306651 -0.45618922 -0.82956034 -0.35688183 2.369533 -2.6366415 2.933035 1.6123074 -0.33271596 -3.8599691 -0.31922096 1.9062973 1.6028014 -1.0748714 3.7605069 0.113835655 -2.1808913 0.19565511 2.0739927 -0.97082675 3.8623095 0.17163588 -3.3497803 0.99907804 0.18126927 -0.8911161 -1.7160764 0.124576025 -1.1507063
8 -0.55942005 3.106251 -3.2647629 -0.5899729 -0.19215462 -0.8177101 -2.7252233 1.4555756 -0.5385165 -1.2791348 -2.9947088 -1.2180752 0.9598287 0.2663988 -0.9578881 1.9819403 -0.9924669 1.2131386 0.6579092 -2.12748 -4.785388 -0.3945123 -0.26572776 -0.39497167 -2.0611277 -1.1918317 -2.9240112 2.5214803 -2.05841 0.87889683 -3.7421155 -0.7432351 0.7406163 1.4038837 -0.5047681 2.0630581 0.937388 2.8178132 -0.724402 1.5957593 -1.9115173 1.2521962 -1.2776622 0.24629575 -1.6949667 -0.78454185 0.27535176 0.81528217 3.863282 1.8706657 1.9857135 1.8417351 0.43717614 -2.4780192 2.2421246 -3.1622362 0.8469681 -2.3620155 -0.14773463 -2.374022 1.8768115 1.0070703 2.4681444 -3.0568342
132 2.3710802 -2.357762 -3.0845811 0.58474886 -3.0508962 0.8162389 1.1883395 0.597451 2.259689 -0.28441027 1.4967253 -4.136429 4.2481604 1.0134463 -2.4237623 2.151004 0.08708517 1.3448989 -1.716145 -1.9231969 -0.17326482 -0.15640028 -1.7871927 -3.645327 0.6102047 4.804248 -2.6805012 -5.611529 -1.2444955 -0.2843495 1.4498146 -0.31644082 1.221007 -3.1580648 -1.6590594 -3.9148252 -1.1467171 -0.75502026 0.4417766 -1.0252281 -0.60521966 0.16186719 -1.5578846 -4.2195354 -2.1520226 0.22479025 2.7328503 -2.004915 1.5752532 1.0034454 3.8282695 -0.11512823 -1.4556968 -1.4799399 1.5818186 -5.13066 3.1446924 0.567113 0.1175281 -1.9013106 0.28948128 -4.3687553 -0.2193234 -1.1682439
153 -0.4498467 -0.5196375 -1.5736675 -2.1935062 -2.4818547 -1.2050174 -0.36838546 -2.469198 2.3722367 0.017839804 2.531301 -1.6731908 2.0648904 -1.818279 3.3398516 2.8450358 -1.4836392 0.4152808 2.2197764 -6.7132535 1.8035486 -1.2390904 -0.5495161 -2.2847073 3.8795846 0.96916634 0.09561464 2.193207 2.526628 1.6399497 -1.9048897 1.0160089 -1.7982497 1.134923 3.55097 0.906351 0.9192257 0.3720589 6.1029754 -2.5563476 0.61502475 -1.1994225 -0.53943616 1.3828038 3.6131296 5.4371657 -3.3877056 -0.5305947 -0.15717813 3.2990675 -0.6258354 0.015758302 1.6182531 1.761264 -0.29102477 2.5801735 -2.9204915 -0.9020104 1.0760148 -2.5423324 -0.036346354 -0.3102316 4.880109 0.517614
107 -0.807761 -1.4996881 3.5767696 -4.366064 -0.70515275 0.034786664 0.24008502 -0.16132593 0.43307358 -1.309893 4.062255 -0.30599967 -1.4413222 2.5208642 4.1154957 -1.6026539 -1.1315097 -1.0449202 1.4342476 2.7651424 0.97700155 1.3088454 1.9084954 0.7327981 2.3084502 0.1151237 1.0007021 3.0756967 2.3026032 2.8742032 -2.174842 -1.0281621 -3.0793583 -1.6562154 -3.2430325 -0.7640517 -0.49993312 0.31527945 2.5364826 -0.057935853 1.2670784 -1.6667547 -3.8377244 -0.24579431 1.660961 -3.7066395 -0.8419616 0.5174669 0.94970274 1.7225571 -0.92538387 1.1528509 -0.41206312 3.5834024 -3.8721418 0.10008011 0.92435014 3.2772605 0.6925879 2.0124278 -0.69136906 -0.3105313 4.118616 -4.8545194
81 1.6331258 0.88691574 1.946384 1.237776 -0.08078218 -0.94899434 1.6872865 -1.3403143 2.0349832 -0.9291091 1.2079109 -1.3348924 -0.7948373 -0.8209192 2.4553828 0.2888117 0.60589945 -1.7560172 -0.83733135 -0.5660573 -1.6820366 2.5823326 -0.8846701 0.82994276 -4.3892646 -0.40678063 3.3857203 0.68883693 0.5215085 0.583902 2.1206152 -3.6129832 -1.9902403 -3.5723567 -0.64425826 0.91597855 0.7235755 1.4780747 -3.962692 -1.6249317 2.4021115 -1.6232231 0.5884059 -0.40961167 -0.027071934 2.8587656 -4.140897 2.8489053 1.5201119 1.7657334 2.481464 -1.0405871 0.24077813 -0.13662265 0.5047104 -1.9665219 1.8215209 1.0381701 1.394269 1.2760949 -0.6588169 0.8757271 -1.5522294 3.786676
173 2.3451395 1.6587183 0.4604977 -3.3487825 -1.8383329 -1.1461511 3.6917434 -1.4635236 -1.4946868 -0.35733762 1.8184947 -2.942688 -0.21037352 -0.13560595 -0.0037776998 -0.8618449 1.2483491 -1.6059612 1.1950034 4.0293946 -1.1528965 -1.0844487 -1.9651717 3.8902986 0.49325657 0.06704725 0.42158714 -0.6260218 -2.3361475 -1.8459523 -1.2324016 2.6480505 0.035286188 -5.002713 -3.2898638 -1.3444142 -3.0153422 -5.4802933 0.75166506 0.76026183 -1.0594085 -1.6272765 -2.0916107 -0.63392955 -0.8619068 -0.73254395 -0.92251307 -1.6150453 -1.6529742 0.7595349 3.1217005 -1.5310304 -1.7671257 -4.748263 1.4111637 2.8561227 -3.862155 -0.28922012 2.6821342 0.5212922 -2.65698 2.1216264 3.0122092 3.8767495
115 -0.91276515 -0.9158461 0.20016441 -0.1635097 2.5698755 -1.3518986 0.3742041 -1.5008678 2.0740519 1.5794889 1.9121048 -0.0048732045 -2.782245 -0.9271052 -3.6242077 -1.4604907 0.98350024 0.9020439 -0.12909724 1.0636506 -1.7787198 3.002869 -3.3629644 1.7593952 3.7239265 0.0869715 -3.2351305 -0.95599604 -1.3173593 0.5709937 0.30934304 -4.7291417 -3.0614305 -1.8952671 -3.9547555 -0.25147834 0.35207984 -3.9186423 0.59702826 0.50356865 7.3965783 0.9831609 -0.056436032 0.12528928 -0.32210204 2.9402332 -0.75826335 -0.5195142 -2.3030887 1.9296858 0.20423208 -2.9365058 -3.3989732 2.5668044 -1.8799661 0.16580059 -2.933449 -5.000505 -0.03429111 -1.139059 -0.08643245 -2.449357 1.2812063 -1.4837705
144 1.5690929 -3.9495661 1.7550086 0.7667125 -1.0698227 -0.23127131 -2.7937698 -0.39161357 1.7366141 1.043587 -2.4676027 -1.1959242 0.95674723 1.9122841 1.6521659 -1.3616079 0.80484617 3.4596465 -0.06378646 2.2079284 1.5993514 -3.6229413 -2.332985 0.4928717 1.1740857 -0.69119394 4.780162 0.3351917 -1.8977075 0.64035654 1.3945812 -0.6204488 2.585664 -0.52090657 -1.1161952 3.156292 3.2409546 3.7099752 -2.2970977 1.9455792 -1.0955639 -1.2249751 0.1445987 6.852311 -4.753222 3.2342505 -3.4022415 -1.230752 0.7716489 1.398135 -0.21138735 1.7380571 1.3511662 2.0761395 -0.23160382 0.60499156 -3.7756712 0.37146848 1.7500976 0.6520608 -1.6075603 -0.7117305 0.2840113 3.1323926
157 2.446034 -4.5744753 1.1619623 -1.1120301 -1.8742757 -7.0743837 3.5336885 0.22910629 0.36703026 2.190784 -1.4764228 2.446478 -1.863888 -1.6350372 -1.9631993 1.1020733 0.13791251 2.0272162 -1.6547066 -0.8098471 1.3896393 0.3012025 2.815225 -0.16246912 -3.0414746 3.5914576 3.2489793 -1.6535345 -2.3605328 -2.2813582 -1.0118078 -1.158098 -3.1682649 -3.2712395 -0.84394217 -1.6047502 0.3128318 1.0443761 0.32476884 -0.5987232 -1.5852703 1.2951912 -3.3158362 -0.51086295 -2.7053032 1.5509803 -1.4988273 2.4846888 0.53886425 1.1915375 -4.6022964 1.1785916 -6.5140624 3.3065937 1.0132729 0.66153777 0.80408937 -2.5439801 3.9012065 -3.10173 -0.15848666 0.78446096 -0.14539951 0.21902381
138 0.37443167 -0.25385544 1.4213562 2.999643 -1.1860038 1.2643697 0.7257552 -1.3821203 -1.8250468 -1.2178775 -2.0346534 -2.4237225 -1.6885775 -1.5959591 -0.3450496 -1.8248156 -1.4792973 1.3303705 -0.27699885 2.5949264 4.515783 0.7571198 -3.371715 3.509304 -0.8533403 1.8990937 -3.2681892 -0.3360193 0.8282853 1.750071 1.8431476 -1.0645124 -1.6773077 1.9164277 1.2862618 3.8406665 1.0964803 -2.849847 -1.0736367 -3.7379014 1.8406913 -1.8593707 -0.35676253 1.221602 4.417521 -0.06317549 -1.0837466 -0.5641785 -0.19036858 -0.4495838 4.2323437 -0.8200267 -0.34129256 -1.8263186 -0.28837338 0.08687774 0.95840853 1.8261111 4.552932 -1.3286273 3.638856 3.4473324 -4.910334 -1.8002155
118 -0.64675665 -2.1699436 0.34011725 -4.7096477 0.9542805 -1.1125433 -0.009530708 0.36842793 0.18134397 -0.49926212 -0.5584913 -0.5768943 0.6842697 -2.267644 1.814155 -2.9393215 4.738389 -3.4251142 -1.5909246 1.0204432 -2.8832426 -1.9919391 -2.3287961 3.355796 -1.0783968 0.6761478 -4.602901 -0.41919085 -1.7763891 -0.6260831 1.1992747 -1.8677578 1.0900062 0.36345124 0.9427063 1.4871222 -0.9159869 -2.7575812 2.5345166 4.4549985 -5.560053 -0.8977566 -0.42505696 2.09712 -1.0737269 -1.9096715 0.64129585 2.145678 -3.392743 -0.7719286 0.826449 2.5830855 -0.15081473 1.0905354 -1.0990248 -0.30973104 0.10571277 1.4088454 -2.168841 -3.544602 0.23109141 0.87300456 -3.6152549 -3.4721842
199 1.2543708 -2.9911342 2.106282 -1.8562162 2.3894198 1.2744435 -4.212877 -0.36225432 1.3698224 -0.90369016 3.2943237 1.7262976 1.561868 2.065658 3.871102 0.5340421 -2.0487816 -1.8384966 1.8893791 1.3785118 -1.7628952 -1.0226059 2.583878 -0.88057315 1.1023675 -1.808739 3.522048 3.735287 0.5245671 -0.6883067 1.6688046 -0.062741116 2.2028096 -1.7627234 0.78306025 0.33359283 2.8095405 0.8954406 2.073875 -2.1650877 1.6892236 2.089376 -0.32339504 -2.0227618 -0.62705946 -0.17954947 3.0863152 1.4222101 3.6007977 0.042376533 2.207615 0.67708594 -3.9331868 7.633192 -0.6352122 -3.981284 3.6013536 -1.3452668 0.6084213 1.1356435 1.8094974 -0.6313166 1.6488088 0.48727208
131 0.6626428 -1.6008291 -2.0610745 4.048605 0.66616464 -1.4501021 0.89353764 2.8996513 -1.1153986 -3.1132424 -1.4058527 3.0822349 -0.4527638 -1.5166643 4.2404027 -2.2375739 2.1438498 -1.2618654 -3.023795 0.517302 2.9845095 -5.3051863 -2.0499265 -5.410677 1.9857799 0.5993501 1.1870179 -0.22922184 0.41255882 -0.8202527 -1.5875323 -0.5541518 2.0134482 0.27804077 2.2676003 -0.31489682 -5.984061 -1.5644925 -0.733421 4.769607 0.12844868 -0.30615336 -1.1027211 -0.46438512 -0.9654087 -2.8020182 3.6116548 3.0508504 2.2920718 2.1257982 0.75469667 2.0969317 0.95532906 -0.36445335 0.87360686 -2.4242613 1.4360127 -0.99299175 -1.3939394 -3.3411825 -1.7071443 -3.0600245 -1.3996491 -0.39089116
175 4.622985 -0.4940023 3.721406 -1.2240258 -0.21746986 -3.364055 1.0580894 -1.8591535 0.36389875 -0.5194519 4.433766 -0.17756435 -1.7827582 -3.4966846 -1.9242427 -1.4361258 -2.1109731 1.675371 -1.0313721 -0.4019262 0.6904046 -2.7749448 -2.541038 -1.9063877 4.8520756 0.12709177 1.885521 0.7830213 0.9755265 0.5898645 0.17854804 -0.66658247 1.1309359 -3.0146353 2.0333037 -3.2070801 0.97633886 -0.63379276 -0.707004 -5.5120354 -2.2280624 1.0003448 0.52942085 -0.41541785 5.1028347 -0.58827674 0.5389571 -1.1754905 2.6215687 -4.4867716 -0.3945796 0.81016743 -2.0733116 -1.4001408 1.7218039 -1.2058672 2.7279499 1.5751973 -0.8269967 4.4612026 1.0226561 1.7058992 -2.0182114 -1.1662185
122 0.8694722 -4.779508 -0.3112758 -0.96569157 1.6420203 2.8796766 1.4387673 -2.30886 -1.5400357 -2.7991793 -6.453109 0.9299476 -0.20158578 1.9902878 -0.8016919 0.86838907 1.7244767 -3.005056 3.5804298 -2.1515255 3.3653307 -0.024192529 0.63559765 -0.28594872 -3.1741784 -0.7289635 3.7090003 0.90915203 0.52880836 2.9071112 0.08652378 0.4010656 0.07603822 -4.3567123 1.2807865 -0.8170322 -1.657314 1.0818145 -0.7379881 0.71053153 0.7088422 3.0962908 -0.5167385 0.31197283 0.53032494 4.968495 0.40565383 2.2343209 0.029505864 -1.4077091 2.2504375 -1.9118724 3.1827517 0.6716631 -4.3309083 0.42953286 0.9838287 -1.0445619 0.06314448 -2.896208 -0.69247335 3.2109554 0.86373526 -4.2226543
116 1.5259285 -2.997058 6.5148053 2.8261998 -3.6923146 1.3020561 -0.527291 0.80578834 0.39716572 -0.92627364 3.2659397 1.1222523 -0.8326247 1.764098 -1.8081814 -1.1152546 2.3926938 -1.0782293 1.3843044 6.008689 0.15281722 0.78226936 1.8627812 -0.69967735 -1.1695232 -3.5599687 1.6368613 -2.346439 -1.2902617 -1.0366166 -2.4088373 2.6344929 -3.1663105 1.2014544 2.2792492 2.729561 1.3259737 -3.3596356 0.74270934 -2.1039124 -0.04201254 0.4021814 -3.5191681 -1.3021629 1.8452017 -2.456495 1.838435 -0.33766878 1.6526871 1.4670446 -0.70122296 0.2618445 1.3007709 3.244151 0.42736223 -2.63006 0.57599133 -3.4057288 1.379185 -2.4562573 0.8949024 -0.13831103 -0.4070673 -1.5593873
124 -1.1496131 -1.4478956 -0.24712893 -1.5625945 0.63272345 -0.0059532826 -1.0322806 0.8471375 0.89637387 0.3744589 1.1821738 -1.1968524 -2.5217671 -1.6587809 -0.4350483 -0.47932583 0.15050313 -1.0103253 0.58762383 -0.9703186 4.119174 1.7317585 1.3468543 1.5389569 0.8145091 0.54110444 -1.1005787 5.584744 -0.68571156 -1.6958855 -1.984967 2.085599 -0.98175716 0.085866444 1.6354744 -0.40172988 0.16494091 0.42512313 1.7059311 -2.1692457 1.801305 1.3446032 -1.2584825 3.4831605 -0.029632617 4.33188 2.8631618 3.9010594 0.03292064 2.1751862 1.9334308 0.7241583 -2.1413107 0.52219 0.5443806 -4.496485 -1.1362865 -1.9900515 0.5664061 -1.9041628 1.9483821 1.435748 -1.1650734 2.5783114
240 2.766807 1.7515178 0.5478004 -2.606873 0.93344223 -1.837937 -3.303907 0.9895146 -2.2357109 1.9413093 0.705504 -0.2483056 -1.2155344 1.2083944 -3.2389154 0.26825926 -4.085699 -0.78976196 -2.3556688 -2.3285327 2.4693046 1.3170208 0.79387367 -2.9541254 -0.16923545 -1.1418436 1.8872973 0.44308528 -2.839484 -0.5125941 -2.0051575 5.3738523 0.59667516 1.2015425 -5.346798 2.958357 5.310081 0.2453902 -0.4777662 -3.6975355 -0.637421 -3.968213 -0.6076388 1.3199377 -1.4667956 -0.11836245 0.6237319 0.7836134 -1.7235475 0.63080895 3.2321682 4.8896537 0.5360438 -0.9617948 1.3937131 -0.80101895 -0.35967392 5.040205 4.243781 0.8165973 1.7322803 -0.2296498 0.44252396 -0.55580527
149 2.1296194 3.6117764 -2.4886057 -1.0056984 -4.4299893 0.4079492 1.2263196 0.8210529 1.1710725 0.58748513 -2.1696668 -3.1385388 -1.1532885 -2.3333595 2.1884181 -1.6531557 0.065888174 3.237941 2.942792 -5.1721306 -1.6940845 -0.5877075 -1.8402125 -0.90004534 1.4543552 -2.2340076 1.8905066 1.2015029 -3.872031 -0.99633247 4.9309764 -0.5418197 -1.0764449 -1.6883714 -1.3887122 -2.9238508 0.15728009 1.1570377 0.39589337 0.51393634 0.6563108 2.1300118 -2.5897934 2.132365 -1.1661916 2.9775224 0.24632898 -2.350651 1.559393 -2.175786 1.9921075 -1.0923336 1.592752 4.6650624 -3.8432252 2.5083225 2.820942 0.81518304 -2.2470667 1.675013 1.974458 -0.8602456 -2.5894876 -2.0700672
159 4.5970907 -0.95678025 -1.0015609 -2.7547133 3.3417726 1.0752596 -1.1413937 -0.44041926 0.39716414 -2.5582757 -1.0198535 0.17212321 -2.8089936 -1.9103743 1.2073518 3.3435006 -1.7433609 1.334677 1.1871989 0.071009025 -4.410861 -3.5350237 1.2138631 -0.25864613 0.30271196 0.99935913 1.889646 3.3624432 -1.5848496 0.080026016 1.3233745 1.0920368 -0.74883944 -3.3076508 -1.0435287 0.8188721 -1.2687906 0.77512544 4.092157 0.6138617 -5.230693 1.3872384 -0.19151238 3.3118107 2.901908 -1.2012575 -1.2796061 -0.13981353 3.1235514 1.435362 -5.1000767 2.4720953 2.5932968 0.55119675 -2.4235017 0.4211772 0.5812646 -3.539884 -2.4076807 -0.5578428 -2.9962811 1.0194278 -0.039154615 2.3421159
269 -2.1562333 5.1483555 -0.7154695 -0.7371142 -0.78113747 -1.8898034 0.2561808 2.4234974 0.47162724 -0.50755787 -4.067227 -4.0235767 1.5775796 -2.4992952 4.0500116 2.7672644 -0.59785044 5.1296926 -1.0202655 -0.41443086 -0.5173868 -2.2322214 0.84747547 -1.1702385 -3.3824568 1.5638213 -1.5486145 1.8397759 -1.2661002 2.1804047 -0.3576681 2.6420252 0.61336637 -2.1438398 -2.0159187 0.39214534 -1.5439165 1.1315415 2.4167867 0.7646415 -0.39439556 4.4074264 1.4285535 4.3105183 -2.2264616 -2.4742026 -2.394482 0.61479366 -4.4357524 1.0083313 1.475516 1.495765 0.20212488 2.0737343 -3.0634482 0.76525265 -2.1486726 0.9257711 -0.00032467037 3.5532742 1.4939299 2.8681438 0.8954199 0.16270828
103 -2.2857835 -1.5761247 2.3069901 0.9095242 -2.203506 3.7150822 0.6561077 0.8356642 -1.1450202 -0.3004547 0.89671075 -4.6246605 -2.3057456 -1.0840979 -0.041852616 0.92417717 -2.7886846 1.4575154 -1.9207649 -0.6773903 -1.5954413 0.52580816 0.6275176 -1.3615638 -0.89615804 -0.20949416 1.3670125 -1.1693171 2.4133465 1.0750479 -0.29523307 1.0748719 2.3719082 1.1118928 -3.906147 -1.138228 -1.9383899 1.4782609 1.4235327 -1.4309838 -1.5780032 0.6174891 6.5543346 -4.695437 0.4251463 -1.720625 1.8525035 1.3480335 -0.7653437 1.2039711 2.4172714 1.9155998 0.95618457 -0.2789134 0.9809124 -4.762444 -1.0056486 -0.5096355 -3.4403925 1.3123189 -0.18838333 -1.8499186 -1.9873093 0.43723103
203 2.1314085 -0.53642553 -0.39289802 -4.2292094 -3.8916166 3.723868 -5.2262526 1.3998477 1.7727052 -0.7290193 -0.40731472 -3.7336843 -0.18192811 -0.949134 -1.4558077 3.4108415 0.52472466 -1.6552994 -0.33173844 2.5781763 1.9962678 -1.2875466 0.2827709 0.66810966 -4.062848 -1.5192899 3.1368327 -2.752083 -2.5703678 0.56916744 3.2198389 -2.7298744 -0.021617679 -3.328767 -0.012650657 1.4806129 3.1195426 -1.3391923 0.80357224 3.0302677 0.7154695 1.9906462 -1.4788746 3.5215204 -1.5797751 -0.915966 -4.504771 -3.0101717 0.89353025 4.330184 0.3592809 -4.2804604 -2.596836 4.318416 -0.5809343 0.171146 -1.4555913 3.3220637 2.5539286 1.5364447 0.89449114 1.6026753 -0.84749717 1.6445422
174 4.957516 3.5423563 2.8241594 -0.20162496 -2.2063553 5.3137407 2.1631224 -3.062095 1.475631 0.85975033 0.667913 2.321859 -1.1228334 -0.3589298 1.094559 -1.8125597 -1.6944177 0.90980804 2.0243971 1.912812 -0.9656353 1.4942893 -0.2785522 1.6757715 -1.0222996 -3.6018043 4.546799 2.3681166 2.7499833 -0.11353051 -3.721921 -0.22908069 -0.90535706 -1.550044 3.449808 -0.9386237 -1.9837472 -0.2800592 0.7544134 -1.2852845 -1.9667197 -0.14025052 -1.5069052 1.1320337 -0.1619636 2.5618908 -0.7541728 1.5692412 2.0302625 1.9085964 -1.4364954 2.7329714 0.8995211 -2.1404674 -1.2768965 0.37454635 -0.80415404 -1.889324 4.450198 1.8306106 -0.2742897 4.717842 -0.65966535 -1.4042457
177 -1.1746216 0.03331719 0.3007499 0.6724014 -0.5533103 -2.5705986 2.5694494 -0.8866269 -1.8147469 2.3158379 2.3823037 -0.7297918 -2.3827853 -1.2191491 -2.919715 -3.1394622 0.31366006 2.083875 -1.655987 1.2484208 -2.0259519 1.7273463 -2.3282928 1.5152532 -1.0819913 -1.8644307 -1.6175303 -0.00971107 0.057061438 1.7735666 0.8016031 -2.6494358 -3.0077255 0.08955274 2.0044355 1.8866575 2.7944582 -0.8161751 -1.6887472 -1.9465296 2.614602 0.52863514 2.7215528 -2.0822906 6.2572403 0.21586756 -0.33974913 2.9680266 -0.7113001 -1.5852191 -0.66679543 3.0255272 -4.5143538 2.1505413 -1.1228387 4.1789722 -4.2456913 0.3692154 -0.87186074 2.007152 -1.1104692 0.932079 -0.4305539 -2.4309514
129 0.989608 2.2732573 -3.9592361 1.8276258 1.8736998 -0.62203467 -0.1888954 -2.9153812 1.3281986 -1.101497 -0.14003617 -3.4912875 0.76902676 3.4752626 0.1288773 -0.65272325 0.5296944 -1.6573018 -1.0616152 -0.45847103 -0.20928107 -3.0257447 -3.1694462 -0.7327271 0.6196919 1.5094683 -1.9971367 -2.0295281 1.0074241 0.99724185 -0.092831284 -1.1353223 -2.6608071 -0.5623018 -1.6024824 -2.5093248 2.0419464 0.82395315 2.2761753 0.47771284 -1.0804322 0.91611516 -1.9477345 0.7018145 -2.408391 0.01815823 1.1238751 -0.85617006 -0.068607815 -0.61556274 2.5161827 1.8106567 -2.2673995 -1.5187215 -4.293828 5.7029233 0.7948237 5.498999 -1.9045104 -1.9987438 -0.52583724 -2.9329216 -1.6296304 2.2106242
