1000 64
340 -2.9008458 -2.6194346 -5.313945 2.6204326 -1.1321603 -1.0064075 -0.85193497 1.2045071 -1.2459208 0.81289154 -3.7943792 -1.0273398 1.5112708 4.2278876 1.2252729 -0.9418951 1.1037596 -3.1431956 -0.83922815 1.6677836 -8.189216 -1.423941 -2.958766 1.763641 -2.8627963 0.40888557 -2.3217783 -0.9339258 -0.113610394 -4.25246 -0.5982252 -0.74620414 0.56931084 0.09142743 7.1934853 -0.38014874 -1.7080033 3.6244025 -2.4799309 4.8215637 -3.503245 3.0117035 1.2567215 3.3293843 1.9680791 -1.8800943 -3.904837 2.8155463 -2.3501678 -3.0748146 -2.0491292 -2.2331572 5.420765 0.7009678 4.12589 2.8583498 3.9900486 -3.8989995 4.4529376 -6.2153053 -1.2830471 1.0643941 0.24968515 4.7701435
958 2.1983514 1.6741004 2.8400946 3.3009758 -4.873495 0.788301 3.5884004 2.8057094 1.9016944 2.0953634 2.23785 -3.938299 2.8236203 -1.2231858 -1.0346935 1.7088767 3.0230823 0.5963857 4.2699494 -2.6423368 2.384749 -0.63213545 -0.7485657 -0.65437764 2.423419 3.2420518 5.323509 -1.5345511 -2.1968284 -1.4171559 3.2007244 2.4083574 -3.881896 0.13417716 -8.265165 2.6991308 3.8831372 -4.668344 3.2547805 -4.1676188 7.237483 3.7939959 1.0169863 -3.5651288 -1.0578897 5.5788136 -2.5139148 2.4629538 -0.59409267 0.17810856 -1.0364023 -0.1856545 2.6860461 -0.27553385 1.9231527 0.45919532 -3.9724023 -1.4537272 -0.71151686 0.33947945 -1.2698834 -1.3045725 -0.59230846 1.2736571
786 -1.5451207 -2.9260485 1.2594831 -1.5375907 0.65269226 1.6919959 -1.3466443 0.68761814 1.2880095 0.9034942 1.7472862 0.23870207 -8.586693 -2.300669 -3.376243 -2.7053056 -3.3804274 1.2214041 1.43316 -3.8455813 -4.222042 -1.9764923 -0.47191364 6.449363 -7.829495 -2.7066596 3.208623 -1.6419691 0.69368684 -0.6129432 1.7963823 3.3821192 -4.5893354 2.9702172 -2.6697302 4.172729 1.3581625 0.4777958 3.6857 8.968819 -1.1019996 -2.9771042 -0.34286612 5.446033 -1.2694013 -4.1839685 0.8305579 -2.9751363 2.602755 0.3779103 -4.0605583 -0.9529312 3.1277812 0.09321987 -0.9980313 3.0496664 4.531054 -3.079873 -0.2759264 0.28778693 3.2835925 5.746018 0.49093327 0.06893971
934 -3.3572595 -0.035397008 0.93226594 1.6108123 0.9035485 -1.6506257 -2.3866029 3.3254251 -0.39767578 -2.5804234 -1.5128477 3.6396458 -8.954083 1.9529337 0.9853099 3.8173914 0.17028444 -2.0044708 -0.017304739 5.3559422 2.0502505 -2.111603 -1.9085119 2.7892551 0.3857941 0.5102083 2.0491028 1.435654 1.9190283 1.92416 -6.6083336 4.9765387 0.3497575 -2.382858 -2.4682949 -0.5879401 1.7952324 4.5496783 2.724986 -1.6540916 -0.3228483 0.7007759 1.3443519 0.7108937 7.125764 4.1091027 2.0541325 0.38335833 -3.1062138 0.37124386 -1.3311079 -4.5070133 -0.9982699 1.9783067 0.5286866 -2.8992982 3.1930146 5.7184243 4.0720053 -2.2012722 3.8639054 1.1067334 -5.2891836 -4.6564736
9 -1.2855092 2.457634 3.416459 0.2528388 -1.8494779 -3.2010312 3.5125928 2.5597405 5.8488717 -0.71134746 -5.323696 -2.77621 -4.311279 -4.0258408 0.2468828 -1.6904597 -0.56291384 -0.65869033 1.9382269 2.095279 -6.766202 -2.203042 1.0520948 -4.20078 1.5468827 0.24502261 -6.381769 -2.2927618 3.074957 1.3625146 -3.9817615 1.2082866 -2.0298316 -3.1756783 -3.0488033 -1.7338092 -2.0591784 0.7606642 -3.4897337 -2.6811073 4.388976 0.6835461 -2.1481812 1.5524608 0.50509584 -3.8318524 -0.94997317 -0.18424839 -5.1104035 2.0999763 6.3057027 4.185618 5.3463964 1.4307657 3.8295922 -0.5847449 -2.4594772 3.0542705 1.9049239 0.21478422 -3.2629807 0.67072076 1.0023544 2.116438
153 1.9191477 1.443237 2.956027 -5.350946 2.3317842 1.1158632 2.7267962 3.0248086 2.928434 -2.8087034 0.58755386 3.088975 -1.341166 -1.9150337 -0.2630641 5.0701947 -1.5216405 -2.7805774 2.7439134 -0.6015588 -3.7080095 0.19022697 1.7329049 -2.5541065 1.7548708 1.9046944 -4.7102995 -2.9561136 -0.6060219 1.7413507 1.2351549 -3.2066548 -3.9494345 -0.93817157 0.54287404 3.7171576 0.46930975 2.389699 0.41093573 2.805908 1.6504799 -2.7126296 1.7179669 -4.0599885 2.8351169 3.8735971 0.7310238 -2.357428 -5.137917 -7.6340976 0.7058309 3.4080334 5.488041 -0.6212854 -5.046947 -4.058715 2.370127 -1.561131 1.9872228 -5.055696 3.4703262 -4.402832 -3.8320284 1.9225663
797 -0.9956166 10.464227 0.26914576 -0.9724125 2.2868164 -0.28151768 2.4667308 -3.07378 -1.1937782 -0.20717758 3.0307968 0.13873279 -3.7658143 2.54297 -1.5322751 -0.5077202 -3.6436508 -1.5937209 -4.6200323 0.37670472 3.0946076 1.997057 -0.7156489 1.172778 0.6978084 -0.41313785 -3.6188154 -3.7576425 -2.1394887 -0.12805903 0.14390625 2.9495292 -4.8201413 -2.1738646 4.0545807 4.3405747 -1.9876236 0.18639302 -2.9053826 6.810959 -5.771738 5.5253386 0.108115114 0.2343626 -0.5101613 -1.0366803 -2.8992922 0.32595173 -0.827536 -4.856515 -0.18306506 3.9361467 0.3483931 2.5664506 6.216553 4.589045 1.8719263 -3.0722601 -0.5013315 2.649006 1.2367226 -2.2194343 0.18811432 -9.12773
298 2.3163173 -2.0946424 -0.5440776 1.0928264 1.66274 1.706161 -2.8167489 3.493101 -5.533987 4.0014114 1.3085597 -3.7889826 2.1336217 -3.4764376 1.3756056 -5.0184817 2.2412076 -3.0740259 2.4596 1.5167432 -1.8409884 1.0054132 -0.25041237 -0.6746539 5.3303103 -0.3541344 1.020429 -1.8950984 0.38546705 -3.4303746 1.4690009 -3.2398324 0.85774493 -3.1756895 3.8882115 -6.175916 -1.4539208 -0.13952495 2.9531138 2.7786357 1.7779853 1.2017757 -2.5882585 3.972557 -5.8572397 0.9195274 -1.8879417 5.288167 -6.7730126 -3.8373961 4.470756 1.7586176 1.7353272 -2.1438966 -0.46056193 0.040508877 -2.684513 -3.9122965 -0.75106585 5.0302267 3.1730115 -1.6263905 -1.3867567 -1.4610522
666 0.07602901 3.9904861 0.6546031 2.9423976 -5.3101807 0.07099795 -0.05234026 1.6349324 3.7306426 -2.8371046 -0.9219714 5.872374 -3.457894 -1.3845376 -0.37007317 -5.969408 2.2525473 3.6004593 5.2087836 -0.41937774 -3.663731 2.4200253 -1.065367 0.34621274 -5.6469574 -0.5173518 2.2334337 -4.0680637 -1.7510206 -1.3089551 -1.3384975 -1.0662997 -8.358043 3.5278976 -5.9218597 2.9109828 1.681362 0.78864336 -1.3955699 0.014597498 -0.17228846 -4.18127 -0.1502144 -5.427093 0.69870716 -4.2321906 2.45024 -0.13907556 -0.736697 -2.5319417 -1.2750795 -2.9342508 -2.038251 2.6278522 -6.7904587 0.029234542 0.61458063 -2.9142272 -0.12663749 1.8227754 -0.09321368 1.906647 0.7315363 3.2881882
479 -4.3762417 -1.945295 1.4933981 3.933841 3.3747838 -2.310313 0.38155094 -2.9105732 1.127013 -1.6723633 -7.9703693 2.4267097 6.564185 -0.0021481179 -1.2543689 1.6789211 0.7181179 2.0611763 1.3216543 -3.4514503 -6.9808726 2.1343017 -0.4369238 -0.17950733 1.3886766 -3.3902717 3.2775595 2.3789635 3.4712968 2.16741 2.5844648 -4.128992 1.137731 -0.15212776 -0.9866313 3.594907 -2.0767865 3.0135312 -2.2722566 -4.0432367 5.3122964 0.9224606 0.9373532 3.6405687 3.425604 1.9244258 1.4008625 1.3220441 -1.3832839 -1.3833016 2.6543767 0.19336374 -1.2991168 3.4580448 -2.0235288 -1.2403392 3.9400976 -1.9812132 -1.6907012 2.5934594 3.766092 -3.4923458 -1.453787 -4.505459
58 3.167966 8.823287 1.2122012 0.31339106 -0.422006 -3.002367 1.6162903 -3.3666596 1.1615522 9.204337 -2.570089 -3.29328 -0.032660134 2.3871038 -0.01312395 -2.969308 -2.4294333 1.7142246 -1.0763822 6.3992543 -1.8485383 0.6965613 3.6045606 -5.4751854 0.34285724 -0.98372084 3.3974984 2.7637196 0.43809918 0.90794814 3.389348 5.465314 -2.1100879 -5.445774 0.5587379 -3.9524443 -0.24816477 2.8460112 0.32528052 -2.130569 -2.881765 -1.3888962 0.11497597 3.12086 3.0407119 -0.10707728 1.0473231 2.1816099 0.9757772 -5.644451 2.4582467 -4.309181 0.018536935 -1.1250827 1.7183647 1.5244131 -1.4624641 -1.1213526 -4.881059 1.583411 -1.1237502 0.97080797 4.5437074 -2.89668
545 2.5920682 -4.0368967 3.8045688 -5.162098 -0.39023212 4.0815415 -3.7300353 0.9814265 -0.4276661 3.306999 6.0656705 4.594321 1.4180675 4.5880094 0.79467905 1.9452019 -4.0130067 -0.44718683 -2.589262 -0.77225953 3.8750343 6.6057215 5.464559 -4.0065894 8.480205 2.9176176 -1.6013857 1.3495723 -2.53557 2.743033 3.1989653 5.38022 0.15363775 0.31061253 -2.7135556 1.0906221 2.6631403 -3.8797367 1.3097352 2.375728 -4.5391254 -3.496616 -0.72782487 2.9044065 -0.10768928 1.6499296 -0.02041882 -3.507137 3.602769 1.2290293 -3.5400245 -4.6901445 2.3373215 -0.4206246 -3.3077247 -2.737305 -1.3931572 6.1069136 -0.62148696 2.3584204 3.8655329 -0.8512024 1.0080472 3.4894052
264 2.9167137 -4.1005454 -0.42160967 -3.4002872 -1.5759406 3.4302547 -3.2038643 -7.008385 -3.0264087 0.3810121 -0.28877902 -1.7883104 -2.4581666 3.1872597 -2.013403 0.27709073 4.418323 -0.9529885 2.5062892 4.2724004 -3.568745 -1.3534262 -1.0326054 0.6830095 3.8882046 -1.284076 2.3174996 1.0687922 -0.468071 0.5025863 6.0157504 -0.10032371 -5.7570558 0.69728094 0.67382896 1.3329318 -2.7531784 -0.55204266 -3.5856237 -7.580597 -1.0961546 2.390392 -3.9117796 -0.7464705 -3.1521056 0.97535056 4.37492 -5.281603 -0.2991856 -1.2576951 -0.39737955 3.6134617 5.174346 1.1906221 0.44141936 -4.0971265 1.5141162 2.318885 -0.37025115 1.1727123 3.4227605 -1.457445 3.9555717 -3.8361368
354 -7.4812756 9.06313 3.7759306 2.760241 -0.6300821 -2.556278 3.4144762 -1.8834425 5.6595044 -1.794925 -3.0250556 -1.1164294 -0.8016156 5.0915074 -2.2156944 -1.9853545 -2.2915692 0.8300232 1.9890141 -4.414759 1.3085766 3.24571 3.205111 0.8975569 -0.55760014 2.6300838 1.3509257 -3.3969367 0.020648185 4.5147023 4.3450165 -5.1507444 3.9666529 6.324142 1.5570443 -4.109984 -0.31840858 -4.1672173 0.69899076 1.6915679 -2.6152146 1.8184891 -0.6688586 -4.466856 1.5720714 -2.6367204 -0.96376973 3.821401 1.4271708 0.40419456 1.2565428 2.5418541 1.0259373 1.1589456 2.167443 0.92288774 1.9125311 4.5048666 -7.584587 -0.4622314 -2.1078093 3.4112573 -4.72759 1.7019526
892 -3.9576223 1.3699585 1.7091228 -3.7862055 -3.081566 -0.06961587 6.843393 0.036869597 3.0304685 -1.2152457 -1.7578125 1.1986208 -1.3416653 6.4419665 -1.9947761 0.33145 0.2796379 3.518523 -1.4732373 -5.8321576 1.641964 -4.952427 -4.7347174 -3.7382402 -1.2491201 1.2086413 -3.017348 0.097595446 1.3305382 1.323335 3.3324387 -0.96107125 -2.532857 2.2304866 -4.122939 -3.6929615 1.4491343 2.7431757 -0.74928236 -0.3006741 2.970837 -0.17359067 -3.578779 1.1703326 -3.3868322 0.06363027 -3.7211227 -1.9883143 -1.4912466 2.6957173 3.937691 -1.3627604 -3.6728458 -2.7383974 -4.4665647 2.1182458 7.8810306 -1.9956342 -5.482641 2.628094 -0.136512 3.1650805 2.7640045 4.41414
839 -4.555462 0.22232534 -4.6781435 5.3614693 -0.86103547 -2.5288613 3.1878157 -1.6693336 4.219579 2.0239408 -1.8630241 1.3910354 0.17919007 2.8237832 -2.7131472 -4.971723 4.160422 2.619697 1.2272896 4.515493 -0.73689455 0.59676397 -2.501827 4.1948624 2.2122812 3.999473 -2.2014565 1.2447672 -3.1968882 0.7665345 2.7683718 0.63101405 -6.7727146 -0.2595212 -2.842597 0.7088257 1.9050698 -5.8395724 -0.4087668 -0.13754064 -1.9599044 0.36835578 -3.502276 -0.7262213 3.03971 2.9001698 -2.403934 -2.5137866 5.820301 -0.38846606 3.436443 -3.6184065 -0.5462137 -6.76174 -4.8821015 -1.1062324 0.8655286 0.22333194 -0.56223994 -0.83715016 -3.191132 -2.3836954 -1.0185661 -4.5889115
732 -4.918575 1.64494 -0.36058488 -10.66949 1.4333239 1.5802456 1.0269604 5.4033756 -0.15281577 1.3065492 -3.7488875 2.8680334 -1.8406932 2.5021756 -0.6107514 -1.8636026 -2.1293395 3.011969 5.930443 3.48311 -1.4161879 3.352139 1.8194131 -0.6983 -2.2447493 -0.8017607 2.4229734 -0.952337 1.9229081 5.5915728 0.8918968 -0.9262577 -0.114270456 -2.1338499 -4.910621 -0.99280304 1.5963461 -2.2024763 3.07743 -0.28653413 6.437691 4.3994966 -0.06611871 -2.4147422 -1.8563755 2.192547 -2.0026412 -3.6885242 1.7331072 -1.1139731 1.4931794 1.4734336 2.869403 1.535872 -0.65008247 -1.6544209 2.5004408 -5.174115 -4.0703306 1.98088 1.0357966 2.0144017 4.094528 -2.4333487
51 -0.27563378 2.0291653 0.8018206 5.4609947 -0.44651136 -2.1306806 2.648131 1.9207371 -1.0107249 0.87499017 0.17533629 -6.4053707 -4.2615814 4.7346025 0.38606206 -3.113364 3.1260505 1.8991882 -2.9334362 -3.937813 2.1801894 -2.5815902 -4.577522 0.28032896 -4.071488 -0.12584803 -3.1908221 -2.6706088 -1.9674146 -1.6922503 -1.4249684 -7.1756716 -1.9951215 3.6904638 -5.2023215 1.1436726 -0.53572327 -0.051418126 0.6392295 -3.91429 -5.618743 6.8939285 -1.0269003 -4.5266705 0.9194316 -2.696729 -0.72009057 0.4191867 -2.615151 -1.3279595 -5.874342 -3.9576414 0.3833094 -1.6231159 -1.0620962 0.34950402 0.32042685 5.2062697 0.88139504 -1.0495626 0.61760837 2.0593863 4.1914363 -2.1670349
300 -0.66433287 -4.6023345 -2.5729752 0.6753723 3.5748556 0.13526519 0.9987028 -1.5838419 3.1947677 4.160361 7.0786366 1.5664874 3.4668484 -2.2755196 -3.3049877 3.4150493 1.668573 -2.3635821 1.6320586 4.028913 -4.5818214 -2.0391421 -3.943092 -1.0746616 0.41294295 -6.8802266 0.41758865 -1.662465 -1.8359004 1.3047335 4.3570504 -2.7880473 1.7381035 -4.6031513 2.9363766 1.3094052 3.397804 -3.259554 0.14654723 1.671057 1.7345105 1.6949449 -5.5912504 3.6510448 -3.8702867 -0.9132871 -2.3625388 -2.5061522 0.28788424 -2.202896 -1.3892471 5.0010495 1.7355076 -0.955362 -2.2447915 -1.9183927 -1.2522184 6.426625 5.3031816 0.83258563 2.9139338 -0.48646364 -0.50268793 0.6169001
533 -1.8801193 -1.912204 -2.2982004 -4.7350626 2.3942587 3.6644018 0.9143585 -2.2278209 0.7084325 3.6095676 1.2682264 -1.4016831 2.310244 -0.78704256 -1.3323091 1.7637823 -5.5432777 0.9907857 3.2179418 -0.1046585 -2.7707071 0.49852696 -2.9726815 -1.8412944 0.32451677 2.7719755 1.5458729 -6.756748 1.9238244 4.488502 -1.8996689 -2.018816 5.9097605 2.3450968 1.5510188 3.5580068 -0.24994552 -0.77418476 -1.865381 0.30416882 2.8316956 0.82370967 3.5419087 -5.3504944 3.983237 -0.64864784 0.2848029 -2.1433356 -0.5701974 7.3892655 3.8466604 0.5001563 -0.780392 6.7774982 -1.802286 -5.6859703 0.18832806 0.17952746 -0.7469769 -4.3984385 -2.61603 6.235695 -2.405663 0.055904653
367 1.667334 -7.1013494 5.337971 0.2744492 -2.7769468 2.9319243 0.43462133 0.8708762 2.9298735 -1.136613 -0.15167856 2.460488 -1.2638533 0.28894472 -0.87656575 -0.32138485 -0.91204846 -0.33540583 0.6322097 5.521034 6.23999 1.3928909 -4.634542 -5.4247665 2.579468 -5.911571 1.5860872 -0.3902838 -1.0387139 -1.1653236 -3.1473472 -0.46791 -4.1058893 1.0000063 -1.1883055 -0.5961008 5.524078 -3.3839989 -1.2295557 0.17453746 1.9223053 1.0626754 1.5508974 -1.7684398 -0.7722078 6.085789 -0.7508003 2.0715268 2.8149476 0.11663208 1.0774915 4.2103386 3.0783868 -1.3160808 0.05249999 -0.26906103 3.1952128 -2.422096 -6.3214407 4.0432653 -2.1267855 -3.3292615 0.857923 -1.6323031
286 -0.11681449 5.2715116 0.8672824 3.7928245 3.3849812 -3.825187 -1.7705344 2.717532 3.734485 -3.0421581 1.0938061 -1.9801689 -4.951564 -2.4981055 -2.6010764 -2.3566172 -1.518298 1.6114721 -0.12931389 0.8131265 0.63820297 -3.8318424 2.695473 0.046795085 -2.2365909 -5.5709605 -2.8315918 0.62004745 2.4327302 -2.857022 2.4748409 4.550003 4.0874066 -3.320525 0.41528147 -1.9452909 4.6370244 -5.933853 -5.905328 2.896156 0.3210765 -4.170694 1.3805715 1.1716579 2.6671774 -0.5384606 -1.8407053 1.015119 -6.216659 0.5179707 -0.5949212 2.806006 1.6195037 0.17418256 -2.7294986 5.140225 -1.3622283 -0.57252353 -4.6638017 4.1888084 3.682281 3.692631 -0.36629194 -1.4012778
382 -3.1719363 5.542944 5.242271 -3.307269 -0.00271057 -0.13000397 0.865882 -4.791969 -4.259087 2.8649879 2.689016 3.4037144 -0.7652244 -2.8065588 2.1789038 -1.0443417 -3.0210593 -0.71048486 0.07427999 -1.5287473 -1.7079667 -4.710525 0.5257873 -6.1221905 -4.3836756 -2.321239 -2.3696656 -1.969564 -2.6263564 -0.9821702 -2.3661425 -1.9810835 -3.5307136 2.1797907 0.14664865 1.1231507 2.3823283 -7.562835 -4.582584 3.9512954 -1.5047956 0.31636482 -0.16847907 0.03227581 -5.5504327 -1.7409432 -4.895272 1.4998518 4.536517 1.0990908 -0.67241216 1.4591783 0.35094714 1.3516119 0.31083435 2.0305197 0.48587236 -1.9842734 5.210949 -0.54595053 6.4307866 5.2145996 -1.2805378 1.8150821
866 3.618388 2.7227638 0.5010688 -6.889807 -1.2962513 -0.31542405 3.6952474 5.489511 -2.8466973 2.4219189 0.88456076 1.5125827 -1.5138913 -8.879918 5.1237373 1.0276364 1.0324539 2.457069 2.0520961 -2.4145067 -2.2822711 0.7740486 -2.5091453 2.529285 0.67872906 3.2478657 0.7227577 6.4235907 4.551306 -0.4712379 4.30001 4.0621715 2.8824909 -0.5819322 -2.9176712 -4.000135 -0.5161294 -0.6621683 1.1199676 0.7409483 3.2101364 4.4031014 3.2016206 3.4323995 2.3529723 0.26892403 -0.85498 0.43879223 -4.8166966 -3.2542663 -0.28826886 2.5559995 0.44943732 -3.022697 5.942062 3.142158 0.77361 1.6614739 0.9412761 1.7047716 -1.8124757 -2.370249 4.2048874 -1.6327028
86 4.775621 -2.161528 -3.5665798 -2.0459034 0.658499 -0.40787327 -1.2343625 3.6043851 -6.102951 3.806984 0.2572307 2.7881439 -3.2412913 5.8173738 9.350175 -2.3447957 -1.7447307 4.248589 1.1024415 -2.4033458 -4.354487 -1.396467 -8.2638 -0.13995671 -0.68092936 -2.5202336 2.8875353 3.913791 0.7014801 -2.2458332 3.7826192 -2.4393892 1.5567774 -0.62606686 -5.743095 4.15129 1.163229 2.5022032 1.6599289 0.21791749 0.68815947 -2.480516 0.35508066 5.106024 -1.2239637 -2.188753 -1.1066276 -2.2186813 -1.8934703 -4.5982013 -2.9888134 -0.5249464 -2.019043 -3.9666398 -3.573988 4.0098925 1.5289632 -1.8372927 -1.3449795 -2.7469811 3.8082309 0.7335643 -3.117378 0.674897
338 -4.0290537 -6.7986875 4.80287 2.6785235 -1.6997583 -1.2139417 -2.0141475 -2.8185432 -7.658106 1.9152956 -4.3483577 -3.2718382 -2.4026563 -1.7959745 -2.7127476 -1.3199025 5.8935604 -3.9708412 -0.10665036 2.1054661 -2.071614 -0.65287775 3.654416 0.94402695 0.41620642 -4.2110243 1.2356824 3.9077048 2.625719 1.792051 -1.679088 0.71365166 2.1816294 -0.21607605 -4.171282 -0.9167176 0.23719637 2.6728213 -0.5014579 5.2515483 -3.1894686 -0.22599642 0.047061477 -1.7441365 -7.9616933 -4.43011 5.6032977 3.157918 1.8129493 -1.4457341 -4.134172 2.6531324 2.4013815 -0.46619055 -2.4677694 0.29991516 -3.5347888 -0.6732675 -1.1244663 0.36402512 1.6450907 2.3497355 3.495308 -2.8953307
62 0.54131955 2.957832 0.9989424 -1.1730001 -2.1784575 2.2499986 2.6590455 -2.6007707 2.737605 -3.0431828 2.3553424 -0.41345125 0.31391925 -1.6327995 -7.972389 4.086928 -3.9725695 -1.1159853 2.9747322 6.734914 4.896262 -3.1832836 -0.24311125 4.467615 -0.04441706 -0.3704497 1.3381379 2.8731678 -5.420816 1.7399266 5.4915557 0.21879211 -1.6181939 2.447308 -1.0099269 4.8342023 -1.214294 -1.5759327 1.0173724 -1.6323792 1.3708059 1.8239275 -0.63921386 4.320761 8.342759 -0.7194185 -2.347633 3.7741456 -2.8764088 0.30437583 0.8433727 0.2996025 -3.1002831 -0.1993632 3.6473577 -3.1905181 -5.9262486 -0.26626712 -1.6932168 -0.7701747 -1.0808676 6.297958 2.6731746 1.0209041
397 -2.726173 1.8087778 4.3517685 1.4703509 -4.154742 -5.379024 -0.13764411 -1.493504 1.5873127 0.054774143 -1.1482549 -1.7620878 -3.7902179 -1.233274 5.2791896 5.040978 0.7483434 -1.512205 -0.70874447 0.7957338 2.541641 -5.1497574 2.014636 2.666158 2.1868134 0.20745136 -0.40323034 -0.044257928 0.22024152 -0.80873203 3.038445 -0.58599854 -4.598286 -4.9521613 3.9298327 0.517084 -4.9962 -2.076195 -3.8246605 -0.25149184 -0.48911244 4.153679 7.246808 2.8676732 4.747835 0.4977379 3.3829186 -1.5071027 1.8935097 1.2382483 4.232689 -1.0540552 -6.9668784 6.100799 0.879931 0.33338064 2.115686 3.35696 -1.9454862 -2.8434215 4.5662146 -1.7714317 -6.9904385 -2.2978578
802 1.5161648 1.0519553 2.7674215 -2.6279538 -1.4110551 -0.7569686 -0.9356566 -3.108743 4.1203623 -1.6905564 6.685894 6.3813047 1.1025181 -0.10651608 2.2295597 1.6880985 0.8392339 -10.097807 -1.8800555 1.4485395 -0.18881981 -1.5225224 0.7728688 -1.4549634 -2.9970505 -1.4708554 -1.821947 -0.2538435 -1.5393202 0.26125944 -1.3712717 -3.4844306 2.2005801 1.5924476 0.02895232 4.0235944 -4.3571353 4.006613 2.1695063 1.2917045 1.9232022 -2.87847 -3.2412915 3.7441978 0.60435885 -0.52050996 -1.8058532 3.0870497 -2.5605366 3.5074258 -2.656086 3.784289 2.6371045 2.0248082 2.265677 -5.029794 2.8250532 0.86117154 -3.2513266 2.6912994 4.855061 -5.3690114 2.199575 -0.8063589
616 1.0114812 -1.9706957 0.94710875 -5.6900506 1.3015289 -3.032233 -1.9057099 -2.1700702 0.26684132 0.58683234 5.91367 -4.2659106 -3.181466 7.8803024 1.8074007 -0.9836695 5.1462717 0.18398488 -0.5057455 -3.4457514 -2.811008 -1.1956204 -0.65646815 3.2634478 0.71512884 1.362278 -3.321341 5.8649344 -3.491957 1.5084226 -3.6842718 -3.6526577 1.7028695 0.025996897 1.7306893 -3.2848513 1.2692444 -4.9098587 -0.25767198 4.424236 4.9198565 5.494638 -4.8194017 -0.19858402 -1.0965753 1.9115388 -5.581748 5.605592 -2.3923213 2.2189653 0.73960316 1.2929955 4.968633 1.9749792 1.1874785 3.3947678 -1.2224789 1.3975385 -2.9394891 -2.4084334 -0.33063528 -1.2230214 -5.6543403 -3.5079393
521 1.9859321 -6.482966 0.5810207 1.0345104 3.520114 -3.0365002 2.1638086 -0.9073304 4.2507653 4.441151 7.506024 -0.952064 0.37809286 -3.5682504 3.354454 -3.0237827 0.35999012 1.8804111 5.021592 -0.107230365 -1.0588156 -6.052464 -2.3546984 -4.742696 -0.7251422 -3.9896991 0.86696607 -0.41131225 0.3051684 3.8840692 2.093576 1.7959507 1.1439471 0.3146023 0.4890089 8.764736 1.2746574 0.6952249 -2.0079064 1.066959 2.881665 2.4619575 -2.6667979 -0.38705745 0.45684615 -3.0969315 0.62746614 -0.97273356 4.4328732 -1.00676 0.9416025 2.9969761 0.541295 -2.4131153 3.10943 -4.68578 -3.8248465 2.1630423 0.7405779 3.7873359 -3.4953604 2.6208014 0.47884813 -1.5378921
939 0.86188036 1.1532176 -1.3105711 0.08361185 -3.908515 -1.5379624 -3.7108657 1.1291765 1.9257003 -1.6449639 -4.5385075 -3.2147293 3.587504 -4.094261 5.468866 -0.2549301 -3.516927 -3.8079126 -0.8772609 1.6706088 -1.3650609 6.451155 2.7290843 -0.62664074 -1.3784708 -4.6047225 3.280076 -2.5107362 6.389324 -3.7627354 2.7282383 6.8834085 5.096618 -3.0645905 -3.2206085 -1.3609104 3.720602 -2.9603884 -3.530511 2.5059545 2.8218257 -1.5885121 -0.5156399 3.580846 -3.7025027 -1.0244849 0.75704247 -0.43162468 -4.402262 0.41157717 -2.4186153 1.0950925 -0.8164613 -1.3846003 -5.668196 0.32038152 0.31092784 -2.2597675 0.34678903 -3.0415184 -1.9357717 5.0562806 1.9878124 -2.892542
251 4.953545 2.974819 -1.0096921 1.9351456 0.9803338 -0.14163339 3.070764 0.49577558 1.0935503 1.754812 -5.168452 -1.2636602 -0.88000584 1.3136082 3.4027417 2.5246675 -0.9614356 -3.2811074 -1.6854095 7.962935 4.010543 -5.3082423 -4.369529 -0.30888522 1.1287568 0.31682292 0.013408154 -0.37273577 -2.004088 -1.9625597 -2.8890893 -0.88903046 -2.1537902 1.3363774 4.7712774 -3.184605 -1.105356 3.904845 0.81482 0.7826286 0.8834671 5.9107714 4.8349895 -3.6426158 2.338686 5.8949876 0.051432204 2.718963 4.062245 4.6902885 2.2095559 2.169124 -3.5383487 0.94941324 -2.2854452 2.14734 5.993631 4.0594563 0.7574849 -2.7152863 -1.7974794 1.5947802 1.6710563 2.0061529
389 -0.31525275 -3.0562532 -1.4087797 0.9363728 -2.4020925 1.0022645 3.2435627 0.4451029 -1.153095 1.7771155 -2.9016871 -1.925574 -2.3064485 -2.633726 -3.9627302 3.711175 1.4483976 -0.49705774 0.23412889 0.85416037 -6.1162353 3.9801118 1.3835219 -0.62909627 4.229244 -2.9189758 -2.3005905 0.4319732 -1.984888 0.4202603 2.846494 0.12952344 3.2819564 3.3880353 0.7660096 2.9684546 -0.55032426 4.378681 2.2997289 2.706473 -1.1980312 3.6058354 -2.191057 0.76858145 -0.3220064 -1.9816854 -2.0053065 -8.665982 -0.83115524 3.530539 5.4568353 -1.1340367 -1.2016842 -0.5630759 3.537793 -0.8059057 -4.4459653 3.9196668 9.037865 -3.0241878 2.5170367 3.3835838 1.427054 4.5634174
137 5.486446 2.685386 -1.1036521 -1.1141562 -1.4383951 0.98720056 0.05437986 -3.2251408 -3.561945 4.1147385 -0.24714172 4.2203555 1.6124133 -5.2722015 3.3306782 1.3180791 -4.133708 2.122127 -0.6081009 -3.4482586 4.1130037 2.354588 -5.007454 -1.6645766 1.5033394 0.91225 0.0714848 -1.0345758 -2.7985325 -0.6742111 4.4537168 -3.085536 -2.912058 3.9658005 1.516818 0.7113952 -0.611475 2.7429812 -3.1239305 -0.38659886 2.0410018 0.19737428 0.07819866 0.63964736 -2.2568784 1.0361798 -3.489178 -0.6427842 -2.4826918 4.4058666 5.3676887 -1.9199892 5.235566 3.300718 -0.635738 -2.3315802 2.8053222 2.1990905 -4.3353004 -0.69593877 2.8262994 -7.58389 3.926161 -4.738394
788 1.8783886 5.4354534 1.3216411 -2.6146855 -4.4241567 0.28710824 4.3199353 -2.6528852 1.0250446 -2.5783725 2.3760002 2.498373 3.8866754 -0.5965232 1.1827451 -4.2650566 -1.8796988 -0.55375236 0.3274612 5.3175817 -3.0812175 -0.65847707 -1.5219328 2.7815695 -2.85082 -3.9225633 2.6885738 -0.6248227 -3.7201412 4.121485 -1.0990746 1.2258282 2.5453932 0.78111744 1.449533 -7.6571865 -0.7482186 -2.5339417 7.0196376 -4.731478 4.503098 -1.2246107 0.92909884 -6.548919 -1.3786201 1.3019164 4.1718354 -5.276909 -1.7984301 -0.87954044 0.77713335 2.8669007 2.7493336 -2.4536307 -2.7702682 -0.2626249 5.516071 -0.45745528 0.7875743 0.6841967 -2.305992 2.6643386 1.1228461 -2.440635
541 2.9893909 3.7572253 -0.9054767 -1.9334451 1.038622 -0.30820787 0.7069053 1.9832159 -5.1625376 2.649207 2.4418538 0.53917766 -0.30905414 -3.3727949 1.3288918 -4.563081 -0.9996832 1.1519041 0.045676127 3.6610904 -2.0969238 0.4605481 -1.7909399 0.10721098 3.5776553 -1.4736819 -6.3813243 5.043731 3.512828 -1.9903377 1.7489104 -1.8282446 -0.1755059 2.0205529 -3.7692173 0.47691092 -1.7911305 2.3761203 0.101188585 6.2305765 1.5357968 -4.2734694 -3.6927712 -4.332287 -3.4392114 5.032689 1.2602144 -8.142896 4.7128763 0.42547318 4.685624 5.624157 4.1852975 0.11914291 4.0389643 -0.6978974 -4.779604 -1.0046964 -0.37203756 2.016856 4.3285007 -1.3719621 -0.28022125 3.6608126
691 -2.609731 -1.9005737 -4.1154866 3.6770072 2.169355 -0.2864511 2.7830224 3.3489585 -3.4345944 0.06872732 -0.27748314 1.668459 5.167332 -2.87195 -0.07587575 5.9423275 0.33573222 1.7291169 4.3224754 1.4436545 0.7833257 -0.28272262 1.5871093 -0.3108228 1.1188176 -5.5974097 1.1211369 4.103449 2.3626513 -0.088012494 6.483784 0.46282265 0.2678123 2.1573935 4.287432 -0.55497843 -0.56958175 -1.8222212 -0.010896597 -3.397617 -2.3797565 0.40731907 -6.7560697 2.830322 -1.7210286 0.9745211 -3.043537 0.52812105 1.0149666 -2.2129211 1.7136123 1.1289444 -0.5654586 0.63315314 5.798241 -1.0073456 3.345318 -4.6352634 4.501471 0.6616929 3.0524218 7.0848656 -4.542068 -3.59584
72 -1.2567202 -3.3032598 1.0786817 -0.7066258 1.3184639 0.7031364 -0.18335758 -5.291452 5.885882 -0.9742966 -1.4857458 2.5498893 -2.9948268 1.2825708 1.8957404 4.0702024 -5.362507 -6.5522923 -1.8538933 -4.425682 -0.6457578 -2.7087033 2.7439544 2.4408233 -2.9024007 6.0540724 4.219399 -5.1060457 -0.12578426 -1.3911145 -1.6174324 -0.40545118 1.0977714 -3.4578311 -2.603958 -1.1014383 0.808257 -4.3738155 1.0811698 -3.710325 -0.7225265 4.470427 -4.081467 4.954577 -1.7889817 -3.8664563 1.5787857 1.1629444 -0.60539854 0.28671727 1.7384245 -2.8926349 -1.8881159 1.966705 3.9633796 1.3906155 -0.8628468 -0.39178777 -0.3256349 3.4317396 3.9985652 3.830756 7.1924014 -0.3104821
555 2.3307004 -0.13435972 6.72045 1.520556 -6.2552223 4.602308 -5.7295938 1.9162264 -2.1815588 0.26681077 -3.2413085 4.8899546 3.4416273 -0.36111575 0.9476732 0.36384472 0.01891125 -1.8840649 -0.42842078 -2.0098379 1.591078 0.7503685 -2.0881767 0.98530716 -4.547045 -5.0421796 -7.8146133 3.1042643 -6.810105 2.698905 0.8556328 -0.5039744 0.07684218 -5.717596 3.4736948 0.88864756 -0.2588596 -1.1146843 -2.3557498 4.978836 0.5767368 5.444269 -0.12067304 3.752273 -1.0048348 6.481424 0.5130384 -1.336289 -0.9164985 4.506614 0.81956106 0.5328864 -0.8713963 -3.0178454 1.2209677 -3.2473402 -4.587506 0.4718835 -1.6263235 6.442614 -1.6126685 -2.5472937 0.96399385 -1.6404264
418 5.4652066 -4.072424 3.413196 5.667272 1.7238439 -1.6512284 0.58730805 4.701186 3.6525726 0.2704086 1.171077 2.7738705 -1.9175451 -3.1315336 0.9148948 -0.5572722 -4.09901 -2.0671713 2.33744 7.0215154 -0.43577814 1.5195253 0.99785024 -5.1472588 0.67039007 -3.0259168 -4.1145573 -6.9276857 3.4074664 0.92640954 -4.8055906 -3.9993691 -3.155193 -3.4000237 -5.263056 1.6719875 1.0906396 -4.2688146 1.0696125 0.17517541 2.4745414 4.2283063 1.7801576 -2.852251 -0.7470088 1.499874 -1.0921816 1.0622917 -2.1293821 -1.6709642 -1.4375259 -1.2158046 0.4232578 2.4717615 -2.684372 -0.8439144 4.23602 -0.2536513 0.5560246 -2.4868183 0.6038645 -1.0517257 -6.6663594 -0.58874786
766 -3.1094968 6.4162807 -0.47637558 -1.0948758 1.0319964 -2.7052853 0.083973095 -1.9054722 -0.47457555 -1.6304231 3.2391233 -0.9723068 -0.62479544 0.7076323 10.268437 4.1503 1.2668164 0.4517098 4.5578985 -1.4693987 0.86030394 8.1247425 -2.5527735 4.613696 -3.9984612 2.5530686 4.7820053 -1.5968957 5.4375634 1.7116929 1.1463311 -1.9024851 -2.9570687 0.622581 -0.7227487 -0.6124769 -1.9057317 -6.1182704 -2.283272 0.40196854 -0.414824 0.5731896 1.8988128 -1.9446658 3.345448 -2.0051668 -0.9803221 4.9945273 -4.9126587 -0.40069917 0.8716197 2.5413005 -5.0113997 0.64213437 -1.6793401 2.100211 1.1146194 -1.7731017 3.320981 1.491198 -2.0102985 3.337224 2.1613052 -3.0349874
293 1.6492755 5.9826045 4.971282 -1.9873418 0.32071143 1.4823455 0.24302252 2.8273525 4.3118 -2.566793 2.776239 -2.749389 -0.9711371 0.6473849 3.8143165 0.31398472 -5.052294 1.3003623 2.078837 -3.7225795 3.3931763 -1.9698615 0.2319002 -1.7818943 1.3377159 -5.968663 1.0765918 -0.6798188 0.6730858 1.419894 3.7932215 6.219247 3.1461732 -1.5530462 -1.2302455 -0.8717329 4.2186017 -3.3172512 -3.0255556 7.587092 -4.454696 3.2317996 0.74325037 1.143745 0.32390144 0.6007746 -0.3641073 5.7811556 1.942633 1.5731529 -2.1540031 3.7098248 0.020224936 -0.118544325 -1.5647665 1.4695014 -5.8891907 2.0504363 2.2151587 1.6639919 2.1871355 3.5635107 -2.327233 -2.3052516
23 -1.7833349 -4.0461006 1.6132871 1.8325359 -0.35757607 2.018656 -0.58247375 -3.2374496 3.633919 -0.7655981 -3.1334424 8.818302 2.044846 5.043343 -1.2235972 5.107674 3.9818604 4.252632 -0.6338809 1.1378156 1.6480944 -2.6598566 1.1464574 0.90930146 2.2282465 0.3879339 0.6753705 1.0009003 1.4549626 -0.5826453 6.092652 -4.0449734 -4.559778 -1.3442416 3.3332844 -0.92068845 0.8504497 -4.4200616 0.38861328 3.991232 -4.1736383 5.4790025 -3.6866322 -1.644657 -4.5398555 -3.3439207 -2.1997306 0.65171415 4.115133 -0.41058174 5.5006757 -3.5842478 -3.3669422 6.1377497 2.965421 2.8711073 -1.9033309 0.9852137 -1.6965122 1.8482519 -0.37509215 0.48385376 3.4576905 -2.4190369
567 -1.5520278 -0.31792808 -5.9213805 -0.31101897 3.5145707 2.090528 7.7134314 -1.474466 4.1476016 -0.3596343 -2.4310231 -4.6683364 -4.8419747 -0.36360973 -2.113234 0.70818293 -5.0108833 1.0394746 0.4145799 1.2473754 -3.7058303 -3.328265 -1.0685207 -1.4136376 1.1617815 3.5316532 1.5287652 0.61326563 1.0410764 -0.26162738 0.9615473 0.514039 7.9166265 -6.6918387 -2.3566742 1.5291675 -0.66760176 4.3070946 -1.2162739 -5.281593 2.463005 -3.266105 0.5508918 0.094353914 -6.454618 2.4260154 -2.703064 -2.852494 0.09323155 -0.512035 -0.0027531192 6.1111703 1.8073945 1.2511919 0.58299863 -0.49060243 -0.47980583 4.1603026 2.6318076 -0.63293093 5.281957 -2.5556962 1.4546945 1.973923
2 3.7485943 3.915245 0.9433757 2.8934433 0.14256726 2.3651714 3.393 1.6649061 -2.5965679 2.2139502 4.284661 -1.0476128 4.9495564 1.6917145 0.5202449 0.06958573 0.8194831 -1.1104043 -3.3224268 -1.3705348 6.181412 3.6762362 2.694052 -4.513803 -1.9270822 1.1808535 3.669094 -6.3538356 0.13414238 -2.0031338 -6.448571 -2.7520988 3.2549393 -1.1790028 0.4465281 -1.9193981 -1.7022495 -2.241803 -1.7385701 -1.0351242 -0.8335431 -2.1307137 -0.3327901 1.6380135 8.613116 -0.598108 -1.7562516 -4.261251 -2.06677 -6.13222 0.8955552 3.8227644 -2.919779 -1.578116 0.8630352 0.5316658 -1.4712664 0.6303679 5.6798744 -4.780574 4.375886 -3.7080185 2.6805568 -1.4130179
399 2.863829 -1.729639 -2.3298004 -4.564704 1.8942437 1.5338708 -0.70623577 -0.22035332 -2.404722 -3.1264818 1.89686 -3.8883693 -0.38105196 0.95440745 6.4758096 3.9605982 7.1404376 5.475331 -4.264882 6.3920794 -1.4022571 1.271502 -0.6899445 1.3495504 -0.07964592 1.3095516 4.762623 0.5140171 -2.9127955 -4.2016177 -0.42530483 -2.1831646 -0.3142697 -0.5901984 -1.8439267 2.8005726 0.10691737 -2.0408118 -3.2827513 -2.4797533 0.7601014 3.419363 0.98688143 -1.598457 -0.66507703 -4.9182277 -1.3761929 -5.417509 4.162232 -2.5665712 -3.6163394 -0.888968 4.2891436 -2.3497255 4.0021544 -2.2920616 2.314449 -2.1365962 -5.3530345 -3.724011 1.714287 2.2040737 -2.5471354 1.8952013
5 3.424674 2.0519989 4.9970555 -2.9276438 -2.4174554 4.1915503 0.18923868 -3.355805 1.1306405 -0.882178 -0.13595289 0.38809052 -0.6479147 2.2360227 0.50198936 -0.67700726 0.29094982 3.1198082 -1.0404891 1.8015168 0.9097007 1.1849725 3.0181246 -0.26031837 6.4138875 0.09922666 -2.2534304 1.2089697 4.0265484 -5.1530833 -0.707269 3.2073107 -4.3023543 4.1701536 6.625723 0.15785316 -0.49024227 -9.634931 -2.0807824 -1.5720516 -6.6283283 1.2832122 7.7983885 -0.12816451 0.14320302 -1.3122988 0.75342935 -1.99864 1.0855293 0.37527362 -0.48669446 -1.1593455 -1.8349062 -0.8337987 -4.812267 -0.9372598 0.52316535 0.43049636 -0.69029295 -0.32635352 0.5318734 4.967837 -3.4766989 -5.1570325
352 -3.6488743 -1.2182511 -2.825796 2.129795 0.6592751 -2.4686222 2.0683117 2.2323952 0.855562 -1.757164 -2.6498976 3.377141 3.8688653 -1.9326378 2.502416 5.9471684 -2.0365498 -1.1018736 3.5837758 -0.5057709 0.465898 -5.185549 -4.4140525 0.25406972 -0.2968469 2.6352506 -2.3137195 1.4901136 -1.5415903 -1.000319 2.361291 0.43249354 11.62753 -4.224787 -5.3925395 4.5136604 3.568121 -4.508688 1.388429 0.07312093 -2.7843165 2.881754 -4.8779106 0.6998135 -1.578413 0.52102417 -2.914262 -1.2204661 0.16360778 1.5065535 -2.878285 1.3882786 3.8200555 -0.33453876 -4.025872 3.471647 -3.6368895 2.9617007 0.6201305 -2.8043435 0.8117923 1.1411631 1.8614845 4.065906
901 -7.818773 0.4325279 -3.7570276 -0.7876259 -3.2099416 -0.18494327 -3.6258936 -4.157581 0.06616003 -1.5574892 -3.8128388 -3.584988 -2.7163765 3.808397 1.3580997 4.6534 1.468084 1.0539068 3.20835 -0.12960127 0.5230546 -2.9954216 2.0773516 3.0965657 0.40225917 -0.8873175 -3.4644432 -11.059391 -0.8112845 -5.809123 -3.166019 0.5398739 -4.2675743 -0.10760482 -0.8670868 0.2756674 -3.2664013 -2.6831229 2.2515996 -4.2751393 1.7931404 -2.4764016 6.669583 -2.4486327 0.47047204 3.5388904 -0.24820137 3.343036 -2.2690606 -0.86074805 -1.4188132 -0.6529829 -2.1023803 1.6122332 2.618888 4.237158 2.1439424 -1.4192859 -1.9968585 1.7602417 1.7774403 -3.878224 2.0131016 -5.090326
278 -3.893135 -3.907578 1.1037977 4.62057 -0.9477772 -5.383944 3.0296397 -2.0218196 -4.2192926 1.3269002 3.4030516 -1.7072859 0.6203544 2.339886 -5.382247 -2.5874763 -2.0700042 2.2335203 1.642677 -0.90602475 -2.8874483 -3.234515 -2.3612864 0.72271097 0.8162592 1.0382946 8.090409 -1.168473 0.7077138 -2.8396494 -2.8026092 -4.107607 -7.1330853 1.4359367 -0.46350405 0.079352215 -3.3299873 -3.5357075 1.9625821 1.0273117 1.5170567 3.7087722 -5.273641 0.0024047203 5.189771 1.2236178 2.857636 -2.0038464 -3.491025 -6.228614 1.3082836 -3.3639622 -2.9571946 2.6696315 0.9348659 1.8678389 3.1667526 -0.51400745 5.006384 -0.4410442 -0.6868178 0.87883943 1.2900829 -6.075469
105 3.9328089 0.8203156 4.4178843 2.6046386 -2.4039001 -2.025138 -2.6273134 -1.0035399 2.847549 -7.9423413 -2.4253705 1.3081024 -2.6126025 -7.324086 -3.8921158 1.8800558 1.0449364 4.8741946 1.5930268 0.4687123 -0.2143795 0.7692115 3.1761882 3.248178 -6.386571 -3.4628263 0.7725913 0.82155144 0.7485104 -1.1156882 4.010994 1.2587663 -0.754211 2.6273649 2.7591658 -2.4631853 2.0378306 -2.4231348 -1.5572549 2.858051 6.351598 -1.562484 -4.2023764 0.5301754 0.137744 -3.9894345 -2.7303262 4.6751137 5.8223195 4.20545 1.3598998 1.8700007 2.318486 -0.069483675 1.1433566 2.9093807 -2.0401664 0.11111066 2.2658203 2.6134431 2.369235 2.4186666 5.1472707 -0.021125074
753 6.292055 -2.5721204 -3.1147485 2.2252011 -5.4415154 0.40891522 -1.1890361 4.694259 3.048585 -4.891829 0.26386595 4.5066347 3.7215118 -3.1997964 -0.9340369 0.64022607 0.5559568 0.5434583 -0.41634196 0.64868426 -0.8606171 -5.1527247 -2.3979065 2.4627717 4.2347145 -2.6401958 -1.1812148 -0.8995041 2.196559 1.1791996 -2.83673 -0.020398716 -2.3516858 -7.9189653 -2.5459235 0.02418834 -0.22232957 2.21723 -1.5499886 -2.5975375 -5.164445 -3.524267 1.2961197 -3.1854692 -5.2255254 -3.782249 1.5027806 0.29343507 0.8720926 -6.2140317 -1.8090345 -1.504987 5.493888 -2.071739 -3.3896763 1.0157778 2.1559525 7.2094913 0.8757336 -2.0622623 1.6499039 -3.4071925 1.9246408 -0.3897813
372 1.2502577 3.7757003 -2.7950387 -2.1266918 2.352815 -6.6549582 -5.1841173 -0.8951615 0.71922475 -0.41349167 4.5518346 -0.3112362 4.236346 6.5234375 0.9942294 -0.58792925 -2.847456 -1.1149942 6.531268 3.7289255 2.1879532 -4.2743626 2.7052634 -1.009804 6.547768 0.86623764 -4.619547 0.13790704 5.8517175 0.75170517 2.6498628 -3.173212 -2.166595 -2.4254181 6.0121455 -0.10465575 -1.3507794 2.2702901 0.28525925 -5.0907593 3.02182 -1.591976 -0.7573525 0.100697435 0.78670514 -3.957214 2.971469 -3.6102438 3.2356067 0.4735088 -0.12456366 -4.644337 2.99268 1.0483267 1.0333998 0.52379024 0.7398652 3.0053024 -0.36805457 -2.050177 -0.6903856 -5.039789 -3.1745238 -2.053477
18 -1.9929149 -1.9644153 5.454508 3.5399756 4.0960355 4.7441034 -2.7972114 5.4487057 -3.958925 0.8521683 -6.4611564 -0.9099469 2.4084122 1.2574818 -1.2927247 -0.7813668 0.79391396 -1.965266 0.18230203 1.1361878 -1.8646319 -6.241626 -6.35567 -1.0977508 0.51283973 -5.19841 0.57812583 3.3484097 1.16255 -0.40974438 2.3036141 2.3130674 1.6938313 1.2844397 -3.6060767 -4.6922197 5.911686 1.8600858 4.389689 -0.9019725 3.846804 0.39544094 -3.3903346 3.7944143 -2.672689 -1.5990361 1.6491743 -5.5816617 2.2671258 0.8204547 -0.74453974 -0.32079482 -4.8645306 -1.3537655 1.9501913 2.1195822 2.2640083 -1.4810407 2.8051853 1.7124664 1.9585389 0.52792794 -3.7279882 -3.2800658
845 6.1780834 2.8651717 -2.2160268 3.0310857 2.469865 -3.8886867 -0.3795092 -3.4875445 4.073391 4.7090626 -0.32785842 -2.1271439 -0.22735697 1.8553871 1.1944445 3.613711 -4.3216834 0.06518404 -2.7351446 -2.1812758 1.9834859 5.262567 -2.8995588 -3.3687792 2.708307 1.0810504 -0.52656376 -4.687626 0.122729644 0.53798586 1.391313 -2.1599534 0.43996173 -1.2632736 1.70543 -1.7552419 2.1973734 -3.3781343 2.4722488 2.9352384 5.0133176 0.7063768 -0.12240982 -2.323559 -4.7497144 -3.05987 -2.112654 5.15803 -1.9759648 -1.6975311 0.775201 -4.1626344 -6.8262854 2.8695536 1.9083413 3.8839118 -0.72009414 0.042427484 -4.9449124 -5.1078157 2.5814912 -2.8353105 -2.4821115 2.9196408
76 -0.9532236 7.392192 3.594921 -4.5128446 -1.3087071 -3.0560782 -0.61908364 2.1594267 -6.3430524 2.8135178 4.6526484 -3.2620964 -1.0707015 2.0719619 -2.8547275 3.633076 -1.7031003 1.8914303 -3.8768003 -0.45165628 -1.3518173 -2.3781552 -0.06560454 0.28088337 3.224619 1.4425423 5.8193145 -3.9375548 -2.4665313 -2.059971 -2.242941 4.3997993 -3.7013001 -6.239112 3.2874668 -3.1282609 -4.6935387 -0.43344563 -0.32736373 -0.91698927 0.02875963 6.4728875 -2.1411054 -0.56875056 -3.592658 -1.7904626 7.415636 2.2312932 -3.8327389 0.25989 -2.9979036 -2.6348019 1.9821279 -0.34537026 -2.5831554 -0.03935811 -2.2647684 2.4155483 -6.4550915 -0.30298346 4.09375 2.498908 -1.0699393 -1.1697811
812 -2.1030421 -2.9103742 -2.6747146 1.5938864 -3.8082018 -1.5667807 0.16127372 -1.7850996 2.4202287 1.8512857 -3.8133545 2.8553069 2.0660992 6.5679955 0.20475751 1.7407138 -1.6957765 -0.5255197 -3.281113 -3.8442135 -3.119595 2.39009 -1.7435472 3.1059568 -1.356512 3.6235864 -3.8917656 0.8681772 -5.480992 -1.3061497 -4.846445 4.093849 0.057220202 1.8015491 -1.8633074 4.3080487 1.7051164 -2.6242733 -1.651914 -1.9020562 6.109834 -4.9907827 0.83150303 1.6361976 5.4955797 0.84413147 0.33657834 -3.790094 6.9125676 -1.2378024 1.0850277 2.0945344 -3.053177 2.0091412 -4.3575916 0.39690843 -4.201203 1.5370313 -3.7148929 1.1976473 2.347733 4.6203003 -0.31700402 -4.044462
878 -1.3202105 -1.9430345 -0.8612538 -1.1847327 0.046638742 -2.760728 2.587072 -4.8663216 0.39215526 -1.5687895 1.9382575 1.8401246 0.62287354 7.043687 1.7784796 0.6892198 -0.11834814 -4.5728936 -3.5114708 -3.1660752 -0.25360516 -0.5837235 0.24381794 4.838564 6.4644923 4.110382 0.26242793 -4.1358795 -3.312372 -1.9868537 -4.8721 -2.6416671 -1.3488928 -1.077339 1.1553668 -3.9778976 -4.2003307 3.58116 -0.09379533 0.53092724 -0.8723158 -7.1022935 -1.1139786 3.3167036 3.3284445 -5.852119 0.3864912 2.4130266 1.4065082 3.890555 -5.0835156 -1.8495498 1.8376043 0.17049915 -5.284838 -3.2240505 0.5579049 -2.4547868 2.5143015 3.1145716 -2.8810956 6.22037 1.471419 2.5780764
632 0.1999546 6.2694545 -5.7839584 -0.88270444 -0.8564458 -1.69561 -1.4760385 -2.9720607 0.8648699 -5.4350195 -0.1717201 -0.0831373 0.41147697 -1.5956199 -2.1568544 -2.4512775 7.0704865 -1.8988129 0.26252744 0.4684493 -0.56643075 0.8702166 0.8535672 0.5360555 0.95853627 -3.6536565 3.5323892 0.17212616 2.0701354 0.8517427 -1.6008385 0.85928744 1.2335371 2.7238543 -2.1664789 -0.4005662 6.2742276 -1.3679503 1.7942543 0.62388253 -1.4739349 3.9102054 1.3006587 -0.06751945 0.118367665 4.682739 4.5807834 -0.08085469 0.76779157 -3.6236482 8.254606 -2.2256014 1.7436774 1.4991198 -2.7227945 2.993376 9.2606535 -3.1681516 0.54603785 5.206462 -0.99619323 2.1971889 -0.6745719 1.6930927
353 -0.2473299 0.55229414 0.57732546 -0.22856717 -2.9152591 -4.153351 -3.2429605 -1.5605862 -3.9185748 -5.4677687 4.6823487 -2.9122934 -3.9978924 -3.1195786 0.033056688 -1.6527025 -7.0174665 2.0443418 0.8568781 1.5175258 -1.4493071 1.8500705 2.0124772 -0.82698 7.520432 -1.7477839 3.243992 -4.433667 -1.7424024 -4.338103 -3.2041101 -0.063172854 1.0582913 4.231467 3.2941535 1.7625586 2.6408432 0.6380544 2.1149213 2.1178484 1.0829071 -4.90263 -1.6959065 -2.1604931 -0.16149609 3.8160498 0.27281797 -0.062323302 -2.4434066 -6.833335 -6.433052 -0.15284991 1.6349264 1.3047025 1.8820845 -1.712722 3.1612272 1.6717774 -4.2141943 2.0144138 -6.685405 -2.9961846 1.1897737 -0.83560693
35 3.3619297 1.3228381 3.7953248 0.19763975 -1.074857 -1.2908852 -0.026108813 4.12093 3.8279865 2.4849918 -2.2330077 4.264158 -1.3614632 -1.0205185 -2.1462438 3.9786794 -0.354112 -6.4822273 2.6904168 0.782279 0.22194125 -3.6152816 -0.41874585 5.943417 3.327056 3.357562 4.52357 1.866486 5.433263 -3.476341 -4.4180818 3.3730876 0.15385589 -1.6381013 -1.1727778 0.16129643 -0.95654184 -0.4540365 -0.50523466 2.1138072 -0.3592094 1.9002303 -1.8354138 -1.8061985 2.7067788 -0.11702659 -2.2734394 3.2424872 -1.3874376 -6.6233263 -3.1807601 -0.47694355 -0.8896261 1.1671919 2.9957078 8.279997 -0.8482587 1.4694335 5.547672 -0.57100785 -1.2123376 7.066611 1.2882032 -6.838281
805 2.0059118 0.65550303 -2.0636551 3.1941607 4.0620193 -2.905466 3.5921776 0.38863182 1.0000126 -0.3330934 1.5527201 -5.504657 0.7256393 -2.1624396 3.447715 -0.48409104 5.6377573 -0.11417852 -2.9941578 1.4786432 -0.70302373 0.32334024 6.015348 3.326167 2.4452639 1.5504878 -2.8127756 7.5014424 4.7155466 2.5180662 -1.7308494 -3.1028497 1.627652 -1.3663845 1.546563 -1.039168 3.1827216 -1.5189838 -0.4100656 -1.7041657 -1.6901482 2.339119 -0.16835488 -1.7019379 1.8871218 -6.3156085 -4.691496 -6.6193185 2.4247127 2.0087993 1.2810954 -3.772674 -1.6292503 -0.26769513 0.9519682 -5.812653 0.7138173 -3.7653453 -0.47179523 2.1584659 0.115879476 -4.379146 -6.0738854 -0.5419751
771 -1.2480257 0.25689015 -4.7167177 -0.28839877 0.7425443 -2.0903661 3.0985565 -6.107245 3.0172126 -1.9013938 -2.7071788 -3.2784443 1.0697743 4.9903054 -2.2530823 0.9219732 -3.3026469 0.03693032 0.03716861 1.4680314 -5.1762943 3.1685786 -1.7639967 6.2865973 1.8400682 -2.076154 -2.6190412 4.4220157 3.2553616 2.95613 2.2052178 -3.0183713 -4.761469 2.1633096 6.091706 1.8055291 0.9772022 -2.6151311 1.6756269 -0.22526659 0.6218844 5.346224 1.2432436 -4.8804955 -0.2838954 -1.8211006 -4.8947425 -7.6216626 1.6005936 -0.4640643 -0.9474167 2.672252 3.805164 4.0819736 0.4576793 4.610719 -2.8374069 0.86992943 1.0524359 -2.1785731 0.59816253 -1.9813992 4.081419 0.07535231
491 1.6623507 -3.8038123 1.0781616 -8.133726 3.0171676 0.7036972 1.9658278 -3.7209072 -3.6316564 0.6666276 1.7295985 -2.6061516 1.0772932 6.2081413 -0.8950652 4.182338 -3.2236238 1.7857078 0.5542547 6.0648365 2.587501 4.334119 0.25066325 5.820989 1.9476415 -5.270151 0.5726118 5.159568 2.3097725 -3.4062772 0.8526408 2.3340137 -2.1119878 -0.23194 -1.7583172 3.2577128 3.4232607 -0.3587829 -4.5788956 0.36600062 2.8595939 4.0594645 0.035978906 -0.9749621 -3.505905 -3.0068731 -1.5706304 -0.6159422 4.217624 -1.893823 -0.7781094 3.141791 1.9787573 0.43300626 0.19465636 1.2166135 2.2413347 -3.00625 -1.7228277 -0.42968184 0.027754596 2.5647736 7.2067575 0.32988366
377 1.7766628 -4.176097 5.2721496 -0.35848457 1.0364774 5.7200947 3.0645227 1.19676 -4.192011 2.2053294 -0.4356109 0.7475909 -1.8090748 -2.0539665 -0.8609777 4.264754 1.2841803 -1.1290928 0.43063045 0.0126613835 1.4569845 0.88217205 -3.991508 0.6578699 0.60519487 -1.6394153 -8.383112 -1.2449565 -4.103761 2.1303523 -2.873341 -1.9355263 6.048227 -5.2681513 2.5390825 0.09576039 3.424866 -6.378037 4.2334113 0.6164002 3.1524107 -1.6385838 2.4453082 3.7533183 -1.4887912 0.78876144 -5.403505 0.99770725 0.3603291 8.933986 -0.076285 0.8108933 5.5974407 0.73750263 -2.5585089 -9.505691 -1.9311309 1.1089936 -0.08001813 -1.5796293 -2.485909 0.33281022 1.7984124 -0.20544037
944 5.2870727 -3.869237 0.6977154 1.415969 -1.8630105 -3.5988183 2.257804 -2.3638752 -0.91222763 -0.4764156 0.3771499 1.302725 -2.5325565 -0.4472431 -1.1019188 0.045454852 -1.3262987 -4.870682 4.0266523 1.692905 -5.9467278 3.2189684 0.2461154 -0.45546883 3.0539248 -8.1661005 -2.250571 0.031146303 4.9149113 -0.3255496 5.9417787 2.9090834 2.1156712 -0.86915684 -3.9273615 0.83285695 -0.7893791 1.8582693 0.34254903 -1.3107579 4.5610595 1.8694767 -0.3668394 0.37167934 -5.505418 -1.2298009 1.1918848 -4.1048527 -2.121938 -1.0207281 -6.9084496 1.3646681 -2.7674785 -2.4021327 -1.882039 -1.9426717 -2.722206 0.6172788 3.526467 -9.384755 0.019295406 0.14044082 -2.8007529 2.562116
103 0.4691135 0.70386875 -1.253894 1.3680933 -1.1420921 0.8492569 5.0675464 0.23099796 -0.2578212 6.9056864 -0.29900476 -2.5400808 0.06724951 0.2785636 -0.45386118 4.545355 1.8188943 5.0963306 0.35159966 -4.79545 -1.5451124 -1.9165429 1.1798683 -2.8811219 4.6984496 1.4301544 4.437622 -5.9730988 -1.5984462 -5.2469525 -0.35914108 2.7280226 -2.328586 -7.302637 -5.8169403 1.4376147 -2.3279896 -3.0926201 -6.074092 0.26580337 0.5816565 -0.5546113 0.64232206 1.2273484 -0.41178834 -0.83806676 -0.725839 0.6314263 -5.7015195 3.1596599 1.2172143 -2.859299 1.7411112 6.3759937 -0.6831997 5.243492 -3.707131 -7.4913054 0.3373517 -0.8909302 -2.4299147 -3.4987934 -0.13021533 0.5789699
738 -4.2189054 1.2364231 -0.39450985 -4.1453385 -4.252169 -3.69303 -0.880772 0.5291409 0.06968645 4.4272447 3.2375345 -2.015595 -0.9050072 1.383173 -6.8518467 -0.7621082 -2.0615602 5.302027 -5.832116 0.03450508 0.13442403 1.670074 3.4522824 2.152676 -3.0484705 -0.075294346 3.5962977 2.9414163 -2.4300647 -1.0242167 -1.8681701 -5.6093664 1.9007269 3.1955466 0.97213376 3.8158824 -5.23666 -2.1125376 -5.922073 -0.5562572 -1.5098011 -1.3965253 -0.69292015 0.41330236 -2.3313925 0.69758564 -2.9413283 -1.1509906 -1.739992 -2.0404851 5.786991 4.3386064 2.1518197 0.6913209 -5.0092897 5.744697 1.2906395 0.63395756 1.4354624 -4.1242285 -0.939268 -0.708835 -0.6073111 5.6746545
662 -5.596973 7.3724704 0.12978265 -6.9315023 -4.15463 -3.0976782 1.5181454 0.40968287 2.498896 0.64211303 -3.7986085 -3.8099823 -1.7477702 -4.8106155 -0.4003836 0.8579417 -2.1373985 0.13006085 -0.21731967 -4.4729996 -0.638432 6.187906 -2.5922709 5.0138555 -0.67823404 0.45141906 -2.1229968 -0.04277021 -1.2751181 -0.25569522 -1.3288479 5.779564 -3.9002159 1.7792572 -0.9612911 0.6914679 -0.92172194 -4.943366 1.8747728 0.11592938 2.115236 4.3208976 -4.2547526 -4.874576 1.8931187 -1.4057866 3.291991 2.8296657 -6.172336 -0.69364226 2.1702116 -0.18183 5.058821 2.425936 2.8400776 -0.6279284 0.0021921438 -1.8523867 1.1700544 2.4072938 0.30321944 -3.1367323 -2.131075 0.034363206
48 1.1321818 1.2614866 -2.3304882 1.8224378 -1.0756367 3.2515879 -2.8141537 -3.2838168 1.8865094 2.9898207 -4.828972 6.0769343 -0.06665191 3.2594628 -3.0493932 1.6303045 -1.3361765 1.2497232 -3.0833068 1.0631008 -0.9153039 0.5653753 3.1094077 -0.05511061 3.523502 -0.6273737 8.720135 -4.2065964 1.4229103 -1.85312 -3.1177375 -0.5426355 2.8333411 3.0806732 0.15410836 -0.7838203 0.872097 -6.9548893 0.43997943 1.8677987 -6.0705156 2.4691842 -3.9503472 2.1336586 -0.7264556 -3.9621236 2.6725867 -2.63331 -1.4781017 -6.6903253 -2.0122664 3.6437411 1.251753 -3.1269608 1.5938423 6.3720684 -2.5893195 -1.2494264 2.2484496 2.6887116 -1.9752496 -3.800534 -4.139088 -0.37388596
4 3.3231378 1.8264142 -2.3235373 2.9522107 -2.5566077 0.91662854 3.8692908 -0.4175738 -4.371904 -3.4959605 1.8765326 -1.5611775 1.7534086 1.3071054 5.08355 -3.941211 -1.4049437 2.3705544 -7.2675757 4.701578 3.5974803 3.0052898 3.2683513 0.7312032 -5.076964 2.1340575 -0.60394645 3.0548015 3.706768 2.2612157 -0.71174026 4.278843 0.7220957 -0.5668408 -3.8880136 -3.8066795 -4.670922 -2.990691 -1.0066701 0.5653709 3.6693761 2.0767212 2.4189208 -2.1162233 -1.8591177 2.5340507 4.60766 -6.481317 -0.025351692 0.69899315 -5.942847 -4.4369993 3.1093445 2.2244081 -6.783393 -2.2793765 -2.207172 -6.6605415 2.1060832 1.1958809 -1.3042039 -0.2300402 -0.49067584 -0.912262
61 -1.498529 -1.2408928 1.203942 1.3923398 6.3623185 2.2601976 2.8509865 3.1711667 -3.114955 -0.96167225 -2.7882981 3.2709382 1.6187562 -2.5494378 -6.529169 3.2599764 0.73610055 1.3989134 -4.6439486 -1.6363652 3.117755 4.699501 -0.80179775 1.1916662 -1.4296395 6.103462 2.7353597 -0.7333745 0.64439815 1.4067858 3.7924328 3.9412215 4.0034595 -2.1188533 0.52862346 -0.22664788 -0.7501952 1.6862818 7.092076 5.422536 3.8163893 5.617266 -1.5469289 -0.25612086 0.17518258 0.86162853 -1.2152486 -2.5408092 0.3054598 0.8531075 -4.1744065 -0.33476275 1.4260999 -4.6841035 -3.0515604 -0.34405017 -0.34626436 -1.3549829 -3.782324 7.82937 -3.3665705 1.06446 -1.6236149 -3.7709982
142 0.8829656 1.7580745 3.751971 3.4483604 -4.97453 -0.030715885 3.1816976 -4.86255 -1.31099 4.6617837 -6.0130696 -1.218628 1.9429668 -2.1474175 -2.4464602 -4.5030165 0.23835799 1.847453 0.8810961 -0.22454515 1.5233966 3.2506342 1.7674482 3.647662 2.6972644 -6.042337 4.125992 0.42000192 -1.1267802 -0.2712372 -1.7944009 -3.491691 -1.5319849 0.9378306 5.0487857 -1.910416 0.8527845 -1.5255619 -3.7948468 1.4284818 2.6435356 -2.1003232 -0.484761 -3.6366475 4.1267495 -1.3432454 -1.8625062 -2.308941 -1.1190078 1.8426487 0.5625283 -0.69628525 1.4063699 -7.212966 -2.3583014 4.9313345 -0.9516922 1.4549056 -0.3767962 -2.4596932 -2.0000339 2.1490204 -5.0352764 7.0094814
868 -2.0153358 0.18060397 0.5101527 2.8402662 0.13335401 -0.3859278 -6.0074 3.4132082 -7.418635 -1.2432666 1.2303559 1.2838609 1.5307634 2.1500447 -2.0679789 4.345402 -1.9759935 0.46313506 -2.6071634 4.4019294 -5.1235633 -0.12644124 -1.278899 1.200918 -2.3633456 4.378745 4.22621 -2.098483 -3.9281237 -1.6779939 0.154158 -1.5473435 0.03438475 -2.6604612 2.1192367 -1.7653519 2.1729438 -5.031956 0.34810027 1.5441042 3.9839032 -0.24684152 2.2359154 3.371007 -4.457563 -6.3244705 -1.5147759 2.168153 -4.9018164 2.3821206 3.1154187 -4.9926586 1.3373852 0.9157729 -0.13369027 -3.572725 1.2497561 -7.2718086 4.281738 0.75488615 1.3677882 2.6269877 -2.3475046 2.8819673
586 -0.35344172 -0.97732484 1.1691874 -2.4486995 3.8194869 -5.774699 -3.8035104 -0.750089 4.597871 0.75189525 3.3091674 0.251934 -7.6381383 3.3599527 -3.2502317 1.3591871 1.4475555 4.200708 -4.882035 -0.46368304 1.2883724 2.004316 -5.980845 0.42306462 0.1418934 -0.20207058 -2.237451 -3.0220737 3.2211032 -3.066183 -4.084591 1.8960564 -1.7903279 -1.8437378 1.552593 1.3802392 -5.2505517 0.07540182 4.401535 3.9346068 -3.3214328 -6.206878 -4.6562304 2.6159437 -0.20545699 0.37238154 -2.043511 -1.4568136 1.2669171 2.5071478 1.5491328 1.9130725 5.2147427 -0.4028014 3.4835153 1.6305901 5.8798766 2.8352542 0.97343886 -5.0137825 -2.686905 1.5225596 1.8880242 -3.2816527
87 -2.6293364 5.299821 0.9532628 0.72793686 0.5674734 0.9445558 3.1304274 -5.1561093 4.5916023 1.3858759 2.7929986 0.719434 2.5694256 -4.5264516 -2.8746965 3.850558 -5.8397026 -2.0992088 3.8943202 3.1187365 -6.615697 1.4359759 -0.8671771 -0.076241635 1.7087262 -2.601386 -0.9092217 -2.9004197 -1.3246415 4.192085 0.91587466 1.3952178 -3.783227 2.0877123 4.8886766 -4.5079513 -2.473439 -3.7588048 -4.4026976 -3.7498055 4.293056 -2.2600932 0.86522156 -1.8976882 -2.0636733 3.3276677 -2.8775122 -1.3117671 -0.0571017 -1.7835766 -0.3702104 -4.691733 -0.4404594 -0.68499076 -0.5453097 4.733101 -0.8065761 5.0300303 1.6730237 -4.38546 -0.6068072 -0.1330032 -2.4021094 -2.792669
347 -2.6097147 -5.0783706 5.0689898 4.2375865 4.9075303 0.81318694 1.2380486 1.3621747 -1.9532944 -1.0878149 -1.4310005 -4.4568453 -8.689252 -5.2251945 0.047977418 -0.381014 4.210975 -3.0593634 -3.150644 1.1448098 4.261762 -2.709998 -1.1188276 -0.70620215 1.4075937 -0.4359647 0.0039056586 -0.027954482 0.6787046 3.8859878 3.2796025 6.8650937 3.9003072 2.9237454 -1.5303415 1.9924595 -0.7815662 0.36799976 -0.6424544 -1.2536441 2.5942092 4.0899 -0.966863 -5.774375 -2.1990137 4.7813144 -2.0813565 2.8844373 3.143747 -0.38347316 -0.72144204 -3.706707 -0.7470605 -2.703165 0.30556342 -0.22254561 -1.3532265 2.9194653 4.8536716 3.9552317 -4.183802 1.0100108 -2.316082 3.5977383
838 -2.8385162 0.7509352 0.23655757 1.8118763 3.202474 -4.0197906 -4.528605 0.059286416 0.9409399 -3.4098861 0.90195453 5.824575 0.60982406 -1.419674 3.855483 0.22442923 3.0758438 5.72732 -1.6830044 2.2137332 2.3959796 -1.2868288 0.48969465 1.4414656 4.826048 2.5639918 -10.080285 -2.81449 -6.0367117 2.920981 3.019945 2.6208987 0.0012018868 1.9919198 -4.008658 -2.2135787 -1.2083333 -2.076963 -2.529471 -1.3112581 0.36145502 2.6300519 1.2743062 -2.72251 -3.6450794 3.0283737 -3.2300127 -3.0570734 3.1588593 -1.5638161 3.8660533 4.5013347 -2.2282798 -3.6321461 1.3666531 -0.55901784 -3.3021202 0.85885125 -5.8012853 1.5043768 -0.5055452 -3.2681537 -4.731198 3.9668643
956 -3.4544172 0.68866515 2.1998699 0.4434559 4.548132 -0.8139992 0.9122115 0.72363806 4.7254424 0.21746156 3.0637174 0.7141162 1.8912194 1.4216795 -3.315245 -1.522694 2.768449 4.9371004 1.0729228 -2.023851 -0.82339656 0.7530094 2.5949368 -2.6146903 0.06967552 1.4155514 -1.8014842 -1.936496 -1.3803658 2.7981 -0.16239828 -3.6151438 -7.4492064 -1.0771198 -4.046587 -8.143909 -4.8146925 -1.1175609 -5.0621414 3.9201524 0.5546036 1.4583894 0.48513573 1.5383074 -0.66885424 2.653252 -0.8973833 -2.6188636 -0.53732544 2.0889082 6.7769947 -5.6416383 0.68938047 1.0007141 -2.9382925 4.9878216 1.5881201 -5.002109 1.3036213 -1.2136031 1.3768561 -5.324415 -4.6605062 -4.5906086
121 8.195672 -1.0267289 5.0331073 0.44222695 4.510402 -4.82566 -2.373045 4.004995 0.35195696 0.9708929 -1.1226115 5.640663 -6.1935196 -3.437012 1.8935026 -1.3125813 -1.927882 -1.4052807 -0.41673025 -3.2435982 -3.3869548 1.5819613 -0.4518838 0.48819005 -1.3635685 2.937824 1.9675812 4.1494803 -0.58694905 -0.44806606 -1.6381159 -1.0014908 -1.0592484 -4.439034 2.6037664 0.8938741 -2.3306983 1.6255002 2.2228014 -2.3407016 -3.0711763 0.4412665 -3.6572943 2.1608222 -0.94886917 -1.9738805 3.4591513 -1.1156096 0.55965847 -4.205337 3.284353 6.9828057 1.2756715 -0.52104473 1.7523763 1.3206178 1.3441368 1.0050697 -7.886742 -0.58577496 0.6975954 0.16779122 0.91825527 6.311315
677 1.0562652 -1.1253546 -4.846075 -2.133776 0.45766592 -0.50972384 2.064057 4.3799753 -4.2597528 -2.4267745 -1.3180182 -0.6351209 3.7308462 -2.4404383 -1.1950897 -2.6669776 -5.23942 2.6949563 2.81145 0.16405775 2.0533047 0.98189574 -4.76742 -4.4346666 2.1118991 2.87949 -2.718833 -5.04096 0.42120227 -1.1345767 -1.5719634 -7.454343 -0.025748553 0.09856416 -2.351096 -0.0149072455 -4.8509846 3.6651921 0.22730836 3.8764145 0.9551226 0.9793554 5.9977055 3.9019501 2.298808 -3.4358711 -1.3046958 6.504148 -2.148433 -2.2930062 -1.3595469 -2.2313583 -2.608126 0.75527316 -0.51133937 0.29184565 2.6705182 1.3696933 -3.2583003 -4.0805826 -1.364911 6.330965 2.6124098 2.4368303
164 -4.1272664 -2.2422562 0.6470111 -4.1243243 -0.49072114 -1.2378079 1.0892874 5.6461244 1.2977946 -1.9106089 3.02703 7.3960404 4.1363015 -2.1311374 -2.4846072 -5.1690784 -1.8500865 -1.8581434 -1.027497 3.6032126 2.8341823 1.4806026 -4.778688 -5.9699388 2.0555782 1.5667728 4.4314895 -2.3544712 6.51791 -2.3627028 0.8943625 -1.6122415 3.6538258 -3.5013466 2.9250658 -3.0546901 0.07129601 0.85345376 1.6152321 -2.4711862 3.2585797 3.2624593 2.1621509 0.98822176 -1.0951787 -2.0413578 0.118513964 -1.5441973 5.698411 -1.4939296 1.2855581 3.5507402 0.75916183 -1.8060836 -2.063405 -2.0554912 -4.766203 -2.0786085 -6.081675 3.3793683 -0.70063674 -0.90871733 -1.591364 -0.35745624
36 1.8446562 -2.699262 -5.4807377 -0.22560708 5.413056 -3.6970382 -4.8026667 2.0418468 -1.3615879 -0.370703 -0.22994035 -0.21648097 -0.61533755 -2.445304 4.384177 -1.6207709 0.10458618 -1.0196044 -3.3424633 -1.7631869 1.3170415 2.3848994 6.5355735 2.6444201 -1.1034586 -0.48580757 -5.4157786 -0.28784782 -0.09507474 3.5647283 0.73793334 -5.8828754 -0.8091534 2.1606405 2.1584826 0.8908632 1.8715835 4.018134 3.1842046 -0.5317624 -2.4084158 -2.424203 1.2457432 5.925428 4.8772483 -7.729335 -2.1065214 -3.0866277 2.8304427 -2.6537886 1.542596 -0.8376343 2.9950006 -1.2015462 -2.4808927 -5.191593 2.60051 4.440583 1.1784972 -0.3229783 -2.6513703 -0.27995852 -2.3108618 -2.4874368
887 -0.8394978 -2.4402814 -1.1070875 0.7773219 3.5799239 0.9734148 2.894709 -3.2709272 7.658089 -3.224804 -5.83438 2.8564522 -0.05956798 -2.2069867 0.49320486 6.128847 4.5696774 0.8830591 -3.5716252 2.0682194 0.22178873 3.3238091 -0.952778 0.01607402 1.096338 -3.843653 -3.9212737 0.9437451 0.5573131 -1.5656898 1.0414932 -0.9081663 -2.631216 -2.20732 -0.31861737 1.8270491 1.6952467 0.8582135 -4.081121 -0.7062527 -1.0479671 -3.8237784 6.6123013 -5.21686 3.020802 3.3232894 -2.6525478 -0.44562852 -1.1005523 -3.7514362 -2.949097 1.007679 1.5037035 -1.4271607 4.753193 -8.05879 1.1817324 -1.5421653 -0.36414847 -2.4048269 1.5709469 0.58619237 -1.4761857 -1.5172048
417 -2.4927812 2.5892549 -1.4425277 -4.583425 -1.4671496 -1.9501842 -3.643585 -1.0495194 -4.4712534 -0.5072925 0.6981172 -2.522937 -1.3058281 -6.2969193 3.5226455 1.4768513 1.8058006 4.038662 3.6225407 -1.8371727 -0.7341645 -2.548753 1.2094127 0.5562631 0.8436237 3.7920098 1.9704487 2.8845782 -5.017996 4.6503816 -0.28655103 -1.7034993 4.6844897 -1.7787671 -5.790361 -2.0204756 3.226859 6.4673924 -0.69359577 -3.72539 0.6774333 -1.2406145 2.6880279 1.8737421 3.2643752 6.2476583 1.9849738 -1.7547309 -0.9460665 1.4379094 0.5503923 -2.9737706 -2.9018605 1.6080589 -4.6151543 0.75917536 -2.660587 -4.7803054 -7.456927 -1.7250327 -1.7597011 -0.3375039 -1.6332308 5.773712
341 -5.1025743 -2.6000912 -1.659476 1.859069 -2.0094461 1.2260941 0.17674126 0.301872 -5.409609 0.17692536 1.5043867 -0.15793905 -2.30278 1.5386 -3.9514678 -2.450902 -1.0582577 -0.8587692 -2.1562288 -1.9717994 3.478974 -1.6710327 2.7445881 4.5469594 -2.4228559 2.1983607 -5.5713563 -3.4461935 6.4378676 3.4020736 1.6981628 -1.3870853 -1.6296846 1.3546463 -2.5203283 0.5512739 -5.13084 -4.563149 6.031564 4.6035533 0.9982092 -4.7941737 2.4219277 -2.1187966 -0.390944 0.9584499 0.23870318 5.6268926 -0.9189422 -0.28866753 3.872037 3.4728022 -6.4313755 -2.4635224 -2.0874364 1.5703287 -0.77787364 -3.1399515 -1.9553444 2.339028 -4.7843328 -2.6215785 -3.4170096 2.0457637
793 1.0816214 0.99123156 -2.6096137 -7.0315657 1.3364688 -1.3588859 -3.0344255 -3.3063278 2.1581743 1.8194369 5.527036 0.7376392 2.6244853 2.740447 -7.366235 -0.68535715 5.657082 0.08373363 5.6384425 0.021683237 2.1946518 -0.3739215 -1.6358835 -5.5179358 1.9106243 -5.4492283 -2.9902709 0.20184265 0.9897355 -0.7285193 2.5320253 4.7246885 -2.7194114 3.4563282 3.45284 -1.6371825 -2.1776783 1.7235988 -5.039987 -0.092221245 -3.4406183 0.057811935 -1.5047958 -0.62842125 3.3363116 -0.6881308 -1.0316541 1.0771594 6.3644915 3.4928195 3.61208 2.0757558 -0.3827829 -2.3128316 0.10899297 0.38517222 -1.7432909 6.4333797 4.392857 1.4850084 -5.462141 1.0190306 3.9770865 0.08745532
480 1.4781747 1.0209792 -3.417964 -0.30820614 2.084415 2.5780063 -0.8796317 -1.21662 -2.3170538 1.6265241 -0.87417215 -0.76272196 -2.9161477 -3.8660245 1.9859484 0.2282823 -1.1155574 -2.591703 1.5432013 1.6283246 -1.4523194 -2.5196173 4.820841 -1.4462763 4.35624 3.8631966 1.5959421 -3.4031866 1.6512622 -5.1241174 -1.4175751 -2.2991998 7.5803003 7.408332 -1.3480588 2.5612063 -5.2901044 1.5542977 -0.54693043 8.184228 -4.840606 2.5535114 -3.2382398 2.932182 -3.3461685 2.41576 1.4881169 -0.9739785 -2.584727 2.0673354 -5.3783226 -0.7421634 -0.4369721 3.0487354 0.4438926 -0.42352444 2.608196 -0.48630688 -7.177909 1.4442571 3.2564974 -0.7602018 1.7268041 0.53745395
84 -2.3925033 0.5210152 4.8064675 -1.5607617 4.6140494 0.586056 -3.2566922 5.792107 -6.464035 1.1009809 -0.58676887 -1.0748011 0.87745756 1.5409083 1.1518817 0.21796328 2.4658206 -7.9544277 0.020457014 1.6880116 0.37204123 -3.293212 3.417186 -0.27890235 2.6139998 -0.004957941 0.7352564 2.0853348 -2.2822452 -0.6562895 -4.094498 -0.18450905 -3.0697887 0.25933716 -4.143445 -0.61709374 2.5597801 2.5901673 -0.33359465 2.323327 4.1794233 6.2325387 2.008972 -0.17658758 -2.000595 0.1435676 1.1295171 4.5732837 -5.3775754 4.620491 -2.238471 2.547568 -2.8010588 -2.5759406 0.31755775 3.0594203 -1.0515764 9.411053 -0.44847536 -1.6060861 -0.814966 5.4713817 1.9117979 1.0304422
576 1.6540642 -2.493503 1.7841921 1.1888442 6.670272 1.722681 3.4611678 -8.5441265 -5.8067594 -1.923986 -2.3421888 1.5142499 6.572493 0.7219469 -1.2121985 4.28845 0.98728013 -0.71384645 -3.29226 1.1505152 2.3570917 -1.3993057 0.21309274 -3.5076063 2.1153815 -3.9525075 2.4339166 2.8189213 -6.347348 -1.5299228 0.97394514 7.0506883 2.848015 -1.107276 -5.255567 -2.041408 -3.5995212 -2.0691457 -5.9862885 -2.8915122 -0.6967919 -1.0488067 -3.9819872 0.7340897 2.5057194 0.39733094 3.1172764 -0.1325403 3.3765528 -5.1164207 2.6131716 -1.51918 3.5444098 -4.0047503 3.5288682 2.5676076 -3.5762982 0.4583884 -1.2981365 -1.8593234 1.8123175 0.30703625 1.3956882 0.8441337
623 5.809336 0.60209924 -2.6977797 -1.5931734 4.468417 1.9645966 -0.2750045 -3.2589674 -1.4924951 4.3713217 3.999922 1.0141788 -5.308773 -7.135042 -1.2662675 1.5712639 0.88340247 -0.17621191 0.91374564 -2.3586075 1.0630611 -2.1588504 -0.06399824 3.296874 0.85573584 -3.2135873 1.3650979 1.225724 -2.0735939 2.8502197 -0.7227195 1.2351841 2.7660959 2.034087 -6.2920604 7.3752103 0.5655033 -1.0773969 2.557227 2.3415773 -5.901558 -0.3151891 -8.969433 0.66206723 1.5275135 0.4888786 3.152075 5.7049403 2.1312122 -2.4042733 -3.2718923 -0.7357342 -2.6010303 -1.7781589 4.4165635 -3.0249093 -2.4391477 -3.2368639 3.4906745 -0.914255 1.7168734 -1.3271953 -3.5165687 -2.6678216
110 3.26955 -1.8443837 0.7136886 4.2119837 -2.3761046 3.032047 0.8212654 -1.3714358 -2.468773 -1.5194293 5.0854187 -2.618575 2.6450253 -0.77259266 2.9194226 -1.4971652 0.30781564 3.9599504 -10.511801 -6.306385 5.1712255 -1.4949969 3.1567218 0.72286314 -5.5583386 -1.2437375 -1.5583086 1.0738784 0.67013854 -1.4781015 -0.9599209 0.25015742 3.7308826 -1.6928002 0.5715885 1.7180405 1.4572805 -3.2455883 1.3365216 1.8956099 -3.1069016 -3.113902 3.7149317 -3.9898193 0.64702237 3.3242693 -4.928037 2.7024608 0.38187927 4.1637487 6.870976 0.66211236 1.8333726 6.314108 1.692377 0.86422676 -0.9087448 1.7193794 -1.7385962 -1.6169469 -1.0217174 -0.9212415 1.6246254 -1.3123411
437 -2.8616276 2.1780772 -4.012767 -0.34976253 -6.447473 1.6527582 -0.8529617 0.57022715 -2.8460493 -0.7441085 -0.20822327 -3.8613627 0.5180123 -6.0783706 0.2420666 -4.77382 1.6948062 -1.0280434 7.5877476 1.1934294 4.964362 4.1199517 1.4473596 -1.9555156 1.9326731 -3.655725 3.9253597 -2.529948 -1.7794188 -2.5871065 0.13139743 2.3547268 -5.601841 -3.6601493 -0.061760258 -0.613054 -0.03995917 1.076007 0.6061288 -2.1004424 -1.0789654 -4.694092 -3.0703807 0.73807347 -1.4819138 -2.6031418 -4.527441 -2.33616 2.36051 2.4445598 -1.9954708 -9.539107 -2.8782768 -2.9519167 -0.59288526 -2.9313712 -0.66337913 1.0255995 1.2451159 0.62722415 0.72451675 -2.7321236 -3.2517378 4.3947077
656 -1.6546926 1.2974311 -0.05915795 -3.814496 -3.5718803 1.676922 3.5860736 1.7114682 -5.891668 -6.280771 -1.9898974 2.6801233 -0.61159354 -6.318854 0.35496524 -3.5392861 3.7239957 1.6667025 5.226473 2.285737 3.1128724 0.9360476 -3.217256 -1.5423684 0.9160559 0.078348584 3.54986 2.0838938 -5.1291037 -1.6286534 -3.492563 1.587324 -1.4443332 -0.45186514 -3.172955 4.7512646 2.6170108 -1.6742624 -1.5891998 -1.9471439 3.0593371 2.2426362 2.7840517 -1.7292092 4.565838 1.2867111 3.943953 1.0930749 2.2663176 -4.5695887 -1.9475244 0.9393261 5.825255 -2.3264575 1.6627767 2.537204 0.36041066 -4.0395536 0.9098894 1.7397196 3.5154872 -3.7891471 1.3944097 6.073457
897 4.816032 -0.8852157 -3.272519 -0.28065082 -5.827711 -1.1685604 2.8396575 -0.38760808 2.7299433 -2.862853 -2.1744785 2.106106 -4.5431027 1.0586932 -2.5802531 0.89629364 0.5469511 5.2051682 -2.3111503 -0.08002948 3.5201333 4.8953896 2.792893 5.3851266 3.156799 -0.977478 -5.9617476 -0.54763716 -5.3055625 -4.925716 0.37599093 -1.0320914 -0.8461645 -1.6217806 0.66176105 5.4182167 7.6279354 -2.4453099 0.8814807 0.22987263 5.228445 -0.7595088 -1.4583883 4.4328017 0.55734503 -4.573121 0.6422455 0.6201945 3.9057899 3.5517335 -0.90797335 1.6103665 0.9275133 -0.93342495 -2.684356 -2.376301 -1.4415616 -1.3008124 -1.3555766 0.24452055 3.3024924 2.5558066 -0.6879943 -2.9165113
163 -0.38812563 -2.6943147 2.4188406 4.3001804 1.4626876 -2.010661 4.712024 -0.14817168 4.6495185 -2.4746463 -7.1810746 1.0524527 4.340521 -0.017510029 1.6003975 -0.0013647587 -3.5676723 1.5042875 -0.43144113 2.3036153 -3.641516 0.95501643 1.4415822 -4.9047575 2.2108903 -5.574899 -1.5363129 0.17593952 -0.15408702 2.4415278 4.891144 3.7731612 -0.51367927 -3.088233 2.1653867 -1.3432002 -3.683397 -6.891711 -6.496464 -7.310717 3.0892777 -0.9238645 0.19704911 -1.5733926 2.4927995 -2.0453272 -0.23288389 -2.6099048 1.6103698 1.8112086 -2.0212858 1.5001734 -5.033762 1.1426287 -2.8742163 -0.31636035 1.3087008 -3.8064783 -0.28385264 3.3370214 -6.193647 -0.694824 1.3442212 3.4164293
975 -1.6581466 3.6336927 2.478439 -2.5409935 -1.0768316 -7.7409797 -0.10335725 -2.545999 -0.27523288 4.0220256 2.4260151 -2.3901405 -4.0212827 5.2622557 -0.6397677 5.921032 1.0344049 1.1989638 0.20991936 -2.7930741 -2.0725775 5.444009 1.4702601 -2.2711604 2.7231553 0.6603491 -3.8751998 2.886645 1.3424911 -1.7969102 2.533358 3.9333987 -0.16553076 -3.5725265 0.9037276 -5.5815725 2.1752312 -3.529104 -0.70707774 4.5359163 2.1548967 -2.0838404 0.65608627 3.033563 -0.5761487 2.6346307 -3.9960835 -1.5212053 -1.7345425 -1.1374251 -2.9168587 -1.8622671 0.03959307 1.8546666 -2.5283122 5.5825415 0.6784617 1.7917678 -4.273585 -1.4271317 -3.846666 2.7404692 -4.890471 4.070516
52 -2.189299 2.5821874 0.6355448 -2.5969687 2.2636049 -2.116463 -4.9053597 1.2832793 -0.2897022 -1.243777 -4.3835063 2.4933298 4.8131104 -0.17992665 -2.0594728 1.5455691 1.338648 -6.3520164 -1.4793559 -5.5997386 3.5429227 1.5986693 3.3031194 -4.049142 1.0896736 -0.48670292 1.3179381 -7.323336 1.9385796 -8.491718 -1.3954393 0.7243732 -2.905814 0.8110089 4.971551 1.8464284 0.9520604 0.31705856 -1.758766 0.5105449 2.3157291 1.2879903 3.2951374 4.08079 -0.23320517 4.5409007 1.440178 -6.0532618 2.9814575 -3.8989644 0.8184563 1.0142474 -1.9708759 -2.3238177 -3.8496773 -5.163905 2.2467659 -1.8833834 3.024905 -2.9740105 -2.5794313 -2.4251277 2.7802343 2.3474648
24 -0.15702583 -0.20923616 1.1299623 -2.5276663 0.13631865 -5.0636554 -1.8941432 -2.9025333 4.012326 -2.0631022 0.4309086 1.9583441 3.401794 0.31699336 1.3892857 -0.38538393 2.858166 -4.84817 5.7108903 1.0846326 -2.7770832 -1.2578126 1.1028619 0.24792175 -4.43843 3.1037934 -3.1910138 4.166707 -3.5592012 -1.7659479 1.9705727 -5.2298336 5.8696284 3.178122 -1.4583831 -0.53045607 -3.956423 -2.1518633 2.5387595 1.6875846 0.93406117 3.7292192 -4.001538 -5.3773565 -5.0707736 1.1223629 1.4968121 1.3192291 -1.0096886 -2.2123778 -5.4977183 0.88662976 -1.3556749 3.2877736 -1.6811213 -1.5477915 0.3087943 -3.5513244 -1.2974981 -5.303229 0.6948925 0.72149736 -3.543114 6.4189634
941 7.144394 -0.7143846 -0.21971887 -0.91469586 1.093531 1.3692039 0.07501144 -3.9398372 2.1839085 5.001553 -1.7634717 -1.5138742 3.9678044 0.3648312 0.005887047 4.5622373 5.4406266 0.045962676 -0.83237624 -0.6026541 0.1448194 4.544168 2.7731433 3.029612 1.1075575 0.74111646 -0.23640668 -0.33620527 -1.3608154 5.308567 0.10865575 3.9735768 -2.7569585 2.9901335 1.6987764 -0.52141935 -2.2790651 2.79799 0.017560443 -1.3346678 2.3715303 5.5171843 -7.715012 -2.6610982 3.472777 4.7486987 -3.260755 5.21975 7.59592 -1.6231587 -0.1988807 -0.9172294 0.18156956 -1.1882935 0.5776314 -4.4639425 2.3312228 0.6327327 0.7316842 0.8132816 -6.1808476 3.608921 -3.6116614 -1.8708769
31 3.8016224 1.5706202 2.3786716 -2.5913558 0.87035906 -1.0108515 0.058363765 3.3184552 -1.8636442 0.95853657 0.4428491 -0.94042796 -2.332108 -1.1109217 -1.0098742 0.007227133 -5.4154396 -0.4409219 -1.2010506 -3.2228746 -5.020924 -4.7434335 4.26089 -1.8355654 0.3118611 3.4982517 0.8841361 1.3263103 1.8504615 7.8211646 1.7803675 4.335096 -2.7717578 4.186468 -3.9724946 -7.8927503 0.21552606 -2.5161152 -0.29819685 4.7614923 3.1309955 3.5348954 3.4242373 -0.4427009 1.1169136 3.3556664 0.9269669 1.8089621 1.4075465 -2.391237 3.319305 1.7304704 0.2965599 -5.683663 1.6153475 -5.3165474 -4.69766 0.10459041 2.3309317 -3.1747444 -2.3900712 -1.5562779 -0.5560671 -1.9132023
770 0.42955995 0.83220786 -1.900209 3.0566807 3.5730474 -1.5811654 0.0038624266 -3.6423578 3.2179148 -2.007176 -0.9645751 1.3553255 -1.8439521 0.18667738 1.6784024 -1.4509417 -4.122037 -1.868281 1.422347 -4.08927 3.4052505 -4.089114 0.59161025 -1.0667815 -2.4801083 -0.63745964 4.310816 3.3194008 -5.8378196 -1.283484 -0.92678803 7.313735 -2.107613 5.600012 3.1993904 -0.86539716 -0.44326878 -5.4414334 -3.9252038 2.6763415 3.2210114 -5.325353 3.214195 0.5475906 4.3935866 -5.5519686 -0.358855 0.390139 -4.7339644 2.5662935 -1.4917718 -3.2779562 -2.8924694 0.5200099 3.238793 5.2799406 -3.4546387 -0.26506165 0.63797665 0.9333029 -2.7070572 -2.4965484 2.3055158 4.997132
478 -3.1677384 -0.31656277 3.9312687 -0.9943122 -1.5085393 3.6376584 6.709438 3.316 -3.9284537 1.2385554 -3.9499998 0.3110083 -0.036562894 -4.1834583 6.9896746 -0.58416885 -3.8376307 -3.8406541 -0.9118963 2.6599221 0.4370787 4.2440324 7.9644666 -7.616642 -0.014045747 -2.5914886 1.5542693 -0.84404886 2.0186718 0.38920283 -1.8440061 3.1764443 -0.03428027 5.553122 -2.4314315 -3.2511454 1.2264925 0.7289259 2.100202 0.42180032 1.8525774 -2.3590767 1.2702785 -1.6499135 0.26127073 0.7041859 2.8249207 -2.3901558 -0.75438225 2.879715 -4.136722 -4.1161566 2.7222412 2.138413 -5.901716 -4.3778386 1.3208517 -0.4532446 -1.8778788 3.808864 5.513346 3.333644 3.922994 4.5537996
618 0.29385063 -1.791052 2.506321 1.9563358 -1.5773704 2.1293347 2.596147 -2.0082877 2.1818762 2.105504 -0.8580835 7.870449 0.004841071 -2.4952447 -3.3163881 -2.4245152 -3.1298516 4.8253045 -4.552736 4.8888865 2.6342697 -0.193098 -3.8017728 -2.8173738 -4.110602 2.1637204 0.029378757 -1.3070822 3.5434272 0.4922993 1.6441888 3.032726 5.809524 7.1256533 -2.5885909 -2.0631883 -5.5565867 -0.36655155 -5.3083444 -1.6266465 -1.7999114 2.5330455 1.1128936 -3.7329953 3.2348793 1.679138 1.162665 -4.6739297 5.7733145 0.82486457 -1.3211927 5.686362 -2.794128 -0.5568274 -1.593692 -2.1316342 0.72717834 2.9568903 1.0549082 -2.3493195 -1.8300207 -4.847353 -4.061168 -0.5797377
192 0.16304441 4.846301 0.5251716 2.1102045 0.044580236 -2.119274 2.1715748 -5.2528815 -6.2609177 3.9230204 -2.5620868 -2.1510208 1.9649279 -1.3646588 3.5470614 -3.9543438 5.8125906 -2.2997603 -0.17316926 -2.0134716 -3.1689363 0.69633967 2.1852643 -2.5428834 -4.1796722 -2.0495825 -0.45880675 -2.5780575 -2.4223554 -6.744185 1.8162627 2.6908092 1.8260558 -3.8094752 -2.2503414 -1.0436407 -2.7648568 -0.15520701 -2.2979288 -6.265762 -1.4605144 -2.59385 0.43228173 -1.7068834 6.327652 -7.0203176 1.5263836 -4.0062513 -1.7570616 1.4804866 0.55495596 0.42001635 0.95153934 3.6415408 2.0452945 0.11360118 -0.83184314 0.7127065 -1.6831949 -1.95977 -4.2730427 -2.4786768 0.0022719498 -5.1657195
693 -2.0161128 -2.01981 0.21608295 -3.6048777 1.8470074 7.787809 7.1335273 3.3440402 4.988711 0.7016251 3.9849348 -1.5608861 0.5514557 1.6114804 -0.7673739 -1.1022573 -2.8030846 1.7497355 -1.7746639 0.9762117 2.1512053 -1.6894741 4.791822 0.15752257 3.9882066 0.4988421 0.8194018 -0.222537 8.137707 -0.74151105 -3.5340211 -0.35560727 -4.6208444 -4.013868 -1.1670554 4.0364165 -0.40771228 -0.050481733 3.7373545 2.5083025 -0.21036783 -3.6682453 6.6848807 3.3147323 0.7692223 0.588103 2.687946 -2.9662921 5.001955 0.8788271 0.9011521 -0.8564772 -0.758656 2.1756246 0.42199945 0.9501102 3.0154555 -0.049008653 -3.560168 0.77883637 -1.0727712 -0.9456571 -6.7640805 1.3362603
634 3.4496195 4.660914 2.9982278 -2.3390434 2.3122401 -5.2932534 -4.0280576 2.1407375 4.2358303 2.4421625 0.77554214 -0.9314512 -0.33806083 -1.2463435 -1.6615251 5.1513143 -1.4127896 -0.32532573 -0.2627833 1.3282975 3.3588235 -4.7163453 1.4013863 -3.7242584 -1.5357186 0.4402643 -0.01766755 -1.4739355 -0.5038716 1.176662 5.2973657 -1.4088448 -0.37692782 4.1710534 2.7642035 -0.5267877 -4.406505 0.97986466 -3.1975155 5.759596 1.9729944 -3.0054946 -0.15551138 2.7686439 0.38483587 -3.8110952 -1.2330139 7.628082 2.2103553 -4.4096212 1.8255441 -2.3749368 1.7907096 0.3710228 0.37323925 -1.4349123 2.6530745 -7.504755 0.13958275 -2.158654 -0.8202464 -8.537461 -0.20339052 -4.0657716
937 -1.2581004 -3.3139532 3.143701 -0.7305142 -3.6089952 4.2001987 5.8233027 7.814684 1.8812882 1.0003823 1.5735067 0.11210171 -1.3491484 -2.6148028 2.8198059 4.9866586 0.14906994 1.516119 -1.3799976 0.7573051 4.6351705 3.3667212 -4.190805 -1.972208 0.31516662 -1.3592465 -0.8425331 1.5711104 3.874935 3.1114695 -1.1513299 -2.0118475 -1.3672155 -1.0560278 2.496458 7.581994 -0.47521454 2.6593418 -3.841164 -0.14845243 2.0665667 2.1688282 2.62246 3.3035512 2.206182 1.7198058 0.72166425 3.011182 -0.6640266 -1.9264535 -1.9777352 -5.4739466 -4.4171095 -0.36310238 -3.3056345 3.0905933 2.078646 -1.4472567 -7.533078 -4.9427915 0.54159 -2.5009449 -0.38015094 -4.389729
349 -2.360318 0.97590506 -1.6860118 -1.2175325 2.3976727 -1.9460951 3.2899244 2.485466 -2.6709423 1.5022688 1.917631 5.116289 -6.174908 -5.662567 3.8587074 -2.2628965 1.0164756 -1.1929623 6.5088434 -5.019396 1.461251 -0.42483118 2.3493927 -2.5240815 -5.433933 -1.627812 -3.020821 -0.23429802 -0.8300047 4.1041946 -3.403205 1.158268 -0.13878018 5.171289 0.14329773 1.8612111 0.49251825 0.6061176 -1.6413223 -4.275441 0.8588977 -2.5286586 -0.57173973 0.83972853 -4.520877 -0.4512056 -0.6136286 -3.0242636 -0.90020955 -5.9875903 -5.339832 -0.8151207 4.867897 -2.0497272 -6.082591 -3.1271362 -0.5356597 -0.6909464 0.38065448 -0.9737865 0.25859544 -5.717288 5.494855 2.2121012
819 -3.3708918 -0.73932016 -0.53620845 -2.3829641 -1.8252894 2.923482 0.28183296 3.5484772 2.4529436 -2.3930173 -1.4760827 -0.039932866 -0.17727935 -1.4100376 -5.3958898 -4.0037837 -2.3487165 -3.8663654 0.7085792 -4.1039066 3.5562623 0.81198883 -4.746167 5.1528854 -2.5031736 -0.7697765 1.988598 0.78026783 8.586434 0.9691044 3.2399404 0.7624857 3.068277 -1.7267472 -1.3043513 -5.308495 4.2937355 -2.880546 -1.7425779 -4.3688207 -1.1463686 3.9963682 -3.0112705 -2.0293834 0.13866335 -0.97274065 5.063317 -2.3594398 -0.7360984 0.49607652 0.21228468 0.93920785 -2.4556623 -2.1984086 3.1476912 1.3319407 5.331051 4.0200677 3.985944 -1.7191995 0.04888762 5.3399158 -0.4527789 -5.1057296
266 0.8393681 -0.48417076 -7.516116 -1.4644344 -0.8795569 -5.241075 -6.6468396 -4.4644523 1.9451842 -1.7240611 2.894533 6.9521937 -0.26015797 0.12031874 -8.056484 -4.94683 6.408682 -2.567403 0.36048633 -0.15913281 0.7326847 0.46115148 1.9824961 -0.26514894 -3.1879823 0.64050466 -1.307793 -1.8296639 0.23695457 2.1455984 0.24017476 3.850389 5.406529 1.7390893 3.2992747 -3.2242815 -1.3836313 2.267274 2.71378 -0.6025399 2.4945395 -0.9314919 -0.22238496 0.05869832 -2.0069265 1.037265 -3.5069988 6.209809 2.6275954 -1.056458 0.94359905 -0.2965647 0.88618374 -0.49978653 0.8650009 1.8153058 5.66055 0.27373275 4.873374 -0.27213252 1.4886154 -1.4231102 -0.8996732 1.917748
703 -2.0712712 -1.2383603 4.5553417 3.012551 -0.03018704 0.36980414 2.253731 0.98959553 -0.6803558 2.491863 7.53605 4.384195 1.86851 -3.9707513 1.000506 -0.5432831 2.4012394 -3.4306996 1.43265 4.6526613 -0.52981234 3.5319755 1.7544208 -4.86523 0.49637362 2.474403 -4.1023083 0.70893854 1.9629055 6.8321214 -1.2396281 -0.38195944 3.1064014 0.029214209 -6.5730376 2.684794 1.6897625 -5.7367096 6.1299634 2.2050364 2.9207168 -1.222998 -1.7454207 0.24297404 0.08451919 4.8927603 -2.688064 0.23706114 -3.9537086 2.4433534 -1.6255683 6.066358 -5.3482776 -1.0920146 4.760593 -2.8734949 3.986457 -0.17689219 3.9207559 1.945035 -0.65659297 -3.3086104 -0.74676174 -1.7148488
126 0.23332849 1.5165921 1.2437379 3.2976754 0.025737895 -2.6513882 3.1281805 -1.9429767 0.609684 2.5650008 -3.1010704 -2.9721866 -2.759583 4.9594574 1.2315291 -4.3739777 -2.745134 -3.9656184 5.8126054 -1.6407988 1.1514395 3.6687841 -2.0785344 -3.219755 -3.16008 -2.9031117 6.9954348 -1.9678333 0.830383 -0.46199906 -0.50246423 -4.7743726 -6.2684712 1.7460043 -5.8410897 -1.1032659 0.7655295 2.8033798 4.691406 -1.0694649 -2.6780806 1.5771996 -4.597111 0.24414662 4.7386656 0.48868176 1.601745 1.3680156 2.2338026 -6.026032 -0.71209645 4.6242175 1.0378964 4.1898355 2.4093096 -3.131807 -2.7544334 -2.4508522 -1.7838606 -0.36049044 -3.353113 -1.253294 4.4039087 -0.047041602
452 -1.3722513 -4.7380376 -5.684475 4.316165 -3.8605082 -4.0386033 3.3590667 0.83507603 -1.065559 0.7215397 -1.817172 1.5433295 1.5582088 -1.3221916 1.7864717 -2.4705908 -0.47018543 0.5750186 -0.5136779 5.6340055 1.9601314 1.3387928 3.2865582 3.1339254 0.9708971 2.7378805 -5.1789227 1.9218625 -2.8167148 2.5507064 3.3088105 -1.5269214 -0.57102853 -3.5975022 -3.2155848 6.7781568 -4.4414697 -1.3270403 3.2482986 0.6281253 -2.5711358 -1.9612551 2.2090633 2.2944987 -2.3720527 -0.3724144 1.818464 -0.039956618 1.0141782 -3.8653843 0.17833835 3.0734112 1.0194073 -3.2616544 -1.8607615 -2.3455312 4.9932313 3.4080958 -3.6665761 -6.747911 -2.1655014 -4.647948 1.9641656 0.64731526
199 -4.0502863 1.5549864 -2.4394166 3.0521245 -2.183908 -4.770954 -2.6141849 -1.108249 -1.1520377 2.156882 -0.34533176 1.947629 0.8602564 3.954922 2.422383 5.2843113 1.2175173 -5.3885274 1.7526493 3.1396222 2.5553193 -0.15761206 5.5961695 3.288521 -4.1576176 -4.353509 1.2884496 3.3926556 0.5141996 -1.1931808 -0.7990344 -7.0798826 0.6015198 2.2013254 0.76660925 1.7655923 -1.5725615 -1.7155737 -4.954564 0.035421703 2.1534905 2.4648743 3.5926301 2.6699722 -5.770286 -3.6159146 4.41333 -1.4231066 -1.3942254 0.54146713 -0.5858011 -2.0598884 1.8530152 -4.1209464 -1.3340042 6.401324 -1.686637 2.5396667 -4.857544 0.087826036 1.7139723 -0.2069095 -1.2213712 -3.5241985
932 -1.0341743 -0.7685092 1.0313013 0.8674932 -1.9046634 1.1277485 -3.3534338 2.2373333 -2.371622 -1.0442759 -3.586695 1.1323985 1.7178469 2.7190213 1.7523916 0.20312747 -6.3361883 -2.7192576 1.0929973 3.3532574 -0.6035297 -3.9188519 -0.4381164 -1.8856373 -3.2879548 3.2220774 0.78232104 1.1079364 -6.2770596 -1.9181273 1.4339067 0.65868837 1.7249585 1.9443485 2.0194228 -8.658021 5.3764563 -0.15973014 -7.17349 0.7492232 2.6619139 -1.355472 5.3218217 2.4447715 4.6984406 -0.14890765 -1.1054554 0.053727537 0.5430994 1.1508425 3.5598772 -2.7083151 0.3533484 -3.2088094 3.657969 -2.891054 -2.021334 -7.0423274 -6.018209 -3.4338808 -4.1139045 0.8093183 -0.6510417 -3.4111986
369 5.014336 6.685422 -1.5013455 0.82791376 -3.627001 -5.865732 -1.4304085 -2.7028434 -1.0697372 -1.2521433 -5.8197694 -0.50437975 -3.0816863 1.6623386 2.3839762 2.6504178 0.30883157 1.2240075 2.9449568 0.089546144 -4.5663924 0.9504234 3.5672808 -6.113659 1.0792401 -3.8173578 6.484256 -1.5388886 -2.3479433 -2.3122425 -5.601491 -0.5709253 -2.4034197 1.1339792 0.10240003 6.290777 0.5952226 0.5050313 -1.0371238 2.5681217 3.9299986 -1.1855493 -1.0876966 -0.9116278 2.9339046 -2.810643 -1.8333881 -1.0624297 1.2422477 5.244684 4.074189 0.35385388 -0.2830142 -3.0680707 -1.3826678 2.5490315 -1.4002839 3.6321342 -0.03348287 1.8493824 -0.43777746 -0.81080353 2.400758 1.1533055
585 3.391556 2.5236325 3.3674212 6.3203955 -2.5761476 0.9243271 1.557433 -1.6644526 3.4645648 -0.48932195 3.7436178 -1.0986414 1.5276607 -3.5240657 2.069527 -2.5531437 3.2595468 -1.0142002 1.6852552 -3.5988426 1.8292687 0.30009148 3.062834 -1.0542758 2.5477293 -2.0317538 2.8014212 -3.0879974 4.518488 1.7171626 2.03335 -6.8100843 0.13346025 -0.5530801 0.081754066 -1.115047 -0.035528187 2.4799101 2.636484 -3.428989 0.7294277 -4.726765 1.7232596 2.5295024 -2.4937959 4.053217 -5.6940303 -0.30548966 -4.3294754 -0.13978462 -3.2690625 3.3044698 5.4173985 -3.5538914 -0.582555 3.56696 -1.2655007 0.3586891 2.5604942 -5.9491024 6.389269 0.91552174 -5.8479104 6.075202
981 -0.08157421 -1.653763 7.434004 0.66753644 5.4373465 1.8038554 -0.9640911 -1.7586635 -2.3643296 1.0358943 1.8699476 -0.04699557 -1.9770362 -1.8105391 -5.4212937 3.8319876 2.2029686 2.0063639 -2.960382 -6.9958405 -3.361072 1.5212139 3.0250456 3.126792 -6.443594 1.8948145 1.0950632 3.74455 -0.6932752 -0.20835748 -0.3996693 -0.89256626 -0.87900686 -1.7618747 -1.8499339 -1.681284 -2.8475058 -3.6329558 0.91299975 -3.9745061 -3.9292552 1.5605946 1.381689 0.5102752 -3.6435802 4.072045 2.559326 -1.764354 1.3201771 -1.571162 -0.83575344 6.0369616 3.7640672 2.6704385 -1.1326432 -0.40312585 -1.2491492 -0.75100696 1.5359145 2.0011337 -6.126731 2.0809352 -4.6099715 5.9472475
495 2.1798568 -0.49368206 -6.4178457 0.6217044 -1.0254147 -2.2271814 -3.5844693 1.7994542 -0.33723944 -2.524186 8.030836 -3.116914 1.2278914 1.9336268 -0.6119348 1.3776551 -1.4553207 -1.8147303 -1.027882 2.7090812 0.95338976 3.6499963 0.76198226 -4.2141776 0.52826947 -0.19414577 4.144046 2.4291358 1.3633707 -6.437018 2.6681404 3.1641603 3.4049664 -5.592854 1.7851719 8.147664 -3.2096643 -1.1725452 -5.092016 0.8786006 -2.5184946 -4.039561 1.0058979 -0.33399138 0.7760987 2.9205234 -0.1218671 -1.9086401 -1.6521878 3.5794065 1.2814509 -0.25799158 5.937196 6.0177097 -0.31753367 -0.14563377 -2.7584672 0.7878157 -2.0181894 4.4437437 4.720969 -1.7290502 2.7011113 4.2122955
694 -3.3979042 -0.110333316 3.8440967 3.594554 -1.3914918 -2.8832347 3.2704313 2.0637553 0.42506167 2.2809474 6.1585946 -1.0903605 -1.0701848 6.503589 5.313444 -1.1869636 2.218463 -1.3537545 0.7223336 -0.788471 0.83362705 2.5357206 -4.905199 3.6524312 -2.0719283 -0.31323144 0.8001807 2.3408525 5.016429 4.2244444 -0.976382 -0.19955817 1.5115622 3.627634 3.554979 -2.1170404 4.3700166 2.5254657 0.04153987 1.1412116 0.15988635 -1.6627526 2.9476278 -6.834902 1.6258849 -4.8780856 4.671301 0.97951305 1.7837617 1.1657608 3.2180142 -0.31896445 -1.1390235 0.41731632 -0.86276287 -3.2855327 -4.7805066 -6.218829 -1.7511194 -4.015808 3.112759 -1.0445398 1.9174007 -0.8703818
284 0.17081827 0.87224674 0.8110558 -4.000404 -0.7221577 2.6765068 6.2440863 -0.040446952 2.5232725 2.0591707 1.8471273 -1.2767955 -5.7828765 -1.7643399 -4.3135414 -4.660211 -0.35695684 -1.2559139 -0.3046838 -1.3086339 -4.791335 -0.30943462 4.246609 2.2086234 -3.2280774 -2.5801272 -3.9833355 1.2605947 2.4233894 4.9497333 1.4752645 -1.9847076 2.4533494 -0.48581204 3.4145677 2.4314368 -2.2107582 3.8084624 -0.020746049 -5.815379 0.46548086 4.464678 -0.20401314 -0.67393446 -0.2648418 2.3981254 2.257056 3.0438795 1.6277176 -1.5497406 -5.141808 0.03237617 0.9299735 1.5607748 -0.55851203 -1.000019 2.594562 -0.9531194 -4.0201197 0.449396 -4.9380465 5.805798 -4.581379 -6.5126586
855 1.4753952 -6.4146495 5.21989 -1.6300684 -2.3717394 3.2957542 -0.19649148 2.452805 0.22639424 2.3558471 -1.6941806 5.1759844 2.3879383 3.4171739 -6.017846 4.8936777 -0.5375718 -0.25106782 -3.0960493 -4.8836074 -0.94442546 0.053535298 -3.328748 0.8166052 6.6415167 -2.6021917 3.567992 -1.2217048 1.5546674 0.8503447 4.210719 -3.3016052 3.107101 1.224711 3.033746 -3.8706722 -3.5659134 3.7538373 -1.3643037 0.77112675 -4.9828205 -2.1304104 1.1127938 -4.6873627 1.9646953 -0.55374736 2.8376496 -0.7982161 4.195118 3.8475964 -0.40137902 -1.9423184 -4.001644 -2.6101034 -4.219563 3.0740438 -2.3877208 -0.89194506 3.4746642 2.2872307 -2.3465948 -1.2915683 4.517175 0.71179736
237 -3.0938752 -1.5764393 -0.09245389 -2.9674973 -2.2609923 -0.07779748 1.5469103 1.5776477 -1.6114578 0.51317275 0.8306464 5.210555 -0.8971485 1.7054216 -3.2045379 -2.5401788 -0.330068 -3.8506706 -1.9831069 -0.9623509 1.0760477 -1.0087727 -3.8157144 -0.20017003 0.9006248 2.3259764 -2.4162707 -6.220119 1.6458366 -2.7348955 2.4340427 -3.2481923 -2.525486 2.698751 1.4426011 1.5764401 -8.436811 2.2467942 0.89290464 -1.5041606 0.17383839 -0.69681513 3.8943338 0.25507557 10.677454 -5.0817404 -2.0483162 3.5742612 0.35475752 3.588742 0.8478487 0.88381106 4.916353 -0.460972 -1.6147407 -1.1643941 -6.664068 -0.87088424 -0.72249484 3.1143954 -1.2294943 -4.1120887 0.75650656 -2.4337215
486 -5.1663175 -0.44504112 1.9225143 3.0982187 2.4705658 -0.6548635 3.7045007 -0.49255118 -2.753764 -3.3755176 0.04147232 1.5887892 4.299476 -1.4156276 -5.890137 -6.4307036 3.640315 -3.8128786 2.5852065 -0.70126253 2.6809099 0.00015531147 -1.3205779 -0.33296925 -0.016829167 -1.4313331 -0.526319 -3.3178272 -2.8572414 -2.6265724 6.0839434 1.1139363 3.9307895 -5.098013 -1.6230804 0.7736676 1.4861567 2.338493 -1.581052 3.9083982 4.2823763 3.945585 -2.373558 -0.9188596 3.3653116 -0.1620783 -1.4601274 -3.3422158 0.8588511 -3.6724763 -4.9741836 2.5243883 1.3489004 0.41008297 1.8979774 1.6308035 3.1947174 6.109166 6.00592 1.9190872 -4.2792344 -3.5606718 0.8788648 2.8874843
543 -4.3370323 -0.53633946 1.1385571 -0.21471103 -3.4733603 -5.9424467 -3.2754104 0.85951567 0.3876904 0.7053372 -1.8447604 -6.1027503 -3.2086039 -1.3441954 -5.427909 -7.769543 0.034612108 -1.4601809 4.374157 2.5521107 2.234668 -1.0994495 4.7472124 -7.5901475 1.3402355 -4.1478167 0.85755754 3.427011 -0.7400928 7.4435797 -3.6617393 0.059125192 -3.6962154 1.3914547 -1.4117712 -1.8671826 -0.40958855 -3.4745393 0.38340852 2.9609966 -0.016705487 -1.500178 -0.95599806 -2.6667094 -2.6717732 -3.4134285 -0.095105715 2.8441358 1.7957537 2.5410116 0.64760274 1.233894 1.8169726 -0.5289154 -0.16039133 2.3152113 -0.3601072 4.746749 -1.7513704 3.2754471 1.7190089 1.6878284 -1.0296282 -3.0727124
302 -2.2747924 6.9067636 -0.94269556 2.5106936 2.9719045 0.6413683 -5.454031 -0.002040596 2.1187077 3.5143695 -4.7208476 5.0172834 -3.0208797 -1.1519196 2.6618063 -5.1557107 -0.73568684 -2.7831256 -5.422263 2.056142 3.9685485 -3.4675746 -3.5322857 2.6365921 -4.767384 0.3808586 -3.6609113 3.0922515 1.0166677 -2.585331 6.920395 -0.7020082 -1.8524274 -2.3487494 7.773805 7.100027 -4.802269 -1.5084208 -6.313189 -0.040904436 -1.290945 -5.4856815 0.8329106 0.68637866 -1.6193568 0.14911199 1.6714722 -1.8910286 -0.21429978 -3.4517908 0.8338856 1.2656825 -2.2780228 4.2039127 2.7267323 -1.6370147 0.39628482 3.1600657 -1.7877799 3.7999659 0.5712612 0.16860603 2.022747 -1.3051229
429 0.9697276 0.87524086 -0.4738534 -4.9412503 1.072544 -0.29341635 -3.9937139 -2.0501175 3.4822395 1.514486 -1.8867064 5.59899 -3.6680963 1.5706003 4.8197646 -4.178147 -2.8093553 1.0248139 -2.4495904 -2.1633759 -4.1082764 4.3348637 -6.570342 -3.4173203 -3.8342414 2.2250638 -2.7373874 -1.2681737 3.7159708 -3.811697 1.7964715 -2.745863 -6.891153 -1.8909814 3.6925273 0.7091017 -1.6044389 -3.1397352 1.1810033 2.5984907 -0.84854585 -0.6902923 -3.3817906 -7.4722943 -2.6445906 -0.93702644 1.1925217 3.9036705 -6.098244 -1.7179371 2.370853 -3.777472 -2.1628194 -1.5964934 -0.32768294 1.4567494 -2.5452275 -1.5341736 0.20362009 -1.366524 -1.7945236 -0.029204218 -3.5148888 -5.9443936
183 -0.5439984 -0.30897817 1.6816273 2.2999434 -4.385493 -1.9014829 0.22640447 2.0653043 -1.6111318 4.8350177 1.3275938 -0.63879555 -0.19543186 -2.4113503 -6.2137136 -6.398218 -1.0861089 4.508732 0.98212874 -1.5988524 0.9667524 -0.9620394 -1.8977132 5.070693 8.164232 -2.2195334 0.89421976 2.0397413 -3.8946886 3.3066154 1.6752717 0.13432218 2.4498417 -2.1397688 4.17137 -4.471226 4.7973833 -4.121993 5.270668 0.5335878 2.8948834 -3.8638704 -1.1432757 -3.7365558 -1.864717 2.4502442 -3.5464334 -1.6008983 -0.08283327 0.86510843 1.4973437 -1.5281037 -0.7593659 0.33644703 4.274528 -2.5685697 6.2498026 4.137346 -2.9554737 0.23321587 -1.8025932 -1.6903465 -3.4901161 2.4384449
986 3.7352781 -6.260477 1.9429706 0.4922219 -0.589576 3.1638978 -7.766927 4.7507896 -2.0899081 -1.4923751 -1.1991822 1.0950828 -4.894995 2.6050932 2.271558 4.0018544 4.014563 -1.5463419 -1.5390503 -0.037992295 -2.9366684 -1.8169067 -4.017295 -1.8096057 -2.2017465 -0.32631603 -1.208653 -3.6414535 -3.5669684 3.31288 -1.6396698 -1.926455 3.817623 -7.0222187 1.836939 -4.0257134 0.01636593 -1.0102805 -2.489886 -2.0519 -0.64840597 3.1087697 4.913964 -0.51972014 2.487786 1.2454003 4.738316 -2.685169 -1.8574563 1.6608704 0.16275822 -2.2822022 4.5768986 -1.7294554 2.4129276 -0.28293085 0.7651206 -1.3542196 5.2901177 3.4118032 6.308725 -3.474725 -1.7814983 3.1214938
262 0.31022313 -2.3208547 -0.7909634 -3.1962504 0.12991539 -2.3372874 -5.3913326 6.124545 2.661428 0.78883016 2.992606 -5.640381 0.70308495 3.7912195 1.4803299 -2.8966343 0.30074343 -0.33418286 3.328447 -3.584029 -0.06334481 -1.5892181 -5.416128 1.860449 -0.46164334 -5.733422 -1.1736836 -3.550922 -2.5385237 3.9289918 3.2360737 2.7090895 3.110347 0.3894206 1.540455 2.1188838 4.8711243 -1.6309998 -0.46288943 -0.14691809 4.135297 2.940281 1.7604547 -4.4438252 -0.039638367 0.63980705 1.7279243 1.6399723 7.1705823 -2.200282 -4.3633595 -1.3598101 2.886216 -5.5348334 -2.1032345 -2.8768706 -2.81542 0.018236548 5.359971 0.8098726 4.571689 2.9506724 2.4035213 3.2384984
234 -2.6723363 -1.0050876 -6.1117134 0.9618216 2.3648458 -0.6746786 -2.8461967 1.6683762 -2.868108 1.298392 0.21419095 -2.8308198 1.963406 -2.2223942 1.5240452 -0.6221337 -2.5061855 5.8385115 -3.081502 -1.0497655 0.3461947 5.1228504 -3.498608 -2.091686 -1.934265 -5.5920725 0.06403549 0.2818761 0.71836144 -5.2945 -5.374658 -4.5478287 0.64757764 1.2720996 -0.76670337 0.26446038 -3.1169834 -0.36553428 1.8186544 -3.2759795 -3.0115676 -4.3247476 3.921841 -1.5603048 -0.34554917 6.335848 2.8400264 -2.7050369 -2.3057938 -5.126888 -1.8059872 -2.2463033 -1.3954424 -1.8121917 2.4247336 -2.6069648 -2.8732944 6.2176337 -3.5859194 1.8162394 0.4329103 1.0020105 5.632542 -2.202457
518 -0.15161882 -1.6505461 -0.92990357 -0.86205685 -0.21911173 -0.8602022 3.7655199 0.23970237 2.5569665 3.5944145 -1.2253094 2.54755 -3.7070787 -3.576919 5.4743376 -3.2021763 -0.0784502 0.30906916 6.4397926 1.5788678 0.82180005 3.2200203 1.260191 -2.2988114 -3.021435 1.6011732 4.918261 3.5131931 0.1781299 -4.365102 -0.6890512 -6.819702 1.5698953 4.101689 -0.7550805 0.31836584 -2.3092678 3.400673 -3.4716058 0.050401334 -4.6871285 -0.020180259 2.5072675 -5.5750146 3.2875328 2.6982658 -0.61995924 -2.7858388 1.6886829 6.775852 2.31587 1.4535701 1.8954011 -2.0102284 0.7087108 4.7162848 -0.97738254 6.368187 -1.6999452 -1.4827167 -0.251493 4.3999085 5.8398356 1.4203278
852 1.7140098 4.3587074 1.1323957 2.6131134 0.68284506 0.4911217 6.0251737 6.9120317 3.780576 -1.888322 3.6380985 -2.5877466 -0.37864122 5.8713565 3.477993 4.868534 1.0346651 -1.677668 2.037102 3.1210847 6.6987324 0.3142161 -2.4935608 -2.380442 -6.2401776 -2.903908 0.10231919 2.0905244 -1.0181842 1.9367518 -1.2982937 -4.0642614 -0.8976486 3.4690099 0.48251674 -3.0124135 -2.4308887 -1.981075 1.1371737 2.2424335 1.7007973 2.6536584 -3.8091218 -1.7626337 -2.308045 -3.6111434 1.2973192 -1.4735885 2.1455612 5.0399356 0.8467631 -3.2628183 0.8224297 -2.5232723 2.6553683 2.5711808 4.36262 -1.6000929 -6.245675 1.4659098 -4.0141873 0.28711715 -2.5476637 2.166366
157 -4.089054 -4.2148395 0.040949818 2.7778988 1.2804637 1.5033846 2.6257346 2.9643567 0.21811919 5.8409467 0.6398093 6.2465262 -2.970448 0.07013189 -0.178082 2.5932655 0.7783758 -1.1685818 0.3685472 -1.7879399 5.7905183 -1.6171033 -0.30513734 1.4841688 1.5231621 1.8719058 0.12436882 3.2615166 -3.591703 2.7940967 1.8460835 -6.1020756 -0.94218886 3.1346571 2.738732 0.05463907 -1.5978917 -3.8289535 4.3222427 1.657347 -0.7838911 -7.1554723 0.3390406 0.20008285 -7.7442584 2.6325088 2.5305896 -0.87456197 -4.3922496 1.0604973 -0.16145822 4.8828363 0.9055911 -2.110789 3.5443013 1.2595793 5.6475725 -0.56815284 -1.7247922 2.6372254 -1.3884922 -2.1694622 3.0471492 -1.6039213
505 1.8847817 -2.9297845 3.7991505 2.141329 5.0277195 -0.7988668 -2.327363 1.6698209 -4.558927 -4.0523686 4.622559 3.3186405 3.4258482 -0.73995405 -3.687173 -1.1218978 -0.6264942 6.4041824 3.0375798 3.7028131 5.0001774 3.7398312 5.5342965 -3.988073 1.7768387 -1.7994474 -4.174216 4.5971446 -0.29469475 -0.6731768 -0.00545678 6.8900046 3.3043084 1.3906678 -0.13961539 -4.820027 0.2611093 -2.9119427 -2.620942 -0.29689693 0.97809154 -2.8796606 -4.907849 5.1739264 1.7492642 0.15046178 -1.2226802 5.344537 -4.0134516 -2.9788606 -1.6739749 -4.848164 -0.02041034 -0.47161776 -0.20559391 1.3407159 2.8865213 1.6452144 -1.1322129 0.37065956 2.567254 -1.1524401 3.4224675 -1.1971117
909 -2.2817502 -0.8629467 0.009206797 3.609397 -0.2349894 0.29380134 5.407006 3.8732765 2.4542725 -3.428302 4.1283064 -4.2378564 -3.9137964 0.46299523 -3.2404368 0.0659121 -6.2098985 -4.5360055 -2.3384104 0.70555574 1.8068662 0.096906036 6.0865116 -2.8875673 3.932903 3.6258085 0.93862903 -0.36823225 -1.9786566 3.8975234 1.92105 -2.1887534 -1.0514551 -3.8671696 1.7466954 -3.481069 1.8962591 -0.5087666 2.3978374 -2.2981884 -2.0534198 0.10757405 1.5351193 4.0779424 -4.3212714 0.11009538 -6.1326733 -3.1341643 -2.2627916 1.598901 -2.787009 6.3054924 -5.2516875 2.5839493 -4.034809 0.2141121 -1.2783272 -0.6813265 -0.5018352 4.5595183 -0.076483056 0.95580715 0.23006587 -4.5274014
333 6.2301297 3.8801084 -4.2008944 0.053668577 0.25814667 -5.1090603 -1.6167834 -0.7459849 0.870735 1.1433744 2.1389668 4.609294 -2.5176547 -5.9029217 -4.4772944 0.10165236 -2.5794725 0.7526304 4.0087247 -4.251987 1.2349234 -0.56354475 -4.356794 -3.047747 0.72079587 0.35514092 -1.7028184 -4.0224724 -1.7628224 -5.6744123 -0.014371451 1.2456594 2.9183967 -0.60874736 -2.1879442 3.0860958 -3.7365537 0.38397977 2.5767393 2.085752 3.8786802 -5.7875323 -0.7931678 -2.9221935 -4.7944593 1.8103728 1.0528387 -3.3577197 -3.812633 2.5485594 6.627113 -1.3697078 -2.0388834 1.6997896 1.8662574 -0.35512966 -2.5915935 -0.83322996 1.0180198 -4.309088 1.5994316 0.028199997 -0.015816623 -0.14845218
548 -0.037322875 0.19722168 -3.315596 -3.3030987 1.4739816 -6.233123 -2.5589592 -1.2484227 -0.6388179 -5.5377874 3.4971037 3.91457 -1.9206603 -1.126412 -0.61126816 -7.405839 -0.48278096 -3.879344 2.264183 1.7842715 -0.14645267 1.6628168 7.4934907 -3.599924 1.6593245 -1.5258993 -2.4614265 3.5532534 -0.07056013 -3.0682278 0.86054677 -2.8444197 -0.650558 -0.15987039 -1.8545923 -2.2872736 1.1092563 7.247502 -4.99487 0.3809667 4.4688907 0.55354625 1.075893 5.0452766 -3.343479 0.63275427 -0.9599308 2.707946 3.3496616 1.6787483 0.533684 -3.5211937 4.434686 -2.6940887 -1.6418031 6.6834946 -0.36899793 2.9190478 -2.7805688 -0.5042226 5.5618067 0.67756504 -1.751876 1.5104498
664 1.7618811 7.857465 -4.211116 2.1237273 2.1209054 -1.4393568 -0.46231985 -1.3411123 -5.951904 4.9121294 -3.8984795 -0.39098367 -1.0885509 1.2837737 -1.2896013 -5.1488323 1.9647828 2.932749 -2.2777529 -5.895849 -3.5842614 -3.1875713 -0.61688626 0.21320184 -2.9078505 1.3321744 -1.4272208 -5.7368903 3.711326 -5.4305477 -2.2803438 -2.565941 0.25387144 -3.8687124 -0.07916186 1.0230149 0.3377847 -3.1344254 -2.2751606 3.0256996 -4.960877 -0.4227786 2.0191057 -5.4404993 0.7089853 -2.6271996 3.5557563 2.6655478 -1.7771832 2.947553 1.5560372 2.3714688 -1.5872018 -5.287291 -2.980898 0.81749153 0.67425877 -4.958619 -3.8913934 3.1478684 -0.32349724 -1.3106104 -0.74543685 0.90877783
282 2.6970394 -0.5212134 -1.1506888 4.368765 -2.145619 1.9569728 2.156055 -0.87515223 4.234916 -1.8374181 -4.3249707 -2.43092 -0.89296484 1.3662323 1.9261712 -3.8943443 3.9644692 0.4853899 1.3552701 3.9306972 -5.751353 4.1854115 3.7828293 -6.303545 -3.6262114 -1.6830581 1.910953 -0.6988595 2.6326425 -3.5361807 -2.39318 -0.626359 1.3677211 -2.7889695 0.06377371 2.7158113 -0.9177847 -0.27395925 5.477619 1.8334056 -6.904092 -0.31172648 3.4267187 -1.4186213 2.3663192 3.6906545 -1.8965575 1.174999 -5.8207273 1.1193869 3.7635832 0.5865907 -0.80088717 -6.5974717 -10.718916 -0.3248351 -2.6407034 -0.8135371 -2.9807048 0.82102174 -0.7778275 -0.5168441 1.4910506 -2.2362754
547 -0.58958834 -1.3843931 0.62249935 -1.8242536 -0.72792375 1.18485 -0.7653301 -0.81788963 4.499177 -1.0479732 -1.0013895 -4.303608 -3.7349596 -3.17239 2.020214 2.737872 -0.94616985 -4.4038987 -1.5648708 3.1868544 1.4146366 2.2387688 0.021134945 6.427371 -5.391383 -0.1515618 -2.8203971 0.8998286 2.5051146 -2.1760893 -6.353781 -1.4057015 0.023295935 -1.6814587 -4.7463956 1.9541844 4.044685 4.3230534 3.6073923 -0.3355305 -2.3730998 0.7179868 -0.9959117 -2.3439078 0.8661181 -1.8853077 -3.7297776 4.077789 0.0696415 -3.5736148 2.928805 -3.5018334 7.8807836 -5.2573075 3.155549 0.8917612 2.3533657 1.866902 3.8858666 6.3813434 1.4804139 -0.43124947 -1.7739849 -1.325092
92 -3.163514 1.3768363 -0.01271846 -2.7694511 0.31961235 4.2499566 -4.027871 -0.71765405 0.382726 -2.9161887 -1.8218583 -3.7817922 8.42377 3.2083635 0.40094146 3.626268 -4.5658503 -3.7989008 -0.6510214 -1.4763453 -3.9620957 0.891814 0.7222954 1.4536251 2.6883657 2.249894 -0.47557837 -0.15687104 4.3458734 1.1075482 -1.8522971 0.20869473 4.7383914 2.052095 0.34230945 3.350647 1.2161926 -5.895818 -5.9850097 9.333825 1.1918533 0.66647357 -1.0614899 -1.1775385 1.0521909 0.17988712 -1.1929637 -5.662005 -2.7321799 1.5970064 -0.89722526 -4.761006 -0.8345758 0.5256794 1.6478513 -3.0171928 4.2095475 -1.2577152 -2.2993748 -1.2073715 1.743954 -2.1600952 -1.3615149 1.1863096
75 -8.071392 -5.606929 -2.8416307 1.0888087 -2.144691 -1.6419705 1.3872176 -0.99200386 0.54302776 1.3116227 -1.5795089 0.98670095 -2.7377343 1.3234228 -4.1698217 -0.3033142 -3.5564008 6.1460514 2.2629046 -2.1736934 4.998263 -0.798641 -2.8027449 0.84954464 1.6143426 3.0950527 -4.238148 3.4037428 -1.7305552 1.6575727 1.5042323 -2.1478417 -4.4679866 2.6727827 2.3097963 0.5355075 1.7586547 -3.1341558 0.43421724 7.94277 -0.61283904 -2.6899323 -2.232391 1.7710834 0.8835739 2.0248044 -0.79533607 -2.3650377 1.3751704 -6.3906646 -0.106103204 1.8807912 -4.6956635 -0.13003656 4.4495945 4.841556 2.8000896 2.7863853 -3.2734056 5.5625668 -1.772179 -0.1534226 0.8430494 2.750996
727 -1.5212886 3.9018955 -1.7972313 -0.113891326 0.35500714 -0.23036535 1.8746333 4.506915 -0.014284078 2.6123827 -0.9176706 -0.035698865 -3.5774055 2.2767808 3.844657 -1.8863975 6.648561 5.886254 -0.40353617 -1.849857 0.9544742 -1.1148599 -5.532501 0.85510546 0.9881698 1.6257014 0.036072653 0.36998737 1.9089432 -3.3863773 3.5601227 -2.5687008 -0.68100727 3.456778 -1.8143337 0.46943596 -5.998778 -3.779009 -0.7781121 -0.55758065 -0.65187204 -3.83465 0.46327025 -5.8528385 -0.62649626 -1.0798156 -1.1723547 -4.8697505 -1.6881979 -4.0026493 0.028934492 2.2463357 5.0940204 2.2075522 8.949451 5.712751 5.445228 6.1177936 1.2975602 -1.8490404 -6.630894 -2.0593135 -0.6090245 0.8708464
595 -2.2793052 2.357271 -2.4909043 -0.09776435 1.1058335 -0.30659968 -4.645966 0.29475737 1.0638283 1.9322147 0.35688612 -2.2073386 -1.5478044 4.0634837 1.9085793 1.7983621 -1.6739671 -1.1523036 1.1765972 1.5409932 0.6962643 1.0756283 1.8281478 6.8924227 -3.5501752 -3.1044545 -2.6789794 -0.9526806 0.34925514 -5.869484 -3.3428192 1.4951673 -1.1720811 -0.029840514 1.6495707 -0.114545986 2.5628693 3.7818346 -2.5991151 -6.656969 1.4755847 1.4494444 2.857925 -1.4531218 -3.0815656 -2.1582596 -2.1330662 -3.5336123 -0.61558217 3.97555 7.318434 5.3919535 -1.8358862 -1.2651281 6.030327 6.4322166 2.3877792 2.1643643 -0.9360457 6.9488006 -5.033562 2.0904076 -3.2134905 -3.5959654
179 3.7292757 0.98331547 -6.023249 4.6907783 1.2259928 -0.16909593 0.08977164 -0.7750364 -0.58518666 2.5674324 0.34743583 -1.7406973 3.9351535 0.29113108 -1.2583131 -3.2668407 0.9931667 -1.2506951 3.1420703 -1.6557424 2.1796012 4.3513994 -3.529254 1.3313379 0.59804696 0.7596249 3.4510255 0.7343979 -0.8658252 -4.375881 -3.8475456 5.934208 3.1960242 -0.1582812 4.237756 3.8841977 -1.0628754 -2.2734652 1.0607399 1.1738263 -4.1676726 -1.5113995 2.0366857 5.9517555 4.319185 -2.055191 1.6808683 1.0049704 1.6074119 -4.004586 -4.0968595 -0.43221363 0.87967736 3.5067346 -1.9525013 4.9731083 7.3484426 -0.14118506 -1.2453094 -0.39081854 4.398887 -4.640926 -0.4825032 5.7410097
