3892 64
2008 -5.174907 -9.319748 0.27770627 1.7343625 4.055921 2.260329 -8.510375 6.5457153 0.2657588 -1.1788864 -0.4705492 -2.1837397 2.5824912 0.8317167 6.9818783 1.6569662 4.2776484 -8.113883 1.3853881 3.2191665 3.1450438 -0.097784035 6.240563 -1.5697271 7.1211715 -2.7486742 2.004938 10.622978 -8.050041 4.5218463 7.826173 -3.2614403 0.7299034 0.22728616 2.472612 3.7645006 -1.6307101 4.0230203 11.347856 -5.332646 2.0788488 -2.4896464 2.9512591 -7.5002217 -3.516248 2.2069528 -6.909045 -4.2536464 7.6527643 -1.955385 -3.388903 4.3359084 -0.9509411 3.7188413 -3.1930196 -7.962902 -0.1330394 -10.107061 0.21019353 -7.895416 3.903604 -3.9550927 0.5033498 10.204439
3254 -6.8443666 -6.177809 0.83210415 -0.4071441 4.630613 2.3301687 -6.545857 7.044751 -0.71833 0.18975288 -1.3361565 -0.8077733 2.3717377 -0.96586794 7.770066 2.0889564 4.7523575 -9.566968 0.3545191 3.7217293 1.9624214 1.1921194 8.272595 -2.3078868 6.6718373 -3.8310094 1.546069 10.38083 -9.869016 4.228321 6.292087 -3.1846805 1.9616619 -1.3990011 0.9567803 2.482168 -0.7596991 2.2235103 12.423943 -4.660786 2.6595957 -2.821475 2.8788004 -7.1693316 -4.731792 0.8674931 -5.7903194 -5.645718 7.771615 -0.60751754 -3.3078766 5.0667987 0.11676855 2.1237965 -2.2229867 -8.301822 -0.531216 -10.93885 1.2142967 -7.409638 3.9612515 -3.3163595 1.4406239 9.847941
2170 4.315112 3.26829 -0.2723741 1.6980342 3.3468714 -0.40630215 0.5466286 -0.2669538 -1.191382 -3.1535 9.714296 3.1450865 -1.6167867 -5.0333357 8.161921 -0.19877058 2.4258888 -6.5843816 1.5674694 -3.4104674 3.0358567 1.7618477 -3.6650105 -4.5836616 -2.3773751 0.09569081 -1.0397356 -0.052048218 7.3985357 2.7125611 -6.517045 7.5107474 -0.82230306 -3.2091963 -6.1340423 4.787217 -3.2461104 -9.265343 -6.0123153 -12.179936 4.1742744 -7.0181994 0.026596524 6.2240524 -5.3863554 -8.553252 12.39925 -1.7922412 5.754622 -0.36948663 -10.479308 -8.062482 -4.325513 6.7276144 -2.4826279 4.6390777 0.122010544 4.563351 -0.6860065 5.2591286 1.9821118 8.097686 11.481164 2.9822025
2589 -3.0604105 2.3294096 9.773794 2.1984687 -8.457836 1.8761232 -4.1459455 -10.619948 4.774045 1.4701387 -8.996911 -0.9005915 12.415993 3.8341243 -2.4363136 2.5027277 -4.852783 3.3859012 -0.3954168 -5.340072 1.074966 -2.1743236 -2.7407033 -3.159719 5.104021 5.634202 -0.57568896 -7.2861137 4.9140396 -2.673369 -2.3311615 -4.1585045 -5.188297 -2.6675463 1.3989091 10.110141 -0.68497807 3.0761876 0.7419539 -0.8785539 2.7346654 -3.7478652 1.2321752 1.9391215 0.8667568 -0.2228556 -8.233622 -1.3354769 -1.9637513 -4.8033276 1.7541075 -1.8396853 0.036846712 -0.7468526 -5.350317 -0.2567837 3.1203146 7.3139625 5.2059164 0.82165146 1.668263 3.0055025 -1.5436217 -5.958308
2076 3.0033982 -0.63571846 3.6811874 4.7555094 1.0466399 -1.7093354 6.6598887 9.193314 -5.1213155 -0.11627131 -5.3780885 6.0500407 1.7818766 3.962337 -2.0327916 -1.5796313 0.468606 -8.53256 2.7022908 4.2389317 -1.8253618 7.2897887 -5.266866 -1.9607437 -0.7444388 -5.460219 0.46936166 -6.51436 0.5122217 -0.9567383 -2.9983985 -5.483711 3.8892229 4.3223667 -1.0285614 5.50277 7.185908 -3.3451035 5.546098 7.101518 0.12249758 4.582617 -7.75933 0.81354594 -0.28010195 3.1839168 -5.55539 1.6267976 -2.978761 -2.381568 5.157568 -7.6059113 1.8228735 -1.5769978 2.0142581 -2.351647 2.8709817 5.940461 -5.3392587 -0.64818776 3.6362598 0.8283711 1.1846069 -2.6822407
3122 -6.496649 -2.9171364 -7.5064974 -3.2954783 4.804094 0.7871736 -4.819821 7.1609817 1.6699727 -6.1764426 3.1306171 3.5489902 0.7714327 5.006013 0.99075586 -4.6908097 -1.4862261 3.9485903 6.214166 3.9493635 5.631512 -3.9606388 3.8435705 1.458446 -2.4323106 -8.467899 -2.3462076 1.9318552 -0.9696304 0.6885176 -1.6113223 4.133214 -7.8082166 -2.0271559 0.87850404 -1.5292671 -4.1343355 0.13790596 -2.571759 3.4936218 0.67873955 3.753662 2.9086354 -2.9448688 1.5047143 -6.9803305 -2.555758 3.7789912 -6.360969 -5.0215554 -2.0697117 6.7942758 1.7726907 -2.897326 -2.6417248 -0.10922646 -0.09943552 3.876457 5.908554 2.8616834 7.9074826 -7.4813128 6.328892 5.58009
819 -5.204648 -3.1297374 1.6713407 -2.5853844 0.72552013 -0.7433342 -0.8913175 2.9293194 12.046508 -1.5937713 -7.7954087 6.7878723 -7.7159576 5.009398 4.5108824 -5.8687243 8.25514 -10.017305 5.993369 0.74042225 3.3176274 -3.624265 2.550589 11.220325 2.0713444 3.2121081 -12.925271 -4.034941 -2.2142038 -5.644908 0.9351643 4.301371 -4.9826784 -8.6612425 1.328572 -0.99484175 8.471651 3.771763 2.8456945 -7.278082 12.580814 7.114702 -2.0335531 2.013459 7.8092847 -0.87663186 -0.9240532 1.8376528 0.2698051 10.560602 2.848712 0.5671073 -6.8403716 -0.67132354 -9.485432 -0.40355554 -2.480197 3.2619853 0.86784405 9.734808 -8.090638 3.3028061 -8.339751 2.135224
2895 -3.8335907 -3.4539218 -7.7023044 9.142505 2.5165231 0.25391588 -9.110327 -0.6662995 -0.9672114 5.1365843 3.5975173 6.0748186 -8.792489 -3.7052083 2.6396563 -6.3421154 0.90146697 -6.726372 -2.2341805 2.7044754 5.3152966 -3.4173963 -0.5250637 -1.0225173 4.668668 4.4164543 -16.747707 9.071497 -2.3768573 8.952356 -2.2010443 6.56951 0.5110303 6.0777593 8.905904 -10.065093 -2.9479976 0.37898907 5.833755 -0.023614006 3.999589 4.488633 -5.8787494 1.5074389 0.44669285 -6.213148 -17.303083 -9.675285 -7.563486 -4.980261 4.8787227 -1.3385707 3.858728 4.866403 9.099306 -6.95344 -5.6866693 -12.070141 -2.6285315 2.5598652 2.3074975 7.2713304 0.7425706 4.32945
2751 -1.2530138 -0.6217288 -1.7812641 -1.9780328 10.707874 10.320546 1.6760644 -2.5232077 18.64327 -8.395523 1.4821297 7.522562 -11.567065 -8.360473 6.829798 -5.256125 -2.7482898 1.4901828 4.870446 -1.2181762 4.4116054 8.728186 0.017647957 0.79820746 -6.196781 3.180515 -2.9885523 2.4868937 -4.15576 1.6180023 -2.0120564 6.2179337 -0.18857263 -5.2253995 -8.792309 4.859325 0.68324107 -11.845051 4.629544 -3.0169322 -2.155381 -0.7673801 -7.3989105 -6.5247784 5.179898 -0.9314549 -1.3422589 1.1832911 0.4062825 -0.8974226 -3.5980198 -6.990819 -10.189516 8.154534 -3.6923208 -6.876854 -11.842389 1.026616 -3.4945295 6.4286203 0.3607205 -1.8463808 2.9915395 3.2028587
1987 -3.4172957 -0.4233372 2.6967244 -6.770679 7.104097 7.1138487 3.2164943 2.3427978 11.8038025 -4.798589 3.7732081 4.146157 -7.759487 -3.3662457 -1.6636214 -5.2347603 -2.135226 -5.4287605 -1.6927872 0.8165228 -1.6037003 -1.9299341 -6.6692357 -1.777677 -1.111345 3.3727045 -1.921822 -2.3193278 -3.5919566 3.4679072 3.5231268 7.136218 -0.59735596 1.419275 4.1006722 0.7821135 6.048629 -6.0574727 3.9713676 0.7860716 1.0161451 1.5005455 4.921349 -3.2881658 0.9092759 -1.9347684 -1.8995147 -0.40263358 -0.7837484 -2.5081263 1.4117368 -0.177567 -6.5315456 6.4600606 -5.266766 -2.1571846 -13.088874 -3.693198 -4.651499 2.451904 -6.113068 -4.7684712 -2.07207 2.0219634
2993 2.7042112 -7.2276807 -2.7385862 -2.631567 -5.1738214 -0.41037205 5.303826 2.4700246 -5.801914 0.12749043 3.4099524 -2.8818183 1.0442317 -3.0232036 -1.5064511 0.35456753 1.3801465 4.5278416 -1.4556615e-05 5.060932 -0.85269773 4.2854753 -5.4326158 -0.966938 4.440649 -3.0306034 2.7360153 -6.1295614 1.3335892 -2.4776282 -2.833798 7.685356 0.45300415 -2.8293443 1.6371014 -2.1070232 -0.44968346 -5.3622017 6.3023515 -4.8884063 3.541624 9.468911 5.938541 0.6075177 -0.5717672 2.5395334 -2.2942474 -1.0239092 7.2523017 -3.997369 -0.99093544 -3.105424 1.6398988 -1.1395602 4.9054627 -1.1281259 -1.5758061 3.184469 1.0432074 0.6616957 0.50382614 0.19915402 -3.9394383 -2.7536447
412 -3.5269747 1.3881367 -0.33429256 3.263531 -1.2725438 -0.90707386 1.2631792 -2.7713583 -0.4640919 5.584184 -8.90986 1.2037129 2.9538457 -2.9579904 -1.7725872 0.5289152 -4.5469546 0.6662953 -0.2824942 0.580106 1.431797 2.6939647 -6.373944 4.3480644 -4.819443 0.7120003 -2.3178709 1.760869 2.1358988 -8.577389 -1.9440347 -1.2678617 -4.9729743 -6.031924 -0.9931189 0.28868136 0.7455629 4.355649 0.00826332 -0.21653873 4.4803925 -0.36579773 -1.011168 1.3235629 -2.3505118 4.7563314 -5.3726006 -7.1838875 4.6564384 -8.650381 -6.8338594 -4.9885006 -0.092269436 -4.8432894 4.0292406 5.3208175 3.332893 0.5969159 -4.946542 7.630405 -0.93696344 1.6978574 -5.4644537 -0.5878588
187 1.4619622 -2.2069266 -0.80230075 1.6996753 1.4988089 -4.9703155 0.5192422 5.2282047 -1.9686989 -0.075389765 -4.8717237 6.6941595 -2.7561572 6.067154 4.627157 -3.3141692 -2.6120522 2.9256868 -8.574635 -3.9472628 -7.379384 -0.9315859 -2.2071056 5.27091 6.855359 0.629346 2.816247 0.7806378 -0.5380254 -2.9025095 3.5396037 3.3174493 -0.14198752 -5.693315 -1.3140527 -0.4491695 5.5388327 -1.2113409 1.5432923 -2.3142753 -5.8027 1.9022905 0.4159464 6.89953 -2.9945335 -3.665806 0.55001444 -1.2745808 0.08368942 0.05899604 -6.9461703 -0.5987779 2.2995794 0.9731173 1.9652376 3.254984 -0.19389264 4.5438275 -1.3701725 -2.5289388 -2.509773 3.9733438 5.821683 -3.3612137
3519 -4.746547 0.6296349 -6.462313 -1.0171522 2.1812735 3.3869417 -3.9040911 5.715347 -3.5526977 -4.8100595 -2.3540978 2.0576022 2.9177554 0.80440974 1.9434062 -6.1257815 -2.0747545 1.5103406 6.2316394 1.5633391 -4.6324587 -4.454279 0.7842501 -3.549582 -2.4898322 -0.6382086 -0.9742815 6.0282636 2.9357307 -1.3594556 -0.56409055 1.7999232 -6.1980343 -1.3221557 1.9509181 -4.6810164 -1.7317867 -2.2153678 -3.4030414 3.973619 1.6805592 0.259576 3.9199212 -7.374335 0.010310741 -3.4940774 -4.580501 5.2500396 -0.8602393 -2.0116088 -0.039915275 6.3071837 7.9814954 -2.3395839 -0.18783237 1.3505621 -1.5838238 2.868364 6.8327546 0.31097892 8.131448 -3.4902492 4.0367885 3.116394
3525 0.66375935 2.995071 0.32619935 -8.580772 3.517664 -8.348901 1.0935653 -0.035965744 -2.6262546 4.4230914 -0.28844422 -4.496939 3.1810253 -6.4946804 2.9815218 -0.99132496 0.79621387 8.663619 1.7003812 -3.5938203 3.7680683 0.00041297468 1.680199 -0.8323235 -4.266868 2.715742 2.007918 4.8989015 -2.9908416 5.7630796 -0.70634747 1.4858122 0.15904312 0.21200319 2.4650412 -0.46282673 -0.30046576 -7.256621 5.622321 -3.860724 -0.44354188 -4.094826 -4.9998817 -0.6207666 7.6757703 0.46509963 -1.6385715 4.8639703 3.241206 4.3393393 5.7923927 -4.3110027 -2.8874862 -4.1890492 -0.73156434 0.504463 2.157411 0.26626492 -1.6208831 2.2377498 0.42578858 1.2916713 2.2974453 3.2909412
2885 -2.3778193 -0.9891641 2.0944643 -6.9473333 10.121666 7.398699 0.85456425 4.949999 8.321468 -3.4814875 4.5160275 3.210465 -3.398481 -5.102079 -2.4131005 -4.176922 -1.5288785 -7.6245356 0.22326063 1.4732764 0.6674115 -2.5441465 -2.861556 1.1522856 -0.7494878 2.981312 -3.7443345 -4.1285906 -2.7248583 0.9187689 5.3817105 2.388389 -0.68742704 2.5705178 3.202192 0.08078459 1.9411498 -2.6161 4.0687246 0.49388406 1.1022898 1.8335679 2.3873365 -1.7828971 0.26901314 -3.3781908 -5.2345552 3.037657 -2.6330383 -2.6581237 1.0068922 2.4878006 -9.443671 4.5306487 -6.66635 -5.427085 -11.697603 -1.732438 -0.54402703 0.2770841 -6.40891 -3.4480584 1.245752 3.0622888
1177 -0.77860034 2.969504 -3.6445456 -1.5160875 0.19128849 -4.7376075 1.219648 -1.3433787 -2.849298 0.56132835 -4.825414 -5.300704 -1.4641037 -1.0356247 2.9399164 -2.8312938 4.0264463 1.6927106 -0.5508716 -4.2473407 5.129711 -5.310531 3.1708467 -7.7914753 0.11052919 -1.8540648 2.7939272 3.8994625 -2.2591367 1.0261552 1.9881432 -1.2075058 5.116683 1.8342856 5.198476 1.2973013 4.740759 -6.436092 2.4093735 -0.397244 -4.0207634 -4.7553473 -3.0347652 -1.0696831 11.484896 0.44187367 -1.4565464 11.699168 -2.6456084 4.0833554 2.822769 0.28150976 -1.6753396 -2.8212492 -0.25963366 1.6205814 -2.2139194 -0.43852875 -5.8634877 -1.820364 2.1153207 0.7213009 3.1323369 -0.39107102
655 -9.43235 -5.043405 -7.4835763 -2.4530208 -1.6976424 -4.6249204 14.118745 -2.5558991 10.131602 -2.0243304 -0.42650476 3.49326 0.91348314 -0.47889492 -3.8204942 -0.12387307 2.7550797 1.6288446 5.1147013 -5.4179206 -4.1618414 -0.8080367 4.3741026 -1.4454939 -2.89176 1.7930039 1.9036205 -1.8290385 -5.220712 -6.21406 -7.1200047 3.2342756 -3.7754323 -5.3082814 0.40750077 -4.45704 13.280123 -3.633866 -0.6010485 -3.2912197 -7.5166717 1.0176477 -0.76759404 -1.3903732 1.9496146 -4.4192853 0.22885829 -7.795288 -1.4888015 -3.3808696 3.806422 -4.0411186 5.9475536 -1.2792785 -3.7488635 3.219211 -6.877637 -13.71915 -5.878415 -0.7570996 -6.5101433 -7.181663 -2.7705054 3.7404823
160 6.0082507 -2.7001758 -1.1781505 -2.2205803 8.62407 2.135508 2.8927846 -0.6519439 15.329866 0.56060183 3.337136 7.1608796 -6.1614285 -2.9201837 -0.38887313 -8.954637 6.931138 -0.5905871 -2.0977218 -4.9496922 -1.5107934 -5.5953603 0.014336257 3.0174937 0.3038614 1.6376125 -3.9261076 1.1292461 -4.1688275 4.982584 3.7012174 5.689675 -6.1938977 -2.7784114 -2.8456628 9.108661 4.742324 -6.7223525 2.9492416 1.6078571 0.72253793 11.4654455 3.2706873 -2.4036772 -2.4576967 -2.8009565 -3.528388 0.39008173 -0.4712604 -4.8438253 -1.9203119 -0.5545428 -6.371276 7.932021 -5.924896 0.6017384 -6.2230597 -0.3920684 -7.3935986 4.6886544 -3.6854029 -5.7925735 0.31347096 4.009566
1961 -5.071841 -0.93085873 -7.0125113 4.6312113 1.5071847 -0.2841599 -2.4370434 4.3549347 2.5447226 -4.307542 -1.555047 1.3996236 -2.0752022 1.358669 -0.74851567 -7.0658894 -3.1004646 3.8005965 2.7640955 3.394938 0.28777987 -1.0465935 6.080345 -3.4951026 0.9491636 -1.7932523 -1.2312163 2.7038221 -0.66496295 -3.4906874 1.9133518 3.351191 -1.5296257 0.8166815 -0.3946586 2.1507204 3.5067708 1.7298691 -4.79124 1.962467 -1.5914485 1.9669851 1.8248693 -1.7995433 -0.3075889 -6.8673058 -0.20780915 4.9513683 -4.7909694 -3.3756177 1.0588101 2.7883866 3.5730672 -2.9038532 -2.7622097 -2.183519 0.67136914 -0.8291898 3.530336 1.6717285 10.44127 -3.4050932 2.7660744 7.257374
2524 0.99866486 -4.152525 -9.790343 -11.901017 13.832035 2.5189936 1.3820689 4.6827326 -2.0709836 -0.6202634 2.9845796 1.756286 -2.5401168 10.193653 3.2579513 -2.9795842 1.3431911 1.393206 8.970483 2.3921778 1.9308959 -4.370027 -2.836231 0.5614497 -2.2937214 0.45843306 -7.0121193 5.0072656 -0.7019713 -7.1878643 -3.0009823 5.723856 0.48007372 0.23811209 2.0395973 3.7637064 -5.2709665 4.139886 4.9734097 1.336276 -0.42744076 0.30380762 -0.72644275 -1.5409955 -2.8037076 -8.921478 -1.1201873 1.2129537 -4.451713 -4.3140635 2.6113605 4.854879 -0.7721514 -10.974097 -5.9153395 3.330295 2.808615 1.2539674 -4.768051 1.1981492 11.074397 6.531775 -2.6871164 -0.489933
1053 -4.025164 -2.72209 2.2800808 -1.9103259 6.106197 6.2439065 4.932213 3.7494376 8.054456 -3.1667104 0.56386137 6.934802 -1.3815453 -3.1086576 -2.429698 -3.5296967 2.3961072 -6.1390257 0.08830254 2.0365582 -2.6712592 -4.98947 0.883282 -1.4917295 -0.18875183 2.6278973 -5.714313 -6.561176 -3.0543401 0.0034718644 0.32992256 5.1275973 -0.9640608 0.96279484 6.725837 -3.4026291 -0.16564406 -5.6675453 2.1117508 -2.4784784 -2.189568 1.3985833 1.5360209 1.3666723 -0.24220382 2.0171463 -9.465748 1.1219351 2.0488372 -0.8307524 0.9142249 1.3310186 -6.03144 0.1166446 -3.873033 -5.6474495 -10.288637 -2.2353988 -1.2192272 4.8528156 -8.8818 -7.1579967 1.3073788 5.259683
2797 -4.33592 6.548951 0.050310895 -6.0842447 5.2174582 0.06494368 10.597454 2.996716 0.64474636 -1.0924175 3.115594 2.3034751 2.089764 -2.9530685 1.7960601 -2.9575946 1.5987662 -8.150548 -3.7893527 -2.407516 -1.3902061 5.054168 6.2365527 0.99605477 4.4160805 -2.671993 0.82415825 2.567331 -4.041932 -4.5524673 -5.4868927 -1.3547235 3.0441234 -5.2100925 -1.6569673 -1.2616942 1.272372 -6.343219 1.8777212 2.2932112 5.0802593 1.0923648 1.2163415 1.9092842 -2.73387 -0.017645612 2.7285411 -6.036417 -5.69141 -1.5663329 -3.4639258 3.4130812 1.4720931 -6.36433 2.652466 1.3728538 -1.401781 -3.9370594 2.0951087 0.8052694 -5.229715 3.637323 3.6291733 -1.2387381
3156 -1.4859239 0.3744833 -0.5512332 -3.3960683 -0.19608413 -5.7814217 1.6358825 1.666094 -5.226044 0.035550464 -4.841411 -1.3960661 -1.450665 -0.49172398 -2.3435786 -2.8698642 0.48191476 6.171097 -0.19524652 -4.2023616 -0.0027964355 -2.2612627 0.8579664 -1.9889846 -2.9986124 0.102218635 0.6384428 5.914331 -1.6937675 3.2199965 0.6027484 0.22909057 -3.39775 4.1960917 3.228955 -4.3923235 1.1801913 -5.4754763 5.424519 -2.177486 1.1919659 -3.7376678 2.7839413 -0.92032105 8.64961 4.6107492 -5.344546 4.1448026 3.8572812 4.503346 -0.79779565 -1.8956776 -4.4532204 -0.43154904 1.6673163 0.7869916 2.2725813 3.5521555 -1.9384599 -2.460228 0.12524684 4.364234 4.0964174 -0.039763328
1595 -3.8889396 5.3652267 2.255946 2.2992 2.635137 -8.447986 2.258416 3.494508 -4.6529045 2.4180853 -0.24800046 -7.510197 -1.3782836 2.2251916 -1.393358 2.1315403 -3.8324008 7.0748076 -2.3517075 -2.628174 1.4884853 -2.9216807 1.2608435 -3.5867167 -0.57690895 1.9247326 0.019933458 5.561685 -0.20430602 5.608103 3.0892193 -1.4872956 -1.7975221 2.770131 0.9731578 1.6616149 1.2073833 -3.4873855 1.6746569 -3.1336915 1.0436109 0.32648748 3.1984515 0.48701048 11.098266 3.3836992 -3.7678306 3.5003235 1.6420237 2.273772 3.3577108 -0.5352343 -2.941804 -1.0432129 1.2011206 -0.06183258 1.9799702 3.7755606 -2.9605932 -1.3922517 -1.860629 2.2196667 3.112492 1.4208785
48 -3.715043 2.0847945 -6.674845 1.8429585 0.6545428 4.5623384 -1.9876856 3.880934 2.7766044 -5.0572863 -1.7313181 1.9800352 1.0908836 2.8015928 1.2332788 -2.1257162 -1.8670329 2.9120846 1.2838165 4.580579 -1.3757402 0.79856014 4.7105303 -3.3153946 -1.8159933 -3.9702451 -1.3175461 1.9495034 2.7304697 -2.0955663 -0.70918626 2.5438554 -4.3122854 1.6128044 -1.0142587 -1.0949175 -2.4683802 1.8666078 -3.6446028 1.0000508 2.9676564 1.5852641 1.6875101 -3.3772194 -0.68044287 -5.467196 -2.375821 3.1554637 -3.1222358 -2.213997 -1.8607733 4.1891527 5.883048 -1.5149246 0.37196484 -2.0939944 0.738418 2.2428355 4.7066345 3.0764894 6.823359 -3.1280427 1.8381754 3.5070324
1673 0.3754433 1.5525773 1.5375009 0.9645709 2.1676865 -5.6605196 2.5173578 -0.7849844 -3.8123343 2.7426689 -2.061052 -5.067806 2.061987 -1.8052846 -0.5863862 0.7952951 3.7148407 1.1453176 3.136835 -4.398626 4.2636914 -3.9109805 -1.3225975 -1.6360198 -1.2181993 3.9821808 0.05917589 4.7850394 -0.31187326 5.3816977 3.1270037 1.559983 0.18118279 1.5109203 4.883953 -3.8214588 -1.4757539 -6.9145126 4.6994243 -0.47234032 -0.57882744 -0.032185115 3.2433887 -0.9102825 8.258656 3.8204057 -2.533722 5.396676 2.7100317 4.429617 3.2378852 1.945533 -2.6509812 -0.60989577 1.4552505 2.168498 1.0212009 1.7050021 -2.7425857 -1.6246967 0.71427816 -1.6479031 4.46404 3.3653533
3209 1.0660475 -2.3605804 0.82049745 -6.2393913 5.9969063 3.490014 -2.8834171 5.287949 9.5496025 -4.0246387 2.6231248 5.48828 -3.043738 -5.187927 -6.0736947 -3.9727025 -0.025809733 -9.015011 -0.66396713 3.4024544 0.9206563 -4.0284843 -4.1286173 -0.44799507 1.551246 -3.1031063 -2.0928888 -2.8561146 -3.532032 0.8554492 -1.5185629 4.690059 -3.6227903 -1.4613317 6.591886 -1.5472585 -3.1738207 -7.71381 2.6472251 1.3348043 1.56239 2.0880008 2.5103126 -1.5236036 1.2326359 2.142417 -3.9882457 2.7896771 -4.475064 -1.1685266 0.16209914 3.546631 -5.2803874 5.6113954 -7.511896 -4.1224327 -9.411082 3.1121068 0.5339897 2.5668323 -6.627856 -7.506155 3.1676297 0.30387077
1184 -0.9084043 0.688096 -3.980152 0.70688266 6.37882 0.77647 2.2740536 6.3945403 7.6589837 -3.5927987 -5.1818004 0.8894378 0.5722278 2.2854187 2.9073365 -4.2450547 0.8960654 -0.21707015 4.5167913 2.229667 -0.39067203 3.0168164 1.1501796 -3.8834665 -0.0017382965 -1.8767012 -7.2415485 1.3148608 -1.2704889 -2.8188236 2.8995433 6.0205092 -8.01995 3.9024372 -2.7251143 -5.109104 -1.3839241 3.1284556 -2.2105653 -0.9602979 -0.3017899 0.64524513 7.2484317 0.66808283 -0.069503 -5.9476724 -3.0573025 -0.72609043 -4.7562037 -2.859141 0.7756293 -0.70770264 3.1185124 -3.6220481 -0.55191773 -1.8695205 2.6304936 3.0289817 2.949504 -1.6631181 8.004082 -4.0096874 -2.2651985 3.1845634
3644 -4.1897364 2.7384317 5.8495717 -2.576367 -6.7445745 9.787778 0.80919284 -5.962333 2.2171972 7.8258557 -1.9218867 -1.6942271 13.224812 0.20468436 -4.714467 -1.4684702 -4.5268493 -4.1319723 -2.8228252 -2.4234705 0.89273953 2.0782316 -1.2218968 2.0095205 2.0916622 3.6379719 -0.023653246 -3.6810207 5.6161747 -6.9100595 4.0488634 2.612461 -8.841874 -2.5018163 -1.8441188 4.339312 -1.5699159 2.9973004 2.8913455 -1.2741228 -3.1124215 1.9283785 -1.0756499 8.513307 -3.5377545 1.8705639 -4.528449 -0.5011957 -2.7014697 -6.460534 2.295842 -0.21896985 -2.2878737 -1.2815335 -2.214126 -0.10430376 4.380921 1.0801417 -0.49887535 -2.5688317 0.93905747 1.3385769 7.7114573 -8.350162
229 -3.4218502 2.2182238 -5.349853 0.9487206 0.60817695 3.929129 -1.6394023 6.520532 0.43676794 -4.671179 -1.4418381 3.1307504 0.615975 2.221395 -0.63753504 -3.1688983 -1.5123901 3.9994693 2.631409 3.2859416 -3.29028 -0.3523617 5.1397486 -4.644071 -1.7493986 -2.4367564 -0.8081154 1.2236532 2.6476264 -2.1138172 -1.2961365 1.7341261 -3.3170881 2.1923292 -0.7483437 -0.68952847 -1.9303908 1.7341985 -2.3846316 -0.027404614 0.5362663 3.985314 2.6893969 -2.8295014 0.97062933 -5.1217337 -2.6872356 2.3928173 -1.8417829 -2.8653305 0.09720796 1.3948678 6.593126 -1.1172632 1.3189855 -2.079185 1.4022138 -0.8719188 6.0652237 4.0752225 4.974266 -4.4428425 0.22552335 4.6270986
551 0.2480603 -1.7631581 9.41245 0.74417406 -5.0895524 -2.5971918 2.736001 -4.404122 1.3811606 4.557872 -0.49858814 0.6711671 11.361245 4.065223 1.7493778 -4.5705914 -3.4980824 3.3441281 -3.476092 -5.4091806 1.505196 0.29839018 -1.6260115 -0.20503668 5.2629757 4.0213575 1.4026046 -3.6073043 3.3054125 -2.3845222 -2.509281 2.5842462 -1.2368134 -4.635183 -4.8538947 12.699154 -1.6334466 2.5702477 -2.2492206 -0.34706622 -3.6213896 -0.28939244 2.4711778 2.6288395 -0.7051821 4.1491084 -1.6611167 -0.0067094406 -2.792161 -3.00444 2.5438316 2.6842954 -0.07821996 -0.8227624 -6.461736 1.4130688 2.8048997 -0.64061856 2.9547546 2.6167586 3.2174616 0.16373383 -1.1942502 -4.8635907
2659 1.7477273 0.8462483 2.21138 -0.9257808 0.86564505 -6.138801 2.3154674 0.64828473 -3.2865481 3.411071 0.49587178 -5.883783 1.6595991 1.9559507 -0.9434195 0.26729035 1.9129325 4.7022896 1.1326853 -3.257476 1.4881837 1.9167138 -2.4123902 -1.6083063 -1.076398 0.2395371 1.1770167 5.893141 0.9889351 2.3666139 5.25544 -0.70367146 -2.5281742 2.9789732 3.018556 -1.3370298 1.818685 -2.863513 2.9163973 -0.2655047 0.075471565 -2.380076 -3.5468905 0.79611516 10.8857765 1.5319297 -0.23350288 5.122032 2.587283 5.309437 2.6523623 -2.4657545 -3.8011873 0.28084028 1.684287 4.382983 2.335861 -2.371277 -2.359704 -0.026352316 -1.1283208 1.4233091 3.84076 0.16490845
3590 0.51896554 -2.6188376 -6.525669 5.985296 -3.7521179 7.0894337 -0.4345547 -2.0681698 0.06754219 -4.6958914 -0.095168486 -1.1682372 -6.785869 3.9810615 -4.0258875 -4.2125363 -0.08096 4.504436 -3.4488883 -4.131294 4.7704687 -2.0433104 -4.397918 1.1999322 -10.296017 -6.893027 -2.4631689 -1.635935 -1.8582639 -0.98709553 0.95055676 4.541572 3.5488753 -2.7067242 -2.1820745 3.5902362 10.033149 -3.4499538 4.750435 2.0119214 1.953555 1.1938344 -0.7005238 -6.314064 5.707497 -3.2935188 0.109069176 -13.04516 -6.011942 -5.745407 -3.002836 -6.8509746 -5.4506984 -2.356896 -0.00022895863 -1.039938 -2.1561277 -8.605266 -9.561866 6.2464437 -1.5830863 -7.8472376 -3.1603236 9.547656
3164 -2.9920712 1.4385734 -5.763801 1.9985074 -0.887356 4.056854 -4.5038486 2.5958886 2.0239325 -4.5711083 -0.6481161 1.2852699 0.42783558 3.2774978 2.9766574 -3.1924756 -0.704451 1.2975318 -1.290332 3.813361 -1.0464996 0.503033 1.2200176 -1.7810124 0.3536471 -2.12381 -0.030534351 4.683467 3.413379 -0.2240867 1.7947272 3.2576942 -5.6040316 4.2890434 -0.67444086 -1.3893973 -3.1562827 -0.7741049 -3.5311596 0.13421011 2.9049554 2.848536 2.9055622 -1.0752871 -0.04164339 -4.903145 0.04003202 3.1319861 -2.4594858 -2.80881 -3.7645652 3.5201309 6.160272 -3.3417377 1.6451803 -1.6485862 2.5984163 3.6675403 3.9231482 2.455785 6.683604 -4.228852 -0.73650074 2.8731904
3294 0.42108986 -2.194164 -3.7872562 -6.971417 0.37694037 -2.4532957 -1.7723328 -8.286812 -10.626688 -4.413243 -3.1810594 -9.853768 -1.4823594 -3.3779967 -0.33256647 0.29348737 7.877764 -9.274159 -5.082282 -6.6025186 2.2726152 3.5733721 5.089315 -5.772873 -6.328173 -0.78194135 -4.965332 -1.0380772 6.351262 1.3266464 4.2876964 -6.390111 -2.390392 3.2977054 3.2833912 2.6289418 6.3522515 -3.974261 -3.2434163 1.836752 -11.713691 6.6602526 2.6387672 2.4846506 0.8802929 -2.2832627 -1.1870624 6.77701 1.1813252 2.2601473 -2.3031087 -2.668679 4.398344 3.7945242 -4.1929193 9.050197 2.9483945 4.270913 -3.093593 -0.16023733 -7.7088885 -7.2045593 -2.6642911 -1.2660632
1214 -2.0642567 -2.3708847 -0.35154426 -2.3276074 11.902874 3.5222757 -1.5694207 6.6384497 9.448736 -3.2879486 -1.9341278 2.3129086 -8.373814 -7.8497066 -1.5024048 -1.7257607 -2.587904 -3.8330545 6.435756 0.5270139 -3.8692636 0.21356069 -0.5512288 -1.3408884 1.9760875 -0.3241455 -9.556157 4.239674 -8.15074 3.4170637 5.4800262 6.7820163 -4.7108836 3.3928874 -1.47601 6.391201 -3.0934172 -2.2234921 -2.4717152 -1.5265698 0.70666325 6.0714917 4.6755247 -2.2021124 2.0718648 4.689694 -0.46949863 0.902658 -5.002364 -2.4823713 -0.7735029 1.8099148 -4.8248396 -0.8876896 -1.1023369 -1.4779624 -4.153662 2.2470038 -1.5281537 3.5097191 -9.650446 3.3161135 -1.6117731 0.29685506
1840 0.6853872 2.367321 2.3501244 -1.31801 0.71070176 -5.2134666 2.9409971 -0.34426618 -2.7976272 3.5008826 -0.9737699 -4.6077 1.0045696 0.7518244 -0.6616532 0.1370532 3.5291078 3.477783 -1.0359908 -3.5903373 2.3053086 -1.0265169 0.33695918 -4.147516 -1.5386286 1.8206459 -0.57774645 4.569324 -1.2579973 3.9729214 3.0641026 0.08527302 -0.065228365 2.746556 4.9954267 -0.6059405 -0.87413055 -4.012572 2.4299378 -1.9093425 -0.31996036 -2.443239 0.33802116 -0.2733627 9.184026 3.3700905 -0.72981155 5.5574756 1.7286888 2.7822263 2.0354927 -0.9431921 -2.2795453 -2.2656856 1.0217304 1.7286764 2.172462 0.72117835 -3.705763 0.9800549 0.23618029 -0.06393913 4.4967074 1.4954675
2036 0.7538124 3.0738153 -0.5522265 -0.92140067 1.6787654 -2.828832 2.0853345 0.3161224 -3.6825233 3.2205603 -1.3421097 -5.251013 2.8458736 -0.47992784 -0.38446265 -1.5783657 5.052296 1.6557803 0.42071685 -3.0727904 0.73486584 -2.820946 1.4420123 -1.6792628 -0.6636164 1.9034239 0.018576007 4.6677523 -0.52718514 3.6804893 2.3696575 -0.720017 -0.8049055 2.6619692 2.3562484 -2.7432928 -0.42438418 -5.3804803 4.3511243 -0.008725648 -0.46541733 -1.3989507 1.2543464 -2.3926096 7.683595 4.7623425 -3.404255 4.4403877 3.1962903 1.0415374 1.4760941 3.0131896 -4.0374827 -2.0287168 3.094171 1.4630777 1.9119326 1.1178404 -2.708255 1.2739884 -0.32062307 -0.6660681 6.795193 3.7907476
1073 -1.233753 1.5622905 1.9991412 -1.7057706 0.47935656 -3.06175 1.380546 0.6087407 -4.685481 1.3865633 -2.266342 -5.7800627 1.8832905 0.5643777 -0.8889689 -1.4806036 0.92848307 2.414612 -0.5672151 -3.3106794 1.6517855 -2.627837 -1.5552595 -1.4377012 -1.3435023 -0.69842595 -1.0070149 4.058468 -0.2851021 2.0831876 2.1093552 0.3629856 0.5471903 2.6439028 4.456837 -2.161706 -2.1238716 -7.230967 2.4086828 -1.6865032 -0.31349328 -3.6199522 0.5717497 -1.7380049 9.226868 3.2110636 -2.1707547 4.4789643 3.6784408 4.003657 3.967637 1.1046656 -2.6426423 -0.28125396 2.027741 3.7907343 3.6251395 -0.27669424 -2.8583817 -0.5702551 -1.3205101 1.6348286 4.1449847 0.41318572
566 -0.021556111 2.3591926 0.56917906 -1.520273 -0.010304206 -5.7666745 1.815096 0.4607435 -4.1989765 2.1869628 -2.2498457 -4.5660863 1.9151692 -0.5204425 -1.7141821 -1.4293721 3.056947 2.0670233 0.02590815 -2.987078 1.351233 -1.9658912 0.29377395 -2.6188736 -0.3927152 1.7151436 -0.32812518 3.4612842 -0.7818812 3.334084 2.1404495 0.11904978 -1.2406278 1.9806125 3.5650861 -2.3986237 -0.8056874 -5.834844 2.0432756 -0.8209595 -0.33977067 -2.3843055 0.9625701 -2.767867 8.988196 3.9055715 -1.790348 4.7735 3.043022 3.7344303 1.8963962 0.4770337 -2.5739868 -1.0823681 1.8266006 2.4069548 3.5436401 1.2762431 -3.2018876 0.8167297 0.26640493 1.3917027 4.864428 0.4894773
3052 1.2725494 -0.046419963 9.452029 5.1033206 -6.698908 2.8248982 0.6627427 -2.214159 2.8567736 5.5128813 -3.0706723 0.33455852 6.0917816 -0.9992118 -1.7305084 7.759313 -8.2038765 0.19654702 -5.97171 -5.9304953 -0.42945728 -4.7594633 -5.9247994 -5.536956 9.550623 2.7101026 -1.1597881 -3.6386318 3.0837526 -5.0364966 0.11566222 0.5939575 -2.2796261 0.5326247 -4.140227 11.634347 3.5307956 6.801201 -0.27530086 -0.725046 -0.51564115 -2.927403 3.2702782 3.1207905 -0.2678195 6.0362434 5.8202424 -4.1974287 -1.5158645 -1.66941 5.899812 4.1377006 -2.23784 1.0667821 -0.35259953 1.8184401 -0.6626526 -0.62669426 0.62315595 7.265597 10.978596 1.6353062 -4.3559613 -2.7752817
3394 -1.7665856 2.2572594 -4.911 -0.4423044 4.604105 3.6799614 -2.7619147 0.8826135 1.42396 -5.608291 -1.7495342 0.9157283 -2.6617365 1.105512 1.230157 -3.5033994 -1.5077363 -0.9855656 0.43478715 2.455882 -3.0747843 2.9761512 3.0880702 2.592515 -3.6610498 -2.7505455 -4.271455 1.1816409 2.8134859 -2.441895 -0.071819946 -0.62543553 -2.159316 4.3734746 -2.3249183 1.1966761 0.60305357 3.8160472 -0.33778697 -0.15786044 -1.642001 4.998349 2.5269995 -1.5182151 5.2575216 -8.781458 -0.5706782 3.9509053 -3.0176973 -0.8776529 3.113275 4.464577 6.713164 -2.713678 0.18588944 -1.891983 1.7087059 -1.0289384 6.005627 -2.8002641 7.8044333 -3.4874182 1.0066162 0.26565024
1775 -0.7055513 3.19917 -1.7794925 3.6438968 2.340847 1.8781025 -3.638767 4.705731 0.37360978 -1.7565058 -0.019022489 -0.17796144 0.3759604 -0.3784712 5.702763 -3.294876 -0.6767206 1.5088847 3.877219 2.766103 -2.6138663 0.91311353 4.8438945 0.0848438 -0.78908867 -2.8259742 -2.2098846 3.4400823 2.7548683 -0.21544217 -0.82938755 1.8458644 -4.224134 2.9061923 0.4789074 -1.2989583 -0.7103001 2.5576808 1.4682161 -0.12821591 0.03166128 5.213064 3.0550911 -1.6063167 -1.4098604 -5.706307 -1.8104105 2.7875862 -2.2876241 -5.0398707 1.0519437 2.3056784 6.41654 -0.8246144 2.1335816 -0.9390111 -1.2604804 -0.101992175 4.950562 0.32911974 6.081752 -3.52563 -0.49619067 3.867587
2953 1.5421563 2.8697026 1.7218153 0.3623561 -0.18857871 0.24860387 -0.62362254 -0.634454 -0.07657095 4.9889913 -4.5036726 -1.2207822 -4.236441 3.871325 -2.8391585 -0.6317778 -3.457451 -5.1415753 0.15822506 1.4074302 1.980989 -3.444832 3.8771305 1.4809071 -6.4837856 -1.6777241 5.13917 3.281705 -1.8481673 0.6936735 -3.3314462 -5.7155414 -3.4617264 -3.3750296 -0.49999577 5.873159 -5.879746 1.4548113 -8.376599 0.48486033 -7.173324 -1.7055794 -1.4833804 10.587612 3.2518117 -6.688409 -0.052946076 -3.3308525 -1.1990793 1.1669204 -2.9446344 3.3943763 0.9388603 0.90072244 -0.85836804 6.6449175 -6.2774973 -2.8334029 -7.121201 2.203405 -1.4141198 -0.8508253 -2.359823 3.9756172
3318 -7.544101 -4.6825423 3.8692503 0.01709618 2.774899 -1.5580783 0.28579822 0.9533831 6.740061 -2.5058458 -4.559642 4.0058208 -7.5675983 -3.7743745 0.5358038 -10.162684 6.8253136 -3.53257 6.425974 -3.8389876 2.922852 -0.13281341 2.3273048 2.1892588 -3.294819 -0.8433101 -7.0056405 -5.4032416 -6.5191197 0.9677504 2.696147 6.1315646 -3.97644 1.1204416 5.52307 1.163492 4.1773868 -3.3574905 2.9616396 -6.960934 6.0147347 3.0789247 -3.683683 1.5533848 3.8943746 -3.4629936 -3.8736465 -2.910916 -0.41658652 2.1876435 -3.7160165 4.383208 -5.045997 -2.8281083 -4.9168015 -6.2833405 -4.999034 2.6041532 2.6238291 7.27156 -9.776919 2.1665492 -4.2830105 -0.015225202
1792 -1.0905601 -4.2807465 0.9666741 -1.1588075 2.9575193 4.801731 0.117430195 -1.1900233 10.582688 -2.5868063 0.9399853 10.916707 -1.5705991 -8.994938 -2.1946912 0.55620944 7.733189 -6.596722 0.504736 2.8278332 0.51165324 3.3611236 -9.250691 0.7598955 5.5484734 3.392923 -3.0486674 -2.2708695 -7.539966 3.659585 9.785205 4.5999174 -0.6974959 -2.2206442 0.8355766 4.462615 -6.3466263 1.767273 0.25686145 -3.370181 2.7142062 7.4553137 -5.4283137 2.6123059 1.2819983 -3.7079442 -1.2038062 2.049434 -2.4960654 2.9511986 4.3860645 0.8275779 -5.2483697 0.4271824 -0.116135575 -1.0958161 -9.00384 -1.8782899 -0.89440763 8.376205 -9.462848 -3.5334072 -0.047927372 -2.3022108
2247 -1.9246 4.18389 -6.31391 -1.8301097 -7.7086716 4.089723 -2.3093853 0.8484577 -0.62104535 -1.7154882 4.4151435 -1.183487 0.66975045 -0.55861 1.4717238 0.38802147 -0.41417488 -1.915624 -0.9177496 -1.3847936 0.292401 5.607934 2.2572746 -1.1748427 -1.3684399 0.3586134 -4.9832153 -2.08213 2.8640246 0.61124176 0.71583855 -1.3622789 3.1722596 -2.2672017 1.3393543 2.257722 2.690938 -2.9285815 -4.441061 -0.041971147 -3.6756315 0.06951995 -5.392618 -1.8248415 -2.1706285 1.8919395 -0.95276093 -1.366695 1.8747144 -0.9870134 1.2654768 1.7111 2.8669345 0.31103256 -5.605031 2.2688696 0.2824353 2.5486658 -0.559201 -3.0425596 -4.1273146 4.975795 -3.2898307 2.2034996
3244 -0.9959783 -0.10964535 -3.586478 2.9641716 1.6619713 5.0382404 -1.8192887 5.3113127 2.0650544 -3.688976 -2.6144836 -0.13212298 -1.3233899 -0.7070753 1.2312045 -2.3753014 -1.447178 -0.5454469 4.679962 2.2086413 -1.609412 -0.9921439 2.5900052 0.90264493 2.1268804 -0.034463637 -0.5795632 5.275352 -0.56534547 -0.8536023 -1.9383307 1.6971059 -4.5431995 3.3737898 0.7387744 -3.7977724 -0.79001963 2.645484 1.4024401 -1.8106405 -1.9235983 2.4298766 3.0666459 1.8661813 -1.1495303 -3.796615 -2.8713875 2.1062639 -2.322854 -0.6795193 1.4938505 3.0867262 7.8994246 -6.22554 2.5612814 0.86190605 -0.113652766 0.34025937 4.9442005 2.471926 6.2393456 -6.108273 0.5035011 3.7932794
342 -1.3433697 0.998735 -5.173128 2.6359873 1.0454357 2.9225025 -2.516278 3.640375 3.4653826 -4.738483 -1.9705731 -0.099322 -0.39511314 -1.1510364 1.0360813 -2.3261952 -2.394692 2.7882695 3.4807076 3.6601512 -0.91719896 2.3884723 4.767061 -1.7165753 -0.9011949 -1.9851993 -3.4629312 4.2949877 2.1124415 -2.6574736 -0.40286645 5.3570895 -5.0685887 1.1061435 0.2732187 -1.0304333 -0.06698247 3.7476761 -1.6120875 -1.8441161 0.533007 1.6224383 2.0829024 -3.5578635 1.5233991 -6.6435623 -0.10159083 0.2531762 -2.0045707 -3.6518295 2.1068053 2.7910776 3.1990628 -1.808738 0.8475614 -1.4764997 0.5424017 0.86841285 4.2638135 1.6030627 6.2337356 -3.0581563 1.2412006 3.0486665
1399 -1.0787225 1.3409109 -4.3915224 -1.5109532 0.92837757 1.6224126 -1.9329392 4.2518244 2.828843 -3.5163977 0.5262088 -0.5209985 0.84931743 -0.52437794 1.1275613 -3.4688535 -2.238898 1.8084725 2.019291 2.4776223 -3.4144542 2.964462 1.7839206 -0.43733355 -2.7154417 1.1396637 -2.8488202 4.7787766 0.04039575 -3.2353532 -1.4678386 2.9269516 -5.759999 3.054587 -1.6067735 -1.4259502 -0.15641412 0.93227625 1.6381807 -0.78332305 0.9603689 2.4614651 0.83760893 -3.3088827 0.49837294 -8.762876 -0.5762468 1.7477148 -1.6121666 -3.2370527 1.7490922 0.08644275 6.3309145 -2.9769642 -2.0343447 -1.4348172 0.8147152 -0.0612833 7.768152 0.54942065 5.6304636 -3.5126371 0.18373615 2.21842
2688 0.95299786 -2.1106603 -4.757152 -0.15265852 2.590422 0.23736562 -1.6601229 2.4261227 -0.8836193 -4.3973827 1.5642475 2.4300196 0.49231842 -1.901414 4.827026 -4.319251 0.2229769 3.9104595 1.5233482 5.1746254 -3.8108728 -1.1394652 2.0518918 -1.001582 -2.075903 0.50468075 -1.7356006 2.425064 -0.51462144 -1.1863582 0.59608364 4.075429 -4.557565 1.8790051 -0.23321816 0.5822839 -1.7734673 3.2342093 -4.9577518 -2.910289 -0.72289205 2.2222478 2.783849 -0.6717957 -1.6403832 -3.2929387 -0.08638767 -1.5105327 -4.193609 -1.6344595 -0.041831806 2.6659245 5.2578883 -6.257685 0.206841 1.3799849 4.0876045 -0.7404547 2.6399066 1.3111944 9.039967 -3.596878 -1.3858864 3.896589
2520 -3.7423713 -1.5283095 5.706387 2.9135497 1.5324336 -1.6873101 -1.8499155 2.1492374 2.2859852 0.8128078 1.0240833 -6.33155 -0.6389625 3.7016418 10.005087 -0.38449225 4.255004 -2.3056924 2.4887476 5.9683 3.1154358 1.6422437 4.2451305 3.3213124 2.4497292 4.2295856 -3.5578022 2.1678555 -0.026079847 -0.7474992 0.3974747 2.3614585 -0.33387855 0.6123285 1.712945 -5.3620467 2.6693337 -0.54890466 3.753078 4.04361 -5.628916 3.0815537 4.0361586 -5.919201 -3.0347328 -2.6291244 -1.6283329 -2.132556 -4.2574706 -4.621003 2.869364 -0.05184487 -3.1623445 5.093724 3.0399187 3.3460639 -7.7144203 0.9184637 0.18683156 0.5552558 -0.3965218 5.5490656 -3.3656058 4.271482
603 0.98461425 2.549651 -0.048423633 0.06748288 2.658943 -2.589935 3.067075 0.7815597 -3.4743915 4.2240925 -0.5379078 -4.8260775 1.6298857 0.66947454 0.71790606 0.3840256 5.1380463 2.9598286 -0.22306177 -3.446832 2.520946 -1.91316 1.9550531 -2.0868993 -1.1008072 1.9404998 0.98053515 4.372737 -1.1876574 3.9062018 1.7935976 -0.23806968 1.0239584 4.1008053 2.5071058 -1.7808338 0.45944336 -4.300183 4.4713984 0.5717447 -0.3888016 -1.4673376 0.31857237 -0.08516528 6.786579 4.170824 -2.982218 5.344596 2.5110784 0.29975614 0.906791 1.6643655 -3.2755284 -2.2896001 3.658254 0.75110334 1.2369343 0.2594058 -2.626187 0.43874657 -0.71532255 0.6986286 5.341129 4.028599
2188 8.658876 -6.7960277 -7.4996147 -5.66283 5.714847 2.6485186 2.0909524 -4.975336 1.3704764 1.2708895 0.7795625 -1.458858 -2.1233113 -1.1266155 0.39561185 -1.151328 5.5342984 -5.2627234 3.31811 -4.3914638 -3.909564 6.3317146 -2.1850386 -2.0792434 7.9863954 1.791517 -3.3255627 -1.2848387 -4.390351 -1.5070012 -0.097313195 3.849426 7.5404615 7.0417104 0.8661916 8.149367 -6.55504 3.7597556 -4.5549283 -2.12657 -3.6203156 6.1560583 0.0814119 1.7850834 -0.7979525 -2.7546115 5.4163227 -0.22420533 0.14249334 -5.559598 -2.3588061 -7.8599157 -1.6368941 -3.2962172 -3.1047354 2.8679507 -0.3860512 3.4365299 -7.855657 4.0668344 -4.729685 1.6668473 0.47395208 -2.5346467
3586 -0.23019876 1.8982168 -0.44509223 -0.8385746 -2.9760342 3.7995315 -4.88434 0.15440509 -2.86112 -2.5891178 -1.3822795 3.309521 -2.1547132 1.8931777 -6.452288 1.0957838 -1.3731319 0.7914483 4.5799403 -3.7907963 3.3552163 -2.5967247 0.87872434 3.9247367 -2.8519108 -3.476235 1.6664362 0.4621385 1.0660944 -4.650257 -1.649556 -9.022961 -2.572068 0.764066 -1.6137433 1.4633752 5.5169106 1.44067 1.307556 -7.3814607 -2.1572194 4.4060526 -3.5107338 2.2876334 -8.33818 1.8330714 0.1813526 0.4383195 -3.8916094 1.5657549 2.1410236 -4.805174 -4.251519 -0.93409485 5.677636 5.592884 -5.62998 -0.9954487 2.711468 -1.5681332 0.9000506 6.89837 3.1675127 2.4787152
126 -0.37868014 1.3193784 -5.118825 3.6546903 6.5606103 3.8473573 -1.5504235 1.681129 2.9708261 -2.3229508 -0.45385873 -2.3953593 0.0010674649 0.043956112 3.5668314 -2.8952022 -1.4934325 -0.0025192753 4.59769 4.3459177 -2.1061862 1.4288036 3.806379 0.955884 -0.74236536 -2.107916 -1.9549571 4.3525324 2.5435226 -1.0841285 0.12705752 2.6634934 -4.874867 1.5850288 1.2980311 -2.7001724 0.66106737 2.2841156 0.9418773 -0.47018155 -0.20973197 2.6585834 1.8635135 -1.2248404 0.5311707 -2.4997232 -2.9314792 1.0484327 -1.6746774 -1.1412988 -0.43800566 2.8326726 5.8900867 -3.0337427 0.52825576 -0.61710656 -1.2326745 1.6373429 4.314843 -0.15551397 8.452033 -4.4936247 0.40486902 3.520818
670 1.5066928 4.590449 -4.1830335 2.393533 -2.7214706 -6.1737003 4.572254 0.75927114 6.6358376 0.20715556 -3.0809603 2.280618 -3.3426416 0.48509365 0.4846654 -2.529737 2.0383017 2.0199916 -4.471915 2.0398772 0.16312002 5.9673123 -4.097258 -0.04417991 -2.075397 8.0589285 -2.081283 3.2614465 -3.3213634 -3.898193 -3.1890981 -5.1577625 3.7932973 5.1766577 -3.9446328 2.9046457 4.544772 2.0981975 -2.2212257 -5.0720363 -4.083108 -3.3682172 6.2654333 -1.6869752 -4.341501 4.93218 3.913346 -0.29762423 4.072641 0.32134718 4.6964664 6.1933165 0.6081982 2.879888 -2.5758502 -4.287908 4.384533 2.09949 -5.295947 1.0350652 -0.18194167 -0.37465203 -0.06774708 -6.454291
1727 -3.1122289 -2.079043 -2.162674 -0.5680139 6.950873 3.0478446 2.8968582 1.5062385 6.3364406 -1.9860222 3.9818418 8.595282 -2.4717283 -6.165187 1.791695 -5.676263 1.3624244 -4.5693083 -2.8069987 3.4625597 3.026008 -7.8485117 -4.1739407 0.020545725 4.3023763 0.13110922 -4.4505153 -1.9850138 -4.9059997 2.0239367 1.3883386 3.6435378 -1.4967294 -0.16830699 5.219945 5.7781553 0.39695287 0.12977362 2.7210283 -3.7176452 -2.171583 1.3024588 -2.6029153 2.937736 2.8302019 -0.8822098 -3.6993113 0.67637855 -1.2499632 0.85200477 -1.4709325 1.6696236 -2.7244198 2.2014842 -3.4183583 -7.9717264 -6.527381 3.5639873 -4.463986 2.0705514 -3.0256038 2.2882688 -5.695351 -1.3793796
2035 0.8211433 1.7597952 -0.32765603 1.4605939 10.146356 3.3368387 3.6741989 1.7819207 7.954978 -7.1991916 -0.2442491 4.500265 -4.72317 -4.195305 1.5034553 -1.9125087 2.1295805 -6.599551 -0.80846673 1.4612106 -0.2277806 -2.5097325 -0.8924815 1.4150082 -0.21843572 2.7390115 -2.9150267 -1.4337457 -2.213497 2.6445599 3.592567 4.8992853 -1.0620065 -0.89165163 3.8716927 0.014708201 -0.7235538 1.1451762 4.6307826 -0.79347634 -0.91374284 3.1777172 1.9246937 -0.3497028 0.76872265 0.16225888 -3.88906 3.6859522 1.8219274 -0.039182283 0.6075145 7.5147095 -6.2060843 0.8263279 -4.1088853 -5.2017055 -7.63805 1.3964086 -0.9171131 5.9362693 -7.5816336 -0.63322204 -1.2918274 3.501547
2440 -2.6444016 -11.709091 1.3765956 -3.8363595 -4.8638 1.2121965 0.12298253 2.032313 -2.7041242 1.5417193 -0.08000235 -0.64680266 -1.4435692 -3.3844144 -0.5749797 3.5814917 0.78000194 4.1104517 -2.0846143 -6.856224 -1.4447733 -0.23052983 1.3924881 2.1538343 -2.937682 -1.2189838 -3.2016675 -1.1017644 -2.3200305 3.6209877 -2.3276637 -8.077376 -2.7547674 2.244713 -1.2400239 -4.219342 -2.5214043 2.8845263 5.792954 0.6917834 5.0418487 1.3352983 -0.56176436 5.631568 -5.312374 -5.0561047 5.1355653 -0.9478541 -9.333795 0.70109653 -0.8181714 2.416746 3.5298495 2.638435 -4.1387115 -3.0367093 -1.8211566 6.4008565 -5.4346433 -4.377359 2.7051466 3.591887 0.4923053 2.1154444
965 -8.4453335 2.3680038 -6.322572 1.4475015 3.8664663 0.5001968 -2.5983393 5.4012723 3.5983188 -5.236196 -0.2408594 -2.5720072 -3.0403852 2.0113947 -1.028348 -4.876992 0.14937113 4.790435 5.2781873 4.571069 0.6473837 -2.9081898 3.8135967 -2.3211808 0.24285802 0.030899663 -3.2420118 1.8604715 2.221991 -3.4137433 -1.8722944 4.925666 1.5267094 0.25470692 -0.45437238 4.4786797 0.94148624 4.078817 -1.8630354 4.3939314 0.043899283 1.5413477 4.0291195 -2.6885574 0.41791576 -6.6792426 -0.8796068 4.716779 -2.5751572 -3.4268942 1.30383 4.560401 2.6768792 -0.15831469 -4.6175675 -3.8978252 4.034849 0.2071302 4.464382 1.0497588 7.0222516 0.90707695 3.0330887 4.503217
1476 -3.241355 -11.578319 1.7768348 -4.5237875 -5.242845 1.4565102 0.21341467 2.418583 -3.008648 0.994498 -0.055186257 -0.41527367 -1.3982171 -4.081439 -0.7926301 3.3595674 1.1485083 4.6124406 -2.3154016 -6.9540668 -1.0118572 -0.22651604 1.2347399 1.9077464 -2.9515371 -0.629352 -3.6216626 -0.700243 -1.8223356 4.172973 -1.9366562 -8.424015 -2.6154926 2.283487 -1.2683989 -4.087892 -2.0946128 3.2736099 6.2552867 0.039636433 5.102583 1.180218 -0.36414582 5.1919565 -5.1554637 -4.6760054 4.7756257 -0.41727903 -8.829025 0.3989137 -0.62554103 2.9167757 2.9578912 2.6884894 -3.112836 -3.572599 -1.9422468 6.5999913 -5.2766867 -4.2080503 3.5711665 3.6860929 0.89528954 1.9897163
285 -1.9984742 2.797047 9.0733595 0.2333498 -8.328746 7.4492083 4.28443 -1.4573408 -0.37702683 3.242215 0.4781381 -0.08377819 9.302991 4.958354 -0.46476856 2.873496 -5.478492 -1.7439371 -1.3958826 1.1919976 1.507642 1.4019756 -4.6473308 4.3464766 -0.18879913 1.4201905 1.8265731 1.9324627 4.5972757 -3.1402562 0.71464926 -1.3225086 -1.5592141 -2.7125034 5.3009343 6.4991183 2.8899453 3.1855183 -3.2162602 -1.8848475 -4.3185215 -3.830038 -4.3016906 5.9907236 -2.0674036 -1.175671 -1.2688018 1.4884964 -1.9687607 -4.6400356 2.221317 2.4117362 -5.100781 -5.6457953 -8.388722 -4.9307656 0.2745217 4.058907 4.4063725 2.051865 3.6106842 -1.6718351 1.3994781 -6.925788
1887 -4.272586 -1.3336837 8.328041 4.6161966 -2.353884 2.1814728 0.9548381 -6.5506144 -4.902575 2.4529147 -1.0568233 1.8094579 6.0702157 1.6289579 -0.7086461 2.0959923 -10.421837 0.31033233 0.10866006 -1.0523632 1.208259 1.7810173 1.3380913 -1.0185119 0.039734952 1.8793904 3.1557968 -8.873285 2.1764925 -0.97436756 6.047569 1.5010614 -4.2329097 -3.2086446 5.011224 5.9115067 -1.1917927 0.23022218 -3.1994753 1.8362278 -0.65682137 -2.3738842 -4.5591383 6.717025 -6.1381307 0.5835972 -2.5109549 -1.7192965 -3.4997373 -3.9880433 2.1369846 0.7898928 -6.039892 -1.296137 -4.1248703 2.7225578 0.4972934 2.2495613 6.637227 1.0446818 2.1203647 -1.1085185 -2.396218 -4.736681
880 -4.7196765 -0.13658871 1.5964386 5.500225 0.963163 -1.5087695 -5.9128556 2.2467926 -2.2776458 0.94291335 1.8200994 -4.852874 -1.517953 4.0087934 10.028474 -3.6251721 2.7443879 1.4241849 3.4022617 5.6660557 -0.51493347 1.4992155 5.2255216 3.8612864 -1.0907938 1.4559542 -1.9338732 6.742493 -1.0036452 -0.47682908 -0.2832236 3.48373 -7.2438483 -3.6574407 -2.0670345 -0.06460831 -2.0697398 -2.619025 2.7329786 -2.6432903 -6.054761 1.0710306 4.2172327 -5.504325 -2.414248 -0.08424362 0.5805701 -1.5465833 -8.908949 -6.202017 4.2060847 -1.3149972 -0.9535245 7.4404917 3.4575982 3.0329735 -1.5089579 -3.436236 4.617793 -1.1744447 -3.6902378 6.0566993 -5.33105 1.1161956
362 1.0076417 1.0740826 -3.9626331 1.8056731 2.2334173 3.919714 -2.231545 2.358224 0.6313873 -2.4070122 -0.75862247 0.982677 0.49436903 0.68826294 2.58028 -2.7567985 -1.4679736 0.7137704 3.0998068 3.2669907 -3.9536877 0.81653833 3.7139044 -0.66193974 -0.80648226 -0.8834244 -1.8212775 2.3765686 0.53164154 -0.4464283 -0.07022877 1.7976149 -4.565762 2.834707 0.5258681 -1.3810539 -1.0390291 2.3304672 -0.08389168 0.32088813 0.75949025 4.094173 2.132086 -1.686228 -0.6705113 -6.2100716 -1.8829445 1.235454 -1.1481581 -2.3217015 0.41419122 3.951447 5.972314 -2.6542566 1.8911358 0.16177541 -2.0157425 1.3000187 4.636373 0.29807356 6.3917465 -5.8792033 0.28525934 5.475596
2475 -7.0010114 2.0848 1.7067069 -4.0700674 5.8718376 3.6138537 -2.934047 -3.1549966 -4.4539566 -4.093265 1.4428232 3.1643965 -0.6842842 2.9826043 0.20050123 -4.128314 1.8324006 -6.723265 1.7869853 2.161199 -2.55393 -2.4517376 0.047227927 -0.12412561 0.5092074 2.4811738 -5.5154157 -3.6209815 -8.776129 2.0035148 2.981751 2.5475383 -2.7130706 2.12025 2.933554 3.3636332 11.427399 2.144548 2.1855595 -7.723982 1.2714813 4.2545414 -4.942058 -1.7648376 4.9346485 -2.5389504 -2.7054505 -0.66749376 0.6629836 -2.2481396 -2.7032819 -0.74839514 -0.24327847 3.5933812 -4.8602443 3.7247505 -10.789659 9.717001 -1.1056106 0.1391799 -6.4482875 -2.4363139 -1.8004826 -3.0907483
82 10.004086 -0.11721226 1.2664121 -4.149306 -0.82761085 -1.0081465 3.7734063 1.0117093 3.0766606 -0.39505747 -0.25121468 2.826284 0.406505 -2.4747646 -7.652475 3.5958443 -0.28821358 -3.1946955 6.7941074 -1.981989 -1.5786577 3.6564338 0.6289742 1.0176651 -1.2144308 -2.8441474 -2.9652913 -1.5377939 -0.4118807 2.0805643 -2.907071 -0.42880797 -0.9698414 -3.0012338 5.6834354 -6.991411 6.5572433 5.993456 1.3770918 3.7147224 -1.7645227 3.4218469 -2.5385795 7.7113237 2.686588 -3.0534697 6.828275 -4.3884554 9.353617 0.75771946 3.7987509 -1.4621637 0.61427987 -6.0226665 -6.328949 -3.1004953 -0.6518047 -4.140119 -3.111267 -1.9149051 3.1538663 1.7819964 1.2354395 -2.1516805
2109 -3.9667292 3.0805976 -5.011279 0.41875023 0.035353564 4.1785483 -3.0022285 4.835255 1.5171916 -0.53741163 -0.5638948 2.434725 0.59284985 2.3878791 -1.4452019 -3.8527539 -1.3500935 4.372902 -1.5116897 3.8829765 -2.1731098 1.1206119 3.9657195 -5.3596463 -1.5527643 -4.812992 -0.8040009 2.7801373 4.0341334 1.1586646 -1.3917859 1.3244216 -6.3522844 2.129817 -0.90453035 -0.15202393 -2.0457008 -0.87620455 -3.051389 0.8340474 2.9205463 1.6910586 2.5645738 -3.6930685 -5.8398495 -4.383262 -2.295751 3.9549258 -3.2353373 -1.495076 0.01350453 3.9619696 5.1425395 -3.3495636 0.89294165 -0.1853954 0.8209158 0.18777287 2.0415833 3.2121892 6.288128 -1.7285693 1.4762601 5.030947
1165 -1.5129907 1.6376576 -4.6384387 0.14782543 1.3657943 -1.2649632 -0.37907475 -3.9105957 -2.6312034 0.1525643 5.4123106 -1.2346495 1.534997 1.7341548 -0.2288205 0.38425666 8.727701 -3.4266293 -1.4296752 7.9192724 1.9788768 4.60762 -2.5526683 -0.2990674 1.5883886 0.19560024 6.2053638 -3.0820365 0.42412898 -5.8332124 -2.3634264 -1.2275858 -2.8241665 -2.4199457 -4.3069115 -5.785211 3.579322 -4.639386 -6.2673054 0.64980495 -6.70242 -4.8227034 3.116293 1.0954503 -1.0605197 1.8017917 -0.07509689 -1.086955 -2.3233829 7.377149 -7.563041 -5.5472994 3.7119262 -2.0377154 -4.7860494 4.6465173 -7.8870287 3.8467495 -0.76506543 -0.09926242 -0.4540121 -3.337028 -9.172528 -0.17846757
2883 -1.0457603 6.7687054 0.13576095 3.572753 -1.307139 0.9235654 -2.8109376 2.3961344 -0.32946613 2.9677866 -4.3914657 4.9075675 -0.66152817 -7.403355 3.7687337 -1.0037746 -2.5931036 8.783697 -5.6664643 -3.2795799 1.6577277 11.8661585 3.1113658 2.4574358 2.4723778 2.5149636 5.952656 -1.4602749 -0.5172985 -2.441319 -6.1517057 -9.276264 -5.6023126 2.522467 -0.26542783 -2.4438097 -3.241551 1.6522496 0.18012816 -3.1359391 -4.7602954 0.43477213 1.0555066 -6.533445 0.5022033 -2.952282 3.4011436 -1.9684805 1.3264657 1.8996768 2.723014 5.5022087 -3.0720925 -7.7505136 0.9654649 -3.0132697 -0.6700549 2.4948697 -13.161812 5.3901644 -3.961938 -1.9203942 -6.7643695 -2.404315
2206 0.36490875 0.10436179 -4.322656 1.5655949 0.82541984 1.7813615 -2.220387 3.4860578 1.6058594 -3.2650955 -0.9038212 0.55135703 0.09008784 0.8657375 1.1745437 -3.802196 -1.4774858 0.9463519 1.1369972 2.8784394 -2.6116931 0.54442346 2.4673264 -2.2189171 -0.6976131 -2.0387259 -1.1970061 2.85915 1.4269944 0.108580716 0.5985662 2.934192 -4.5428486 2.6531425 0.19877808 -1.8443725 -1.002621 2.9391222 -2.6886916 -0.6439024 0.82860094 3.6685064 1.808306 -0.8545373 -0.05216423 -4.985967 -0.10091184 1.0151627 -1.4245896 -1.9914907 -0.03565591 1.3524528 5.8909154 -3.098765 0.7879413 -0.63730764 0.62630916 0.038456067 4.7901173 0.5760154 6.6434655 -5.0221353 0.36327857 2.6557775
1506 -3.4316669 3.8558915 -6.0878863 2.3352342 -0.07004378 -0.5577109 2.7311504 -1.0455103 1.846469 8.201569 2.4370055 -2.8150706 -1.7448452 3.7164352 2.5840986 3.1754854 1.1553062 0.40069038 1.1406025 -7.222676 6.365498 -2.8012877 2.9234655 2.9746075 1.8387411 -0.9198163 2.607653 3.7741764 -2.6460686 -0.7566122 3.3201754 -2.0855043 -1.6449951 0.89446926 7.624968 -3.360784 -4.4432783 -3.1495533 -1.2306107 1.881268 -2.622127 -1.6517334 3.2052045 -2.3229349 5.96445 3.9645803 -1.3287491 2.9081824 2.8149483 0.804617 -2.6695638 -5.0963626 -0.6462872 -4.0447364 1.7673525 -3.4528477 1.7777753 -3.7644567 1.5761837 -1.0713518 -3.314354 3.4500988 5.3690014 -1.8370681
3016 -2.7048607 -1.5430977 7.469125 3.4469442 -1.0150495 -2.443732 -1.9289821 3.4271035 2.0807986 -4.3581333 3.2060673 -8.290507 1.9127036 2.6759598 8.210057 1.4357659 2.93991 -5.195814 3.2773128 4.1015563 3.429005 -2.249813 1.4073709 10.636965 1.5172468 -3.785459 -2.3401897 3.5026724 3.0427506 -1.252517 -3.222367 2.501056 4.6074533 0.56551 1.0432386 -0.4633421 -1.3020998 -1.9017897 4.384126 0.9073141 -3.4529269 4.693873 1.7549307 -2.942161 -2.913786 1.3439109 -1.1603794 -3.5458746 -4.006185 -7.2626553 5.0141134 3.2543914 1.6718798 6.0218287 7.616013 3.0404623 -3.7417724 -0.609943 0.65192324 1.7982906 -5.959132 1.5588716 2.123296 4.58039
3837 -7.2866383 -3.8587823 -11.11527 -2.3722942 1.3592651 4.4103007 1.0281066 6.172103 2.2774734 1.9936222 5.6170564 3.5060766 -1.4219779 -2.4074442 -3.9020593 -11.586107 12.175914 -5.3448534 0.25995573 -2.943249 -4.842858 -3.6923642 3.7487166 -5.4067097 3.5967543 12.035917 -6.927389 4.8424344 -8.524447 1.8893385 -4.6326385 -6.9581213 -2.75493 9.501925 5.444776 -9.008628 -1.124423 -1.1059045 6.31343 -2.5043147 -1.3902578 10.510563 7.1613684 -3.6916714 2.1244028 8.613363 2.1523602 -7.486317 -3.015435 7.507404 0.35966784 1.8221096 -2.709915 5.784641 -0.38019782 3.338602 -2.1129208 -5.9802246 7.752763 -0.23060593 13.064503 11.362313 0.29180548 4.821439
2305 -0.8817636 1.335026 4.5654616 -3.721094 -5.201405 3.4890592 -0.058074 -5.385399 4.238675 0.5694937 -1.779936 -9.579144 4.9846225 0.6571842 -2.1622176 5.5629144 -8.181606 1.9539202 -2.1018405 0.89199555 -3.7473454 2.2561505 1.0352031 -0.3593281 6.9293747 8.201175 1.2467549 -2.7966986 1.2725335 -0.04845579 -4.009186 3.9086828 -4.368239 -10.055829 5.276189 3.563181 -5.252956 -2.8029923 -1.7809036 -6.6011734 3.0344162 -3.4313164 1.3546046 10.847437 -7.588165 1.6340669 -5.5926704 1.600772 -4.5750117 -7.8484154 2.0966325 3.9280317 3.8399694 -2.6919067 -2.2602448 5.9558277 1.5854323 3.1729286 2.3837328 0.8072629 0.30712354 1.7394733 2.1345007 -3.0234616
1690 -8.950888 0.8690467 2.0316994 2.3484395 -1.0373747 -1.7420641 1.5319532 -2.008061 1.1902272 0.52592987 6.120732 -1.1774411 -1.7578663 -2.8204622 5.440263 6.0300884 1.6114777 -0.19668598 6.5216627 -2.7131367 1.8251234 -6.3434305 1.5115973 2.9318583 4.1537285 -0.31156933 -1.1900629 4.834413 2.5477202 -1.9926181 8.37935 -3.040482 2.9371061 2.570771 -5.173629 2.2068112 1.4667984 -1.9863019 -8.357406 0.16376859 0.024450155 2.076617 -3.4059343 -3.8040073 4.4637356 8.117972 -3.9896488 -1.3499835 -3.1315258 -0.88935435 -0.4694926 -4.714093 -5.7872653 -1.8625505 -1.0904669 2.0721588 5.745944 -2.2454984 0.50486034 -3.5266304 -2.0682092 -1.0446445 6.865107 -1.7659208
2373 -3.424122 1.2235807 -4.62659 2.1859858 1.6512837 6.3087783 1.1537653 -0.7760064 5.5950875 -6.5550714 -0.12698415 1.167471 -3.9163368 2.435868 4.389564 -5.0547333 -0.48175952 2.803244 2.7149608 -4.298734 -3.7355545 0.37463003 0.0417332 0.29258165 -1.2228738 -1.7564229 1.0774375 3.5730662 -0.9854916 2.4944973 -2.314845 6.1967764 -4.1097026 1.1688681 0.29768634 1.6400956 1.8065044 -1.7642144 1.2776121 3.6507378 1.8602346 4.82322 4.9804955 -4.6476426 0.43159363 -4.249967 -0.025358094 -1.9602379 -1.1268886 -3.5515444 -0.35580632 0.6999408 6.978538 -0.53393066 1.699853 2.4469903 -2.3922858 -4.091619 -2.2421534 -0.5253169 8.602398 -9.130685 -0.39368686 7.5578785
3581 -2.0541558 -4.7115455 -4.087276 5.0675645 0.9240912 -0.07583921 0.3131411 -5.2089343 -0.63832855 -0.7039633 1.0175754 -9.235291 -1.1695888 -4.2401557 3.3011458 -1.4390159 0.00093062996 4.537001 -3.7337706 2.5070248 1.9625931 5.4765425 -1.2467422 -1.3893148 1.9874703 2.1716163 7.9593735 -5.735524 -2.706206 -1.1740807 1.7082942 -4.0613413 1.6316767 -2.7648125 -1.7746183 -4.66537 -1.5682117 0.41822642 1.0696881 9.861639 14.61335 -0.26339272 4.182632 4.7081957 -0.2957211 -2.586622 0.1084538 -4.982993 -1.5880574 -0.0026193215 5.089835 1.2531899 -1.6294509 5.067181 -4.364646 -3.0963986 -0.45348656 3.7724526 -11.543953 -5.415713 4.0537133 3.638269 0.89177984 -1.0896645
444 1.4880942 -4.390525 -4.084987 -3.7106798 -3.8778868 3.8964825 2.7372644 -1.8303835 -4.6841803 0.7846425 -1.042882 3.1896675 0.15570427 -1.1908456 0.37458313 -1.391075 0.3683096 -2.2402184 5.66436 -7.0592074 8.051519 -6.366795 3.8066008 3.2294817 9.076758 -1.5458833 4.545118 2.959182 -5.3548117 -4.716873 -3.692002 -6.5581183 1.7694645 4.4571743 5.5019355 -5.2757597 0.62763935 1.1245378 -2.450431 -7.1331644 0.20346758 2.7122474 0.022726627 -1.7690774 -2.1695852 -0.019547611 -0.47038612 3.0357106 -1.446268 2.2333808 0.48628476 -4.5260787 -5.109861 0.7123257 0.057850476 -0.5356742 3.631702 -2.5059893 2.6556304 -1.249578 1.3263092 8.167682 -0.9948785 5.2873073
264 -3.290832 -1.1014491 -0.3438885 1.032161 3.4123254 -2.8552353 -3.3284564 3.1857696 3.8834436 -1.3825934 3.2207847 -5.645654 -5.625679 1.1053799 2.3253934 -3.5797133 -4.0259337 4.8777847 2.9980786 5.002895 3.094652 -3.1448781 5.838026 0.67684513 4.903562 -3.1488047 -4.5749736 3.0413713 3.5945828 -2.7977488 -2.288431 6.8274927 -2.7353199 4.2498374 -0.6322318 -2.7571833 4.7845902 3.1097577 -5.680811 -0.55906343 3.4727304 0.2640789 3.6090345 -6.0888867 1.3114996 -3.9228294 -4.0005054 -1.8114029 4.631193 -3.280165 5.075266 2.995987 4.845186 -3.9604807 -2.524549 -0.1184943 4.790565 1.5600339 0.29251826 4.7490406 8.775487 -3.0540304 -0.44607922 3.6072755
1431 3.9609911 -3.9034848 -3.5980473 -3.2409167 3.8890407 -0.13941012 2.4167736 -3.960324 -4.851364 -2.1636412 -1.6398959 -5.0094285 -4.9354725 0.944916 1.329571 1.073892 -2.9637182 -6.2293544 -4.50738 -2.8958545 -3.7063682 2.3088481 2.736357 3.970857 0.018812958 0.6819751 -2.5569596 -2.6397948 2.0167484 -5.4628687 -1.6088017 -3.4923143 0.9013822 2.1617193 -6.299174 2.1252043 -1.866897 3.3280647 1.2403368 -0.29758614 -6.968993 5.698023 3.9805245 -0.5840797 6.105674 -0.29708308 5.7365265 1.0612637 -2.6757176 0.1295866 1.4313695 -0.507377 -3.4214025 -2.5699065 0.61687064 3.2810123 -1.5916424 -0.6247412 0.36790103 -3.7367792 3.04389 -4.094155 -0.53612065 -5.643728
2449 -3.4619246 2.744644 -5.210698 -0.09028053 -1.0167828 3.9103575 -3.178296 4.5704155 2.1771598 -0.72977835 -0.97378045 3.669541 0.50749207 3.4244223 -0.59473604 -3.1982734 -2.836003 3.5470238 -0.07930966 3.9882662 -1.8410481 1.3803028 3.8081663 -5.2604675 -2.4270446 -3.2308986 -1.5963619 3.3486328 3.667454 1.4224832 -1.6513689 -0.17024638 -4.7401657 2.8934612 -0.57489365 -0.3180316 -1.9472892 0.053794693 -3.3812568 1.1074318 2.6622672 0.7502981 2.2845392 -3.9928608 -2.8111086 -3.8733497 -2.706439 2.9840071 -3.8250859 -1.2202382 -1.7609497 3.5720103 4.646588 -2.90215 0.70213693 -1.2357111 0.2648982 0.42462614 4.262526 2.5289552 5.0914507 -2.5034072 2.6208417 4.4370637
227 -1.1389608 1.5369349 1.6935097 -4.2580094 -2.2497344 5.160371 -0.14585291 -0.16520116 1.4023825 3.0382192 -3.1803327 -2.8745904 -1.7187624 -0.60943973 0.13175145 0.78475004 0.036090557 3.1384432 1.3762356 -2.750125 2.5893416 -3.4242563 5.397856 0.040323827 -4.6708236 -3.7935846 4.4564915 4.0154552 -1.3039559 2.5825205 -0.3870723 -3.0180476 -1.1169449 -4.91537 0.97027403 2.6257827 -4.178094 2.0506313 -8.524827 0.9921047 1.4449629 -2.8834908 -2.842153 6.156643 2.8643904 -5.3238482 0.10783079 -2.8874786 -1.3300843 -2.5855815 -2.2403886 4.2247853 2.9567692 1.8784708 1.9793335 1.9405011 -4.7376447 0.091099404 -4.2862177 0.8114183 -2.657876 4.2258925 -1.4817798 1.613721
1344 -4.7838774 2.083783 0.4691009 1.7318608 -1.3372774 7.556715 -1.3142451 6.810793 4.0685034 0.79345804 -6.278587 8.108845 -1.3104588 -3.603208 2.9207447 -5.3907785 -1.8639163 0.95326096 -7.4466195 2.0323892 7.0885844 6.1865773 -1.8442668 -2.3193986 3.4731555 1.4418824 3.9986117 -3.1612148 -1.7843682 -3.7245 -7.115989 -12.298465 -3.510402 3.8805792 3.499789 -7.1292305 -2.452771 0.16292953 -1.5131804 -6.2569485 -0.8864154 3.9810193 -5.6554747 -0.38790002 0.33137065 -2.7862988 0.8306798 -3.30138 6.4541345 -3.7627668 -1.4464098 -3.8503895 -10.146675 0.1166553 5.823718 2.7098827 2.9581566 6.3403926 -1.547053 4.316998 -7.739906 1.8311412 -3.0661547 0.9469339
386 1.3256682 2.9922345 -0.9851316 -0.5885719 -0.20368844 -3.228204 3.3334932 1.9577847 -1.9915925 3.853064 -1.1375015 -5.1562777 2.5580957 0.7419106 -1.1583881 0.4033116 3.046488 2.5997453 0.16147645 -3.7529821 2.705735 -0.69626045 1.9242866 -3.0225205 -0.6032959 -0.3038292 0.13720086 3.5487823 -0.9727831 2.978469 2.0271838 2.2909427 1.3201891 1.9405385 2.1016204 -0.2217339 -0.22386031 -3.879629 2.8480594 -2.8861277 0.22744185 -3.0973494 -1.113344 0.25302568 5.508183 5.713484 -0.053213727 5.059698 2.1037776 1.3626721 0.40756208 -0.099746406 -1.4711313 -1.7508831 2.4385188 -0.12780595 2.216402 -0.23208834 -3.0637066 0.80620897 0.79082507 1.1115962 3.855495 0.6615153
360 5.2268996 -3.0214338 -0.6735976 -2.5506167 2.16011 -1.6844387 1.6569948 6.954722 1.4376258 -1.9347192 -0.3200241 -0.09150957 -9.658577 -2.567456 0.22386657 3.8435242 6.37165 0.76133245 0.24753708 -2.6855175 -1.1237422 -0.21995512 -3.4010837 -1.7159613 -0.8470865 -2.683721 3.6050224 -6.267061 9.059241 3.3047175 -2.75971 -1.6485783 -1.7750161 -9.66535 1.865311 0.70165086 -1.1099312 0.5551405 -1.6897991 0.08206901 1.042377 -5.565339 4.0951843 2.6520362 0.79422325 4.3440537 -0.85569805 -3.5772145 -4.810274 -6.056438 -3.2044265 -0.6585241 -5.6791615 -0.65333396 5.6511946 -0.9095287 0.092287004 -5.063432 8.552643 -2.0990448 -0.45218343 -1.0640901 -4.2962375 -0.61971396
1159 -1.9690303 0.19833197 1.0457128 3.0120094 3.2550807 -4.128826 -2.797562 2.995386 3.7241766 -2.5425348 -2.0662813 -6.108502 -1.1225623 2.699181 6.2221885 2.407932 -0.95929396 0.13816854 0.06338974 7.12611 5.9275174 3.5342324 5.620567 5.314377 1.7369708 1.7266606 -3.7214432 1.7859544 1.7728279 -2.0832336 -0.5111783 5.3209825 4.4529514 -2.921866 0.60230845 -0.13467103 2.4958012 1.6778624 3.3386455 1.3563592 -4.886409 0.99591213 3.5260985 -4.654357 -1.9992756 -3.1977625 0.3054779 0.9746526 -3.055348 -4.8122783 6.4037304 1.5614313 -2.8404388 3.3949194 1.9802392 2.069829 -1.080789 -0.95089585 -1.3301996 0.42898968 -1.3805522 3.8774335 -1.9737035 4.253705
596 -3.9049835 1.3850033 1.7618955 -4.037547 -2.1755507 6.0779567 0.30539134 1.2137728 2.918925 3.331716 -2.991495 -2.938954 -0.98765236 1.183274 0.23943704 1.041328 3.9810421 -0.15656283 1.4336917 -2.1585915 2.0776713 -4.6454506 5.938462 1.5559632 -4.51098 -2.1087263 4.4324546 3.1086752 -0.66753954 2.758202 -0.12509164 -3.2891738 -2.8977742 -5.056972 1.1326859 1.43754 -4.042826 3.0041685 -10.602196 1.7206393 1.3404781 -3.2256446 -3.6613686 3.8069017 4.607375 -4.5352573 2.460203 -2.5906522 -1.7864511 -2.724863 -1.5353366 1.407059 1.682699 2.2642004 0.8466228 1.9845531 -3.4952972 0.442899 -5.593977 1.5346814 -2.1523516 6.0652976 -1.9021169 1.023282
3083 9.0989685 -1.6632569 -5.203258 0.28510255 0.80026513 -4.3800945 -0.45358506 -9.906729 -1.1860756 -2.1017203 -0.7362326 -5.7299805 -0.10805848 1.8078672 -2.5759606 -6.230436 10.847188 -3.8652012 0.21705826 1.398468 1.6870348 -1.8939191 5.7799115 -4.6942024 0.39853948 -4.137913 -0.5714392 -6.5451035 1.445944 2.4441743 -0.9294025 -3.740249 -4.941393 2.5943959 0.415062 1.9268203 5.5920663 3.777265 -2.431403 -0.124927886 -3.6442368 6.6926017 3.7537713 -3.1889737 -3.8845224 1.0488524 -1.5322748 3.0057592 0.5451108 -2.3538594 -7.486574 -3.2288852 1.3522372 7.696136 -1.0004519 5.628493 -0.14376837 4.890435 -7.645965 3.3798602 -4.1557174 -7.919064 0.8725077 -4.194114
637 -1.8359832 4.1871066 -2.7309394 -1.5752075 3.184662 2.4978023 0.1691815 -4.3078713 -3.9526374 -2.3174932 2.6061773 -7.2063465 -3.9813144 2.8674214 -4.006775 3.343489 11.929013 -3.2962859 -3.5031419 2.0961277 2.714519 0.48980704 3.6316087 -0.944632 3.3376834 -2.5934985 1.7723455 -6.9527345 -1.2097532 -3.8102202 -0.71882045 0.012484882 -1.3704455 0.14108674 -3.2718925 -3.9585419 3.863008 -0.8430093 -3.1921504 -1.9107327 -8.853573 -1.0663108 2.978092 -1.2714655 -7.4662166 0.3854027 -1.1233443 1.2134165 -1.931549 3.2205765 -6.083504 -4.987884 4.5743537 2.368187 -3.619686 2.907492 -0.36631006 4.1136394 -5.035404 1.0720477 0.15109086 -6.0150566 -5.101698 -3.5646276
2584 -1.152241 -5.9649787 -3.842435 1.0884842 0.5277995 10.21467 -3.6700943 1.9180545 -3.2700317 -7.0132947 -1.8614138 4.7037377 -5.7861648 -2.0078878 -4.1256266 -5.892815 0.89104706 1.4105767 10.306359 -0.7190559 4.700438 -0.43663886 4.436182 6.9098835 0.23483442 1.9972286 6.2137003 3.2630546 -4.2103443 -5.2904534 -5.4341135 -2.905155 4.7109756 4.0605645 4.137223 -1.4255195 3.0487747 0.18082026 1.5378649 -5.5170665 0.42197496 -0.86642605 0.75118417 3.11906 1.5838317 1.3027421 -2.1595228 3.3315606 -3.4885864 0.7761216 1.3959755 -0.39008468 -1.6488783 1.6386259 -0.96187866 0.9770407 2.3333714 -0.4739734 1.6504316 -4.1073093 -3.3345385 9.11179 1.202369 0.031537097
3265 -0.7093839 -8.384618 -0.12741457 -1.536989 -2.947746 -3.5851822 4.1185493 1.9853426 1.8995782 0.37252536 2.0451071 -5.431369 0.88441133 -6.929123 -1.8467435 -0.8508641 3.367508 4.351699 -2.3768814 -1.6007655 3.5491018 3.8379486 -0.36301506 3.6989498 -1.3898243 1.7155588 -7.385598 3.0929294 -3.4118507 -5.1363244 -0.11591142 -3.636553 0.7101558 -1.6768687 -3.8081682 -2.8659265 2.513032 -0.9700157 0.7524416 1.9312646 0.73263824 -8.072031 0.88292855 -1.3461577 -2.4807994 -4.6096992 -3.633921 -2.0239859 -3.4392166 1.2500753 0.8732661 -3.741762 3.4042037 0.7940917 0.6643576 0.115859196 -9.554687 6.197994 -4.9079733 -5.2596893 5.0020175 0.3944446 -1.374371 2.3988125
3881 -1.1903995 -0.34781379 1.3801624 -0.7131262 5.7950754 -0.9535855 3.4753978 2.9993367 5.868319 -0.53063715 -0.4186778 7.3986454 -4.169165 -2.366189 -1.8213689 -2.9851813 3.6386898 -3.0493152 4.35395 -0.42536405 -4.1182513 -0.5103911 0.026296379 -1.3723755 0.29533657 0.5804994 -2.2646952 -3.8697333 -3.7524333 1.3090978 2.7281337 4.4385233 -2.4394543 0.5878153 3.9844818 1.7929971 -2.9185383 -1.6316737 2.1518414 -5.292243 0.8760277 4.2605085 -1.779812 2.9449904 4.9836593 0.8774316 -2.9923224 -1.9940255 2.3271036 1.2161186 -1.5994594 -0.43874377 -2.9111173 1.334763 -2.0955703 -3.6717927 -4.2805705 -0.3523266 2.2793791 7.773838 -9.617868 -1.0380015 -4.311216 4.4276714
354 -2.876959 2.3473232 -2.2711642 -1.6912719 2.677004 -0.2873589 3.2911277 0.8469309 -1.4371407 5.8563333 -0.03743362 -5.440925 1.0105305 0.43796828 -0.769173 -3.1789095 4.742635 1.7968483 2.2200592 -4.7934704 3.3779516 -2.312901 2.6588316 -1.9648678 1.5597051 3.5318615 -2.3264234 3.7379339 -0.00026468834 3.0612023 0.8126251 -1.9553626 1.2213417 1.3839277 2.9970655 -1.804843 0.12722866 -2.776629 4.42483 -0.3266399 1.0570136 -1.1014527 -1.090921 0.891243 6.2489285 3.0114546 -2.806445 2.9741502 1.2379502 0.82978994 0.21687354 2.5960324 -4.684311 -0.7063589 5.5555015 1.4035302 -2.5386264 -1.2501699 -1.6659106 -1.076925 1.8437301 1.3103241 4.379112 4.2162313
1418 -0.92447925 -3.4722443 1.4630513 3.095221 5.3082247 -0.11261753 2.2065954 -0.1182201 1.4331243 -0.17304964 5.3639503 9.060236 1.6883266 -3.0521705 -0.510482 -5.986523 2.6423662 -3.286338 4.567393 1.4030241 0.2346298 6.0827537 -0.107802205 -3.2800577 0.5896215 3.115877 -4.066505 0.35519704 6.6490955 -0.7553456 4.480616 3.781963 -0.5645624 -4.011132 2.3323963 1.8539529 -0.5619302 -4.636621 4.346352 -5.222892 4.615775 2.2394645 2.0067856 -0.9743928 -2.3387609 0.771895 4.4638195 0.03512811 -3.5583153 1.8570685 -3.7791405 -6.026961 -0.8814881 1.9190401 -4.9234233 -2.5283747 -3.4773204 8.3253975 -6.0454645 5.3126855 -6.259433 -0.77073085 4.55632 0.26530194
2310 -4.1525273 1.4639045 6.11914 -1.694565 -3.880699 3.5526133 0.27166972 -4.2022033 0.49420068 0.7800702 -0.689438 -2.4166 6.427933 5.4716363 -0.29770508 3.2945628 -5.6172104 1.3923534 -8.627294 -4.4406776 2.6015866 -5.9135156 -6.89935 -2.0088375 7.6831794 -1.8845828 1.5557089 -4.6765995 -2.6844816 -0.023415672 -0.9196414 2.669885 -2.373785 -6.714911 -3.0603533 2.8904905 1.2593575 4.556156 -5.9141703 3.0075946 -0.2871444 -2.9037051 2.1688344 5.1301703 -4.3134637 3.019758 1.0438595 -6.4720583 2.014848 -0.309285 4.912712 0.36205378 -2.680185 -3.5464675 -5.6351237 3.0935607 -2.5272868 1.01382 5.6245785 0.96833426 1.6272638 2.4410632 -3.4466567 -5.0846977
3638 -0.7454668 3.7266707 1.8692936 -0.8626432 0.13876987 -1.6671786 -4.7328954 1.1487925 0.27928802 -1.7633883 -1.1073598 1.0543857 -1.8910887 2.0337064 -5.3116217 2.1541724 -1.5322382 0.949203 1.8744419 -3.659562 2.675596 -0.66123277 -1.5650604 0.52728915 -3.627034 -5.9056745 -1.730701 -2.1791272 1.4887397 -1.2807595 0.520051 -4.791841 -0.88801515 1.4672619 -2.3310118 3.1108704 3.7311041 0.55343944 -0.05351197 -4.537322 -2.3876789 4.167096 -3.877394 2.6479194 -7.2212143 1.3708112 -1.116738 0.45525235 -0.97305393 3.1724637 2.5454824 -3.585271 0.24695934 -3.018721 4.5584264 5.2595816 -6.522223 -2.0831048 0.32479382 -1.4058646 2.5753815 5.174913 3.9548736 2.164662
3530 -0.59410787 1.549554 3.4497495 4.254914 3.2336972 -4.133153 -1.5294095 0.9809462 2.2904665 -2.4230227 -0.8334599 -4.1919737 0.021050032 3.7078826 8.336848 1.2583821 -0.5270348 -0.13473754 1.2193267 5.9859324 4.4697404 4.6621566 3.7467973 4.750382 0.749387 -0.46485656 -2.3518696 1.3070312 3.4611552 -1.9907148 -1.1832991 3.7585936 2.9850087 -2.4446325 1.0631411 -2.5143332 1.7158165 1.0973288 1.7686713 2.8569818 -6.8618207 0.8923481 3.0531132 -4.907291 -2.4470735 -0.07852825 -0.91043764 -1.2236562 -3.4117093 -4.1927857 4.071265 1.5817884 -1.601544 3.462811 1.8913251 2.0038455 -1.5877497 -0.021704195 -0.28855088 0.18443783 -0.94213027 4.274445 -1.2154926 2.0895584
528 5.66605 -0.49019784 7.4778867 -0.8762992 -2.9790547 9.002025 2.104654 -5.0145354 0.236889 -3.3241115 -5.246142 -0.08464018 1.2117449 0.13351622 4.3712096 4.5953393 3.5222533 2.4869556 2.3884318 6.201353 -4.201807 4.589218 3.6162925 -8.778332 -8.244419 8.607037 -2.9781456 -2.989265 6.6771145 -0.11377192 -3.65896 6.3014946 3.7816951 -2.3250751 -6.28576 5.235041 0.25437698 -5.154259 -3.3398762 -5.1580257 -0.9426819 -2.5994248 -8.634983 6.9020543 -3.1300247 -1.9253464 8.3166895 -0.061624426 1.8387578 1.1217475 1.080357 -6.6013656 -11.153736 7.1220145 1.9986472 0.8802862 -1.0571398 3.47495 -0.39502564 3.6854632 11.29075 2.713614 -0.189221 5.4825945
2424 1.0990692 -3.0224674 -4.147393 0.19945122 -2.7971716 5.4651155 -1.2679332 0.23322406 -4.265855 -3.732076 -4.7531843 3.0193226 -0.61430746 -1.1139029 -3.537541 -2.26423 1.885957 -3.1973803 5.419387 -1.0980631 2.3994703 -7.069689 -0.69274354 4.1101465 4.9118648 5.3763337 2.7704957 2.898728 -3.2456205 -3.3854558 -2.5769389 -7.703609 -2.3902507 0.87744945 3.5109591 -6.87783 3.5371888 -1.1925454 3.171132 -0.3003355 -1.4214847 2.406295 5.0161605 -2.9242082 -1.6610285 0.5059763 -4.287052 1.9677976 1.6012328 1.9471623 1.9168221 2.5226157 -4.6143427 2.9436681 3.037035 2.1690674 2.0764575 1.3344828 2.45017 -1.8505028 -0.97247887 4.904874 2.381218 9.012181
3091 -3.733999 -3.5698774 10.225734 -1.191473 -7.6164775 3.716439 2.5960505 -2.5929189 -3.2569146 -1.3916465 -3.2824993 -1.0861734 7.5035243 -0.79378647 -1.9991472 -3.8830068 -6.7535715 0.4534555 -2.4914334 1.5307002 2.0056782 -5.9251575 -2.2717478 -2.763518 0.017070202 4.52276 0.67346495 -4.4165373 6.2813044 2.568122 -1.2741449 3.617598 2.7081473 -6.302294 -2.0692585 6.192787 1.7447021 0.51046515 0.47491178 2.104191 2.090441 1.0018139 0.9792098 0.55793846 -1.4073299 0.44822147 -1.4829127 0.1078451 -2.5977175 -1.5414798 3.19668 1.9863466 -0.037039008 -0.006560282 -4.3586683 0.26104406 5.5665283 -0.9510961 2.6609483 1.6765137 0.88269967 -1.2815635 -1.5844041 -2.916573
393 -1.9858606 -4.0520678 -3.8901296 -1.5589356 -0.26722682 7.2565713 2.2111511 1.4427444 -4.3462553 -4.3365526 -2.0127885 5.2353425 -3.4075325 0.10648943 -4.7459564 -1.4295611 0.51722085 -0.13761865 3.5139987 -1.0411355 3.4181964 -4.4147058 2.2453516 2.982098 1.1953099 0.39869967 3.3446474 0.9400481 -0.9201635 -4.810007 -3.7159278 -4.7033434 1.6676992 3.2724767 2.048748 -3.704629 2.4906883 2.841515 4.063046 -3.0859323 -2.7696898 -0.954344 2.686975 2.9519875 2.0518358 -0.10181199 -1.7366467 2.239745 -2.3209615 4.780459 2.982706 -3.3524292 -2.1706712 2.49026 0.88497 -1.2336808 2.3423765 -1.1106077 4.061001 1.6968888 -2.0609927 5.209647 0.1769684 5.4784307
3579 0.40548742 0.4507351 -7.1935844 -1.3514849 3.3340535 -1.4935639 4.3820734 -8.435261 -3.8342834 -1.6177632 -2.4471383 -8.868083 -4.9622993 1.580373 -2.2365165 0.2264665 7.9774084 -8.297853 0.29202878 1.6851715 -2.9995499 1.156112 -2.0299335 -6.007749 1.6810604 -6.30265 0.18041018 -1.6440996 1.012245 -4.8822327 -1.9168103 -2.35868 0.8996178 4.647034 0.18667236 0.5732013 -0.2952074 3.701124 -4.477184 -7.055754 -11.702747 1.4577553 0.8009142 -2.9356396 -4.108665 0.32990208 0.8921844 4.0412755 -0.24641536 -0.8247684 -7.7771096 -0.7347247 0.17479324 0.7742593 -1.4743389 4.2321706 -5.8583 3.6693525 -4.686288 -1.926972 -2.0933774 -3.0397203 -3.786928 -5.7658696
3619 -0.09178363 0.6952622 6.092235 -3.0881443 8.263627 6.494771 -1.3663093 4.6266537 5.5772643 -2.134007 1.7146202 2.927179 -6.197418 -7.1803823 -2.1102936 -3.280901 -1.4629698 -1.681025 -1.6527568 1.077069 -5.1709595 1.9697987 -1.8682495 2.8014157 1.4944909 0.12837885 -5.0058465 -3.7462788 -2.4615712 2.3425078 -0.70978993 -1.1799166 -1.5656135 -5.740308 1.6482519 5.142207 -5.550865 2.038508 3.15482 -1.2333459 2.1783211 4.64513 0.70000553 -1.6426275 1.9688677 0.8090935 -5.695787 -1.0559946 -1.4289328 0.54173195 -4.613421 -4.515034 -6.6808386 3.451283 -4.303751 0.6985504 -9.608344 -2.5183046 0.2527067 0.117268234 -3.4105504 -1.2775422 -3.8860621 -2.6001263
1139 -3.0281212 0.41934836 2.677157 4.24226 2.2353082 -2.570499 -1.7522901 0.67748624 0.44408143 -4.121266 -1.5385598 -5.7173624 1.8752419 0.22832744 7.151624 0.80296606 3.1075666 -0.115199484 3.6119843 5.1185613 3.9931974 3.0258183 3.43755 5.9664745 -1.759652 -1.3917124 -1.7684394 4.270422 0.82832944 -1.408564 -1.3691242 3.4419134 0.14726198 -3.9408095 -0.57218605 -2.0308814 1.6227129 0.56610125 6.331224 2.6850405 -3.6018405 0.40222663 0.9548999 -3.4774427 -4.867497 -2.9223266 -2.1953163 -1.8259801 -3.7451334 -4.9672112 3.889825 2.2937374 -3.5470686 3.909108 3.0492969 1.6297863 -4.678138 -1.0397019 1.0392299 -1.0311981 -4.030534 2.577687 -1.8575804 4.6030746
1904 5.899826 -6.4556785 -6.6162934 -1.0679592 3.144017 -2.2649596 -1.0925804 -6.5407734 -5.64888 5.411856 -2.5769837 -1.8693843 -1.7277404 -2.1116288 -1.0940703 2.582714 8.366077 -4.6350045 1.0718912 1.2908441 -6.0936446 7.639046 -4.123667 -3.2498987 1.7328206 -4.1712365 3.566009 0.9129439 0.043687597 -8.221768 -3.1108522 0.89545774 -0.64193964 -0.7797719 -0.033230696 -4.6409116 5.452055 -5.0430655 -0.9670422 0.14450313 -3.6751604 -10.167671 4.2582145 3.830479 -0.3790796 2.9058392 -0.93699604 0.81327707 -1.2268502 0.879704 -2.5689383 -5.1542826 5.5213094 -1.1406984 -3.2265875 6.246035 -8.963354 1.0714636 -3.0228555 -2.4586515 -0.36178374 -0.45248234 -5.718019 -2.174633
3135 3.2840235 -2.543883 -3.3208218 2.061706 -0.67862856 10.5307045 -1.1329521 1.2543578 -0.37734428 -2.2644892 -0.054006677 4.0067725 -6.5344152 -0.4457082 -5.1772523 -2.4203513 -2.7415237 -4.9356413 3.3370588 0.96105283 4.478017 -6.5519705 3.4473653 5.9193063 -0.32119045 4.5740004 5.538876 0.90678585 0.22170952 -6.5315137 1.6531622 -7.708622 2.8521378 0.43208086 4.72753 -6.1315784 5.0815296 1.7869644 7.03161 -7.2477694 0.3236914 2.812673 1.1801715 -0.29283917 2.641514 -0.44327027 0.2325185 1.402445 -6.117445 -2.7250063 -1.6745082 -4.3708463 -1.3671651 2.5553544 0.7119902 -4.4472814 0.48131096 -3.4717848 -1.7319015 2.981162 3.8660507 9.644683 -0.498979 1.2337167
716 2.4583642 8.130779 3.7016017 -4.2896156 -7.010976 4.024184 0.5853571 -1.4798783 -3.7899685 2.5503983 -8.789631 -8.924802 5.0601225 5.4475102 -3.2615879 2.9333258 1.1880981 -6.496344 5.4896693 -5.291159 -5.5701528 9.1752825 -6.7717686 -2.9549713 -2.1516109 4.096643 1.5934105 -3.1168077 4.376447 2.3389373 5.9827747 -2.940731 -1.4351594 -2.8585687 0.6560049 5.9286227 6.429073 3.3157055 -3.821722 2.0671713 -0.6104946 -2.0187514 10.117102 -1.3053737 -4.5154 0.14317152 4.5152574 -2.0120578 -5.225882 3.6076376 -0.6105984 -1.3123169 5.537429 -0.83048993 -2.3525863 3.625896 0.7977159 4.6236506 1.9756343 7.1421437 -7.135687 -2.4503698 0.44451043 -1.8280001
2860 1.8445601 -2.2410169 1.0481086 -0.44413015 -1.7421923 -2.9303308 -1.5203847 5.4757934 -2.8431206 -2.6911895 -2.1518228 5.074526 -0.5384822 6.3577294 2.8478682 -4.289724 -1.345381 2.9840636 -4.5502167 -5.2353287 -7.0344954 -1.890778 -1.6934628 5.556242 4.8776383 -0.8256061 -1.9215248 1.4269211 2.1032932 -1.4271994 -0.5446412 2.3990483 2.089102 -0.28127286 -3.4375691 3.6225386 3.1264648 -3.8389096 -0.9266055 -4.0191026 -4.362806 -1.6326783 -2.1293316 2.9404163 -0.9679926 -3.5482342 -0.28053886 1.6806312 0.30845058 -1.5645822 -7.0449843 -0.54133564 2.8624067 -1.4260114 1.9361354 0.3658595 0.45613688 1.0285906 -2.133371 -0.5409198 -4.255298 3.2889516 2.8966262 -3.0235987
2067 -0.44541714 -0.08951061 -1.8629711 3.8916748 -2.8720276 5.5324078 -3.653929 -2.42413 -4.439438 2.6475098 -3.763898 -7.8255033 -2.4833798 0.18067633 -0.06934452 -3.4738321 7.0657673 -3.640015 2.802219 -3.2262378 7.7360954 -5.0184903 0.4690876 9.582483 -8.840045 4.3905244 -1.9512674 -0.7759475 -7.2029457 -5.1848207 0.07140052 2.0280445 1.6825159 3.7415001 2.011677 -3.954751 12.510564 3.327674 8.320015 -5.1418433 9.0759945 5.0748105 -1.1737258 -2.9966767 1.5119923 -6.2624073 -3.4576755 -9.752358 -2.2291923 -3.5167625 -5.455599 2.5217903 -4.5383196 -6.556923 -0.7257032 -1.3703594 -2.2988884 0.9842938 1.236707 1.9396304 -3.878132 -3.0128605 0.19487527 8.185338
516 -0.79171985 0.48779267 0.5565089 2.2196167 3.137391 0.8176649 -0.18728516 1.9500774 -2.4073343 0.27746513 -0.44986406 4.548497 1.2939107 5.464016 5.3534436 -1.0419432 -1.7212392 2.6062486 -7.04229 -1.5822828 -9.413969 -4.724816 1.5690372 7.7477164 1.6111832 0.9948744 0.9813528 2.6070492 2.3303723 -2.864265 -0.13978313 1.0631708 -2.8668804 -1.0021143 -4.056435 0.9063928 3.2653804 -3.8825243 -1.9543043 -1.8433028 -1.1922706 -0.6432551 -4.677996 2.6359913 -3.4083557 0.3418455 -1.6852938 0.91422075 -0.8463577 4.0595922 -4.0196037 -1.6383852 1.4242834 0.8837676 -0.7553038 -0.81356764 -0.047133222 2.1065602 -2.8452442 -0.023437886 -3.5706487 1.5007175 4.0914583 1.0348622
935 -3.7059193 -2.2967563 2.8061347 -8.051534 1.563957 -11.590417 0.77149177 1.334806 0.0035529258 -0.36820722 -3.97471 3.6999145 3.7166374 -1.2156031 3.3895695 -4.5092835 -0.75150937 2.3912349 -1.216591 -3.3205204 -2.5522778 -3.2698603 -0.9638797 -0.748134 -3.7963376 6.7372794 0.038238775 3.6667662 4.127188 2.2408707 -2.5403912 -8.440082 0.7021741 -1.1201674 -7.345912 -1.1564528 7.7384944 -1.0017868 -1.9096581 2.1818354 2.7938373 0.5387467 -4.484273 3.9262753 -3.152821 -1.8310128 -0.01409602 -4.5249214 -0.16959937 2.9281821 -0.9371725 -4.445486 3.3293116 -4.1440177 -0.8887738 -8.93535 -4.7746935 3.7623055 -4.5565667 -6.548852 -0.4250832 1.6935506 -4.887256 10.007937
564 -4.4564247 5.072684 5.3881993 -4.3878393 7.2456684 0.054139182 -1.2754356 -0.7832765 -2.834624 -4.343364 4.29269 5.037999 1.9984435 -2.783547 -0.6854853 0.077904716 -2.2752368 -5.4071894 -0.484786 -1.4128426 2.0047095 -1.937252 -1.9286035 0.12179758 1.8994547 2.118634 -2.5657578 0.6263833 -9.873161 1.6871504 5.1109686 3.3217628 -0.37458745 2.759099 6.48262 4.239829 5.642164 0.13093576 3.2370844 -6.517158 -1.8585873 1.7447101 -6.746625 -1.611896 8.83767 0.15800655 -3.7847033 1.2387135 2.735007 1.0111879 -0.7582091 -2.6228094 -2.3124466 3.946854 -6.061111 4.8157353 -9.150608 4.863514 -3.5089483 1.0313646 -3.5884898 1.8473746 -2.6407108 3.1534626
797 -4.3768983 0.9795174 0.67727053 0.49479267 0.19105542 0.8126532 -0.18870293 -3.810094 -0.73735386 0.5985017 1.2117943 3.4846487 -1.4078914 -1.6931968 3.8815765 1.2978901 2.5173557 0.2070655 4.2311106 -1.7102131 -2.2498903 -0.66356725 0.089964926 -0.4554614 1.4496715 0.44530067 2.1864734 -0.32288387 5.299315 -6.6642237 5.632873 -4.015576 -0.4399668 1.2825345 -3.831192 0.5965836 0.084396325 0.55923045 -5.8728714 2.474068 -1.011832 0.22200504 -1.3806267 -2.9682817 0.17090449 2.7886226 -1.2018647 -4.557491 -0.53409195 1.9554639 -0.68904734 -1.6404425 -6.263883 -3.2540038 -1.6260209 0.89363563 1.9126561 -0.24997988 -1.8192726 -2.9731476 0.19528084 -0.9227148 3.8324254 -1.0867329
211 -9.346449 2.6964357 -9.603333 3.6205986 3.89263 -8.786981 -6.7706003 1.6648792 4.3069797 2.2864945 0.10290665 -2.5610278 1.6194955 3.6161048 11.155673 4.373894 -1.6389998 -2.2390995 -9.775413 3.2757022 -1.9319739 3.4373 0.44114205 -3.4359915 -8.468682 0.4242822 -5.1047707 6.190927 -2.4641676 11.905197 -5.293959 6.521427 -1.8442297 11.314282 12.941314 -6.0362587 -5.5317287 7.391917 3.948136 0.18540007 -2.85715 9.487321 -0.9817086 -1.2365292 0.39548266 4.485268 -6.4176364 -9.076943 -3.5453386 -7.5171137 -1.8861237 2.6733723 2.7418556 3.6182666 -6.5072145 4.302702 -1.0446361 -7.1962023 5.6933904 13.522926 4.7616644 -0.302409 -3.6719651 7.155499
1548 2.8955345 -0.3706839 6.8277397 2.2453294 -9.302952 3.1367447 -1.1232526 -6.06005 0.76492894 2.6749237 -1.7092756 0.3001294 8.183098 6.5989294 -0.013984413 4.7206645 -6.7963953 1.9766701 -0.93781704 1.2201022 3.2319396 -0.92794424 -3.430775 1.9016323 2.0042093 0.75656015 1.1269716 -2.3306277 3.5757194 -0.26491627 -0.53418434 -1.316047 -5.67919 -3.859921 0.51920587 7.3625484 0.5777894 3.0896928 -0.3992038 1.0767276 1.9229296 3.2288616 -3.362623 7.2079253 -2.7689536 -1.6818191 -4.226736 3.2031503 -1.9690927 2.1433067 3.6545095 2.2947156 -1.9573246 -4.6679606 -5.426176 1.113575 0.08851906 2.3771458 1.1781806 2.7906067 -1.5979357 -3.3606696 -0.42344743 0.39443544
3392 -0.520137 -3.4049683 -2.7201111 1.7840642 -0.29863626 8.258919 2.555004 -0.08134389 -3.842548 -4.122495 -2.7514513 3.749379 -3.7200503 0.36771196 -2.6360884 0.75961846 -4.1157975 -1.8986205 4.5584583 1.4779879 3.2132797 -2.0849876 -0.5218388 3.1596766 3.138782 1.5818058 2.6680315 3.8308744 -1.274674 -3.8918984 -4.7313285 -5.205236 1.7492006 1.3529196 2.9839077 -4.648687 3.4084063 0.371512 3.3430102 -3.508419 -0.122096 2.075165 2.5920846 2.2903156 -3.150873 1.0540594 -0.8749597 -1.3766755 -1.3142874 4.2177677 1.7745782 -1.428002 -4.30357 0.29687282 2.7190778 0.39816284 2.8073637 -2.5308104 2.384208 -1.223864 -0.7709746 6.9801383 -0.32560945 3.7337158
1142 -2.5375302 -0.18386708 4.5108466 3.3061705 0.7998868 -3.827372 -1.805162 0.95789784 -0.7878433 -1.5183239 -0.040435046 -5.7984877 -0.08557972 1.3371977 7.4393654 0.1473321 2.7852862 0.073404275 2.3365836 3.3894653 2.8708186 0.7572601 1.285131 3.9079993 0.8991108 1.4014485 -2.2323887 3.2403302 0.042554434 -0.8288926 -1.261664 2.5393736 0.7249251 -1.5277283 -1.0933388 -1.5067964 1.3407009 -1.4357083 4.1836205 3.2126048 -4.0238147 2.18935 2.4937892 -4.1688704 -4.1838293 -3.0356433 -1.6835251 -2.241186 -3.914485 -6.2757816 2.4160838 0.17050707 -3.1518483 3.9654932 4.3189697 1.5615898 -5.569787 0.84364784 2.0217814 -1.3910387 -2.6283035 3.0600786 -2.5716312 4.4271903
2126 1.8133545 -1.7638758 -5.4905987 3.2336755 -2.568152 6.347265 -1.339986 0.073941536 -1.8262578 -2.9047883 -4.911265 4.041269 -0.7814866 0.17408477 -1.2851914 -0.23798811 2.086189 -0.46647432 3.7883189 -2.1777394 2.7848856 -6.578477 0.95410633 2.219566 2.766323 6.414191 4.15745 3.1476066 -5.4790263 -5.390845 -0.8696204 -7.1378255 -0.7390819 1.466509 3.0192392 -4.699065 6.4350796 1.66749 2.4630556 0.75454056 -2.0467234 2.6204493 3.1095798 0.60815185 -3.5594213 -0.499529 -2.993235 2.4877594 -1.5779186 1.6709458 3.0430098 0.8523403 -3.2496283 0.8999463 1.1924455 1.1079707 -0.22251287 -1.276948 1.9735013 -3.8313088 -2.5003119 4.620581 0.500716 10.325998
2821 -3.680721 1.0222379 -3.6323123 2.4216895 6.3097134 4.179897 -2.1488018 -1.6360769 3.0283945 -6.5871825 0.127486 -4.772027 -2.0133312 -0.06791567 1.6306105 -3.5721843 0.47462514 4.1561275 6.80874 3.6430407 -1.5991292 1.0263094 3.231133 3.025547 -1.6674432 -2.3949559 -4.476422 7.818947 -1.5251197 -1.8204049 -0.77512085 6.1190643 -2.095563 2.4911468 0.5497975 -2.8373282 0.6655189 0.4447845 0.4032273 1.6666334 1.2502291 1.3866858 4.026538 -1.660351 -0.56910926 -4.4183264 -4.288857 0.6208318 0.06579939 -2.1295938 -0.35591483 2.9373703 2.2315874 -2.1541243 -3.0290458 -1.6193821 -0.3753977 0.17552982 4.772566 -3.2890012 3.45924 -0.9085526 1.0373299 2.9516807
72 -0.94084936 -0.50551206 -1.352187 -2.384157 0.123248234 -5.2501373 3.926814 -0.038408466 3.571852 2.6084175 0.7844245 -7.1693254 -0.077754624 0.84897566 -1.7763814 0.8766175 2.108457 3.5496528 1.379523 -0.5238634 6.350342 0.4367966 2.3010943 -1.5387666 1.3351847 2.5762935 -1.9660809 5.8871403 0.50488174 0.40313935 2.1711245 2.8680866 0.14434475 1.0862246 0.8482615 -4.54171 4.2075543 -2.5909338 5.278078 -0.24084423 -1.5229756 -3.8345416 1.2319534 -5.659053 5.4505415 -0.37497213 0.22270402 4.8112926 3.1417475 -3.2213297 1.1184032 -3.2442687 -3.3291922 -2.2994406 0.5102327 -1.4582435 2.4731584 -0.9106502 1.2769111 0.5031201 -1.1130939 0.8035203 2.4638515 0.5929116
807 -8.47959 -5.7430124 0.04522866 -2.9621696 2.0495512 -3.32439 3.1444354 -1.7390977 4.5775247 0.27531093 -0.2958945 -0.94512534 -2.8758502 0.086833276 0.9794161 -0.18590194 3.729058 3.8334143 8.378478 -5.6765995 -1.1395074 2.8992813 2.4597573 3.3440068 -4.863186 6.244727 -3.4013166 -5.4097815 -4.6406174 -3.8265274 -3.4995265 4.2455378 -3.2564197 -2.3010123 5.7638407 -7.571652 9.063567 5.6463494 3.122112 -4.4383926 -2.7611914 2.4422815 -6.9753065 1.5667942 2.5113523 1.7497944 2.0518444 -6.888619 1.6697903 -1.2795476 -1.864671 1.1083748 1.1933643 -4.558321 -3.1194503 1.9627703 -3.5405223 -3.0313227 2.3146288 -0.4743091 -7.497055 -3.5488694 4.3808427 -1.7277671
3609 -2.380432 -7.9496245 3.649849 -3.5466952 -4.6061163 -0.3801883 -0.58875275 2.9686775 -0.051721435 2.4519556 0.34163272 -0.37139395 -1.5740659 -3.9057791 0.19470592 3.3924592 2.9041617 3.2475848 -2.27049 -4.9796233 -1.2165612 1.2219347 0.92444575 2.4028254 -2.0547204 -0.03680513 -4.1779647 0.36244008 2.1609442 3.9991527 1.9597435 -6.715659 -1.1763924 1.058524 -0.9440486 -3.7179582 -2.0411448 3.08764 3.3688574 2.0726273 4.3468914 -1.5710199 -0.5450483 3.2460425 -4.844566 -3.4295948 1.9217354 -0.9206054 -8.558795 -0.00978759 -2.9469478 2.1269643 3.8405612 0.5009879 -0.71610135 -5.100415 -1.847789 3.7332206 -4.758897 -4.4782333 2.6947129 1.4304672 0.35354108 2.2585344
2118 1.4977822 0.5594325 1.2033962 -1.0399282 4.991489 2.401687 0.6581261 2.055578 8.456519 0.45298555 -0.42323506 5.0114098 -2.8804216 -5.6685023 0.25634545 -2.1193163 1.7181586 -3.244787 -1.0090495 0.0882828 -1.0157384 -0.75963366 -1.8421323 -0.08074674 0.47158912 1.6331435 -2.1173131 -0.60754156 -2.8384423 1.6050797 2.0591533 1.5977881 -1.7264395 -0.6558672 -0.10072597 2.5353923 -0.94942874 -2.2825477 1.5149423 -2.0864875 0.99054277 4.307471 -0.05100963 -0.0002992685 -0.25651136 0.87093836 -2.6016736 1.5408881 -2.5916922 0.8047067 0.40312713 -0.19401096 -4.334569 2.2396374 -4.159254 -3.3681698 -5.4355845 0.61432374 -0.41315207 3.4390676 -5.297647 -0.10843364 -0.6580504 -0.50480086
741 -1.6761892 -2.6823397 -4.8295674 -4.490907 1.7206244 -0.49688917 2.5696137 -5.932104 -4.769384 2.6250234 1.1748053 -8.118949 -2.7102585 1.5018954 -1.7132254 3.5246851 5.7240024 -5.7974243 2.4685905 -5.7028017 0.09461562 0.9653734 5.314066 0.19532426 6.4082475 -2.2336247 5.845635 -1.628184 0.74442095 -3.1257634 -6.7358894 -4.3162746 -0.07490604 -0.6767016 -0.40825263 0.70442086 2.6358097 -4.5930166 -6.358132 -5.664295 -1.9464295 4.4800434 -3.6361732 -4.8790073 -7.179234 1.2254012 -5.031979 0.006668129 -3.3115017 -0.043144085 -2.4917352 -0.41888505 6.280114 5.398018 -4.769232 0.98049986 -0.35467905 -1.619941 -1.7529591 4.5186195 -3.8366787 -4.728407 -3.335899 -5.135816
2682 -8.267662 0.905186 -4.3321 -5.177873 4.800729 6.4842386 1.1591518 -6.500649 -1.8289119 -2.8513613 -5.000706 -11.077821 -7.1178346 2.1292195 4.797577 -5.432802 15.018 -1.8927071 5.2769365 -14.095929 -0.47328418 3.7936933 -1.6446235 9.184487 -6.988351 1.6772119 0.070820175 -5.843121 -0.866854 3.234476 -3.2711341 -0.17343837 -2.2518022 1.2842435 -2.109331 1.1750959 13.882799 0.36809888 5.01105 2.312276 -4.8337464 10.745655 5.1107254 -4.8591547 -3.1955707 -0.95111674 -3.3865623 3.6902075 1.9240766 -1.7884212 -6.905459 -0.9226447 6.428076 0.059469465 -0.37975022 5.073839 -8.6711035 -0.47244388 -8.311926 0.29533136 -5.9904494 -15.486099 -3.88239 -0.49538034
2185 -2.3103752 0.4377181 -0.6046555 6.9632 -1.696967 5.4433036 -0.42749864 -4.286409 -0.903503 4.017262 -0.6928578 -2.2480786 -3.2860124 1.5641457 1.6879421 -3.4091759 1.3518995 -1.3220835 -4.8332844 -1.0273911 1.3086156 -1.6059458 0.24827337 0.58531475 -7.7422514 -0.9257445 -2.603445 -0.79749566 2.4448593 -5.308976 1.6344032 -0.5240676 2.3037016 4.6953206 2.076803 2.9289281 5.6878223 1.4339496 -4.554567 2.1575706 3.5828784 -2.5031571 -2.8502457 -6.3380756 5.2944827 -0.27815184 1.0400181 -8.785587 -4.518416 -3.103995 -6.8682556 -1.9054515 -3.2875082 -4.718923 0.51160955 -4.3602686 1.2213348 -3.084485 -4.6234975 4.311146 -2.3540912 2.320866 -0.2821912 6.3652797
3131 -0.47623694 -0.216645 2.947681 1.1934441 1.1014634 -4.3077264 -5.834048 3.5254338 0.56935054 -2.7745886 -0.98296255 -2.5528655 0.11964161 2.0164633 6.825811 1.2155592 2.3891659 -1.9957994 1.1890789 5.317048 1.3919853 1.9923513 3.6093607 4.477637 -0.055859737 0.8644072 -1.3281071 -2.0010793 3.3484368 -2.8843224 -2.3299649 4.689558 1.4001302 -3.6928985 4.238831 1.44363 -0.82284737 -0.41595098 5.17308 3.2456222 -4.123712 1.0395442 0.5724754 1.0891489 -3.9435048 -0.09118276 0.98851234 -0.2362452 -1.8385546 -5.5030766 3.9894257 -0.40695426 0.59367317 0.85561186 5.5142875 2.2050636 -2.9814034 -2.4622862 -1.2264596 0.2328564 -4.0765657 5.8942747 -3.6476092 2.0069292
111 0.49790633 0.833804 -2.4955904 2.4904535 -0.5381208 -0.7307958 -2.2108715 1.9945862 -0.8603966 0.11990674 -2.8788555 7.8859205 -4.099568 5.0840225 5.547515 -2.0241811 -0.74828106 0.96164066 -6.8349543 0.33586335 -6.6471105 -5.652511 -0.70525765 1.161755 2.672152 -1.1916603 -0.36777058 0.5306924 1.4186037 -3.0943162 0.8296351 0.1339497 2.8556037 -4.278648 -1.6581321 -0.38801223 2.627586 -1.5553213 2.6026278 -0.71677613 -2.2625191 0.17768016 -3.689149 6.6168866 -2.106401 -2.097477 -1.1958023 0.035799973 0.25714287 1.148651 -1.7097311 -1.1484467 1.7803035 2.4547508 -0.3422262 6.0198865 -0.7278913 4.0792212 -1.5978692 -1.594322 -2.569836 1.3398676 5.63711 -2.8053012
2455 -1.0056955 0.26350358 -9.767236 4.398484 5.7265973 0.4084751 -3.200155 -5.2575 0.5578682 0.6341793 -4.874585 -6.6971617 -4.7976475 -4.829881 -4.399217 -0.7531142 -3.7366703 -1.478173 3.3088076 4.1356583 9.218806 2.5063112 -4.081559 5.5023513 -13.572701 -3.002411 -6.19287 -3.0501668 1.8874875 -11.549549 1.4387183 5.3311286 1.6466745 -5.3506494 -1.5277679 -4.3194685 1.8536714 5.772866 2.5991838 3.6790042 4.3847957 -3.443404 -4.388531 -3.1475625 -1.2941364 -5.5024295 -4.069651 -5.4142838 -2.2094963 -4.580451 -2.6261587 0.3298541 -5.1469584 1.3064862 -5.040647 -1.6965071 3.5839305 -7.008196 -8.196929 3.518544 -1.2230874 1.3666137 -1.0956807 3.826236
2233 -3.8095145 -7.2316127 0.4449712 -1.898813 -1.9156803 -1.6191182 3.0059173 2.0292938 1.7877958 -1.5951595 1.6266342 0.53479236 -0.87939495 -4.4390116 1.3711962 -5.107847 3.2757306 2.1726937 -1.3629752 -2.682311 2.2094245 -1.4203256 1.9729947 6.423235 0.07223999 -1.0389589 -2.8827372 -2.0028532 -0.7118455 -1.618572 1.7384592 -4.74998 4.1189833 0.063471526 -1.2857956 1.8622445 -0.1353532 2.941849 2.3308425 2.1815436 0.7600227 -5.176256 -1.0572175 0.21615805 -1.1879503 -2.2481143 -1.6663677 0.100821584 -3.5352173 3.7564213 -1.0034662 3.3188715 2.0805154 -0.262051 0.324112 -3.7996395 -4.171744 3.996558 -4.237802 -5.874748 7.153142 3.5400336 1.6334631 1.8490635
3401 -1.9277749 -0.50984013 3.7960737 2.6608222 4.6095605 -3.955749 -2.039031 1.2671055 1.9100609 -2.8914797 -2.279063 -2.8135066 -2.2541625 0.8315637 8.47044 1.858275 -0.7447876 -1.0300663 3.8718379 5.493263 2.488033 2.698954 2.8725822 2.738046 0.11146864 -0.91495204 -3.8150961 -0.24688877 1.9590071 -0.06493585 -0.8575708 3.7519033 2.5652692 -2.7364683 0.17402558 -2.8550944 0.12538753 1.9844832 4.0078373 0.4519127 -6.38252 0.0016440825 2.5939302 -4.9451113 -1.9828043 1.4761307 -0.3695434 -1.4413365 -5.1612706 -4.5195227 4.44259 1.5564213 -0.49865946 1.3765144 2.5837674 1.4588599 -1.5815095 0.44719353 0.34225374 0.6348679 -3.623572 5.67329 -1.6098206 1.1023328
1054 6.53541 -9.757389 -5.9749804 -9.676751 8.464738 -3.956117 -3.0102568 -2.338743 -1.581021 -1.3761898 2.9097052 1.7678663 -5.058617 3.8669853 1.5261142 2.7232213 -6.05645 -1.9349887 5.651806 -4.3979588 -4.3884873 2.5012116 -1.054321 5.7551036 5.06733 2.0227642 -3.7301583 -7.905953 0.5717701 -1.0805776 -1.8647914 -2.3684316 2.8342083 10.951075 0.30442828 2.6319525 -5.9708214 5.864465 0.102427326 2.8376665 -4.083776 -1.9054933 2.7282996 -2.345562 2.404568 -1.2401295 7.170885 -3.5501738 3.77909 -4.043974 -2.714979 -4.117969 -3.2451746 -7.0467596 3.370089 5.896736 0.64092577 0.5354773 -1.5186307 4.3305445 0.5761998 4.0267982 -0.6144142 -2.8411672
3510 -0.5484629 4.517299 0.6954239 -2.587281 -5.252361 1.4769015 1.7203566 -8.334404 -4.981083 3.5551975 -3.4876626 2.4335656 12.216814 0.49014744 -5.4600058 2.3547883 -7.239442 -7.504531 0.44971588 -4.4151926 0.17099722 -1.479205 -4.3023195 -3.602423 1.8144017 2.9501116 -4.688581 -3.1304665 5.2248635 5.2225513 -3.565991 -0.2612364 -3.1274672 -9.224688 0.59563833 5.4224777 -4.1019683 1.6818312 9.965011 -2.3975797 1.3174429 0.9284165 1.3294058 4.790408 -0.2838964 1.0622964 1.7568878 -1.0640761 -5.9147906 0.22854741 1.8824235 1.0580001 6.7976737 -2.909207 -2.7503664 -1.7942448 0.22021553 2.6081862 4.9457803 -0.65407765 4.5511293 -1.6052299 -4.1639166 -2.240544
11 -1.7655779 1.0538187 0.031327993 -0.8674512 0.79110676 -2.0352755 1.5747908 0.20167665 -1.3030905 1.7103667 -1.7107413 -5.209615 1.8487728 1.6637121 -0.7459884 0.49897417 0.61891454 4.898365 1.3403589 -3.022353 2.7587814 -1.1358774 0.95624447 -2.883423 1.9905834 0.60737944 -2.6824064 3.7149634 -0.39535 -0.26632982 2.5240388 -0.662458 2.5758393 -1.2695388 1.7650752 -4.664201 -0.84204715 -4.1662765 3.9885178 -1.008697 1.2047293 -0.22615542 -2.6527607 -0.12166824 4.684913 1.8497223 1.4288344 4.5852647 2.344903 0.58439714 -2.4329376 -0.7998389 -3.271415 -1.8246928 1.0733466 0.7233968 1.6174533 -0.7213253 -2.6914852 0.96702564 0.2560371 0.72348505 3.7151098 -2.4358342
672 0.08043189 0.7971998 -4.7108536 1.8441757 3.5738127 3.6322918 -2.6475031 0.07109404 1.3786291 0.26755098 -0.45350853 0.24787687 -0.5754625 1.4496837 1.7587358 -2.674456 0.49829352 0.60388356 2.983309 3.0071025 -3.3411236 0.603023 1.5008014 0.21462148 -0.3135481 -1.2775191 -3.0837011 3.2535336 0.7603145 1.9454349 -0.41905117 2.8747447 -3.9054844 2.3802042 1.6726191 -3.1512904 -1.7315573 1.7311504 -0.23468602 -0.71982664 -0.8014092 3.5001595 1.9456974 -0.7254249 -3.047816 -3.6449335 -0.8404022 1.3052205 -0.5333259 -2.172606 0.8609473 3.3610306 5.387786 -5.178331 0.8429287 -1.148946 -1.0309027 0.41315776 4.5626535 -1.128668 5.8189745 -4.9933176 -0.31628838 5.4365625
3580 -3.9328952 1.4989188 5.4076037 -0.74182886 -2.806359 2.8790371 0.89577836 -3.779144 -0.66511244 1.0882261 -0.9002927 -1.6849236 6.2619147 6.3171234 -0.7960788 3.1635513 -5.4332385 1.9284464 -7.450846 -6.377233 3.2373335 -5.692905 -7.1351814 -2.797084 7.1112833 -1.12761 0.1733979 -4.0190973 -2.700259 0.13079816 -0.9259622 3.976155 -2.0479236 -5.9408035 -4.330291 2.8607404 0.53577423 4.383619 -5.6390166 1.9747156 -1.6933937 -3.759908 2.4612687 4.5331078 -3.1776814 3.6413374 2.4680262 -6.7615933 1.3058299 -0.68116283 4.8026705 -0.31020477 -2.7330623 -2.7262096 -5.214008 2.999593 -1.840922 1.1896814 3.7039094 2.0100417 1.9797672 2.575154 -3.8811421 -5.130757
545 -0.12812161 1.3030573 -1.7403979 -0.24433288 -0.27240816 -3.307326 1.3877329 0.98317343 0.56335247 3.8408818 -0.9068397 -6.936513 2.4100518 0.3899825 -1.4124401 -1.3713195 0.81644 3.2681508 2.1867783 -1.5285609 2.1332839 -2.3343205 -0.6261831 -1.374373 0.5815787 -0.8123103 -0.46947598 5.319667 2.5911844 2.1412752 2.9003837 0.5576352 0.974585 1.1665609 2.0421503 -0.25498274 1.0615249 -1.6134678 1.9651932 -1.0369471 -0.98119354 -0.13568646 -2.892582 1.4405499 5.8543324 2.8043537 0.89807934 2.7665699 2.9327419 2.9679832 0.24343601 -0.7636739 -2.5505369 -0.67049557 2.3306026 2.127307 2.3402653 -0.48778886 -1.560502 -1.4425222 0.101278126 1.3394554 4.991775 0.5049701
1616 -2.676885 -1.7146403 -8.4063225 3.0826173 2.8767958 -5.7001987 1.6256721 -1.5129437 0.44787085 -3.0404618 -0.40386137 -3.394896 0.015647903 -1.0759903 0.36675283 2.833897 -2.1758492 4.8004003 -1.0774689 -3.8369505 -0.35396758 0.94771993 -4.3445554 -0.5100336 3.2352157 2.246152 4.9989657 -6.353298 -4.194082 3.060261 0.3313666 2.426629 0.95387596 -1.973984 -3.2498932 -5.59093 -2.7732751 1.4296732 -0.3983416 -0.027293345 9.967811 0.9506039 2.18938 0.74078315 0.76275796 1.960459 4.035384 -0.77711636 -3.5752532 3.303593 1.9524823 4.8754673 2.8135848 10.329663 -4.665614 1.0081108 0.57122934 5.6670136 -2.2180142 -10.131691 -2.4886904 2.104685 -4.203053 3.5022538
3418 -2.5182395 0.35043615 5.69001 -0.274849 -5.541873 3.086618 -1.6565192 -5.705715 -1.4494092 7.082855 -5.0479155 -4.0097194 3.3294828 2.4413342 -2.4237692 -2.029901 -5.7355294 -0.07353269 -0.8317881 -2.282722 -2.0594966 3.0112247 1.007387 0.1761688 3.0984254 -2.1404898 -0.6649523 -3.9144118 6.9150796 -7.2715073 1.0114949 2.5725658 4.2867017 -2.4339 0.686523 4.66859 1.3634522 -2.8512013 1.1947249 -4.2521605 -0.73587143 -3.6379552 0.96053004 9.327062 -7.1931753 5.246581 2.6039329 3.2196102 -0.7069162 -5.5203533 4.0396166 1.8704023 -5.8445044 -3.704194 -8.846525 -4.680303 0.4941049 6.612814 1.7678964 1.0313377 5.925376 -1.274552 0.7269669 -2.3294003
2661 -1.8474091 0.6047524 -2.8233228 2.381002 0.6968492 1.8192029 -2.2273524 0.9152966 1.0813922 -3.5325503 -0.63234913 1.3376518 -0.11825124 0.9650397 1.106396 -2.3454294 -1.7813597 1.7185968 2.5374122 0.78757584 -1.5779775 1.6782889 2.4502342 -2.5824888 1.0327532 -1.7251463 -0.72206604 2.4576874 0.2159713 -1.0470146 -1.6883196 3.5082202 -2.9945576 2.5188067 0.36732373 -0.36064106 -3.0395331 2.4878774 -2.7531095 1.6548465 2.8344634 2.2864642 1.7971886 -3.4232035 0.47653672 -3.7719638 -0.21560463 0.012501335 -0.62939495 -1.260927 0.5898794 1.4079118 5.8472605 -1.8093874 0.46000075 0.3428283 0.8206799 -0.80979997 3.021627 0.33773747 5.9986835 -3.7428372 0.8069909 2.8873515
452 -0.42438352 3.860548 -0.6236946 -1.1055148 1.8041568 -2.3390365 1.8675994 -0.7041515 1.1193988 3.4862537 -0.91228414 -2.8569078 0.42007154 1.3081105 -1.1896573 0.4539085 4.123515 3.4521375 -1.384188 -2.0339127 1.4107866 -1.2464844 0.35919642 -3.0025415 2.0600877 0.40523186 -1.4386996 4.549149 -0.34394488 2.0546696 2.2977011 0.58595043 0.6577675 1.7401692 2.7736657 -2.7657413 -1.1520557 -2.147837 3.1281302 -0.5542619 -0.12082445 -0.317625 0.42959663 -0.8668956 4.047087 3.266821 0.53299856 4.0494504 2.806295 2.419042 -1.123567 -2.032512 -2.8916478 -2.0612032 1.1363019 -0.24569502 1.9032899 -0.13671817 -0.06887058 1.1471622 1.5474359 0.16421404 3.2804792 -0.3299564
3096 1.2359407 -4.2814617 -3.251048 0.9881118 -0.7526233 8.099907 0.0768587 0.741292 -0.8585054 -3.7720127 -3.3098779 3.0309975 -2.2506495 1.6343731 -3.0950928 0.49988285 -2.9292805 -2.4246266 3.9462562 1.3956927 2.851258 -4.257027 -0.074343614 2.1947925 2.387713 3.6855369 3.766092 1.6488117 -1.2696571 -3.3958764 -1.702096 -6.9525976 0.7992536 1.9872359 0.89570576 -4.1466107 2.8213267 0.72459215 1.4950532 -2.377696 -1.1132165 0.75846595 1.403739 1.5175192 -1.6785653 -0.34831506 -1.7370486 1.4495488 -2.089776 3.6611066 1.7878385 -1.5584997 -1.160081 1.7717669 0.34701693 0.143973 2.1489217 -0.85309917 1.6797931 0.6476633 -0.43821338 5.619987 -0.29619712 3.5580642
2231 0.094891116 1.0811741 0.35044858 1.7951252 0.3823483 -2.9640937 6.3959427 8.053398 -1.6521435 -1.3443325 -4.3096027 5.0184593 -0.16509105 2.7359805 -2.9507844 5.2631865 -2.9227872 -6.2261095 -0.057690646 4.9369187 -0.55523765 3.189675 -5.85536 -4.819909 1.0117669 -8.823175 2.0431705 -1.7105176 -0.3647476 2.1138678 -5.183096 -4.1161675 3.071657 3.61371 1.3136716 5.1701093 2.9630284 0.64794344 2.5221956 6.985301 2.802712 4.01221 -5.361432 -1.771631 -0.5354606 0.9378788 0.20895211 0.5474013 -5.8738546 0.08152597 0.3349715 -5.8874235 0.6204533 0.089107215 1.1728368 0.047372364 0.3190434 6.51561 -3.7696877 -2.5254102 2.6027467 4.1183567 -1.1958029 -0.12949583
434 1.2131492 1.2241553 -2.253906 2.665851 0.3642597 0.2259069 -0.474543 4.4982905 -0.23139447 -3.0527093 -2.5441194 2.671105 -2.7479594 6.4619646 1.9032631 2.458919 2.6335454 1.1452519 -6.531807 1.2750682 -8.850396 -2.4100075 -0.20395193 5.9884653 -1.2429473 -1.475304 0.46657932 0.96348596 -1.8223085 -0.08824879 0.34572408 2.469169 0.9922392 -5.92285 -0.75657326 0.04407762 0.89118767 -1.487156 1.1320323 -2.8875527 -3.7700534 -0.7186719 1.4276464 8.8455515 0.30527422 -2.8686948 1.1643716 0.79029346 -0.7460601 -1.2755319 -0.49805808 -4.88887 2.0397034 -3.39838 -3.1001525 -1.9252841 0.04703452 3.0414596 -1.4868071 -3.034398 -5.5409946 0.10094642 7.0110393 -2.8700645
3311 -1.1002414 1.8264816 -3.790338 -4.352194 1.8263549 2.6963778 2.8671618 -4.5977364 -4.5860167 2.7437558 -2.4722314 -6.805371 -1.2001553 3.2139583 -1.9633689 3.2831964 7.6985893 -4.858583 2.3436508 -5.708337 -0.8881609 6.5703177 0.39427385 -5.3239217 3.062439 -4.9731607 -1.2092304 -3.3725102 5.9049478 1.5975195 1.5182061 -4.1011224 -1.7401361 -2.2972493 -1.647435 -1.1712807 3.8217497 1.4213445 -1.9643902 0.2851344 -9.639845 1.8875464 0.35379505 -4.650901 -3.9253128 -2.2585897 1.5368584 0.5288226 1.8520036 -0.7814052 -9.568628 -1.4694918 3.0163338 4.85869 -0.93011624 0.8062503 -4.371934 4.7371235 0.9053736 5.376699 -0.082567446 -3.5927856 -3.0961542 -4.4687276
1980 -2.2278206 0.92764235 -1.9351707 3.319376 2.808012 3.1276736 -1.6685259 0.5760963 0.24514546 -2.7164707 0.27463347 0.09072147 0.27446753 0.28674352 4.08711 -3.1644192 -0.3204708 0.5099811 2.4019697 0.19035845 -1.9776918 -0.32840845 2.5137596 -0.45107862 1.2204921 -0.70750535 -0.84999347 2.942243 -0.8560822 -0.6638778 -2.175955 2.9768672 -3.6107738 3.672188 0.41544154 -1.5732561 -1.6142851 3.3557506 -0.55385095 2.5142384 2.9001522 2.316983 2.0236497 -0.90347326 0.5133891 -3.472465 -1.1333783 -0.5437808 0.5212958 -1.1746068 -0.6658604 2.6306715 4.252249 -2.5592084 0.858589 0.71230906 -0.924236 -0.8895149 3.2862716 -0.77231437 5.5789437 -4.694501 1.2759867 5.9557347
