4271 64
75 2.2193618 2.9240744 0.38331658 -0.58111864 -4.6726274 0.770741 4.467095 3.2489262 4.1914954 -1.5157944 -0.8249666 4.5786996 -5.3983173 8.236061 -1.0055563 -11.5154505 7.4618926 -1.2208835 -1.1286669 7.977072 -1.0980207 -4.1457167 0.20822118 -1.1699578 -2.7967598 1.8412627 8.540572 -4.9188056 5.1859646 4.390908 0.25857174 1.1756763 6.6833305 6.083451 1.6330057 2.3655543 -3.3238847 -2.2369761 -3.4708352 6.3617077 6.196343 4.199133 1.0521748 -0.4748763 1.7131139 0.8613527 1.5069499 8.943044 1.4338474 0.98311216 -5.7373986 4.954411 1.1206261 -1.2552857 -6.284208 -0.9212061 -0.08533377 2.506704 3.105565 5.955945 -1.7859102 -1.0507959 0.11601937 -2.3034244
61 -2.4005125 -7.579253 -0.94605625 -1.5894923 -0.21898781 1.6908702 -2.5255718 2.0735588 -6.228512 4.7502694 8.970368 5.4643707 2.6748931 -1.7887027 -0.8016578 4.698609 -0.35548064 8.316905 4.2710567 5.6161036 -0.8897367 2.9793103 -0.49608922 -5.9727774 -6.7003365 -0.10420988 3.7128901 -0.9692201 3.0018322 -0.23000035 0.1734541 3.644304 -9.351887 0.92990875 2.313994 2.8897603 -7.555318 -4.0301986 -2.3961723 -0.39231163 -0.25587666 -0.67049307 -5.0947113 1.9149604 4.095582 4.750161 1.2503072 -6.7247148 5.507634 -6.870084 -1.1315838 -5.877551 -5.478013 -0.6679197 10.207176 1.4928454 2.1839254 1.685928 0.023635814 1.2602738 0.42360783 3.3079793 0.4243327 -0.3258437
109 -2.3505063 -3.5527604 5.788996 -0.35841626 -2.3877113 6.4627423 8.5194435 1.3316661 -2.2446249 10.924446 -2.3532188 -2.242044 -2.512433 -0.60038394 -4.255695 3.606461 -2.7696197 1.7109109 -4.020569 1.6567713 0.96763414 -2.6468427 -1.3638877 -5.1414013 1.4329723 1.9357795 -5.3612 0.35670152 -4.93315 0.38415566 4.3909564 -2.059864 1.4907386 -4.984913 -5.880771 2.365881 -0.3037336 -5.552059 -7.133755 0.606391 -3.852134 -0.8890034 0.8225655 -3.0449305 0.92329884 0.5305434 3.6456194 -3.6092048 1.1930777 -2.2353997 -4.4471126 4.375885 3.5758636 2.5532691 2.6775956 0.32859227 -0.9858922 -3.1659057 1.1711478 2.3209665 -0.12461036 -1.6733922 0.4648382 -0.5424648
7 -3.968805 2.2761407 -0.60058546 -2.514268 -1.3265405 2.9017956 -3.0244834 -3.0919359 6.4892645 -2.996717 -3.1982968 -5.150565 1.2122464 -6.1994805 0.2303258 6.2779536 1.9729321 5.3500175 2.2636347 1.3814017 -5.8739057 0.7927355 -1.9040763 0.24636264 2.6701746 0.17268005 0.6004057 -4.5967503 -2.962619 2.8102908 -3.7509737 -3.723941 0.7957807 -0.46406108 -3.8414502 0.56230974 0.9583991 0.6891283 -9.557537 -8.223155 2.1477048 0.64159214 -0.45957625 2.051201 3.742975 4.260653 -11.918923 7.4392643 4.931876 -0.27118146 4.2168145 -5.2552423 -5.7639494 -1.0821433 -2.0608232 1.9726746 -1.4200203 -0.5841998 -0.5666189 -3.2375195 -4.7318254 -1.1981392 -2.6434183 1.1348803
53 -4.3534937 -3.404706 -6.3349814 6.2807198 -1.7953066 -0.74765486 -1.9449956 -1.647942 -0.61573356 6.7064967 1.9498787 -2.1910903 1.2569336 -1.75426 -3.9773366 3.638701 1.4194098 -9.611492 -1.4915011 -0.5244518 -0.9180447 3.9121864 4.881728 6.0718985 -5.543067 1.6893591 -5.957609 0.83458865 3.7680578 -9.448711 -4.9639845 2.4562945 1.736311 0.6800382 2.9475436 -3.517876 -2.0932846 0.076120354 2.7909737 -2.149397 7.797813 -5.8960824 -6.6610274 5.3292594 1.7491823 3.8631146 1.9717519 8.115092 6.3582478 7.403646 0.6298288 -0.62231374 10.017429 0.12986626 13.3366785 1.0455277 8.106553 -2.8789504 -3.241296 -0.9627606 -5.078447 1.8440661 6.3474174 -1.5987138
102 -4.236041 3.8884025 5.775185 0.036908615 -3.4164145 0.14542268 -2.6791165 9.805691 0.52460635 -0.5735407 4.3495708 -0.44575846 5.0220046 5.6678915 5.4929423 -4.954857 -0.880649 -3.4166822 -0.93493843 -1.581344 -6.707958 6.409542 6.885326 2.430457 7.188357 3.270935 -0.025845535 3.2642703 -1.0355448 0.92048424 -1.6795373 -6.5353107 -1.3280195 0.77760637 -5.7736588 7.4825845 -4.5647974 3.8161042 4.2958302 0.92758876 3.212323 0.5251426 2.6665878 -3.1965914 -4.412013 1.0348151 0.26962277 -10.126196 -2.9684722 1.7362392 2.9125125 -3.0957198 -5.076729 5.2528787 7.7662177 4.9380345 -5.0355744 -2.5219035 2.8547845 -0.1939411 0.4006512 2.4017966 1.4290873 2.3116558
119 -1.0246449 -3.281923 1.3721482 -0.21123841 1.9750288 -5.237765 -1.6243248 -6.7298665 -1.1187487 -1.7456155 3.7383077 9.523785 -3.979011 -6.1460285 -3.99622 -1.003426 -7.6672444 5.069652 -0.5719895 2.8790333 -9.918645 -1.7901483 1.388053 4.148073 -1.6076862 -2.7436688 2.980894 3.2553527 -1.1498514 -3.749355 9.502198 3.5071366 11.799802 0.4747692 2.2003243 3.5775151 7.748533 -0.37669003 -1.4145712 3.6645222 2.9690154 6.3661695 6.4780154 7.184616 3.2078047 -4.4064837 5.2073593 0.7135838 8.280291 -0.64098346 -2.843736 -5.763558 -2.2844756 -0.25619048 -2.4999363 -1.3300209 -6.3886476 2.5375497 -5.164828 -0.9484869 5.8559184 2.3315544 -3.6553116 -1.4697071
36 1.53813 -3.9952598 1.9393147 5.642002 -0.6255583 6.4523897 3.8878763 3.1768868 3.4790263 -4.6020894 -2.1419873 2.1013072 -1.0174581 -8.717546 2.551526 -1.9571092 -7.1167502 3.6664116 -1.4722431 0.40917495 2.503107 5.693122 -3.76694 -2.3268256 3.2332778 4.246361 5.0103726 6.798156 -1.7210958 -1.3561049 -6.772094 10.592446 5.7300663 -6.792205 1.771761 2.323706 -8.170049 -3.6873674 2.9215991 -1.8240132 -2.7066631 0.74344885 -0.063733526 1.7585018 -3.016502 9.522011 -0.28241825 -0.11354705 -0.27692223 7.3533983 6.365601 -2.401084 -5.7533126 2.4413466 1.8017522 -2.4905982 -2.0509672 2.7981815 -1.720664 3.1857593 -1.1956905 6.031161 -6.3353906 2.2328722
12 3.3939376 -5.132512 3.093105 0.9752124 -7.3043284 1.7113287 -9.744618 4.5604053 5.088067 -0.71007496 4.631594 -1.883465 -5.948651 5.114341 -7.053082 6.7683187 -4.436092 1.1911765 0.81407064 6.3085074 0.8049809 -1.8998623 8.861058 2.4708033 -2.7446249 -3.4810762 1.3117229 1.6009619 2.0164256 1.1518049 -2.1935673 3.1950412 2.599727 1.1859865 -5.74924 -4.842244 6.778717 1.0207567 3.2582428 1.281534 -7.3486967 -1.6522222 -5.0440784 -1.2777466 -0.1872467 2.7261934 -8.813517 -0.46576828 -2.0703177 -0.14258966 4.502236 -7.5037637 7.0091653 -6.7117887 4.2181153 -2.7004821 3.5128245 -9.2038555 12.97039 3.245126 5.7846856 -3.8762317 -4.4674053 -0.1403398
38 8.542533 -3.2313204 -0.32100278 1.1195079 0.49488127 -2.1294644 3.5306525 5.0652385 3.0451095 1.1772485 6.7985153 0.50798786 -1.4174769 3.5383303 -7.7149363 11.023608 6.6057944 1.3171747 6.580209 -0.9516975 3.3419719 -0.83953327 2.2034228 5.800558 -1.7813035 -0.4544493 -4.5175343 1.0792966 -3.8065922 1.3414618 -9.084996 -0.034712985 1.3381879 3.063575 1.7655989 -2.5840697 -4.169878 -1.073231 -0.85755754 8.1602545 8.5271435 2.948504 2.716593 0.08586952 1.664524 -3.3734844 0.8912534 -2.5818813 -1.5204316 0.30656496 3.1782093 2.176199 -7.0992165 -0.07339116 2.2619333 -2.1238933 -9.898177 -2.6699693 -2.5131314 -1.0158838 1.9153246 5.333945 8.118616 4.2060833
710 -2.4237921 6.063761 -13.933135 1.3545296 -3.3102791 -8.530433 0.6381346 -9.564436 2.3362293 -0.38015196 -0.5925097 9.951425 4.145725 12.982689 -5.6451063 -3.7790117 4.7310367 0.027647082 3.3698688 -2.530976 -1.5194353 -2.331286 -2.0871356 -0.8410334 1.0109557 -3.4156623 -5.164746 -3.8254538 -1.3432118 0.9256602 3.9172595 -2.9623466 -7.155364 -5.0583334 -1.266495 0.9584745 -3.9685445 -7.8253646 -0.83450425 1.6173782 -6.311317 -5.455334 3.522119 -4.7989693 -13.126207 -2.5390162 3.0571196 -1.5947899 2.106176 4.2234836 8.482597 -6.6356664 2.661149 3.9014435 -6.014158 -9.383069 0.18096481 0.63309723 -4.0199513 -11.978034 4.694447 -7.200734 -4.8955336 7.529182
79 7.0066643 6.4232645 -1.1787977 2.4490595 -1.2106934 2.314469 -2.7192767 1.7413853 -1.653081 3.2676265 -5.185631 3.681344 6.370596 -2.488063 -7.54797 -6.179252 1.8956413 -6.133109 1.7203342 2.0702422 -0.16725263 1.2825744 3.6593263 -4.934452 6.936413 -1.2422026 -0.67362523 3.748253 -10.582563 7.2525587 1.6872227 -0.20108193 4.1700487 -1.0248004 -0.46402884 3.6065054 2.5925543 -6.6865745 3.1189797 -4.274112 -1.3111506 -5.774907 -4.6214786 -1.1069084 1.1412026 -0.1306613 5.254079 5.2763042 -1.8951494 -1.8185301 5.6857224 -0.37210456 -3.1315336 -4.597559 0.82354116 4.121254 0.82590026 10.8964615 3.0186143 -1.819957 0.57852864 4.6406746 1.3300729 7.3615565
120 -3.2369704 -5.716782 -4.9662495 5.9230685 0.084144734 4.650982 -3.2080417 -0.5126242 -3.4641569 -0.06150756 4.059244 4.745337 0.107497215 -6.7406454 -5.254979 -3.5613098 -1.1004621 -1.1269357 0.34286746 -6.148969 -7.464833 -0.8378424 -0.6819742 10.057299 -9.359826 -2.273114 0.24859183 -1.891267 -10.872151 -0.16253254 -1.5577799 -1.1530113 -2.5071533 0.10453555 3.2194576 6.2175975 0.45359147 0.4674719 -2.513197 11.272268 4.028775 -1.8401189 -3.903922 -0.22288111 6.1289268 -4.515244 1.6931785 2.420134 -8.4816065 0.15462708 3.464388 4.054839 -10.004251 1.4754404 -7.477525 -3.1427596 -0.75046486 -8.805971 3.3149214 -3.4659734 -2.7433925 0.0013801464 -6.4954176 -3.8841717
65 -1.8793718 1.1146492 -2.412647 -2.8544335 -1.9827346 3.3249526 -1.6712697 -0.29422858 -5.852088 -0.74588144 -2.0500345 -2.7669377 -5.226049 0.5057804 -2.2029886 -0.10437694 8.859132 9.9793415 2.9847417 -9.511037 0.45794702 6.990121 2.679131 -3.1531541 5.262145 6.6877503 0.9029573 5.633869 8.386691 -6.0461183 2.4461768 5.0300736 -1.8942872 -9.54616 5.2810855 -6.8028483 -3.4162 0.56730783 1.6573554 -1.5707554 3.706567 0.6697155 -4.791821 -5.594691 3.7409215 0.22271201 -3.8906755 3.2330444 -6.8138022 -5.869567 1.1188066 1.1155123 2.910652 -5.6252155 -7.467229 3.716099 -2.8210623 -2.7907693 -1.7803 -4.151123 -0.46651685 3.0166047 -4.490549 3.4274054
92 3.9187179 4.8438683 3.7047124 1.2358832 1.1693505 -0.37601903 0.73211956 -1.2860101 4.2478633 -5.53635 -3.2390335 -2.177267 -1.2479886 1.9253283 3.6388123 9.4977 2.9208267 -5.7441688 -6.633314 5.0333734 0.9631988 1.6228784 5.541094 -4.8686156 -1.035867 -1.8637772 0.038442902 2.2180893 10.11207 -2.0852742 6.3618474 1.7314312 -2.6530674 0.4386928 -5.061983 -2.9392107 -1.558029 -4.237058 -4.4156427 -3.8481622 -4.0174465 1.6350871 2.48303 6.0372624 -7.2644486 0.44910747 -1.2487701 -1.8868233 2.9974916 -2.3046477 0.70670176 -0.64625055 1.6524597 -3.4158413 1.4450611 -0.41666856 -2.2685704 11.144855 -1.4090548 0.9550103 -2.246747 -0.79120624 -0.51789796 7.932327
77 -5.2801743 3.9575214 -3.8581574 6.8270493 -2.6281116 -1.6912991 -7.706773 3.7606955 -9.982919 6.9837174 3.6057222 0.17075792 -5.4190454 -13.181398 1.0475528 3.763485 -1.0722502 -1.8790146 3.004209 1.675048 -2.4913194 -10.109454 -1.8959168 -3.2048745 -2.8612137 -2.505496 -9.591797 -0.97326505 -5.308941 -4.7963614 -1.6530285 -0.292207 1.4450358 0.8886129 -5.3112335 -2.8032796 -16.059757 -0.11896748 5.6474047 3.2970934 -1.3756429 7.0347323 -4.2760854 7.264452 2.0934641 3.0711446 -4.051239 5.280577 -2.3162894 -2.6071827 -7.023044 3.2278614 -2.022416 -0.83779794 -0.38577086 -3.9026597 2.007772 -1.063143 5.164105 -1.0547931 5.396267 2.364907 -3.5623198 11.089684
86 -3.2441077 -4.933886 0.25599083 -0.77491665 -2.2350621 -0.15656276 1.5161719 3.9682882 6.5453777 0.19671755 6.335119 8.621601 -6.2788677 -8.5030155 -0.006604183 3.4286826 -4.1956096 0.73064613 -3.8861322 0.064648636 -4.636901 9.54985 -1.7085011 1.1175411 -2.157546 -0.7396697 1.1565498 -2.637201 0.017962683 2.9388607 3.1875627 0.15849331 4.979459 -2.978215 0.6219567 -10.017327 7.217868 7.534119 2.9667823 -6.954273 5.274571 -2.7924016 2.0646892 -4.4681673 3.8794875 0.56370586 4.709976 -2.95116 2.8397815 -8.580259 -1.2408565 4.3745213 -2.054788 4.042753 -1.1526959 -1.0927773 -6.3699594 6.727132 4.3431907 2.6757867 2.7048304 6.072092 -1.6950412 1.2899566
11 -2.6388376 -1.9344682 2.301447 -4.682613 -1.9067621 1.7153664 -3.4088085 -5.4789047 -7.526065 6.645854 7.1302457 -1.7529707 5.296139 -0.073324904 7.478586 5.4659324 -2.681571 -1.3295519 -3.4179816 4.698373 1.6574527 6.378254 9.03711 -2.488898 -1.3933038 4.251899 -2.2071466 8.212767 -1.8190769 4.0434484 -9.414588 -2.2614508 5.976641 -2.6393292 -0.06378461 -2.537576 3.2105038 -9.345349 1.2737962 0.9600041 3.1577156 7.8045607 2.5386062 1.9276032 6.369285 0.6611603 2.7782686 -6.593008 2.0391138 -5.376626 0.63579863 9.0446 -0.7529349 -3.0701518 0.76405525 -7.078542 3.969544 0.3518878 1.3048481 1.3925868 6.1170177 -1.6443557 9.294119 -1.0130857
20 -3.8495605 -4.6969347 0.17391287 2.671279 -1.6640182 -3.9880052 -0.25058642 3.808357 -4.7643566 -5.1139283 -5.8794475 5.5917897 -0.25480807 -5.8976407 -1.4714775 -0.09565538 -3.427429 -8.239299 12.403 -3.853995 0.8510154 13.520174 -0.18487138 -5.2891 0.7321148 -4.984933 3.2311814 7.174838 -5.4068794 -5.966951 8.988517 -0.33584577 -3.1687546 8.816761 -2.9644003 -0.81518584 -6.0739837 3.4948533 -3.2146935 0.040423237 -0.6224688 11.66243 -1.8760432 -0.7825617 2.9152312 1.5758016 -2.267386 6.6733193 -3.8025239 7.0744066 -6.8202486 -0.6602789 -4.3568134 -6.3574176 -5.0242352 -0.15696013 -2.3806958 -2.8369102 -3.8226438 0.81296813 -3.2466621 -13.873159 3.0498579 11.288609
82 -4.7390676 -1.1427852 10.790274 -0.4300581 -4.3920407 1.3491073 5.7685895 -5.724065 3.2638285 -5.985003 6.1519403 -3.3574057 -4.5156193 -6.2930975 8.610806 6.8853064 2.9668007 0.3927478 4.512949 -3.135342 -2.8335707 -1.7259141 -4.8490024 6.772954 -3.3143773 -7.775586 -0.7782915 1.8063823 4.5366735 -4.5482492 -0.88593394 -3.2904289 -2.3412173 7.298652 -1.5942206 -4.5553517 -7.21108 8.610003 -1.701847 0.6802575 -1.5763401 -2.0888245 4.5945916 5.287758 -3.057031 3.8431163 1.8253682 -0.36005926 -0.13065554 1.4410142 -6.7896643 6.7045293 1.2767022 -4.466316 -3.3658855 2.6253557 1.7990559 -9.06032 -6.9592085 -10.373858 5.2653127 -3.7281382 -3.4669235 -6.7826934
221 8.241757 0.93363047 3.6869686 -5.722859 -4.955234 -0.22487697 1.4679974 7.548227 -1.4730836 -2.8181205 -8.17396 -2.2048626 4.290669 -8.06932 8.053132 -9.487329 5.8005905 7.929668 -4.273807 -19.487946 0.07292485 -0.34975663 -3.6877773 8.659882 9.639432 -1.6952572 -2.2745678 -8.974128 8.5298195 -7.2100706 2.8937783 -5.2019753 -1.0793272 2.7319443 5.000249 4.4240837 3.1532962 -7.816744 -1.6376519 -2.9626737 -12.74661 -0.35080957 9.496006 3.1550064 4.913433 3.0968459 -1.4299016 1.912651 -0.63424087 5.3152246 4.4068727 6.177758 3.0146835 -6.953091 -5.2273564 5.972518 6.9855137 -0.6105392 -9.880544 9.873033 -4.51423 -2.0852592 2.917234 -1.3242688
71 -0.7232648 0.14416252 0.32369113 5.246738 13.851653 -5.9476247 -5.9445333 0.41229236 4.208544 4.63314 -3.6803663 -0.58248025 -3.5440683 4.060498 2.325954 4.5123315 -1.6441454 0.1537959 8.467216 4.082231 1.967543 6.141787 -3.1544697 3.4653018 9.182814 5.7132406 2.995167 -1.7045462 3.6489496 -1.3908522 4.5154243 0.36498183 -5.5255384 -2.4645865 -9.548668 0.98538405 4.620122 0.21834627 0.71453124 6.23455 5.7582903 2.0649056 6.4565887 3.3020706 4.3831954 2.2204528 8.973517 4.057722 -1.1664668 3.5527277 0.07280016 8.026677 -3.4418626 -3.3026736 -4.483124 -0.056117117 4.5653105 -6.6771755 -9.225579 12.385249 -1.7742088 -6.586119 -10.814564 -4.806077
64 4.436307 -2.7067292 -2.5865834 4.676361 1.5796256 -0.09002887 -10.682573 -3.7914753 1.2872071 -6.088231 4.9088097 -1.217833 -3.7188828 -1.6686976 1.258396 -2.6032667 -1.1736609 -0.6073313 6.464814 0.16526014 2.301238 3.8048022 1.558267 -0.1495282 -4.3169494 -2.1294339 3.0172002 -3.6347404 5.3027754 2.3865767 -9.51527 4.879351 0.55317265 10.791829 2.8983574 -3.54532 4.31628 2.4681563 12.484917 -1.4188824 -2.5033376 1.2520877 6.5048833 4.5467057 0.18499303 -6.451184 -4.6084366 2.4472148 -5.0446987 2.6427796 4.144701 -5.724058 -4.9224734 -3.4982026 3.636034 -1.9658434 4.595973 5.623589 1.9004213 -4.5945754 0.59038204 -4.0853705 0.880147 -2.3843486
88 -5.3670516 0.22114368 2.7181168 0.5562247 -7.446236 0.9232777 1.188375 1.5660665 -4.477523 1.3126333 -11.013239 6.508617 1.4599177 7.3404064 5.346513 2.653292 -10.857614 5.538663 2.337387 -0.06721909 0.22867088 0.68331707 0.6015345 -3.7872481 -9.810983 -2.9035525 -1.5281274 -6.7275615 3.200764 3.9852278 -7.257154 7.6035724 -6.1459746 0.1886518 -6.377229 2.0902147 4.0447073 -3.1780307 3.0034604 -5.789596 5.2845855 -6.6579256 5.091377 2.4401324 0.9672495 -5.918736 2.2648191 5.905673 -4.1376214 1.5310808 4.219703 -0.82168967 9.707967 5.7145767 -3.5186367 -1.9155549 -9.77749 -5.1802096 -4.9280615 -3.4414198 5.7834177 -0.23639002 2.952554 3.3126464
111 -0.8968242 -3.3453047 -6.648791 -3.5803542 7.6093574 -0.06095409 -1.0481514 5.7720113 -1.912286 3.982453 -9.764128 -5.5358357 -0.09794527 1.8367238 5.5331097 -3.244057 -4.637442 0.44136193 -3.5862913 2.041086 -4.1443477 7.8920717 2.0653987 -4.9460664 1.8832262 -6.6303606 -6.0943556 10.597195 14.829911 3.8870156 -4.052652 2.927513 9.432058 4.2392187 0.2614895 -4.486205 2.0832016 5.2344456 0.88535035 7.099773 8.054937 -2.7421732 -4.7601066 -5.7022843 -0.24014549 4.758635 -5.857931 -6.9148583 -7.966164 -3.7598107 4.821501 -1.712892 -8.160773 1.8607112 -0.63292885 1.9190042 2.0466833 4.670701 -1.0910091 -3.1008081 7.2843633 -0.09878688 -4.394326 -6.4201117
130 8.23722 0.3481283 -2.6324716 5.1491036 -0.8042862 4.951069 -1.0507098 -0.63102275 3.1948724 -5.178084 4.191557 3.4472063 -1.8376756 4.21698 -1.4614031 -7.883816 4.1716394 3.0226002 2.757384 -3.6356065 -12.959346 -2.5545907 -0.41549918 2.3794348 -5.9034567 -6.110324 3.215532 6.9956446 1.3749361 3.8337123 -8.976742 1.2506931 -4.9345655 -0.78293484 -4.649935 2.7010677 -1.3786343 3.2010608 -4.181417 2.071921 8.094513 -3.099099 -0.9268619 -6.57381 -4.160279 5.6617937 -0.56799215 -3.5702872 6.251802 -6.0165744 -10.289186 1.5318356 3.6303847 -1.5182464 -7.9343796 -2.7501807 -1.3048139 2.2589931 -0.7822709 10.745722 0.2094614 0.17749895 6.191967 4.4454904
940 -8.278963 -3.53979 1.4204654 1.1295425 3.7921069 -3.1191387 -5.649062 -0.19028229 2.298319 -2.753853 3.4561858 -4.434548 3.7674341 4.8532076 -1.2061888 1.2557948 7.080831 -7.71482 -1.6645423 -0.80774105 -4.2551837 9.561195 -0.5373022 -4.533063 -3.4627078 -8.410781 -10.130708 6.0672364 9.672501 3.685838 -2.3732212 4.0736523 12.784895 -4.72254 1.274933 -5.375465 -3.2256083 1.2358073 -1.1499479 1.2279409 -2.9206934 -10.531233 -6.0927367 1.3851739 4.109053 1.3982803 0.41338542 8.957919 5.4109364 9.277006 2.1294944 3.5081825 8.282826 1.3279697 15.187606 -2.352775 2.3509295 -9.865845 2.6953106 3.2391946 -2.0771375 -4.3148875 5.150411 -7.019183
29 1.6089771 -3.9494684 -4.3271174 2.3568277 3.2163734 -3.4280639 9.812178 -5.366306 6.451431 -2.5189416 -3.5155272 -6.577562 -3.5003028 -3.1650882 5.778562 -4.28845 -1.5963483 -5.2264376 -4.5657907 1.3219771 5.458465 -7.8237963 2.5134978 -0.35749584 6.729129 0.45363247 0.08689597 7.380786 -2.3425667 2.7188425 -7.401538 7.375223 -6.620624 2.6985476 -1.8159393 6.5823793 0.039309982 -11.61193 -2.9499197 7.0667496 3.8351693 -3.3542244 -0.45317474 -0.49238208 -4.043285 2.851871 -9.662402 -4.170783 -3.5376596 0.23078477 -2.1673818 -1.3915114 -1.4872589 0.72400516 3.1214986 3.706852 1.1971422 0.24467161 -3.0774553 -3.6543028 5.172866 -2.7126944 -3.0237079 3.2561078
69 1.8277379 3.5701377 -1.0480295 -0.5243646 0.43911356 -8.350487 -0.14970167 4.2105613 1.0936325 -10.634713 -2.5003037 -2.5012102 1.906627 4.1651907 8.034828 -1.0638933 -0.12247806 7.439906 -2.790945 -10.467761 4.6396065 7.5216503 4.0832815 -6.464621 -5.2644053 0.940546 7.0039597 -5.7409544 -8.720505 -2.425566 1.4967266 5.923096 -2.9564958 3.4862833 -2.4198031 2.3669696 5.7008266 5.2237034 2.3086824 8.998005 3.8758602 4.936444 0.43359548 5.9170117 4.4027915 10.021792 8.834611 1.300262 -3.320121 6.380135 -1.8030689 2.4352198 2.7191503 -3.0624516 -3.6480663 -7.5005016 -3.5974338 4.852256 8.613968 1.7044071 -5.9610786 1.5664679 -1.3136163 0.3080728
2796 -8.028242 -3.9016325 1.1322298 0.5543579 2.0807424 -1.6515691 -6.9287 -1.0084976 0.9377827 -2.871765 4.7185254 -4.718263 4.242753 3.8167562 -1.8850931 1.311423 7.476721 -7.467255 -3.2457573 -2.5686772 -4.3252525 8.355055 -1.1258922 -4.254082 -0.74247193 -5.9278107 -11.853534 4.554255 9.512066 3.646101 -4.0903563 6.4500365 12.020045 -3.0878763 0.897449 -6.7868085 -3.0104432 -0.312681 -0.20078106 2.0786746 -2.369692 -9.782835 -6.416691 2.806563 5.5506244 2.2369318 -2.4603817 6.974515 3.7160966 9.617163 0.23218238 1.8945973 8.09427 2.6448755 14.921102 -1.0272855 1.3791362 -9.326374 2.6175628 1.3673354 -0.49818626 -2.0275316 8.344175 -6.7634487
839 -2.8656826 2.940362 -7.157222 6.7299585 -13.240077 3.107272 8.39814 -5.050443 3.9023595 7.405464 16.037336 -9.271708 5.6549106 7.3376284 0.6927836 -2.0706923 -12.6093645 5.161455 0.3562745 -3.1061437 3.7589467 -1.6713215 -0.565618 -10.532046 5.9556007 -1.143133 -1.9705446 8.2548 1.2752235 6.714281 -2.2155561 -4.400908 -5.4190097 -8.020954 5.502959 -11.932831 7.22697 -0.059277173 1.7738459 4.228853 7.5990505 6.4608245 2.3367434 -8.325033 7.5756054 -1.3487101 12.777983 -6.287997 -5.3303227 0.23186526 1.0726583 -9.5678425 -3.2974968 1.7023033 4.351692 8.09121 1.8810513 5.0378613 5.771864 0.9657308 -4.286525 -2.544002 -0.28509843 -4.054232
1321 -8.441185 3.7539032 2.8539648 4.110626 -2.2102296 -8.877186 -4.0191445 -7.966693 9.599292 -1.9963442 4.2878847 9.698137 -0.38507164 -2.9639158 -0.43326616 -6.4220033 -3.3732874 0.30039707 -4.025787 2.6580985 1.7838187 -1.3783292 -4.7548547 4.255316 -8.152003 -0.9713937 -0.13846067 3.141671 2.3202682 -0.37834302 10.823471 -3.4123871 -4.200465 -0.1160997 8.870421 7.3771424 -3.5781589 5.3206778 0.065991424 5.1780896 -2.228247 -0.22725005 6.446832 -7.2032104 13.575634 -7.5399485 4.8834906 7.7794485 -0.18177004 -9.446938 3.9412248 0.7575751 -3.9270747 -2.3895564 4.0650253 -12.973432 -4.3353553 5.5362916 -1.4774504 5.406535 -0.6276887 -4.525305 -6.3218865 2.4161966
83 -5.4509954 0.05881908 5.690123 8.940741 -2.6151066 0.61792064 -0.99214333 1.9554919 -5.416533 3.017609 6.220225 1.3231907 3.2628183 1.9636556 1.7256294 0.8542315 3.2260058 -4.5721273 4.5764728 1.8472768 -6.059328 -2.9637625 0.122071624 3.7724159 -3.4890804 9.630365 2.6523376 -0.5217257 -2.9869342 1.3667287 6.695034 1.4131382 3.4761243 5.874179 8.873186 -9.886027 10.627474 3.1460218 -2.5128968 -3.1701367 -3.2631912 0.48130402 -2.5812924 -0.63631743 -9.110104 9.03338 -8.2792225 0.20647873 -0.50121355 1.6499063 3.3827221 8.299913 -1.8922489 -6.77792 2.9298203 -0.3401778 -1.0949851 -0.9663767 -6.822194 -1.7352517 1.0623394 5.7401333 -2.1941354 2.5311415
103 -2.4442914 -0.15977007 -5.775379 -4.008765 1.1102353 -0.9950669 -1.2431644 4.1717186 9.577835 -0.04370899 -2.6452804 -3.7378418 1.8470823 7.6327367 3.692338 0.10396149 -2.4883745 -11.453988 13.097371 -5.875246 0.2293684 -5.209496 0.4194719 -1.5858823 1.5104291 -5.992362 2.6328306 -5.1219087 -0.6748455 2.1727824 8.426115 -2.4721496 -0.41686413 4.9257627 1.0757334 -2.0466373 0.70196545 -7.0313773 4.5746756 -3.6241364 7.141371 -0.796481 1.627896 4.6060653 8.411913 2.3341641 1.6803024 -3.682591 -5.5995197 -4.056287 -6.1803956 3.1302512 -1.5745643 -1.612225 -5.4166737 -4.5256824 9.01231 -3.3243952 -8.47859 6.990063 -0.5801364 2.9185781 -6.251151 2.6957679
34 4.020513 1.7616142 1.1310809 9.80681 0.8054973 2.3007982 4.5722165 3.0083487 -7.980467 -5.1158533 -1.2275022 -3.4420989 -6.6874747 3.992478 4.2820473 3.977981 3.22734 -7.430892 -4.2336564 -2.552008 -14.608273 4.674335 4.7744217 -1.6163367 -1.9416462 4.05315 -1.1243894 0.51526743 -7.714456 1.9880464 -3.7931576 4.1449986 5.389846 7.757116 -6.9020753 -1.972593 -12.99784 1.9566355 11.019083 3.4907882 -1.4547693 -9.1329565 -0.13788797 -4.6307597 3.3426476 -0.80944675 4.3266377 -6.004995 -5.242475 -2.2747152 5.356818 -3.1562712 0.37204522 -1.1606048 3.3143513 6.459112 -1.0039603 -0.09197328 -2.0639145 3.1667767 6.8894486 -5.656845 -3.1587307 1.5315813
66 -3.195177 -14.703779 3.486759 -5.495403 2.771977 1.4405354 -7.8985405 -2.425682 1.6892412 -0.024838796 -5.5864086 -8.408936 4.043234 0.99829024 -13.405007 4.205919 -1.5830659 -2.457328 -1.4664769 -5.234351 7.7860146 -1.648101 0.10728009 3.7081964 7.8050957 11.546981 0.91561455 1.7363925 6.80986 10.49547 -2.3600307 -1.5703361 -4.4363847 8.126604 -8.138619 1.3425666 1.1088462 3.623322 3.425948 6.5113254 0.20640264 -5.3794103 -2.7383409 9.74953 7.808424 4.7827506 -0.92920494 -1.9464957 6.9440618 2.88355 -2.9516454 0.68537587 4.125152 -5.6838293 -5.199694 -1.7580516 -3.3057094 6.4731164 7.541973 -1.4975276 -2.42535 -0.49581254 4.4647064 -2.4858506
35 -3.1735175 4.6731005 3.3057096 7.6160316 4.614348 8.708881 1.5151385 0.8727926 -0.35845956 6.6139007 5.7050357 -6.458022 -6.049613 2.140144 -2.6056738 -9.168738 -0.52693605 1.7680987 -3.7800202 6.1253276 8.927852 8.1953745 4.111296 0.68368685 1.4978807 0.8551559 1.4832115 -1.2479118 -0.5547511 2.5203497 4.5456686 -10.542623 -5.666512 2.0226982 -2.6518683 -6.369577 -1.1662363 -0.07970282 -1.7500658 1.6989319 2.8759427 -0.96957374 5.366035 6.891435 3.9232905 -2.3142393 -4.421068 -10.261838 -2.4809399 11.370466 1.5657233 7.817947 -0.9117101 -6.3954425 -5.419411 -1.1258304 1.7998071 7.421653 -1.9700254 5.070094 10.243168 1.7374992 8.299439 -9.422257
967 -0.33393472 -1.3036146 7.8837876 9.223104 -10.439192 -6.181836 0.32982007 13.92804 13.413832 4.8519797 -2.2802062 -2.6373827 -1.9819403 -6.6232185 -0.49689287 5.891871 5.434917 -6.8370414 -1.718213 1.2745931 -7.7182703 -2.2458715 5.3452754 -7.123312 5.400919 11.561267 9.436169 -7.698808 2.1552699 15.778922 -3.2336278 8.379341 2.5009024 4.8145957 1.1913534 0.6589528 8.65599 -0.88881636 -8.2412405 -1.9601688 3.27576 5.82059 -2.5409873 -1.7312396 -7.237824 1.1800804 -2.0191073 0.78573304 7.101706 -11.024736 2.994577 -0.19969042 12.892283 10.738641 8.539042 5.061306 0.2936813 3.3994024 1.1939036 0.76578504 -1.6672628 4.1114163 -1.8560756 0.19787918
3831 -7.577835 -4.5677195 -2.0212853 11.690037 -4.076764 4.5406356 -9.62431 -1.9226104 -1.6344924 11.442543 -5.032047 -4.1938953 1.4361877 -3.6513543 -1.8881596 -4.5422444 -3.9051745 -9.853776 -0.26705676 -8.223396 3.2588954 5.4327097 -0.86475194 6.761798 -1.1544014 10.688864 2.3424115 2.0323958 7.026031 -17.39937 -3.6356246 0.7599236 -5.2347755 -0.19889969 -11.013185 0.6436081 -1.9858501 1.8857658 -0.23502323 0.02845475 4.549806 -3.4472399 -2.266749 8.092613 -7.6878633 -1.0345886 6.118138 10.914967 11.209724 -5.7615113 -5.4551578 -1.4770142 3.146175 3.2349017 2.173668 1.968084 2.5830956 5.8003383 7.4769588 -6.8227744 -1.5048659 6.4951253 8.548333 0.46005017
49 -2.2612772 4.199027 -3.3397863 -1.8778565 6.6255593 12.218738 -4.1030307 -0.5221108 -5.690852 -2.8201323 -7.664601 1.8199878 -5.9734883 -4.902561 -1.5912455 -1.911662 -1.8778007 6.7244673 2.694704 -4.0110965 -4.3072224 3.8357854 -1.3779247 -1.8118103 -2.2450562 0.5214835 -2.8096619 7.931468 -0.10733826 -4.5547132 -3.6160827 -2.296638 -9.166499 -15.011851 -3.3448753 -6.190936 2.9498656 1.0362831 3.1697664 -2.1535914 -4.789826 -0.621651 -1.2566789 -0.14167458 3.375996 -2.1783886 -0.4922915 -4.7773066 3.4880183 2.7907336 1.0034773 6.3983235 -0.2437826 -6.658842 8.687864 7.374242 1.2001088 -2.6719534 -6.0828943 -12.477412 1.3556165 -5.540975 -2.1653461 4.4634867
116 -1.4393861 -9.462511 -2.0789955 -0.012888868 7.926078 -3.781692 2.9540644 3.9180977 1.1224977 -1.9934312 1.5658933 -7.8249693 -8.890076 3.5939329 -6.169967 0.67557317 -8.413806 1.4694247 -7.037724 -0.046618495 1.0707337 2.9820294 6.2468176 -2.877884 2.5072489 -4.7488685 7.393008 8.136899 -1.5486556 2.530281 -1.0381136 -2.7841911 1.3287196 -6.742221 6.7723217 -2.5381556 -4.620072 -6.52778 4.5301895 -4.6393595 -0.53082293 -2.433604 -0.15537728 4.737644 -5.9804144 -2.323649 -7.161493 10.288138 -5.2818427 -10.050078 -2.691096 -3.038138 -0.8076574 1.8236353 -7.289877 8.414515 -5.149637 -0.91484916 -6.057032 2.6258223 5.2332006 0.31793135 5.123306 -5.4962306
2905 5.8346467 2.4092033 -1.6427908 0.2820136 -1.2484866 3.3703904 1.8801509 -5.082666 0.24451022 -5.2147036 -0.45330098 6.130766 13.157341 3.6544614 -3.4828582 1.7232354 1.6699173 -4.6026807 0.2522968 2.6425188 -16.209543 8.344885 5.2606473 -7.464893 6.567977 -6.5934577 3.2655737 -10.097234 -1.9745228 -9.628931 10.189354 10.90801 7.5024905 -1.7265052 -3.985 4.499895 -11.27782 0.7471104 3.0536401 0.13470861 -4.7586994 -0.6074256 6.474056 -4.9209905 10.446125 0.0778434 3.946856 20.406973 -9.135727 7.729479 -21.52502 10.202942 -11.793442 -0.95895755 3.6705952 -4.562027 -2.674125 -0.9151919 3.5788476 -5.398849 2.2125053 2.7204845 -3.3022323 5.9411135
2799 -1.9266809 1.0203459 1.3649808 14.308282 0.43397957 11.273827 4.1065545 5.4270396 9.896561 -2.8572319 -6.9686427 8.286074 12.687273 -1.3465046 -4.9617276 -1.139416 -6.907161 5.8429594 0.87228113 4.0910473 -6.6205854 -3.63812 -5.660189 -1.0797291 3.9071856 -0.27195853 -12.93489 11.524467 0.074420154 0.69861615 3.6461315 -2.3334236 -9.7739725 3.370376 0.59355855 -11.67995 1.9345155 -1.6356646 -2.6052237 9.067043 2.6002772 1.5250993 3.7687938 -9.282788 6.7185946 -1.1423451 2.320079 12.4256735 3.9509928 -9.388968 -3.9623618 -3.673643 8.028025 -12.196715 6.559182 -2.5748415 -1.1898208 4.899108 6.418775 9.048454 0.55155516 7.50442 -8.614297 -4.423346
68 4.1289387 -3.1967719 0.31823742 1.6238041 4.9459143 4.016803 -4.5292387 6.774155 3.8953633 7.015544 -4.9982905 -1.5327059 2.834124 5.251934 5.270764 -5.877486 11.658812 -3.1622865 -4.371877 -11.163158 0.89522004 7.049086 2.5748055 5.7490077 -6.308199 -4.4193635 3.9644706 2.6688185 -5.9783454 -1.4478185 4.991212 4.837551 0.8636618 3.4990098 -5.159195 -9.108348 -1.2101177 2.5011747 -2.2956915 0.8227957 -3.7936194 6.30611 4.5212345 5.3299637 2.1211798 2.1512687 3.1301422 -3.9317186 6.930523 -3.8840399 -6.774798 -5.612052 -3.9841075 -6.562218 -10.687277 1.1655666 3.65297 -2.98256 -1.106586 0.19235337 -5.0832925 4.730525 -2.5500152 0.61256146
3803 -1.8449706 -2.7740245 2.2478504 3.5819235 12.935557 -4.72214 -10.38572 0.30783063 4.191018 9.532424 -4.1366343 6.534689 -6.127157 10.08262 4.950862 11.1201935 2.4716551 -3.8938732 1.0666351 -2.3515644 -2.1896834 -5.358593 2.1785953 1.0436587 7.238044 4.839206 6.4083586 -7.0871305 0.6239194 -1.2852517 -1.7616216 4.955434 -4.3677354 -8.52421 -4.6332526 5.4771247 5.5282283 -4.6086817 -4.810519 10.469082 7.8780265 2.2459939 0.2038522 0.9535657 4.9556017 2.0007317 6.45588 8.118893 -3.1469512 3.3120577 -2.0043335 10.117862 -5.924018 -11.206132 -5.288952 0.3514954 -5.5454545 -0.9820241 -7.9893684 13.263721 3.4896822 2.8317976 -6.342264 2.542854
1963 -2.715468 4.788731 3.6134555 7.0721025 4.278319 8.72316 2.0707173 0.4619627 0.8109382 6.5532923 6.0581098 -6.151819 -5.8941736 2.2178173 -1.8466742 -9.149182 -0.18639113 1.8215746 -3.5748775 7.4071074 8.466379 8.51029 4.4292355 0.39581704 1.2026149 1.1541815 2.161541 -0.8176726 -1.0033582 2.4328632 4.5950904 -10.277418 -5.593074 1.5906324 -2.3734193 -7.284853 -0.80036485 0.8499103 -1.9410489 1.6176741 2.6660695 -0.83783257 5.3580465 7.5626283 3.764905 -1.8414662 -4.338674 -10.164846 -2.1332319 11.045452 0.8638509 7.705449 -0.3051217 -6.0096645 -4.991931 -0.90641457 1.7779669 7.2345138 -1.8649546 5.210026 10.219068 2.158306 7.981116 -9.608737
96 1.7697041 -6.192824 8.704349 -2.4575236 11.848428 -11.236124 6.146324 -4.600885 5.7627153 -4.723657 -2.374946 -4.688762 -0.95438296 -3.2374976 -1.4746469 -8.642647 -0.22938564 3.129828 1.3877463 -4.7356963 -4.0559797 1.9154634 -5.772165 -4.452111 0.24743952 10.60288 1.4473568 -1.9148277 3.7366374 -3.561378 6.455346 -5.573942 -3.6734042 -3.1059556 -4.929928 -3.3999672 -3.7615364 2.1589792 -4.8419027 -0.5613202 11.084568 -9.165941 4.235366 6.558997 2.759771 -2.3886583 0.3238702 8.42493 -2.0255344 -5.600763 2.7988553 0.16581823 -3.3777022 -2.3450415 -5.090692 13.964082 6.9272323 0.24125768 3.977027 -2.202808 1.5512854 1.2138495 2.4507911 2.425775
67 4.8753276 -9.389607 -5.2976055 -2.3938718 5.219954 -1.6491604 -0.27241406 2.3261878 2.4783542 1.4633168 3.637523 4.64046 -1.8801637 -4.5615034 5.4974675 -2.766 2.8156822 1.859206 0.2841776 -0.03317598 -6.526032 2.015357 4.1610513 1.2124871 9.486384 -0.22952434 1.2401232 3.9620616 -1.7848735 -4.332847 10.416342 -3.7903154 -0.073684715 -3.0856335 -8.7649555 2.5439103 -6.8148184 4.3825974 7.7743382 11.2357855 -1.5960588 -4.0062566 -3.3387697 -1.2935216 -1.446481 -10.437888 -4.5263095 -8.774114 -2.319115 -0.6273064 -2.3808026 -7.114632 -2.1051314 -3.9093294 0.89471745 -8.814131 -0.3684497 4.256295 -1.704821 -0.36392787 -4.2805133 -1.529652 1.1959811 -4.356306
686 -8.645183 0.025722064 -0.9570095 12.409528 -6.7325406 1.5450789 -6.487705 -4.0124254 -2.1477103 10.855324 -5.1062317 -3.710294 -5.753265 -1.9639999 1.2826829 -1.898616 0.15241222 -10.526549 -0.18978308 -3.2646105 5.758429 6.465038 0.4969493 7.1914344 -4.2851644 5.4031005 0.92593396 1.740257 2.9813814 -13.972389 -6.8186927 -1.9657906 -3.4040015 0.6482777 -8.771835 0.7728896 4.3631463 1.1362263 0.3844349 2.0576224 6.122719 -1.3627235 0.44722393 3.5453284 -13.043056 1.186765 4.265676 11.222355 8.008724 -4.4062834 0.06821339 -3.5063698 3.1471896 6.584121 3.8930132 -0.048151013 2.5471954 2.6821525 -1.2946776 -4.993269 -1.9785663 8.008688 5.9891744 -0.87251234
1 1.436865 -8.271103 -1.9158653 -3.690089 -7.457331 4.2956467 1.5181231 6.1662836 -5.8299103 0.21556515 4.8491573 -0.9191659 -4.865679 -3.9594767 1.3710401 2.4978397 5.9330554 -0.07058364 4.6611176 -5.2081923 5.9601755 -5.0661383 10.907663 -2.268549 5.9127812 -3.419177 -6.6750956 6.1682296 -3.727002 3.5929086 -4.713165 5.443842 6.896723 8.633293 -5.8212147 2.1559572 -0.66745 7.4152236 -3.2682936 -5.1921277 6.924811 -4.1116676 1.000217 4.528599 2.1044998 5.463274 1.2687471 -0.405429 10.48075 0.9806863 -0.19713178 5.070597 -4.3644667 0.6065083 1.112134 -2.8443902 -4.0043325 4.2406445 -7.610798 -0.329689 0.7181714 -11.995752 -5.8227234 -8.746438
790 1.5831038 2.9177763 5.3206415 -3.061638 0.13969307 -12.351625 7.824433 -10.01542 -1.653778 -0.4483439 8.032628 -2.9119153 3.729214 14.873572 -4.0393643 0.16214465 6.692023 1.8324732 9.468138 -2.4059293 7.59468 1.9714401 10.038724 6.1232376 -15.18136 -5.3655815 -7.1763887 7.745055 -9.371076 -2.9554973 -0.5130521 -10.185068 10.294936 -7.0435643 -4.1841483 -2.3414137 -5.8043237 -2.0447319 8.309833 -5.0792675 1.0367371 -1.9219155 -0.4805792 -6.1320767 -8.604726 14.069753 4.734581 -0.04095714 1.5041978 6.2088246 -1.3369787 -5.762059 -3.603383 -6.538868 -2.5699956 -5.3964367 4.2223654 6.5141006 1.9862401 -8.49416 -3.0002387 -0.119327165 -6.89822 2.2545068
2838 2.1292603 -4.8347454 -7.8183928 7.5407505 4.157192 -0.5228462 4.520992 -6.5789843 11.078564 1.404485 -0.99680585 2.3070438 8.857487 16.555481 0.856806 1.726501 -1.6985507 -4.0277677 -6.5535727 2.235353 -9.74682 4.3168826 -1.3281691 -0.7263225 -5.8953915 4.632893 -9.001621 1.364579 -1.3485028 -4.545703 10.892925 1.19739 2.5841763 1.6900414 8.08769 7.909346 -3.1434224 8.576694 2.2041583 1.7357448 -5.7734427 4.3307285 5.005333 0.8141159 -1.449707 -0.6225599 -3.1083946 -8.167244 5.3596005 -6.732915 7.710112 2.5717704 6.714515 7.7427216 -15.052919 -4.773722 -2.9261296 8.240487 -4.428359 -11.921903 -5.0071163 -16.783623 -6.804132 -2.361522
275 7.195059 5.852806 -5.286989 0.18139045 -5.834717 6.4097347 4.301443 4.787561 5.353554 5.1539392 10.369275 1.3144125 6.84628 -0.52257264 7.057483 2.5419488 1.964162 0.21209788 -3.3041365 7.844817 -0.7422755 1.5937213 -1.3428024 3.2445755 5.6768107 5.168142 3.6967037 8.1007 -1.6505741 -3.405756 -11.929179 14.468405 -0.20791379 1.3949834 1.8980397 4.2715836 1.5354626 1.6464723 -9.00498 0.34397614 6.080996 1.0639515 12.644381 -7.1343975 -3.1882899 0.89396447 -6.4879813 -5.6029253 -12.44876 -13.657594 -6.125889 -6.0216045 -0.16197048 -4.1295114 3.2863648 -4.1287885 8.159447 8.818984 9.53392 4.8821473 6.6487036 -4.0960493 8.282739 -3.341483
2108 0.6114903 2.3691628 1.1224829 -1.7679578 10.750149 -2.02887 9.484163 9.25828 -5.068183 -9.122007 12.538722 -9.537838 5.49588 0.89597785 1.4156349 -2.081078 10.372198 1.4393867 -3.8016572 7.852903 -6.335838 -1.4979984 -1.2295632 -5.6665683 9.041704 5.109466 -4.851033 3.0092998 2.015672 -6.173498 -0.9338414 -0.016670244 12.289996 -1.4983317 -14.672944 -3.050618 -4.559386 -4.659457 0.43855172 1.3104796 1.5697716 -2.3881245 -9.652886 2.1484976 13.716607 1.6091781 -1.6078663 -4.1047497 -7.9952087 -3.3961792 8.397103 0.29983392 5.8649216 -2.984295 3.3331156 1.8647339 -3.8490376 -1.5961697 -6.4541774 -4.9534726 11.468163 8.094034 2.9427078 11.960755
114 1.4403197 -0.14399014 -1.0592227 -1.7977349 -5.0272593 -7.7307377 5.3528976 -1.3500049 -2.3998685 -0.041810617 5.3961535 4.9786854 4.710634 1.7132472 -2.2845073 1.2570629 -4.3859897 -0.20026016 -2.0641031 0.7790231 -0.042101808 1.5764569 -4.7189064 -1.6766516 7.954953 -4.145148 3.9850435 3.6454766 -9.818128 -2.7088315 1.6793116 3.9313664 9.328121 -2.0198827 -3.1360955 8.88617 0.2100926 -1.5587461 -0.90062016 -1.9362408 2.0603254 3.3791862 -8.920202 5.841361 -0.63430417 -4.284284 4.046585 0.41540563 5.606741 -8.552306 6.0254364 0.40853137 9.182594 -7.5707307 -5.6051183 6.7664175 4.2678313 2.5839224 -2.6803086 3.361389 -1.0293896 13.080215 -5.4774866 1.0540944
1231 3.9997506 -8.93044 -1.2227699 0.30593628 6.519974 3.6893055 0.7881583 0.77905035 4.631671 -1.2458851 4.1660185 -3.3998964 4.7853885 -9.443019 3.211541 -6.594763 10.435225 -5.711685 -1.2949713 -2.6682882 -4.6573358 4.106954 -4.765054 6.878347 2.0446048 -0.6099883 -1.5705518 -2.7280416 -9.798326 -1.8691894 6.7405124 -11.054837 1.969485 -2.0634768 4.614182 4.483156 5.2322984 4.091877 3.165168 8.7074995 -6.1007395 10.810391 -1.5845836 1.9506965 -6.438943 -2.11628 -7.5987015 -4.6866336 -6.4183173 4.496099 0.6713604 7.776879 1.4524541 -7.9664016 -2.4928088 2.0208716 4.046614 5.5161715 -3.66046 3.9474406 -0.97013927 -6.3579187 5.3495245 -1.2685542
121 0.6990315 -2.4421272 5.0203676 2.063292 4.763942 -3.298962 1.6499724 2.6909153 -0.19421554 0.39806947 -3.2178571 5.2228565 -3.583181 7.664528 0.37925726 -1.5276285 2.9039454 6.2398944 -5.777119 -2.611501 -1.2793537 8.945194 0.30874053 2.369569 7.353054 -6.403957 0.16218208 -0.8460023 -7.733748 -1.6901917 -0.8460625 -1.9184328 -10.028507 10.139918 -6.5036273 -1.5551838 6.791211 -8.267918 5.150291 -6.7429633 -1.7213151 1.3718699 -0.26462933 -2.6465955 3.5907068 -2.9758646 -2.2751722 6.548716 2.859014 2.7167 -2.425452 9.579921 1.6342541 -7.2786436 -0.78168577 1.6958029 -1.5451247 -1.2430499 -5.0507045 -4.2064257 -9.659833 2.0148597 -2.5625353 -2.3986053
15 -3.4855015 -1.8596841 0.59871596 0.9478042 -1.0469211 1.937034 -5.9149485 18.547112 -1.137215 -3.1671572 5.859787 -5.4466677 5.246419 -8.385734 4.4367614 4.2879314 7.3856244 0.91662276 -2.797768 2.5728073 -2.5847201 -7.534 2.5389214 -1.7924887 -2.919853 -1.5914294 -2.4234884 3.331449 2.686284 -3.2653627 12.701867 7.0920796 -2.206841 -6.2378607 -6.4956303 -3.7214973 0.3915637 -8.52429 -3.273792 -0.3527275 8.639788 3.060182 -0.5755034 2.9374626 -2.0116405 -6.2314672 1.4733193 2.714491 -3.3713188 0.08794619 8.796436 -1.0779815 2.490026 2.0065722 -3.6135845 0.8026661 -0.05770435 1.5415425 3.3501635 -8.670518 3.634626 0.88794124 0.093423784 1.1132091
101 -4.8259683 1.5272363 4.307472 6.018133 0.4697502 1.9523176 -0.35609087 -2.7661834 2.189044 5.2982483 0.107944086 -3.9095025 1.4079717 5.222897 2.8303008 11.418891 -0.24373357 -7.348009 1.9612151 0.19216792 -5.9581127 4.2595253 -3.8486862 6.921214 -9.971124 2.3362591 -5.8378816 -2.2159607 -4.2669024 5.7229424 4.925102 -1.8186607 1.6947083 -3.7060375 5.495984 4.9434485 -1.5272089 0.6367899 1.104455 3.882841 -2.6869545 1.5494101 -7.7782965 5.160301 2.002386 5.9889174 1.9167281 3.3428724 -11.782471 0.5934863 -7.3848395 1.3422219 9.482137 -2.1182847 -5.093286 2.0308127 -6.632368 3.179222 0.9052999 -1.9377993 -10.235956 7.9067874 4.5896277 1.2708206
942 -1.4329 1.2106752 6.5768843 2.3515794 2.8756034 -10.894013 0.97480416 1.0372844 8.068983 -3.2609763 6.163419 2.8857822 1.5824108 -4.3527613 -13.2131405 4.8711777 -5.105193 -7.5651116 -2.7109807 -4.1778007 1.8621664 -3.6647875 -0.96246415 8.248642 -14.2199545 -1.3484188 1.5377145 6.1535974 0.86336464 5.4396725 12.9139185 9.713745 4.42509 -2.1535919 -3.998289 10.331799 -10.077186 6.8764734 2.2589352 1.8173062 0.39445806 1.8202065 8.645546 -11.453516 2.9762583 -2.084397 -5.959026 5.7660713 -5.6802382 -1.9146888 11.83461 0.44070688 -3.7798715 -7.669815 6.717508 -5.0270634 -2.8478925 -3.0597763 -2.8409297 5.7500896 1.1046679 -9.962971 -7.1066403 -2.094296
63 -2.030523 -9.081802 0.2786711 -0.15558626 -0.4823092 -1.9817346 -4.1079946 3.8576548 -4.067447 4.378784 4.7241178 5.6379647 -1.0952948 3.0353546 -3.599037 3.8086383 1.4240618 12.028672 -6.9608383 4.8962846 -1.4146751 1.5464144 -5.242931 0.5383286 1.6394916 -1.2731439 9.307549 3.9805102 1.1403388 -2.3693066 -9.586906 -0.42821425 -3.84189 1.2006083 -5.1017523 -1.5326812 -3.1137087 13.684761 -1.8976563 3.672093 -14.05009 6.273808 -2.0352147 -0.726937 -2.4496596 4.315835 1.9269336 2.7017584 -3.0322375 -2.1002371 -0.15526809 0.06620505 -3.1169412 5.622192 3.1124992 -1.443833 -3.055726 3.3910773 -1.0188034 2.7819057 -0.17598534 -2.256684 3.129618 -5.7381935
52 0.91216063 0.504601 -3.2212522 -4.364921 -1.6978819 8.240048 -2.928752 -7.658758 -6.3645144 -2.2973654 0.4464441 -5.684266 -9.461753 3.3951192 -3.1106036 -1.9456437 0.7751427 1.5982693 4.97102 -1.2082977 -3.9332633 5.2488613 -4.3302755 -3.6568742 7.847476 -3.0321224 1.12315 -0.42910144 7.2476726 3.007726 7.0176296 9.495074 2.2280042 -6.6550846 -2.0687127 -2.2406778 1.0259447 -4.6306744 5.2496443 5.328383 -1.8634764 -2.1303263 6.593548 0.20906112 -0.7280913 6.750493 0.89935976 -4.7321405 -3.1286335 -11.101465 5.3912406 5.136694 0.75435966 -6.2895784 -0.33848155 7.633705 -0.66745216 -4.799742 2.9137437 -10.799073 -5.6949944 3.764046 4.5444894 6.6418967
4249 2.1420014 8.8964815 -3.0451102 9.874362 -5.5549674 14.515684 -5.66678 11.422756 5.254182 6.783206 -3.80118 4.336033 1.5420992 -0.14132439 -5.514123 10.378484 -1.3944765 1.7914307 4.16686 1.804126 -7.965368 -1.4619831 5.5998244 3.42672 -2.9643893 -1.9880228 -14.319579 6.1558046 5.5937395 -4.7292542 -2.157205 -2.5447986 -3.2489462 10.7462435 3.863627 -6.0722933 1.8474423 0.5671691 1.9772769 1.7195469 9.741265 1.0019196 0.25800005 -7.6731825 6.696058 5.3371363 -2.7189894 7.4587216 6.3700027 -12.5286455 -1.6469579 -11.030935 7.349977 -4.921002 4.3145747 5.7084394 3.094341 6.9379363 -2.687884 5.071836 0.008063023 1.214561 4.8108215 -0.8081978
2175 0.29051587 -3.6098506 -10.117223 1.1226227 -7.572062 1.0132197 2.2442424 -0.8351986 -7.019946 7.3763933 8.82256 -18.833727 4.0473547 -0.95587534 2.188781 4.7097673 -5.8634987 7.435305 0.8106962 0.6978295 -5.8626404 -1.8094571 -3.669472 -3.8341677 10.731136 -3.7418056 -4.9587035 6.4400334 -4.4540334 10.521976 4.391953 -1.006788 -4.6930513 2.4149563 10.190296 -13.893174 6.093142 -0.5899036 8.676613 7.916974 3.5362337 -4.441904 5.5303535 -10.511384 4.354136 -1.5090865 4.233772 0.3358201 3.1708503 5.9660954 -0.38664877 -6.787869 -1.0690516 3.9837277 -5.876579 8.368721 -3.6506417 4.9844885 4.229822 10.226091 -4.771421 6.688988 -5.6672487 -3.2435026
113 -2.834149 -3.1207838 0.50624835 -2.8135214 0.8232287 3.4691086 1.6340045 -1.7564608 -0.9956121 -1.2918772 -11.182553 3.3871818 -2.921742 -4.961551 3.349173 4.3443556 2.627573 -0.39174014 0.86925614 -4.2273445 -7.45874 1.9244606 -3.4837217 7.013831 -2.585311 2.005447 0.9840401 -6.8253417 0.4003552 -1.9225545 -2.8540013 -0.17021081 2.3397892 -2.5808544 -5.509944 -9.042033 7.4548173 -2.2866728 3.2759385 2.9056256 3.8249826 4.6169963 -5.2107534 -3.4075592 2.0969784 2.7091966 5.428104 -2.5018907 -9.640307 -1.7531191 2.755966 -2.6500714 -4.9301543 0.7774612 8.269336 -8.167516 -6.577328 5.321134 1.7500479 -10.170567 -4.631163 -8.154488 -10.869336 9.170506
107 2.4322767 3.708949 -6.6827703 -3.2204297 1.8357253 6.3920255 -0.026770227 3.4909039 0.109338485 -2.3153536 2.4708552 -0.67265564 3.7171938 -1.5886317 0.57911915 -7.112455 -9.6059 -4.181868 5.772478 -3.5130239 6.350034 -0.54246074 0.66739786 -3.96964 -3.865634 0.3666038 -2.7984083 6.0597324 0.42377827 -5.4824023 -1.9198976 3.5833988 -2.4584112 -10.6665945 1.6848145 1.7234154 1.1025144 0.47245494 8.784883 5.636661 2.2794933 -6.234129 6.670804 7.6653056 3.0650556 2.1364493 -8.250304 -2.8492005 9.896531 -1.3839552 -4.4015493 -1.4587121 -1.1483524 -3.36158 -8.513156 5.986165 -10.425462 -4.6299953 2.145807 -1.9497745 0.09531576 -1.1009558 0.27401364 3.780059
2900 -2.504563 1.422719 -8.473297 -9.453914 1.78194 14.8897295 9.908406 2.4223137 1.330647 -14.588817 -1.4553913 12.368347 -6.2082877 -2.8653584 0.644478 5.262258 2.6493773 -2.907796 -4.0366755 1.9397913 3.1285563 -0.94992304 0.7643262 1.0487432 -5.243218 -2.97641 0.8160457 7.8464093 2.6585705 -5.561906 -2.063932 -4.74463 -3.756489 -0.8559599 -14.462551 8.897513 2.4815052 -8.996366 3.692589 4.0217533 10.336133 9.646604 8.70262 7.246559 11.250617 5.3373265 6.607373 1.4874948 -9.966197 -5.001367 -3.7521489 -3.2167437 -2.1107738 -10.361721 -1.513365 0.5335914 -4.1511345 -0.7614433 2.7607238 10.561031 -2.8311076 2.3510008 1.7567657 -7.8000154
1055 -2.0313742 2.779972 -4.026034 -6.708557 0.6653881 3.35441 -1.4164451 -0.2834067 -3.887564 -10.190125 2.1378222 5.984647 -6.443507 6.676251 -8.008712 -0.6573481 -7.076298 -9.666476 -4.105717 -5.531535 -5.9845967 0.020998467 0.06868267 7.992802 -2.852639 -6.936548 6.229076 6.072081 0.5119231 -3.232196 -2.3609612 6.253517 8.701855 -2.585498 -1.0174228 2.7723844 11.346238 0.7049084 -12.088032 12.040123 2.8888412 0.3079203 -4.7212625 3.9576974 1.7352483 -4.5560703 -8.281575 4.1502895 -4.897193 7.146195 -2.9180937 8.911499 -8.403153 6.0504684 4.758333 -6.9063845 -1.7893455 1.4867003 -3.6895769 6.9389095 -9.595275 -0.16161296 0.67228115 15.37181
54 0.46147272 7.389944 0.029379776 -3.1433353 2.2535012 -0.5053088 4.2850366 -0.8498344 1.8556291 3.9761999 -1.1788138 3.2031481 2.76573 2.9499547 0.23609357 -5.61949 -3.362051 5.1074224 -8.482057 5.0611296 1.5726812 3.6372805 -5.8794394 0.3868972 5.2598615 0.2677025 -1.5904065 -3.982126 -8.622549 3.148125 -7.303836 2.0916767 -2.9342995 2.0537872 0.27192733 -5.7874265 9.106109 -5.4200697 3.9925735 1.0748775 -0.2770755 -5.233051 4.5498614 8.063385 -3.9018316 5.2127233 -0.67324394 9.432444 -0.7915709 0.20720461 0.34176353 -1.7084394 -0.32991078 5.6402884 4.5202346 -1.7750156 -5.415607 -4.222621 0.4922666 -11.35075 9.608996 -0.35071698 -5.412088 4.7287083
1319 -6.3449984 8.930653 2.1367385 6.17005 -0.24802946 -3.3732963 4.604404 -2.8911238 12.864007 5.1117654 -8.287279 -1.4422133 7.9821353 -6.267591 -7.0942245 -5.5337415 1.4272232 7.114166 -0.4758999 1.2649536 6.8990436 0.9754474 1.1292611 -15.734154 4.1835327 -15.8064995 1.1832849 4.959016 -3.383737 -0.06600287 -2.9914114 5.5904675 -2.9827363 -6.582207 4.506595 3.1467946 -3.1036105 3.3722754 9.828003 -2.194834 6.589175 -6.276822 2.2609243 3.4669127 -12.075502 2.961969 -0.61594623 2.0663478 -4.081924 -0.26078382 -0.6743088 2.922537 -0.9668328 -9.713985 7.232682 -8.573066 -1.9472439 -2.2597435 -3.4605763 1.5607294 -6.0041823 -1.815807 -7.6592364 1.9735014
1039 -2.7542627 -3.75551 1.9955611 -5.516598 9.990449 -0.106859274 -7.1811366 14.545104 -0.73099625 -5.4736342 5.667244 -12.901586 -0.7696673 -2.9026253 3.0053184 -6.629806 0.5571392 -6.094985 -1.7520556 11.061089 -4.0349617 3.7206836 1.9707332 -9.185179 -7.44985 -0.9039997 0.6079285 1.1678369 4.5342517 -9.007173 -6.378613 3.0634298 10.86229 0.5970337 -9.361138 3.3071573 10.03642 -0.016329236 -12.103732 -0.88102037 -4.9195614 -10.491736 -3.320442 -2.5511801 9.018607 4.153231 -1.7401043 -12.765113 4.7434597 -6.149447 7.665423 -0.9810599 -11.525073 -2.4992404 3.6357296 -9.7556925 0.53907853 -0.91456985 -6.150503 -5.374857 -7.9049373 12.39705 -3.7781675 6.3258657
251 -8.32446 -11.160216 -7.974005 -8.620001 -4.428917 -1.3834172 8.253244 -2.3620653 5.480476 0.33696276 -0.019775681 0.13791344 7.483377 -7.217555 3.6344264 -8.84033 5.3061404 6.4638515 9.615687 -0.07371676 -0.023453116 2.3064613 6.36645 5.460507 3.9670272 6.331364 -8.163761 -1.2657555 -2.2298114 -5.589638 0.7124698 -4.3120823 1.9031261 3.6454542 2.1785195 0.40183786 6.3148212 -4.508007 5.4942775 5.9939423 -7.6680775 -12.387583 -0.11430658 1.4209257 3.0925388 -3.861568 -9.408966 2.4536002 0.8351493 -4.0080338 -3.4885988 -3.5956059 8.113421 3.0910573 2.1558115 4.076187 -2.7013297 5.6505013 0.5890108 9.505672 4.866289 -3.8224947 -3.1747532 1.0390937
131 6.5633483 0.016151685 -6.65163 3.3851833 -13.928425 4.229791 -0.5599325 -1.0213213 -2.8105905 -9.105581 -3.8887687 -5.0712457 -0.6253959 -9.397079 -10.779491 8.792082 0.39406365 -5.3166404 -7.3617187 1.1876966 1.100197 -3.6247365 0.98543364 -0.48466945 2.0162783 -5.3016458 -5.7763433 -3.6054251 -6.026631 2.1920197 2.245272 -3.0323868 2.3865738 -3.092383 3.5524364 0.60362655 -6.141722 7.7660003 -1.1164461 5.6648297 2.0394306 2.6846008 -5.1288795 9.382459 -0.02864956 -1.4928033 6.5854564 1.6792966 -0.95625395 1.9489074 -1.7585479 5.524161 -6.268104 -4.3585114 -3.1565313 3.5046494 -1.7906859 -5.3111753 -1.5423088 -5.687654 15.70156 -2.526575 -3.664587 8.776357
187 5.24969 -3.3057287 -3.3283448 5.3050313 -5.30298 4.7807283 -8.839326 -0.49979484 -6.2806935 -3.5219462 2.16493 -0.74947464 -3.6679158 -11.444204 4.5207653 3.759951 -3.0957685 -8.268176 -5.2851157 1.0485876 -7.9650507 2.3765912 7.728881 -7.0519295 0.63129544 -12.240543 -6.7412543 -2.7620008 -3.5596755 -9.16166 2.129286 4.44144 -9.813749 -5.6963677 -4.101084 1.7015835 -14.396506 -5.5146184 -6.130777 3.1070788 1.6639405 10.04055 -11.220206 2.339346 5.77012 -4.146466 -5.2526608 12.769385 -4.3010483 4.213893 -6.921457 2.8660371 -5.4673605 2.4127774 -0.3969603 -0.8825939 -12.186365 5.4651704 5.9264174 1.2541047 1.125785 -1.4060259 -8.493035 6.358493
1207 3.5524342 6.3480544 4.379022 -1.6614144 -0.10729918 -10.851096 -12.464139 3.7801774 -0.6290405 -7.8765826 -7.7549076 3.7070265 -6.449964 -0.9777606 0.551792 -6.2220736 -1.8357571 -2.1272163 -13.0879755 4.0841455 4.616988 6.5781345 -17.224201 -0.061699975 1.1356236 -3.2286987 -7.902623 -1.0402933 -10.742183 6.8712206 3.8134086 2.226901 -6.1700735 -5.1253967 0.5456102 4.722885 4.144192 -7.005555 15.511693 -4.3285437 3.3229067 1.1189564 -7.785334 5.601854 -5.118294 -1.0657821 -0.3833734 -2.1300242 1.0278893 4.2245865 -7.0090456 2.9457734 -0.3278042 -4.562303 -3.4936266 0.8432954 0.71915054 -3.8152077 -8.214409 -0.68763536 -6.414442 -5.1458645 1.5839998 7.192673
599 -4.117673 2.148851 -2.5413094 2.309853 -7.3445797 -5.0441566 -2.5107048 -0.68322486 15.47407 -5.440885 -4.158951 6.5093474 -2.7510355 6.3324814 -0.38983092 2.9281013 -0.20731339 4.4291797 0.18651745 1.4778073 -1.9719976 -3.124539 -6.7573195 -3.6102223 -12.005647 14.52068 -4.9904675 -1.5327315 -11.301002 -3.0091183 7.346852 -4.81845 -3.4658039 -4.8506913 4.512345 0.08982514 -4.853496 0.2066259 -0.116144426 -3.4298244 -6.2727537 -0.92192465 1.3511012 5.6663785 -1.9126328 13.502583 -0.4394254 -1.4628605 -9.202812 -1.9488996 10.053068 -0.47902963 -1.7856688 3.0717077 -6.2977667 -17.473148 -0.126981 5.5495944 -3.3500173 -7.482559 -9.325445 -7.9123635 3.150923 -6.091674
3555 3.4417393 -6.820624 -3.200861 -6.7242966 -4.995192 1.8102174 -0.27829257 -7.433868 -3.0026705 -8.552681 5.0310864 9.124173 -16.759542 -6.1329985 -9.427827 -1.6350787 -1.7019382 1.5459816 1.119584 -8.058178 -1.2124548 -2.144552 7.2096725 -0.58662134 -7.10167 -7.954879 -3.457298 0.93374395 -3.8791506 -0.26189855 -0.37653008 3.9979444 4.4541802 4.917803 -11.174743 -9.6069765 -0.50850147 4.4427543 -0.7313919 5.5619445 6.5635056 9.140533 -13.4993305 2.9185658 9.880132 2.6149528 1.6333796 4.8759193 2.9699037 0.46249413 -2.8964484 7.0508804 -2.3768559 10.495703 -3.752999 3.9815176 -3.6518478 6.055784 -2.6730072 6.921489 5.6243677 -9.340499 -8.869278 4.6393905
27 -1.3787991 5.810074 -7.283777 1.06525 0.22643493 2.5603209 2.450755 -1.9658432 9.817913 -2.3414125 3.7796104 -7.6243176 0.7637907 -6.7353573 -9.044251 4.7654057 -4.248659 3.753794 2.3752277 -4.5722594 -2.1977382 3.2933114 -1.6291378 -5.1353645 -1.3078623 -2.4577208 -1.1795805 -6.733669 3.8964481 -3.2047756 4.885809 2.184926 -0.5318911 1.6186041 0.7619486 5.05786 1.7756073 3.0786018 3.9016278 2.7922275 5.6680374 -2.6319861 -4.779224 -5.3549037 -5.8081613 4.9059157 -0.6306822 1.0699466 -0.8040281 11.051079 -2.223244 0.6491013 5.1146955 -1.6441214 -0.05718277 -0.23156512 -5.8980865 -4.258186 -0.7945096 -6.3679643 8.9018 -0.31118876 5.1004806 4.431292
1155 3.5563054 1.0745603 2.5268328 -0.638431 -1.3668503 0.14297639 6.3485456 -1.2270712 -5.953376 -4.2014046 -5.2757087 10.265579 2.5353534 -2.982026 3.9373374 5.5245943 -3.8398101 -0.38397518 2.1287088 8.841921 -2.1118302 6.7655177 -2.9205732 -8.751317 3.3628037 -0.59650546 1.4433073 -5.092756 -3.1546173 -2.1623626 -11.217087 4.448089 -11.238557 -0.15586385 -7.9398293 2.2649333 6.407809 -4.809237 4.628321 0.27789113 2.7168598 0.6706761 5.197919 5.015581 -0.01343302 4.901325 -15.496894 7.650113 -3.1666744 4.0505166 10.308653 -3.868652 10.330925 1.9473403 -2.2627437 2.0066607 -10.8637705 -3.1081295 -2.3366234 -5.216334 6.3340664 5.353063 -4.194018 -0.8877961
97 5.019206 2.8549745 8.108118 -8.309134 -5.712274 -10.02601 -5.0954595 3.4555383 0.97955346 4.238944 -1.1667155 9.657111 0.5993381 2.2562008 -1.997944 2.1487617 1.3342258 -2.6845841 -3.8738399 0.34596187 1.3309953 -2.4634786 -1.1413307 7.231783 8.842551 5.7902493 0.25841057 -1.9405472 7.263485 -10.424184 1.8548268 -7.1130376 -1.8844358 -4.5150766 0.3039518 -4.8522487 -1.0632203 -8.315765 4.205228 -0.8341024 -3.3648365 -6.0692115 -0.5076193 15.94477 9.465664 0.393753 -1.8561084 -2.0560546 -7.256175 -4.00324 1.4662673 0.24665299 -6.6487947 5.0581207 -4.4228287 3.9477208 9.143899 3.4166238 -5.57572 5.324248 -2.8226457 -2.7397783 -3.3726134 0.17050983
22 -2.0037494 -13.47622 -3.7510803 3.1382535 0.16552965 0.20504859 -4.174433 -1.2345068 3.8323252 7.948129 -1.7419256 -0.81255126 -8.210856 -2.922872 2.1078453 -8.407442 -9.453904 5.301371 0.08127127 5.7143655 4.1472654 3.1807995 1.364971 -4.810547 2.6844022 -2.767969 -8.739438 1.526161 -0.5902359 -2.955495 1.0250291 7.640676 -2.0024402 2.3205142 1.5236782 -1.0367221 -4.079544 1.947184 -7.7755933 -6.01758 2.4357631 8.54165 -6.080878 0.69168633 -5.436685 2.5688107 0.08048014 5.1969953 -12.770742 -2.287989 -2.8881433 8.188802 -5.201886 -6.8554916 -1.6747162 -3.194456 -4.5611386 3.6138508 -6.5267944 2.695664 5.2324004 6.4664383 -1.3169324 6.184975
3504 -5.920062 -11.548807 0.61572874 -2.64744 -0.9797204 6.4852796 1.1898004 4.785113 0.37721503 0.85299706 9.090606 4.2816424 -13.984123 2.6473916 0.7077691 -0.1459054 -8.713748 -3.18578 1.9371923 3.1845882 1.718863 7.4422975 -2.314594 -7.272257 2.468307 -3.815522 -1.6739767 -2.7164898 -1.8575804 -13.573815 -8.190494 8.381587 12.676276 7.3660717 -10.720539 -1.5378735 -2.60179 -0.06758273 -4.2675734 -1.693044 -1.072191 -6.8736773 -8.356008 -11.157572 -3.3578863 12.828975 -7.856953 -3.482765 3.8737326 -12.5753565 -1.1827285 -0.96791965 -1.4836429 3.4135656 0.9932298 -5.154848 1.2092397 2.3042314 -5.671438 0.9971042 -5.729623 7.708586 12.988801 3.8774393
32 -0.43041918 5.499973 -8.624323 5.5335026 0.8283903 -1.5743659 -0.67473197 0.9408245 -1.5057964 1.1947439 3.3894477 0.5202111 8.409856 1.1339477 -5.3731656 -0.39758447 0.24810012 1.7171046 7.2645636 1.035087 6.4519567 -6.7946043 3.9618924 7.314794 0.61881465 -12.925746 2.8024592 -0.8655762 5.840598 -2.0393405 6.034491 0.15731129 -3.5991857 -2.98412 0.7040242 3.8111014 8.299391 -1.9996936 -7.3277617 5.558382 -4.0468574 4.1030717 -3.06785 5.593029 3.301769 5.6977367 -2.4193165 1.2530707 -1.9201297 1.047773 5.0255823 7.584895 7.085401 6.19508 -0.99596643 -7.0703487 1.0793655 4.3772798 -6.3361926 -4.445223 -5.270305 4.2151947 0.605352 -2.1088693
104 3.486326 2.823956 -4.6517053 5.980154 2.856558 -4.0810804 -4.0594854 1.3804668 8.043124 5.105246 -3.4009874 -5.4957843 -3.0010593 -7.0429287 0.9437162 0.18403785 0.6882081 6.855156 -3.3408833 3.3672514 -1.538821 3.160142 8.233962 0.9763898 5.9233394 -6.3949256 -1.8140398 5.7980485 1.0176752 3.5688028 -3.9722877 -3.0390131 -0.51835036 1.8542982 -11.809052 0.26592988 1.8860455 -1.5053653 -1.240131 -4.974087 -4.580807 3.507179 5.6739316 -4.1416106 1.7944899 0.56154937 7.616647 2.917641 -3.906442 4.038963 1.6500319 -2.6044939 -2.3510718 11.052342 2.6402142 -3.3320434 1.6786084 -0.021398904 -2.2867765 -1.7137283 1.2243103 -3.4344144 8.178307 1.8587463
1508 7.583963 -3.071181 6.2150064 -3.0896535 -5.9584036 -8.053819 -2.3409915 2.8852015 2.3135364 -2.6962805 -4.2897124 -10.739092 7.11922 0.13373837 -0.1037582 -3.4638228 -12.399952 7.3021665 2.462085 -12.171756 -5.966234 -0.68029314 -2.2621381 9.666694 10.147762 -2.7292607 1.7465712 -11.043871 4.355837 -8.421864 -4.474232 -0.13828336 3.0997488 1.2124686 -1.4990911 -5.0249977 -1.4556824 -14.911279 3.8676693 0.67535126 -8.209583 0.5333187 5.017424 4.5476294 3.2114632 -1.758613 -4.7623267 3.5187683 -1.0485979 -14.08223 2.5930722 7.2255006 -1.1542035 -4.1097984 0.6554956 8.894459 -1.1494719 -1.7129778 -1.6472415 3.465873 0.3368638 -8.678204 8.085164 1.2089223
3832 5.6048293 0.83792174 -1.4992104 -8.395722 14.441667 3.218998 -3.4275107 10.934033 6.1745715 7.99213 2.2397528 6.6828666 -0.4416219 5.9059634 2.0426288 -7.7607684 -8.020337 -4.2386913 3.2801082 -6.9339128 -1.1681027 2.915277 -1.8687834 4.5895796 -1.288149 2.3361518 15.27373 -7.581624 -5.6036067 9.214374 -3.0298667 2.3249297 -2.9124455 -4.157125 -6.141058 -1.7710433 -2.7049747 0.35582924 -3.1961339 4.6014576 1.876026 5.1452284 2.9772134 7.014237 12.326259 0.23270375 2.352954 3.6876197 -6.6349196 18.825132 -6.235385 -5.7563314 2.8231807 4.9380913 -2.7628927 -5.079372 10.992947 4.645306 -1.6263931 5.50622 -3.5226688 -2.225037 0.5571396 1.0252825
70 9.711674 -3.6824753 3.2264316 6.163669 7.7416153 2.1225262 5.6660395 -0.67914575 -7.4340067 8.805232 7.9886827 1.9176393 -4.5019765 -6.6143637 6.325356 -3.2503517 10.224711 -1.8513087 -8.401338 0.471029 -1.819322 4.508341 -4.417603 -1.3243515 -0.79578286 -0.61462814 -0.6017252 1.234644 0.74439174 1.5266901 0.956368 0.70657194 -6.0514326 -1.3770627 -2.2931578 2.528982 6.316485 1.6788691 -3.9173374 5.825643 -0.24979062 2.4978008 1.5566968 7.404712 2.2750266 2.0505326 -2.0997682 4.157727 -4.494457 9.075624 5.8826246 -5.5211325 -0.6941412 3.0832274 -10.109762 7.6703773 -12.4690485 1.5501708 1.5716101 -2.0429597 -7.676898 -2.7831042 -0.03042012 -0.22850356
321 -8.282394 4.3283877 1.1071388 0.76135725 10.67875 9.89569 -3.650921 8.933614 -5.9300585 3.2699392 -2.5386052 -0.6149335 -7.42757 0.8250292 1.2220491 -0.96958023 -1.822023 -10.753929 -2.5079215 0.99071527 10.024143 -6.128222 -4.5599136 2.1652298 3.2045317 -0.04530704 3.0062275 -10.081822 2.4349868 5.457689 7.6348057 -3.9627538 0.05390505 4.8973246 -8.391347 -1.0065494 8.491799 -7.7257223 6.920885 4.4792094 7.0381413 -2.2064288 5.332235 1.8388371 10.530338 1.0827175 -0.1516878 -14.581615 -6.518295 3.005862 4.5535426 -2.3047493 -3.9987576 -5.366388 0.007164531 -9.364666 -1.3826226 0.34335074 -9.748774 -3.4411917 -6.185286 -4.988958 12.91022 -2.5125034
1113 0.07698772 1.9720143 4.361661 1.0998641 -0.78893167 0.5519621 4.9662538 -13.850877 3.4483037 6.2422814 2.648229 10.908461 -3.6499681 -13.520913 -6.860195 0.44214386 4.288484 4.0584655 2.813998 -1.5057786 1.2950832 -2.9223154 -5.6808667 4.6329093 -13.035376 -1.1981752 5.7279944 1.171607 -4.8574486 3.6537197 1.5452493 12.756893 8.319234 3.260875 -2.0802095 4.608571 3.5702837 1.512408 -5.239506 8.920361 7.688344 -6.2667313 -1.448013 -8.982375 13.454055 -5.1903176 3.405628 2.2858644 0.62509024 2.0603933 -2.2573795 1.1758829 -7.8937116 -6.315616 -4.069647 -4.351475 3.0481315 -3.0167286 -5.933608 -0.08380875 4.328308 -3.6239793 -1.4691455 -8.9275
1150 3.2823994 -3.4716177 8.33899 -3.966389 1.8709848 -0.3154964 7.5560913 8.42844 -10.7656145 1.7241867 -4.945434 5.8281693 -2.8124032 2.8171215 -3.4641266 1.8630742 -8.107143 3.3318126 7.446042 2.584075 8.961328 9.36708 -2.6018267 -6.727631 1.8932277 5.3727303 4.4802747 -6.1325154 0.8620532 14.141688 0.35869473 -0.9627548 -5.3986015 0.08910724 -11.147443 12.6885195 7.228928 7.4728394 2.7346017 2.535364 2.1210258 -9.601569 -3.4838803 0.9462757 2.0581257 3.9741733 -10.371459 5.839096 -1.6424336 7.4536915 8.624002 0.93725044 12.450825 -3.3218775 0.7644235 0.7693031 1.4234297 -1.7799704 1.1786044 -12.896612 5.423195 -5.1100245 -2.425353 0.7332102
23 6.3787384 -2.1121686 2.1093106 -1.3815323 3.8037498 4.373274 -0.8517957 3.601857 1.3589346 4.2098513 -2.5394175 -1.7799764 3.9722345 -3.9724817 3.1097596 -9.431867 -1.171822 -6.0467772 -1.5801833 0.7048586 -3.87949 -2.254692 6.219529 5.7485657 0.29622465 4.4656024 3.3316834 -10.8526745 7.375236 1.0569757 6.901885 -2.4963307 -5.972867 -3.4744978 -6.6199174 -1.4437796 1.2770898 3.2386127 -1.5666672 -6.215451 -3.096795 -1.115423 1.4417313 -1.8337003 -2.7081127 9.355633 -2.618982 1.0469469 2.091878 0.78301865 -11.220895 -1.0261599 3.9667165 2.584102 -3.4677637 6.8124046 2.0135262 4.04238 -2.3324976 -1.1104728 6.2558556 -1.0068213 -7.8223066 -5.8198237
2149 -1.1264232 -2.9975312 -2.978868 0.37432492 2.107806 2.6426923 -1.636486 -0.1339398 -1.5176369 -4.1884937 4.697873 -5.329245 -8.62574 4.079988 -1.9873214 -4.274958 7.5169816 -7.729929 11.075136 2.3054745 -1.6636839 13.703473 -5.5034223 -6.3142104 17.106478 -2.0610583 -2.474833 6.646593 7.8539095 1.0912007 3.2104044 6.3845744 7.0949244 0.20344643 -7.0634575 3.8605607 -0.2919154 1.7490906 -7.8318353 -5.4685907 -8.040077 -3.8846498 5.9866195 -7.0215445 6.5826564 3.6594224 4.3376985 1.4769065 -3.916489 -0.45847437 -4.8151793 4.861639 -1.8236166 -2.3486364 1.1826887 6.837312 1.3192189 -6.5554852 -2.0928822 -15.247365 -3.780844 0.32383758 11.070515 6.5399427
2150 0.34034297 6.196291 -7.156298 -3.783546 3.5005927 9.844573 -0.314774 -3.8947773 0.32717022 0.48034483 -3.2072535 -7.8612213 -10.618184 -2.6468377 -3.39321 -4.0599647 1.9205151 5.953525 5.0832343 -8.507633 -2.7827847 2.940126 -0.19778505 -2.828184 0.87112623 2.5116537 0.33762032 1.5816735 1.1417811 -1.1000198 8.947179 6.495455 -1.1712912 -4.783252 -1.2124932 -7.8140516 -0.3082898 -3.1310422 8.934167 2.1783357 -3.1976213 4.9377146 0.42428213 -5.1315203 0.7216072 3.5839894 -2.892684 1.9552778 -1.748994 -1.11174 -2.2169845 6.677052 -1.0694333 -5.775517 2.9379196 14.575907 -9.051015 2.3769853 1.9872355 -5.029864 2.083238 -2.7703946 1.6500312 4.6702533
1576 -5.0438285 5.082797 5.5380983 -0.39738023 -1.3029262 -7.2649927 6.4065814 -7.4345083 -8.487591 5.984055 -5.2662687 -14.794536 -2.8246124 -0.17037892 -9.545756 4.5736065 -0.32687992 -1.6693444 13.523769 1.4227117 2.4512649 2.0074656 2.1813679 -1.5660021 -5.9530573 -9.324001 5.9379053 -1.0090773 -3.8421612 3.3203442 -7.618162 -6.1617017 3.8273206 0.22241217 -2.14146 -9.210152 -13.460301 2.7647135 2.066577 -2.7273922 4.167707 -2.614289 -1.2189271 3.1630778 -8.301432 -11.385711 6.395092 -8.237886 11.922456 7.5769763 4.078133 9.321117 0.041844014 -7.282519 -0.71940404 0.1324891 -3.6348054 -4.6973963 0.5704491 -3.1470337 -5.481967 1.545386 -13.866143 -1.0529003
3822 4.944456 -16.00809 6.7078257 -6.9343176 10.556127 -9.163708 3.0915534 -4.620566 3.2904663 -4.9975533 0.46271762 -3.3630693 -2.43245 -0.76306266 -3.6334074 -6.7109113 -1.3905644 -1.2500601 4.066029 -2.955333 0.6610591 2.4673862 0.37559262 -9.695389 4.73724 11.793364 1.9926783 3.857673 1.1001616 -4.8891683 0.19568692 6.0571594 -5.8496795 0.21022652 -3.0120087 -1.4744501 -2.4002507 5.176044 -10.16369 -6.5192738 8.914766 -5.838638 8.8431 8.221495 1.0406815 -5.0979033 0.32282943 8.322599 0.004254714 -7.491498 -5.0641174 -0.3204391 -3.01351 5.7457743 -5.6572275 7.2091727 6.7444167 -3.602577 -0.7807234 -5.9060254 2.720372 -2.322243 -4.831868 -2.9116778
19 -1.7753083 -1.1549553 -3.4925034 1.2178329 -4.2641697 -4.337303 0.503438 -8.41973 -5.7622576 2.8544936 -5.383879 8.352979 -3.04049 3.479992 -1.490966 3.9842603 0.13115723 4.3028355 -4.9272394 -2.5939791 -1.4809749 0.25129732 -0.3014914 3.5931098 2.0442863 -0.30431023 0.55420977 -1.3097496 4.940747 5.057515 1.4563658 -1.5472096 -4.5067587 -0.53066874 -6.17678 4.198183 0.20488168 1.0962361 7.561951 3.555675 4.6301928 0.6534095 -2.6262171 6.638075 -7.979562 -2.5288208 -3.4119432 4.9358463 -4.6092105 2.024066 3.7772634 3.053615 10.28528 2.5232139 3.0786808 0.8642873 -1.0544322 1.3398083 8.085653 -2.958885 8.399088 -1.3072137 5.5318885 -3.3671613
1283 9.326369 0.035662178 -2.5107515 3.6162794 3.3831604 3.9371765 4.8657365 -13.077989 -3.7616727 5.0644727 1.0329638 3.8197734 -4.3245487 -2.044717 2.8388844 -0.120266065 -0.8894984 -6.532002 -8.186464 -8.769314 -6.8432536 4.236287 7.4614186 4.3200793 -0.06549466 -12.771044 6.0500574 -10.178659 -1.7309821 -3.3933496 1.7237544 -4.1128473 10.863885 1.5048779 -5.501758 -1.3336536 -2.763564 2.1568534 -8.680325 11.599993 -0.40299737 7.3213687 -9.46748 0.06259247 6.3691897 4.2994876 -8.172612 1.2575266 0.51288617 -2.9731498 -3.3078942 -9.371515 -11.8312025 -6.1912456 12.880936 -3.5015926 -9.977109 -4.9047823 4.1184716 2.2559068 3.4737184 7.6901684 5.830031 1.9776921
3811 -1.3009394 -1.3248882 -0.55225104 -0.8681723 9.207413 -6.0757546 -3.3364573 -4.219411 3.1180317 3.0148084 -2.2531743 1.9708462 -4.369072 3.4049892 0.02210428 8.36067 5.4012165 -2.8124783 5.7877216 1.1316738 2.1241636 2.3567145 -2.688812 -2.8778098 6.805948 4.6711664 2.039597 0.7135573 -1.5709393 -3.520077 0.76535887 2.4563873 -8.279192 -3.3229327 -8.283084 -1.2722116 4.335546 -3.38275 -1.1891966 9.888161 2.221381 8.511353 10.452108 8.090859 -1.552117 3.52181 4.9444213 4.1750565 -3.745881 3.217153 -1.1299922 -0.5825538 0.36172968 -2.1424708 -4.201756 3.05879 7.42328 -7.7903028 -5.667356 4.7877107 -0.5210245 0.13282596 -11.73846 -8.360141
123 5.410744 0.87095845 -1.061421 -1.4084214 0.9976569 5.9370766 1.3753994 0.9691956 6.540944 3.3986483 5.2887125 4.689519 3.504029 0.15699461 -3.3523724 -4.3888416 -1.2044735 -6.912558 1.7855169 2.3908389 -9.068664 -8.08958 -7.1090493 1.5740645 -2.3317795 -4.3199224 4.8701744 -4.830157 0.62985486 4.518986 -2.9725473 -0.9275436 -2.717835 5.7957416 -10.597692 -1.3953007 -0.6237886 -3.114945 2.3145669 6.7586813 1.1579982 -3.8813233 2.451504 7.0295367 -7.2423663 1.0060189 0.7304907 1.0656679 3.5138402 4.300924 1.6188668 -0.014677629 -1.5700281 8.542254 1.7210691 -0.87219644 2.053528 3.47241 -3.5282378 2.4348564 1.4107602 -6.0202875 2.0985231 -0.991622
9 -0.059051074 -3.1192267 0.7031995 12.253533 5.796719 -4.6129417 -1.3149863 -5.666663 0.32484064 0.7509879 0.90986013 -5.959641 2.8817105 2.5825603 -0.8970303 2.568073 2.9416876 -1.5831568 -9.607997 -4.487221 -7.3593836 1.1153289 -6.267052 9.73075 -1.6314594 3.3937354 -5.2201324 -0.2938681 -3.203851 1.0149609 7.391877 -1.3698124 -7.96867 -5.36042 6.3780417 4.622115 2.427427 0.30604783 6.1930714 0.78394675 -1.4778918 -0.60097814 9.492137 -9.852451 1.112296 2.7575407 -1.8282558 -1.2076964 -6.300385 2.0399392 -0.5159401 -3.3728263 7.355495 12.749416 0.8070398 -10.100023 5.8836074 10.203058 -11.849321 -1.2578763 7.8990455 -1.9886323 -3.0084252 2.6924567
106 1.0719293 -0.5692313 -1.2880051 -5.6921625 0.15300193 6.9290204 0.7414108 4.6886063 -1.2271574 -1.72157 1.9754742 -10.144463 0.48839113 -1.7250619 -1.7688394 4.914596 0.3646388 1.0962025 2.3714314 9.961868 -1.6142695 3.4011934 -1.9371676 -2.6695023 0.008120157 -2.7159667 -4.7745857 -0.9996379 0.5857267 9.961939 4.739577 4.7288165 9.263256 4.947762 6.160815 -4.791303 1.5916531 0.31895548 1.8245646 2.7894616 -3.7090113 -6.4168983 8.645446 -1.6342692 1.6553587 2.4300828 -0.5422429 -0.8884741 -7.0743065 -0.73227084 -1.146444 -5.8411145 1.7229182 2.5133953 -10.615733 -4.7024164 1.6832733 -5.1673408 -3.8342488 4.407916 -3.0780914 -3.045805 -1.796667 1.4379971
87 0.65239346 -6.6200323 3.8418005 5.555227 -3.8513467 0.1766612 -2.2801898 -4.055267 -6.127254 2.2644067 2.545878 -0.09791354 3.09667 3.52777 -1.4356415 0.31509385 2.7396684 -11.345469 -4.2363777 -1.3531337 -2.0463288 -2.9772053 -3.7340758 2.0911448 -1.8532548 0.27768284 3.727447 0.306533 0.99947053 0.61778176 6.0398498 7.03885 -4.0151954 -2.7475019 4.9845047 0.69459677 0.7354853 -1.3418423 0.9806125 5.3027616 4.1227713 -2.8978739 2.7669742 -0.3159714 -7.6702976 6.8863835 4.821479 -2.2079644 -5.6553936 0.15567227 -0.4803759 -5.5657883 9.663008 6.967754 -3.7323635 -5.159115 1.2544554 -0.35935864 -3.2619746 1.6314883 12.949779 4.904517 2.7069285 4.569672
3810 -1.794745 1.4148582 0.6055935 -9.6275015 22.47585 5.4222746 -1.5676867 14.988838 4.1913056 5.816198 6.619975 -1.7713782 6.5254946 1.2990359 9.870008 5.351751 1.7712755 -8.123385 -5.8833957 -7.8725634 -3.5509648 -13.01547 5.24276 0.14553927 -6.018517 -1.008928 16.558966 -0.40865418 2.8220463 -1.7249091 0.96930677 5.7302337 -5.308795 0.18834779 -8.62569 1.952977 7.3248625 -7.1756477 -4.665496 3.3879495 0.71509105 -1.5012002 -4.2115264 2.120493 2.7931538 1.723084 5.2936673 1.9531492 -0.84765357 -2.6966076 -3.647586 -2.1346319 2.2883291 -3.0132444 -2.595139 -5.180199 -5.0585904 2.0912364 -2.689247 -5.136307 -1.3343035 4.3702474 -0.1051327 9.46537
1487 -2.4995244 -6.9205174 -5.569093 -0.09474333 0.5394101 0.9783501 12.377636 2.7687144 9.141073 2.7282183 -3.1623154 -4.043583 -0.5191493 3.985125 7.5595703 -1.4486386 -9.995154 5.421207 -11.626869 0.99440145 7.9984927 -0.015255339 1.6817322 -2.7496157 4.848558 1.3547724 11.112863 3.5967531 -0.61219007 -0.4120966 -8.6376295 4.6528225 -3.951704 2.3821797 10.82208 -5.863744 4.77325 -3.3024695 1.7500278 -4.272049 5.635928 -6.3290825 -6.0735836 -1.2790997 -5.095825 -6.5660987 -3.473289 -0.9949985 4.2745824 -0.12742625 -6.042337 6.067823 -10.012468 7.7596254 -2.0877404 7.699835 -0.14644675 -3.1303177 -0.24088098 -0.9841698 4.039738 -6.4056745 -4.9889145 3.8752253
51 -2.641555 -1.3276498 5.6987605 4.964199 1.0389205 -7.028546 2.0455606 4.264617 -5.490296 -1.1473961 5.732759 -5.63305 0.8473195 -0.23343045 1.5658721 -4.4575987 -3.213878 10.240898 2.0441132 3.2025316 -7.682761 -2.246173 -2.9801455 7.1822324 -1.1761615 9.128906 4.5469894 1.4627153 5.385679 -3.8876064 -4.4937544 -3.6392379 1.8243138 -5.7179976 -6.545766 -0.9248933 1.7825658 -3.9677176 0.73010594 -5.8733335 0.9508865 -5.410833 -1.0213686 4.3833013 3.91483 -11.877109 -2.4278011 4.160796 -6.614509 4.964492 1.6021073 0.15156682 -0.5247717 -0.66327715 -1.1234324 -0.9870998 -1.1825894 7.972394 -3.6497571 1.0861309 -8.625256 2.0383124 -1.1423379 -1.9695245
135 -2.6987152 0.43827665 -0.24961665 -0.94067204 5.625257 6.3092785 7.2451625 -7.0369678 2.5985384 -9.040193 0.47120765 2.1225793 -6.466639 0.84839946 -0.23133276 1.824397 1.5119145 -3.514454 4.953929 -6.427473 6.956854 7.361148 -2.4752965 -5.4554253 6.988944 3.4184098 5.074989 9.505408 -1.9780552 9.905259 5.6376605 14.849456 -2.3673785 -4.6916413 -0.43113017 -1.6824446 -5.257058 1.4676324 0.7400643 0.75554943 -9.135461 -5.6841726 7.0621953 -0.48611748 3.2718344 2.6515286 0.2867834 7.184025 -1.2270875 1.0809745 -4.667514 13.836501 0.20093268 1.5168198 1.0315121 12.296393 7.407828 -5.3357573 -1.8862205 -12.00798 -2.7662907 1.7329289 0.23945668 3.479704
170 -7.235379 11.006054 -2.9010718 6.050619 -4.511773 10.8313265 -11.400116 2.235684 -9.184681 -6.2229524 0.20170574 -0.094724804 -2.7111 -4.713347 1.8854163 6.2689705 -0.33425087 -6.7911234 -14.506446 1.657426 -6.363516 -7.0846667 4.229895 4.125343 -4.1534514 -6.616817 -2.9488933 -0.11187373 2.4676332 6.053815 -5.1746874 3.4535372 4.437534 -0.8925258 -2.886922 -7.4561315 -4.031422 3.5112514 9.2036915 -3.9814045 -8.482085 5.765024 -11.962519 -1.2805239 8.284297 1.9330302 1.0307336 -0.40634686 0.29564598 7.655762 -7.721509 5.8928995 -0.8591788 -3.767808 1.1666158 2.866701 -3.2802331 -6.5840645 -7.380759 -6.5013247 6.9474883 -10.61483 -4.845441 7.6396356
45 -2.9273577 4.5435033 3.5920913 2.1220176 3.015332 -11.484556 -2.014256 -3.2458482 -5.987792 1.7556268 0.4363909 -1.501352 3.7326398 -3.9095926 1.7458842 -3.7863915 -1.6051933 -4.2668233 1.913675 -3.7021253 0.39159054 1.0386373 4.40091 3.9038627 -5.566494 -0.6619027 3.8753257 -2.845766 -3.326499 -0.5207596 -7.2821517 -0.7636841 3.8386054 -1.396568 3.7133644 -6.831418 -8.781709 10.608152 3.196651 3.983727 -2.389813 -3.026234 -5.748951 -2.1625946 -1.4499171 1.0982286 -2.064167 2.5901577 7.549802 3.5542252 3.6783361 2.3626726 5.4340386 1.2206223 -3.9266272 5.8966155 -5.815366 7.707731 -5.6306767 -7.744781 -0.8423771 2.0977638 4.095752 0.25278735
301 4.430837 0.009021167 -0.86245215 1.4817657 7.406738 12.943715 2.662954 -7.78832 7.530195 10.805465 -3.4239023 -1.2174178 -5.300527 -1.3916252 12.800323 4.7478375 6.475733 -5.8109145 -7.162543 -7.6187906 -3.330217 0.025130594 3.343457 3.4307084 -9.572944 -5.7492747 12.313115 -9.562153 -3.8684354 4.6499705 0.64684385 -4.956967 -1.2518073 -7.4156494 3.7561572 13.57365 4.3968573 3.6927226 3.11472 8.022224 -0.7294865 -0.16174716 3.5838447 7.1251497 4.628815 -0.36601388 2.9306512 3.5349684 -3.0516026 0.9032677 -0.49395078 -3.1897242 -5.193144 -4.187417 3.3514063 -2.2775393 -6.108615 -10.275042 -0.110801786 9.2924385 -3.338545 6.1961465 1.2858855 14.809496
1955 -4.124796 5.564672 -0.20536523 0.39002186 1.934127 8.70153 2.458524 -4.764431 -5.16756 7.2601447 0.035393063 -6.7175655 -5.2893176 5.1257653 5.424103 -7.308001 2.8498075 -0.523022 -7.6995873 11.617408 2.7342622 6.021052 1.0472786 -2.6822891 -1.4047462 -4.3067274 2.313007 -1.5892016 -0.18556781 -1.5669972 7.4751697 -6.421811 -1.29936 -0.7806914 -1.328795 -10.833481 1.708508 -0.53705287 -3.9632394 5.101103 7.645942 -5.9116087 2.281826 12.271452 1.569983 -2.7030666 -5.5250716 -7.7295556 0.67899954 5.303365 7.6620398 1.2916427 -1.1144829 -4.8956404 -1.6310847 -4.8025055 -5.9441395 4.3143334 -8.536247 6.3953605 11.011956 2.9165888 6.8968863 -4.753241
283 -9.821871 0.37866417 -2.1895425 -0.3464545 4.4808826 -1.1956712 10.036291 -3.7212918 3.3804202 3.3711028 0.89762104 -4.312423 0.9499544 -3.911005 6.9924626 -1.7465123 9.540297 3.618568 6.775415 -3.3163342 5.907 -1.1808869 -0.10036658 -2.2481894 -3.250722 -4.4333506 3.680145 3.5922847 -7.778232 -4.5934205 -7.717967 1.4362426 4.9454737 2.0448701 14.432577 -0.45345128 -5.318071 -1.598946 5.479105 -7.297471 -1.5171031 -6.8846827 -2.5477648 -3.2527015 -4.440763 8.834931 11.538179 -6.413644 3.553385 -0.958265 3.592777 -1.4941834 4.0667877 -7.4886527 15.365635 -3.0825362 -8.373279 7.426166 5.1920094 8.045621 -2.1126723 -4.270239 -4.5367794 -0.88551
3914 4.199189 2.2948575 4.493954 10.179583 -0.32288513 4.903478 -2.9015296 2.8886783 0.52960396 -9.540514 0.8316308 -1.0710975 3.100321 3.9037943 4.8572235 -8.655983 0.28214526 -2.7051477 2.4855227 -5.1482234 -7.371903 -0.29209122 2.75199 0.43480888 4.865156 -2.702438 7.512509 0.0947693 1.8112196 5.776705 2.318092 1.209584 -5.830796 5.18506 -6.0222845 8.197584 -5.491423 8.487031 -1.8756137 -3.2441561 1.4895576 -4.607233 4.0400896 -0.95264393 -3.324325 0.84338003 3.5181181 -8.922057 1.6137125 7.3362355 6.703149 0.42586294 -4.7659154 0.3902591 2.5429065 0.9499469 -1.6329705 -2.710459 -1.5893861 -4.139839 0.9780155 2.4829514 1.6058306 3.9221468
708 0.4416557 -1.7103696 0.9860032 8.278729 0.79477483 0.99339294 4.203378 -4.3333483 -3.4126518 -0.2910967 3.8607113 -8.019812 0.8140507 -1.4536124 -9.762893 6.3726983 3.3756523 3.2860432 -8.061551 -0.925689 -9.362161 7.4495635 0.87118065 -4.75925 10.384439 0.6703578 -0.69606984 14.453412 -7.6903667 -3.223804 2.5292923 -2.6583257 2.608287 8.188784 -3.8114989 3.3613434 0.018077958 -4.524997 7.7144055 -4.331525 -2.3261228 -4.603485 5.1416955 -1.9528462 -0.525189 0.9887131 3.0995145 -1.1060734 -4.0773077 -3.4564502 4.582636 -5.8408628 -5.64179 3.7400382 1.9268188 -3.7811491 -2.2108543 -2.0822132 -0.14043795 6.636613 -1.2406828 6.2019105 -0.2836426 -2.3363047
306 3.540782 1.7993057 -1.8971014 -0.025352756 6.4291706 12.76076 2.1285942 -8.053216 5.141658 11.438983 -1.0901215 0.62745535 -3.7399726 -1.1969951 13.002646 2.739869 4.8973804 -10.105817 -8.871802 -7.2437654 -5.7247887 -0.7154957 3.880779 4.650905 -9.470387 -4.536991 13.527456 -9.618305 -1.9072143 5.7138224 -0.5828057 -5.4144406 -2.0057015 -4.8309827 5.5034285 13.636927 6.735161 4.412937 -0.024074426 7.2769213 2.235289 -2.2886558 2.5651817 7.8412366 2.2930508 -0.7405786 2.1445315 7.195472 -3.0522897 1.0680052 -3.3522384 -3.9032543 -2.0804574 -5.393628 1.6562701 -3.0014656 -3.50384 -8.539231 2.2762501 7.3598447 -4.579473 4.943156 2.967092 15.89378
26 1.4751579 -0.056075327 -0.12267485 6.7863407 2.9295132 -0.22341575 0.15392765 3.9851773 2.462403 5.0183897 -7.230951 0.30183882 -2.754398 2.9061687 3.4631186 3.1424985 7.1645174 -1.774339 -1.8247887 -10.571706 6.432236 0.49424762 -4.408188 1.1803646 3.036807 -7.008829 4.904444 -4.33191 5.1460547 2.3069873 2.6710145 -0.215187 -6.8658214 3.781087 -2.945411 -7.5063634 -5.4969215 -2.4748 -2.5525153 -2.947063 0.4692256 -2.4527147 -3.1248026 -4.413011 6.2539725 1.2006329 -6.207472 -3.254403 -3.7207618 4.834051 -3.5623415 4.368508 -6.14271 -0.3141201 -3.4579113 -2.5594678 10.055567 0.73522127 -2.997472 1.2179382 -8.481101 -3.3653555 4.245569 -10.338382
4772 -2.0203068 -3.012316 1.0386705 -2.2345963 2.2108865 6.1163826 0.37483728 -0.6669116 -2.099905 4.655692 3.1175442 5.5777564 -5.5754724 -1.4823604 5.7359395 -2.2902775 -6.9130945 4.402149 -5.0892963 -2.933251 -2.0950902 7.7411785 -2.0418334 -0.27156946 7.5736275 0.98588085 5.5382233 4.114402 4.322544 3.1580272 1.5338982 1.4384342 -2.6193924 4.2436595 8.456099 4.4578514 -0.45906198 -3.39533 -6.305104 -8.556178 1.3605677 -6.7864814 3.4971848 -0.7551995 -1.6028751 6.251299 -3.4474192 2.4294555 -3.1442418 0.28939036 -4.9020367 -4.0968385 0.85534835 -6.9566503 -4.7799497 -6.3904066 10.099626 4.960526 4.863766 2.239412 -3.982711 -4.0389404 1.6195086 -2.776794
1561 4.839681 -2.251362 -3.8780982 -1.0460418 -8.792666 -8.021006 1.6289228 11.073099 -5.7182183 -1.5242666 -1.112085 -1.8902929 -2.162057 -0.838944 8.277336 6.698791 1.0395656 2.1839802 11.312335 -9.841873 -5.0975723 8.190615 -8.132981 13.253823 -0.5943861 8.425662 -5.343095 -3.230996 -3.3799796 -4.5078735 -2.142027 -2.3711567 8.404485 1.823573 10.281465 -0.6477364 -1.5631161 -7.566741 -3.9714856 5.6899743 -16.528322 -6.755834 -4.5257506 -1.3721005 -7.3648057 -9.9651575 -1.1109809 2.6772945 1.8537241 3.8956537 -3.1806405 7.7199607 0.65050024 -8.364365 2.6871645 6.254196 -1.4140798 3.0860975 4.684606 -1.3761659 13.0743065 3.262245 0.34554034 -0.59845436
171 6.5360413 -2.1243367 4.3310685 -0.38840297 1.2965091 14.998087 -6.959117 9.120036 -0.20121309 3.4469495 3.6877563 1.5030696 -1.5702263 -0.062503666 7.6294265 -5.454803 -0.5943322 -3.3392584 0.966622 -2.762456 3.4072835 7.6801033 9.383948 11.056755 7.1132627 0.7900959 -2.5689232 -0.17342408 -0.53743505 1.8794396 5.270324 8.850042 -8.528908 0.97916543 1.2835122 -3.950179 -18.11446 -10.6201315 -3.6032 1.2227218 8.667037 9.319747 0.4026334 10.396299 9.115434 -6.3574157 -3.3745055 8.3701105 5.847702 2.7839012 -0.5290178 2.4837239 8.984341 2.6764648 -1.2857686 -1.1786777 -0.98829216 -3.0670326 6.308128 -11.189473 1.3826835 4.774448 -4.597748 -3.2670946
1031 -7.4841785 -8.794219 -13.475247 3.9002833 -11.4188595 -3.604369 7.405654 -2.5273952 -2.78316 7.5338626 7.649402 -13.106639 1.1633269 1.5977486 4.346427 1.8892908 -8.90633 8.415504 -1.9356139 2.0209465 -1.8905394 1.8470962 -1.9474171 -0.61796224 8.753601 -7.808341 7.199245 -8.063613 3.4679368 7.2649384 2.4921107 -1.0986117 -4.4948325 -7.789232 7.1395035 -9.051781 4.834591 -2.940386 1.2157288 2.6931791 2.7094786 4.3153467 4.7138453 -8.148701 2.9785962 -8.004541 1.6790793 -4.601578 11.148138 7.8610272 -0.44434258 3.0861433 2.5024214 -6.8678203 -0.8372974 8.331994 7.064387 10.284538 3.1499424 4.1721106 -8.110125 -3.3412063 -7.7895894 3.8380263
181 -1.993715 -0.47761315 6.406338 -4.918624 -0.04199629 8.747116 2.8991828 -3.9308481 -9.565982 2.8027394 6.6205316 4.9159956 -0.01293434 -3.878226 -2.8643174 8.015607 -4.3914633 8.836326 2.9356914 -2.0307794 0.8567867 -1.6696929 7.7993555 5.026287 3.081161 9.151663 2.3514223 13.111564 -6.8883324 14.241032 7.395352 6.011561 0.6358819 7.183364 -0.79047954 -2.5672352 -8.907145 5.1215367 1.0923082 1.1279354 6.953455 -8.923567 -8.012048 9.791683 1.116918 6.979463 0.43124303 3.520201 1.6431532 -2.8326375 0.5326539 -1.7239118 -5.042286 -0.49641058 4.095241 0.51308113 -0.4260173 3.0153966 -14.636916 -3.4258735 2.9750464 -10.955159 2.472389 -0.12812607
597 -3.1495764 -5.206701 0.41060415 -2.0430553 -8.320307 -0.8123019 -7.9046445 -3.0901544 13.3950405 -8.010996 -9.908501 -9.934996 7.722867 4.675442 -7.818296 3.402957 9.823209 4.70107 1.7081023 5.4050374 4.321296 -7.750124 -5.460997 -5.0766935 1.2165306 0.00026913176 1.9939908 -7.2251744 -1.5960091 -4.2731557 -4.4877777 -5.3561754 -0.9727023 0.98034453 -0.8567486 7.0376954 -2.1531813 3.8370838 3.4443758 -1.5561413 -8.008221 -1.2380784 -3.74295 1.553102 -1.1517441 -3.9567611 -3.5403807 1.5150944 -4.5098205 1.4195565 2.9724884 -11.417333 1.0497736 -6.9319816 3.2064943 -5.6768537 2.8534453 -3.3308673 1.5071408 -5.8980627 8.709016 -8.402664 -0.901467 -6.0822515
6 4.7204785 -0.42450115 7.333479 -2.8518918 0.11553793 4.623864 1.6869572 1.4513032 0.2785569 -7.4346538 -0.84649485 -3.2014563 5.0651135 3.0712595 -6.8257775 5.4996567 1.0264593 -1.5038604 -5.1256995 2.228185 4.945548 5.0950603 -7.418713 6.9213233 6.812486 4.6407123 10.271954 -0.43120086 -4.1138735 -5.373186 -2.3269494 -6.489661 -2.141206 0.66952455 -0.8330314 2.7432835 1.1203738 3.1651952 3.135896 4.277957 -2.5186346 -10.969886 -4.682524 1.1946808 5.941976 -4.408348 -1.0657519 -0.417256 6.8372536 -2.1676471 -0.78695387 -5.5461144 2.6238108 -0.0366129 -3.3569348 1.9786631 -3.4393454 3.889414 8.732685 -0.74113 1.0246468 -5.9962096 2.7465954 -6.099737
2689 -4.788981 12.120371 -6.019698 -0.5184601 -0.41196156 -5.0212245 -2.70093 2.0412176 -3.6748219 2.802523 -1.4722435 -2.5681505 2.8710735 -2.679177 -13.397055 -1.5834954 1.3469462 2.207316 10.949453 -7.067028 -0.0027758179 0.7283991 -3.0181775 -3.5368993 3.2790973 8.004974 4.002864 -0.4028699 10.531914 -8.026415 -4.457459 -8.369341 3.5715122 -7.560504 -1.209906 -1.5603853 -5.044172 9.369489 4.2576375 -2.5160143 -3.108309 0.107598394 3.9622784 9.754577 -2.6888406 0.08259649 11.43825 0.26449114 -0.77665275 -8.52145 6.9073014 1.965881 4.6531854 1.5021191 -6.5819016 -4.1727295 -1.8042696 -0.04155815 -1.4207748 -1.1194912 1.1373522 -7.003925 -8.006548 8.1643095
46 -6.103217 -2.0637422 -4.2998114 0.7001744 3.7860382 -0.06046323 0.5334833 -0.96974254 -1.457955 3.9428027 2.612399 -3.171611 0.86710817 2.353348 0.06113991 2.351743 -9.237024 -10.311719 -1.6505327 4.188739 7.9035215 -6.111208 2.6175075 4.8956075 0.58218277 -1.3556137 -4.6631045 -10.909996 -3.242891 0.9099691 5.9594073 -3.2557204 2.7784762 -2.5238066 -3.500426 -4.4344683 -3.0468683 -5.658543 -5.253047 -3.0557292 -1.732777 -1.9784677 6.1391172 2.957319 1.8141385 -2.4513352 6.2754736 -1.1817678 0.77804464 3.8877285 0.7420341 4.3386817 -6.9350243 -4.0775037 0.9700375 4.1712527 -2.305016 0.95588297 2.565257 0.60081834 -1.7425342 -5.6003056 4.5747104 -2.4586759
682 -9.944686 -2.548707 0.4128195 1.8718792 3.0777717 6.4011765 -3.3951998 7.0323753 -10.08481 -5.496228 0.17770983 -7.4670057 -12.431942 2.1327298 0.22602572 -9.974648 9.053893 -11.479486 -5.4594235 5.145359 5.0166574 13.095701 -5.927306 1.2766668 1.6090878 -0.3457405 1.3218945 0.16251174 1.0136602 2.192255 -0.4684187 0.45682412 -0.65481853 2.717483 -18.68405 3.7898479 4.054221 -4.450648 0.5346575 3.832784 0.6189051 -0.021083515 -1.8874289 -4.045299 9.388684 6.690467 -2.5094202 2.149087 -2.0342307 -7.2410407 3.9267702 -4.3554316 2.522784 5.0690627 0.6426864 -4.244995 0.97850513 2.1415894 -14.543925 -10.077273 3.120505 7.6588607 -1.5476604 3.5985565
3852 4.2277946 -7.797078 -1.0097582 3.2593217 -1.2023919 -6.9078946 -0.24661972 -4.6354265 -8.584985 -1.6659455 0.32651177 3.3612778 0.67182523 -6.229832 5.0696554 2.8913357 -1.4844028 -0.22717625 3.6333373 -0.8953911 0.15040326 -8.29153 3.6508021 -5.6170397 -1.6583534 4.1238127 -1.8874358 -0.34068036 4.542977 1.7020677 0.30477244 6.5251265 5.793226 -0.41741818 3.2944639 -1.7653656 6.50169 -1.462565 -1.7970511 -0.058565594 0.66303253 0.34243882 -0.8123042 6.732 -0.17283411 -0.86313206 5.014572 -4.394245 -0.17666122 -4.152989 -6.512945 -2.2673025 -1.3358221 -5.4950976 -2.1632893 -1.1922128 2.1029453 -3.5354018 -1.1436924 -1.4842553 -5.074029 -1.6128006 0.73059535 -3.902242
98 3.9508672 -7.721939 -1.1668375 3.3442533 -1.3102362 -7.116648 0.10224609 -4.360723 -9.079904 -2.1060271 0.9594546 3.349902 1.1470078 -6.3227158 4.4193993 3.0886667 -1.6616809 0.12737893 4.126973 -0.4922157 -0.10013343 -7.847001 4.343193 -5.7801385 -0.99868244 4.010126 -1.4811587 -0.20041943 4.458207 2.4232676 0.504952 6.585751 6.4781957 -0.3132009 2.9132044 -1.4048659 6.891681 -1.2906902 -2.2383175 -0.3184264 0.9810039 0.0712008 -0.7451646 6.117204 0.13955697 -1.112624 5.1640444 -4.866447 -0.24894278 -4.556147 -5.870053 -1.742989 -1.1560335 -5.3850155 -2.1282809 -1.4164424 2.3809452 -2.7843578 -0.41584936 -1.3940388 -5.442003 -2.1461616 0.8782679 -3.8912046
4016 2.9740403 -5.6398215 -2.3016887 -5.273998 -0.53193045 -6.770012 -0.17804381 11.929386 -4.635671 -6.400626 3.323475 -1.15719 -10.568496 4.33821 -2.405861 1.597472 1.9039434 1.7861818 1.861877 2.898318 1.0183 11.626169 -1.5917078 4.662513 1.2734894 -8.553495 -1.050414 7.690622 0.95451444 11.453157 -9.857445 -6.224996 4.3010974 -3.3515792 0.3713682 6.689735 4.8648057 5.1098533 -5.567262 -4.6095514 6.1033044 -1.0088344 -0.10450209 6.3143463 -4.794549 7.4408517 0.36071217 -12.555274 7.759235 -5.589529 -5.338424 -2.7950923 -7.2966824 3.616729 9.213844 6.7288895 -0.37707144 1.801799 9.224863 -3.6588504 2.5518982 7.1043253 -2.1339169 -0.9841857
1616 -6.01114 3.93361 -0.63333243 1.7286662 7.0635324 4.3837276 -3.5803018 3.3162346 -6.842844 -9.07228 3.6168404 -7.413614 -2.1157384 4.4707007 -3.6286159 -8.01978 -3.674874 -0.045106575 -2.309828 6.776421 1.3633666 9.456643 -1.7210505 -6.9192314 -0.9510001 3.4521756 -20.241331 -8.597919 1.7105037 0.0647262 -5.200107 3.311836 18.496702 3.6123426 -6.745268 1.5376359 -0.094834745 0.8636531 -5.489857 6.2793655 -0.21897332 -0.67686856 0.5932845 -4.0696063 5.5236387 1.1966023 -6.0393505 -9.6487665 1.3290067 -9.593328 6.370246 1.5105971 1.7228007 -4.0083456 6.6664486 0.7981446 5.600273 -0.94734997 -10.015149 0.10786234 3.558962 1.1890124 9.535529 -3.0766213
939 -0.14101441 5.9464617 -3.514279 8.467407 -4.9856977 -11.904912 3.047195 -0.3507414 -3.353125 0.40346083 9.873593 -4.79117 -3.971891 7.22857 0.4835254 9.536837 3.186732 2.3015432 2.8346815 5.093772 5.106727 8.215383 -0.15207328 10.368915 -1.7853665 3.403877 -0.39027205 4.6706667 2.2869358 -12.935155 4.173861 -7.537367 2.2411864 -6.0098433 4.0367827 -4.2125077 -7.3124895 -9.341895 -3.7992435 5.1022115 -8.848627 -7.031962 -9.238535 -7.997418 -8.061079 6.4999237 0.6233204 4.1597 10.438277 6.9604154 -4.1861167 4.1628757 -4.7994876 -2.616387 -5.008585 1.724446 5.5845375 -1.63766 15.356569 -6.969055 6.7865267 1.4889047 -8.790074 1.3226316
4256 -7.2184305 -1.9169149 4.8900914 -10.95001 1.4409455 -2.893055 -6.3185487 1.5800649 0.12572709 2.4989126 1.8699796 6.7099605 -3.862004 -7.5863657 -4.5370855 2.5242376 -0.11684742 0.48568493 5.8135266 7.9075913 -10.889852 6.626379 -4.146872 -2.7785678 -3.8241746 1.6146768 3.8956256 3.7773616 7.46456 2.0101993 4.652792 6.0130925 6.707273 3.5922985 -0.8639208 14.239749 9.802314 0.73147 -1.6504728 9.852533 7.614221 -7.2722216 -1.3539566 -11.869427 1.4676365 0.44190398 -9.137763 -6.2458887 5.586717 1.7270858 -5.740511 -2.0360596 -6.9546504 -2.3113778 -1.3226327 -2.0492897 6.958029 6.1761923 -2.5180132 -0.104715936 -12.131364 -0.030463366 -3.3972802 -5.835552
1254 4.2813606 2.8922994 7.075915 -0.27219063 2.7886665 -5.278438 -1.4739987 0.4434544 3.4518466 0.35155043 -0.45432505 -2.0053263 -1.2132385 -9.374728 8.366957 -4.301244 3.5875561 5.326253 -3.9721363 -3.2167923 2.642636 3.785983 -5.421557 2.2536385 -4.0190406 -0.18314105 -1.50399 1.9014126 -0.43063158 -9.959137 11.876263 -8.21026 -3.333902 3.3320258 13.351492 7.682731 8.142697 -2.930308 1.0224938 8.2926855 3.0032408 -3.138447 0.22099826 2.4687734 8.862537 -9.264349 4.5698147 9.535663 -1.8153402 -7.093633 2.4862535 2.9140666 -5.826566 1.4382576 6.4530563 -5.68103 0.48918834 -3.834541 0.36518943 9.964563 2.7397125 -8.092701 0.31739172 7.991479
2057 6.7047224 3.7625577 -0.72261876 1.3405316 10.571277 8.905232 2.251042 5.186499 -0.6950642 -3.547656 3.2584274 -3.8400376 -3.0195634 -1.8883907 3.352259 14.325766 3.888182 -0.8426809 4.951224 1.6158437 -2.6054547 -14.256043 5.6611066 -2.1388762 -5.0153346 -0.17723247 0.753993 0.49185592 11.264514 0.52102244 -1.6986488 -2.4800184 9.927569 -5.4888935 -5.340069 -6.6042037 -6.0515404 3.3960226 7.3988113 2.705547 -7.5096726 7.2825828 -5.8528867 0.22308189 8.507964 1.2103878 3.2145133 6.3443623 3.6643052 -4.5447907 0.66406757 3.7261388 9.227107 -0.08432015 9.252754 1.8243937 -3.7613995 -2.8270597 -7.3440833 7.214103 6.2597933 0.12677163 -0.1216554 6.6789703
2337 -2.8072097 -5.568928 -0.043305688 2.1916344 2.9211268 2.151002 9.62931 6.049972 -1.1974422 -3.0648644 -2.566951 11.975558 0.82279015 1.4142237 8.240969 -2.316989 -15.743658 -6.331074 -0.7853141 7.526468 9.981844 4.6276746 -0.18566391 -3.730644 -2.1855419 -0.7541313 1.3362751 -4.246719 -4.1084 -6.854567 -8.176642 10.18809 -8.245351 1.2036023 -3.7223566 -1.553022 5.032822 -3.826602 8.096109 -0.15086307 2.0079615 1.519286 6.0776625 -1.9717811 -7.1140213 1.5243636 -0.3135966 2.5040863 -5.4223404 -0.9871599 -0.6965699 7.8429255 7.0739274 -2.2490299 -3.7776392 3.3696737 -11.867672 -5.50922 -2.8344212 -3.5201392 5.110384 0.37526262 1.6613332 0.13407059
2415 -3.8494546 -0.67230284 -1.4407313 -2.0403426 11.248233 -8.667065 -3.7900803 5.338891 -3.1272078 1.6903077 -3.9329197 1.0249804 0.89138365 0.10549423 6.0889425 -8.373862 -10.3509445 -0.5434846 6.22171 1.288882 -4.6214623 11.0748205 2.3644977 1.8393086 -5.959147 5.5164323 -3.8390808 7.4640484 6.8689284 9.87143 -1.9785143 8.061111 -4.734256 11.107405 -10.481736 -3.8553793 7.7993016 -4.7417455 -3.3006957 -1.5441906 -1.4186368 -6.869134 -6.420679 8.426503 -2.5212438 -0.16141456 -8.151441 4.4893937 -1.4519293 7.269605 -6.623421 5.9133143 0.21902847 3.761731 -2.1731687 2.2232504 -4.6638665 -0.60295826 -0.3956468 -0.6351844 -5.1837296 0.06233232 -1.8483202 4.979921
435 -0.82509154 3.6229591 1.781907 4.7629952 2.9641693 5.3053765 -6.53803 10.292538 -12.73457 0.29616392 -0.016808346 -0.671659 0.94989425 0.4177412 1.3927356 13.506567 -3.228711 4.789025 -9.732784 1.280956 2.3121052 3.3523078 3.1229055 4.762496 -2.697896 -2.1504478 12.422722 8.886468 3.47696 2.3602014 -10.712721 -1.0963671 3.6815138 3.6011178 -0.9549572 4.34307 -0.23866758 1.0120273 7.404431 -3.6856906 -1.310356 -3.6169705 -6.594543 0.38485795 5.603817 -8.137612 6.5884256 -6.557203 7.7414675 -3.0423057 3.475151 -3.2393694 -2.1714966 2.7190607 3.6408765 -6.9673033 0.9437742 -4.839705 6.596383 3.3655577 -1.6776673 0.7563573 1.936542 -6.2496314
1427 -3.2897642 -5.423283 0.024764234 -3.997656 1.8581629 -2.3264234 -1.1610146 8.456952 -5.085033 -10.369344 -3.3697805 -2.502885 -8.295533 3.9738064 -7.380144 0.50401706 -7.541517 -2.912896 -15.348586 9.980291 -1.0204273 4.207645 5.5062747 -5.6669946 1.4755428 -6.826353 -9.460826 -5.475169 3.834196 0.64562285 -5.998104 4.9536653 8.620817 -0.51579636 -4.154111 -1.6805775 5.5076118 -1.9314419 -2.7844803 1.7343732 4.0374174 -14.703213 3.1617873 -7.824915 -2.957248 15.999022 -7.7071157 -4.5592017 -1.5008088 -8.837974 -7.2530823 -3.0446255 -10.581116 1.2220695 3.3462179 0.47963402 1.2432204 -2.2244644 -5.257551 0.06368592 -1.5875822 6.585259 5.936944 2.8979838
285 -2.5907743 -1.2065182 -10.466943 -6.5480046 -3.707197 -4.251049 -1.7927225 -0.87115794 -5.7820907 -3.6641784 -1.6193721 -5.949658 8.731775 -3.3723404 -1.3860968 4.3680964 5.0048823 -2.6999 10.044932 1.0532959 5.9748306 7.548815 1.9069061 21.962463 5.095758 1.914379 -3.9920077 -5.6390176 3.7844098 -5.782022 -5.518135 -1.787421 2.934341 5.8978367 1.556892 8.123598 -0.7474852 -6.6617537 -0.47192082 -6.8344517 -10.061734 -4.6833115 1.3178718 -5.0974774 -5.6151757 10.60745 -2.3781843 -1.5760198 4.4186783 4.897583 0.5741128 5.0569944 2.5953557 -6.8072376 4.417967 -0.20355265 -0.065678865 2.925374 0.8845149 8.356835 5.407007 1.1442878 -6.299978 -4.4222717
122 0.06106196 -2.5055475 -0.2730306 4.1991687 3.2211041 -1.8784611 -3.5884786 5.4843216 -0.29649478 -1.8480222 -2.2720077 2.4302888 0.653477 -2.7947476 4.946173 -1.3407263 3.090345 -3.7884202 0.31176186 9.146533 3.1467152 -1.6928082 0.736644 2.4569912 2.909565 -0.98571754 -0.51749927 -4.2628274 -4.41612 -1.5507827 -6.749822 0.42775354 0.9400686 -5.698787 2.4477768 -1.2765235 0.18788044 -4.2282376 -11.576704 -1.4474006 -2.28899 -1.3827199 -1.5308242 -8.00536 -0.3963525 -5.1541133 -1.76555 0.9659032 6.9972386 -7.9267716 4.5545917 -8.826815 -1.9351833 -2.224433 0.9128656 2.5679743 1.7896801 -2.8226595 -0.56984514 1.3821331 -13.82866 -2.8848765 0.4207045 5.268055
2350 5.2338853 0.67345834 4.3467307 -0.23042049 3.6069546 8.9202385 1.9834013 6.325626 -7.1153493 -11.616243 2.0737274 2.7196195 -0.46439674 -2.0963683 -1.2185302 6.8581877 -13.84856 0.40216357 0.2041096 10.094156 -6.9095564 -5.9388123 0.86451024 -1.0246873 2.237438 3.059892 -13.414915 -2.055655 -7.431199 4.3688126 -11.526086 -5.8205986 1.620055 5.155116 -1.9791383 6.2293572 -0.8704703 -4.1117206 7.6250315 -2.9471781 0.98188496 2.401946 -7.189227 -0.85693556 6.769199 12.530255 7.444192 14.840151 -4.1946497 1.3769578 3.9850378 5.709747 5.5790315 -4.094337 0.6654193 8.693237 -4.9035964 3.6689599 -3.1743994 -4.638136 -0.5203625 -7.8821034 -1.3294958 14.538131
254 -0.7056596 -0.6558185 1.715123 8.697707 -9.476996 3.0754163 5.9082923 -9.818777 3.4535341 -0.62127024 8.495813 3.6218922 9.79187 0.7835367 5.077594 -8.411512 7.236333 1.6981514 3.6070614 1.5022584 6.429292 -5.7764893 14.238156 -7.352641 2.0883822 1.5091951 -9.312384 -1.3150519 2.6817274 -4.7150707 -3.8985364 2.4919422 9.492106 -6.144947 -1.110442 -3.2220104 7.6799545 -5.043113 4.0249805 -8.523888 4.8242307 -2.4257672 5.6260715 -3.6245162 -0.017452506 -4.1978173 1.0492997 -8.686492 -8.960701 -3.526741 -3.965646 -9.811661 -3.8355622 -7.730856 3.5594568 2.4551802 2.2410774 2.009887 5.073292 7.6042285 3.009621 -10.40514 1.9411734 -8.256914
2941 2.639485 0.56411344 3.566923 6.4411626 1.6348392 -3.6138456 9.025168 -2.426723 2.5010302 2.7329395 4.307563 6.37667 3.7876122 4.8449893 1.6278151 -2.3660948 2.2815218 0.48309833 2.6612124 -2.7900271 -3.6543283 -0.56510526 -6.719967 -1.3239024 -0.7219593 -3.7856934 -2.7514174 -5.744183 9.343485 -3.094139 4.902541 -9.419229 5.4590273 3.2603273 -4.512247 -3.3867257 0.46190694 -21.653645 3.3844178 -0.07184717 -1.9748423 -0.9698967 -1.4942561 0.37060592 -8.739263 4.9767857 -4.704449 -0.16904983 1.1314776 4.659192 1.3802375 -2.5134516 -4.4973326 15.528474 -17.06707 -6.082507 -2.5248086 6.053935 2.7185004 2.796059 -6.0033183 -5.228871 -1.264465 -5.8651423
2743 -1.5806953 -8.243698 -3.953922 2.5095768 -3.6284993 6.07661 -5.857087 6.276817 -6.963318 2.0875537 -1.8279984 1.2014208 -4.257242 -0.78634125 0.8696231 -4.2007546 -5.620136 3.9892218 -3.9140356 -5.3683157 0.09450871 0.2640033 9.5515785 0.0578099 4.5535703 -4.5331593 -6.26309 5.419896 6.3813467 -6.91025 -2.7364585 11.577638 -5.755538 -0.5043154 6.0733175 -8.240537 -9.686324 2.0075755 -13.889527 -2.3882613 2.0326324 1.3204032 -6.8773446 0.75225276 0.8944107 2.191008 -0.5678496 5.4754653 -9.881098 -3.8716037 -5.1597486 2.8107808 0.52059925 0.085061304 -5.3914146 3.0602417 -3.8213859 3.837769 7.51236 -7.381191 -0.47811574 -1.5414425 -0.22671102 1.8824568
112 6.621582 9.668081 -5.6516724 -0.5802487 -5.4122953 5.079244 4.8454676 2.8664575 -1.9638708 1.2121723 0.6593126 5.5146346 -5.2936015 -0.13157351 8.628255 2.1395042 -0.19270588 -6.1764355 -4.7486 -4.3493414 -3.4703264 -1.5165801 0.43649554 -2.6127944 -2.5018597 -6.7486563 6.3803515 -6.38224 -8.183241 0.30584604 4.4542418 -0.3226393 1.8776983 -4.412584 0.6932506 0.13222574 -3.3909419 1.2392087 6.2396984 8.100461 4.699905 -0.28759277 2.0336325 -2.0063467 -4.1153083 -0.08118184 0.90157485 -5.984266 -0.8902568 -2.3802814 5.975084 -9.588547 -2.559132 3.74778 0.84010494 2.1529448 5.4233494 -5.0639005 1.0067369 -6.4269447 -0.024910016 -2.4882116 1.0827243 2.5555205
945 -13.426569 3.3492954 1.2055352 4.935758 -1.8355621 -5.9870133 -0.036038548 -5.457022 17.934376 -1.4536079 1.6405975 11.186293 -1.0075283 -9.536414 -14.293397 2.636707 0.4354625 -1.0068959 -0.97849685 5.80855 -6.1181927 -0.73254347 -1.7240266 -3.2298791 4.041861 -2.8699539 2.0863812 7.6087556 -2.0209088 -5.8966265 -1.1009797 0.06319748 0.14748742 -1.105424 8.581723 2.2655003 0.5475941 4.0833726 1.8734277 -1.093295 -4.6754603 -5.920862 4.104881 3.724295 -2.8617945 1.9722246 3.2053726 -8.508823 -9.894787 -3.0837066 5.8496785 1.1018016 4.1558533 -2.8993297 -2.7067459 -7.743264 -4.4707766 -5.833103 7.788791 -1.2941039 1.2396986 -2.2603137 -4.372019 7.2266026
44 -2.216973 -5.4581127 -0.81008387 -6.2389593 1.1549402 -7.118482 3.697048 -0.39768255 -0.752711 2.037979 -3.5322886 6.3638906 3.2264628 -0.87512594 8.4436655 0.8510758 -7.878454 -0.06553966 5.96496 4.5902057 1.7325948 -0.64740413 -3.8159919 2.018112 -4.9663315 -3.0310533 -3.420271 -4.063681 2.978625 3.319296 -6.560461 2.3610811 -2.3833816 -6.9946113 -8.35174 2.4136047 4.517639 2.5538158 1.2635897 6.989726 5.621531 5.636999 0.6105841 -0.119213775 -7.1630983 1.3725674 -1.7092109 10.245323 -0.31366745 -2.7454965 -1.2660985 5.351472 6.579648 6.98866 1.9689307 2.890087 -12.305615 -4.427611 2.6573691 -8.603977 -0.8043903 -0.9401268 0.79517204 -2.2879505
2349 5.902462 0.4493196 4.394104 0.50058484 2.936982 7.54833 2.4916215 6.7257833 -8.208748 -11.685377 3.4569159 2.9826343 -0.0749778 -2.3167512 -1.1193899 6.0488462 -13.681896 -1.0516832 0.47082368 9.173948 -7.8716087 -6.573656 0.93819577 -2.5249612 1.2659572 4.1718116 -13.843225 -1.585324 -7.1258135 2.6095061 -11.482051 -4.811623 1.5555704 4.7223606 -1.5258282 6.4868984 -0.25075635 -3.447975 7.802076 -2.726907 1.0814302 1.5535475 -6.5491204 -0.02171955 6.9235277 11.928546 7.992739 15.202202 -4.4211555 1.2620018 1.5760239 5.1488013 6.1914067 -4.3611774 1.6163359 8.76424 -4.5280957 3.4173734 -2.5581887 -5.701053 -0.40742484 -8.553897 -1.5198495 13.7876835
2876 -1.503503 -2.7020714 0.48412845 -0.40508622 -6.2479925 -1.187743 3.6194322 4.6808624 -6.489769 -10.528439 -0.77601355 0.52668446 -0.61975473 1.5110719 -0.2317471 -4.1687593 -5.0598073 4.201251 -7.7309084 0.866826 8.010407 0.72808707 5.5705156 -7.6751995 -3.1222265 0.65455085 -0.50761163 -6.8119125 -7.5976586 -1.824869 -0.97074276 7.5476475 -0.5580079 4.9429336 0.97796476 4.4747257 -2.231821 1.5244966 1.138039 2.5430057 3.9374917 0.39925626 -2.301663 4.1004133 -4.348387 15.861089 6.9976363 8.2191105 -2.837284 1.1727346 -0.8122051 2.8977404 1.8044662 -3.6180506 -3.7531085 3.5077379 -1.8731892 6.1040716 5.1348667 1.3175036 -5.8337507 -0.50744265 0.53432083 4.5711956
80 0.46838823 -6.1962557 4.679501 3.0270426 0.7692183 0.58718723 -2.4876542 2.533714 -0.24759549 -0.36808982 -6.1296844 0.66670173 -6.692942 6.8506007 5.043169 2.683827 4.198415 -7.193883 2.7859743 -1.856057 -1.3958167 -4.077154 -3.7011325 0.7538435 -1.6894561 -7.224505 3.99073 2.9446597 4.585344 -2.3196485 -0.16730174 -7.057702 -1.6043336 -7.823938 -3.575354 3.2069619 1.9127543 1.0770826 2.2666411 2.0363019 -0.7531632 2.4217618 8.150193 0.08147887 3.13106 4.7932425 0.8294803 3.9770133 0.882475 -0.24385692 9.496613 2.6907604 4.8109097 -0.25431424 1.1071262 0.10938198 1.4336736 2.1926668 -1.2838486 6.548041 -4.2548885 3.7064445 0.25049534 -4.2431912
1194 0.9204626 6.394913 12.475783 0.2291352 8.009618 -4.462334 2.7738626 6.0072618 3.2138877 -2.296434 3.5642838 -5.8618474 -9.016481 -5.7785044 3.8038151 8.705567 7.120762 -0.2851326 1.9598632 -6.0868382 2.685576 -3.9818833 -0.72451353 4.8607206 -11.203395 -5.182954 5.359585 9.744915 -3.252606 -2.4453921 7.4495935 7.3421054 0.8814591 3.7260747 6.04284 -1.0258118 -2.0120761 -1.2333488 1.9309739 3.172791 4.501674 -3.8413818 -0.7795444 -3.8051054 6.022356 -11.313137 2.356291 6.07403 -10.363411 -3.636863 -1.2366394 0.07698838 -2.8923182 -2.086115 7.646798 0.31404385 -7.850106 -6.538929 -5.693972 -1.9147184 5.578628 -8.959321 1.7466881 -1.4806223
157 3.6679866 -2.136297 7.101796 -1.2472057 7.2925186 -2.7790618 -3.562374 -3.6970477 -2.2904408 -3.4026368 5.138903 1.5410198 1.1703659 -1.6777891 -0.7472938 4.36425 1.5726689 -6.198014 4.1871448 -5.2463136 -0.16543731 3.739741 -4.4674244 -8.590087 12.760637 -7.906379 0.85902524 5.7865987 -10.969813 5.0244284 6.576176 4.4949965 -1.9159853 8.142056 -1.3212478 2.125606 -4.6194654 16.095907 -0.44746128 1.5935292 5.450549 -3.1465335 4.685714 0.6552002 -0.61578137 -1.0623627 7.1994777 4.7985005 6.662173 3.1870117 1.6109 10.1631975 0.20749977 -6.227201 -2.2011065 6.0264416 10.131722 -7.5121017 -1.8174272 -15.750973 1.644329 -7.1556625 4.4218493 -3.2255402
